encog,BasicNetwork,java,3.4.0,1,1590001980202
[BASIC]
[BASIC:PARAMS]
[BASIC:NETWORK]
beginTraining=0
connectionLimit=0
contextTargetOffset=0,0,0
contextTargetSize=0,0,0
endTraining=2
hasContext=f
inputCount=300
layerCounts=235,128,301
layerFeedCounts=235,127,300
layerContextCount=0,0,0
layerIndex=0,235,363
output=0,0,0,0,0,0,0,0,0.0000000571,0,0,0,0.0099421379,0.0022752961,0,0.001022136,0,0.0076777353,0,0,0.0151562059,0.0136050215,0,0,0,0,0,0,0.0619236514,0,0.0202228055,0,0,0,0,0.0000000066,0,0,0.0071902478,0.0001246907,0.0345062609,0.0014377333,0,0.000010357,0.0000000774,0,0.0000000003,0,0,0,0,0,0.0209359229,0,0,0,0.0236345271,0,0.0000000076,0,0,0,0,0,0,0.0000030735,0,0,0,0.0000004497,0.0000000352,0,0,0,0.0000010018,0,0,0,0,0,0.0000000033,0,0,0,0.0000000088,0,0,0,0,0.0000000337,0.0042168493,0.0000154103,0,0.0240777342,0.0000000881,0.0000010039,0.0331894072,0.0000006469,0.0104391127,0.0159782801,0.0362138749,0,0.002008221,0,0,0,0,0,0,0.0615755996,0,0,0,0,0,0.0022033599,0.0000001421,0,0,0,0.0000000425,0,0.0174601818,0,0,0,0,0.0000000272,0,0,0,0,0,0,0,0,0,0.0000000454,0.0156959371,0.0200673613,0,0,0.0000000025,0,0,0,0,0,0,0,0,0,0,0.0247019297,0,0,0,0,0,0,0,0,0,0,0,0.0000004324,0,0,0,0.2262676781,0.0576411895,0,0,0,0,0.0000009997,0,0.0549930242,0.0000000072,0,0.0000000047,0.0000716632,0,0,0,0,0.0000000232,0,0,0,0,0,0,0,0,0.0287244379,0,0,0.0041860223,0,0,0,0,0.0000000066,0,0,0.0000002191,0,0.0362218577,0.0127107808,0,0.0701837189,0,0,0,0,0.000000102,0.0000000022,0,0,0,0,0,0.0000000243,0,0,0.0109972977,0,0,0,0,0.0101731156,0.0000004225,0.0003122281,0,0.3184119918,0.1281558432,0,0,0,0,0,0,0,0,0,0,0,0,0.6877995114,0,0,0,0,0,0,0,0,0,0,0,0,0,0,0,0,0,0,0,0,0,0,0,0,0,0,0,0,0,0,0,0,0,0,0,0,0,0,0,0,0,0,0.0924127025,0,0,0,0,0,0,0,0,0,0.0476223664,0,0,0.3094523261,0,0,0,0,0.3127862185,0,0,0,0.0848677123,0,0,0,0,0,0,0,0,0,0,0,0.00175298,0,0,0,0,0,0.0982226604,0,0,0.0503489799,0,0,0.4985734585,0,0.1414200533,0,0,0,0,0,0,0,0,0,0,0,0,0,0,0,0,0,0,0,0,0,1,0,0,0,0,0,0,0.01,0.078,0.068,0,0,0,0,0.01,0,0,0,0,0,0,0,0,0,0.049,0,0,0,0,0,0,0,0,0,0,0,0,0.049,0,0.097,0.097,0,0,0,0,0.039,0,0,0,0,0,0,0,0,0,0.194,0.029,0,0,0,0.01,0,0,0,0,0,0,0,0.01,0,0,0,0,0,0,0,0.039,0,0,0.019,0,0,0,0,0,0,0.165,0.01,0,0,0,0,0,0,0,0,0,0,0,0,0,0.01,0,0,0,0,0,0,0,0,0,0.068,0,0,0,0,0,0.01,0.99,0,0,0.01,0,0,0,0,0,0,0.068,0,0,0,0,0.068,0,0,0,0.087,0.01,0,0,0,0,0,0,0.01,0,0,0,0,0,0.01,0,0,0,0,0,0,0,0,0,0,0.379,0,0,0,0.01,0,0,0.029,0,0,0,0,0,0,0,0,0.01,1,0,0,0,0,0,0,0,0,0,0,0,0.32,0.058,0.029,0.068,0.078,0,0.019,0.029,0.155,0.117,0.049,0.039,0.049,0.204,0.184,0.01,0,0,0,0,0,0,0,0,0,0,0,0,0,0,0,0,0.068,0,0.019,0,0,0,0,0,0.087,0,0,0,0,0,0,0,0,0,0,0.01,0,0,0.029,0,0,0,0,0,0.029,0.068,0,0,0,0.039,0,0,0,0,0,0.049,0,0,0,0,0,0,0.01,0.019,0,0,0,0,0,0,0,0,0.175,0,0,0,0.039,0,0,0,0,0.155,0,0,0,0,0.039,0,0,0,0.01,0,0,0,1
outputCount=235
weightIndex=0,30080,68307
weights=##0
##double#68307
   0.1950750119,-0.6885818369,1.161384667,0.1580153764,-0.7815954787,0.0958983698,-0.2097762582,0.7754799867,-0.9865678338,0.0509288245,-75.5403907094,0.9087086835,0.4458051275,-5.2504490879,-0.2908210179,0.5598814547,0.4788368777,-1.0613868465,-13.7139313632,-0.6185258143,-3.0799020729,-65.0232975085,1.6369353765,-0.6640794736,0.389055997,-17.7604127353,-3.1997355964,0.0278785876,1.0623487283,-3.3216508627,-3.1438756288,-7.6918733978,0.2050968464,-1.1098122197,-0.113436148,-0.3489780296,1.342592034,0.513352152,-0.6901676959,-0.5104717325,0.0987743236,0.8634972877,-0.1088194232,-0.4213246026,-341.9281039081,-0.8202910408,0.925518048,2.401060314,1.1926606829,0.6025527222,0.2636511763,-1.3554666536,0.2300773807,0.3487591291,-2.0201253635,0.7328207589,1.5148998249,1.2164267325,-0.9296337738,0.6114099411,0.8596297562,-47.7188315896,-0.6998649676,0.2210092468,-0.7695266131,0.7716584986,-0.2131576923,-39.7126713725,-1.2334909303,-1.7406643895,0.6219844543,-2.9318208764,-0.3091780894,-0.813456231,-0.4712208348,-1.107458761,2.5853872435,1.4874425903,-212.1174954959,-358.4760655083,0.9355382669,1.2774823025,-33.1123800317,-0.0645171374,-21.1840227406,0.4462976409,1.4790741755,-8.9140555716,-0.608225758,-0.0308470516,-317.3899366396,1.0322078836,-2.5765330426,0.6409712554,0.402112069,-7.7826807578,-0.1914076667,-0.8659016071,0.0288086645,-410.9034747046,-0.0120393938,-0.1979626622,-0.0427275472,-21.4107976288,1.06256664,-6.9699522659,-15.0634182781,1.4903951172,-0.1065301981,-0.9350171716,0.5046906786,0.4033735104,-2.4241647152,-12.1902925693,0.1671576561,0.0492131148,0.700905026,-0.3131166023,-244.3663593293,-0.3023140455,-0.5859463104,-0.3931345175,0.1474464158,-1.8084262581,-10.8083111103,1.5410867058,-0.44989915,0.5267812208,0.7761632635,-0.3622681918,1.1414720921,-0.72035674,0.2508785313,-0.8019416051,0.0999370369,-8.6148383135,0.6550742954,0.5943233149,-0.8191377175,0.2850911589,0.8118050806,0.0483598586,0.8129685057,-1.7152614097,-3.8134369339,0.8184625687,-147.7171515022,-0.2742692807,-0.1064655464,-0.4681766786,0.1030483373,-10.5910869517,-2.3686842414,-0.3873661511,0.6978515456,-0.4539459918,-1.4482870379,-0.3222309286,0.8476842585,0.9114006294,1.3432298851,0.0152249298,0.4350460064,-2.0778180743,-410.4232135607,-0.3145406345,0.5166510949,-0.4136287585,0.6065764173,0.1154068068,-0.091431391,1.0085918126,-18.9908064354,-0.243116695,-0.3734057523,-0.1962545644,-0.3127398351,-0.4527308654,-0.4720202873,-246.4712189184,-0.2941201313,0.5247976198,-31.6875612991,-2.2943703437,-75.697091307,-0.7537771654,-0.4931875857,-0.1238675897,-3.1361704692,-130.7590736939,-2.9436156492,-1.0591810683,-0.0533255785,1.3241884847,0.8063157208,-146.1463588283,0.6607807981,-0.6686467961,0.1549044879,-0.5340613648,0.8095307255,0.7765316858,-0.5495940873,-0.89290967,0.7073710145,0.1315167848,-0.8462813206,-410.6565943861,0.5426908085,-0.6482106214,0.7623154351,0.3591586294,1.0990058409,0.9800535395,-0.2707158019,-228.3793149252,-0.0940064711,-0.0636780439,1.669142157,-230.702014321,0.6425176258,-0.7548158154,1.1323335578,-0.0893866628,1.2981493231,0.6767653149,-21.484358061,-0.2669355418,-2.7496722942,0.3330845467,0.493084672,0.0082619147,-0.1488298935,-361.0100086206,0.2524516006,-0.1627808689,-157.2963281708,-0.3699761151,-0.3106370348,-0.027089841,-0.0994449012,0.2790952881,0.704054954,1.5888104259,-0.0761301047,-1.3797293552,-347.9069275336,-0.3715852991,0.1963613006,0.0120346724,0.9089131778,0.3345658791,-52.5333362237,-0.6096417848,-0.721428683,0.8572930333,-0.6800421114,-1.1151230685,-0.6276427082,-0.9557582667,1.2322558953,0.9987172074,-0.8428941456,0.0716756402,0.2253207529,-1.0362307353,0.4687254855,0.0188842566,-0.9396044469,0.1249026153,1.2895436895,-0.3531231502,1.5390525693,-0.3394604495,-213.1677777541,0.5581547663,0.4046682981,-0.8292950702,1.4290687162,0.4864678144,0.8637475672,-20.0014737887,-410.3842805309,-9.5153629245,0.5992869369,-193.3143373725,-0.4039225648,-2.781969776,0.6483697506,2.0109783325,0.2351764321,0.7063105574,0.2825603841,1.2512480759,0.5780301888,0.1295243604,0.2405734303,0.5464066764,-72.394821488,-0.9953433237,0.1472277018,-0.0059235001,-1.2189508405,0.4484144214,-0.4571351667,-0.9289975143,0.5434482339,-230.1690173071,0.1334376141,0.6191029655,-1.8641159591,-105.9048739435,-0.1338155383,-3.7816654864,0.1227483627,0.7144697266,0.9445704217,-114.9475238429,0.7985696606,-0.5464564892,0.5313603042,0.6639759262,-0.4607208716,-1.6891877709,0.379760212,-0.8000696685,-1.9673845398,0.734871173,-0.4064255706,0.2958587686,-0.9930629354,-0.6546151665,-0.0432471506,-11.6306543473,-246.4805355563,-409.3332030585,0.6411176783,-0.406256059,-0.0998037497,-0.0554560395,-1.1576116706,-0.2234295937,0.8450838637,-53.4681983888,-0.7888922131,0.9736996942,-20.9232134947,-0.4590329237,-1.0675781213,-3.1757106661,-0.7749456405,-0.7178802058,1.0494530426,-1.1840475023,0.0299728559,-0.90937528,0.5083261276,0.065985789,1.2276879919,0.0241263755,-0.8480363553,-2.3360034263,-0.6274482863,-0.3505592119,-0.5849252319,-0.3499736839,0.0032384486,0.1681480362,0.9515902959,-59.0845877747,-0.0628207931,-1.2194982849,0.0122880996,1.6596282266,-350.289768384,0.3221754879,-0.4354862252,0.8720826139,-217.26069563,0.6478325802,-18.3109456608,2.884898244,-1.1757759655,-0.7331668419,0.5135499676,-0.5848012733,0.4167153365,0.8362581393,0.6610805161,-1.3498533021,0.8765421457,-1.0646247073,0.397753956,0.5574224456,1.1491380843,-0.4720167906,-0.5623145458,-119.1367331174,0.553515676,0.834675521,-0.1471448451,0.1929360098,-408.9996376092,1.9137040882,1.5020198698,-0.7190373515,0.7915111985,-0.4830348895,-0.8219315335,-0.8425775721,-0.3068534805,-2.9732618473,-0.4053312287,-0.2944043048,0.2031699973,-8.4629179336,-0.3035656522,0.8458644888,-0.5276774844,0.8370663876,-0.2769405304,0.1091169645,0.481338331,0.2588089236,-0.4923455424,-1.0206348026,-2.9247852503,-0.5881246867,-0.9874441675,-0.9254672361,-1.6295547362,0.6006138345,-3.7797450868,0.6074476371,0.7191292018,-0.9337552467,-0.3660248982,0.113824919,-0.4168508625,-0.2720478665,-1.1583472312,0.5304861537,0.1185560093,0.8332443252,-2.5875220149,-3.0350668955,-74.588068081,-0.2830358988,-0.0132448091,-0.3204009572,0.1093264005,-198.6880443642,0.4866577545,-0.8149785023,-0.5960822513,0.8967317095,-0.430383553,-0.8953793902,-0.0015496351,0.6025484766,0.5610842998,0.3799833729,-0.9489027869,-360.9027493327,0.8836713108,0.3025668953,0.9033132307,-0.5476696305,-2.1210290518,-0.5575172202,0.794526384,-315.9442763889,-0.2988053217,-0.4778915644,0.7509732033,0.4635995613,-1.0028620274,-0.5364450481,-0.3809224094,0.6256255826,0.2509578126,-0.0265000518,0.6825671969,0.1707974138,-152.6266008758,0.9655324856,-0.029448435,0.2873760737,0.7421769193,-0.5007926376,-5.6902001779,-1.5796364341,-246.3719611175,0.1988594935,0.942584383,-0.7701042371,-0.7338159997,0.0720591869,-0.6685896651,0.3935451163,-0.078153876,-0.8975994671,-0.7820438516,-0.6833136423,1.0463588742,0.8379713209,-0.930913165,0.4668104658,-5.4982434732,-0.2744825057,0.499820296,0.4216026975,0.8118053323,1.7986980314,0.1792141746,0.007950982,-37.1672284554,1.6852162798,-0.6008914537,-13.0949738034,-2.6232348173,-17.1063374135,0.250099218,-76.5753567617,-0.0927328945,-1.6196134518,-0.4650098598,-153.4883348889,-249.8864541853,-28.1353501497,-55.6680711431,-110.9328695614,-49.9252150145,-1.6836073019,-0.2794615191,-0.0649736705,-38.3191704587,-0.497815418,-233.4742763508,-59.3207554575,0.1210588112,0.5105667937,-290.4399609046,-2.2795698132,-256.0356635987,-2.9665730801,0.016680576,-0.9858498575,-138.3330572027,-407.761074804,-0.3322813797,0.8484409021,-0.0956610695,-0.227645222,-56.2303506961,-6.5113078251,-214.3676646765,0.3584822416,0.2269464286,0.3418958222,-0.7087798023,-0.8026699141,0.3631306954,-33.8181886517,0.3365965258,-0.0993354502,0.0011697586,-4.3961250728,-0.1477038808,-147.1688529076,-2.7833152882,-0.5949776396,0.5036183054,-10.8714269613,-26.2193130238,-0.6250145224,-9.125397342,-2.7409666567,0.0046447796,-7.2790368831,0.2012827057,-7.3348758314,0.4569004019,0.2300017602,0.4521451436,-0.0922889652,0.5953432207,-2.0737347064,-2.9395666807,0.7304200088,-0.6228450254,0.8959615718,-1.1382125281,1.0209174085,-172.1804102274,0.6301712897,6.6203600438,-9.5809167535,-5.1021545812,-16.4800418695,-0.125582802,-0.7876717116,0.5507760186,-0.3205567482,-0.7564264721,-0.3610288377,-0.3970197196,0.6310913161,0.3478135899,-0.412150102,-66.3448606923,-0.5274577902,0.9498192401,0.3030913846,-1.4549521194,-313.693152447,-0.9803237452,-0.5810335639,0.5363168473,-409.756656071,-3.1129319425,-2.2301924146,-66.8533447833,0.1337369374,-49.0431784119,-16.2316211474,0.390329671,-24.5019285596,0.9161856965,-12.4361502933,-0.1782453385,-17.4976849468,-0.161894833,-162.4278222807,-35.5164099813,-0.5438558683,-1.3201176658,0.406270013,0.5157157028,0.9256532534,-241.9976302724,0.4577157028,1.3171567049,-117.1938877153,1.4472212423,0.1448591521,-0.7501521558,-2.8489771685,-49.0765056451,-41.9846290967,0.7790371655,0.2180793712,0.2552985114,0.5054665754,0.2617465539,-38.1611412531,-16.1766024264,-11.6115687102,-8.7314233344,0.287171725,-36.1852268765,-11.5823600678,-14.54744364,0.9148997897,-82.4075194791,0.8932247829,-0.1832882706,-0.0707345059,0.4471849467,-154.2776866869,-193.6627807166,-8.316679124,0.0664775893,0.6992720597,-0.1609475981,-40.5215580558,0.6519046701,-0.9970069983,0.4699369902,0.4280776794,-15.5229328997,-43.8078757669,-19.1954377307,0.8934506902,0.3234852333,-38.4981341519,0.4195074966,-0.1134123944,-24.9435474487,-0.0325584561,-0.2408661923,-0.4694664948,-0.7049593429,-0.6321737459,0.7770467345,-1.3196673349,0.6138792254,-282.5059662133,0.268757505,0.8090388257,-27.0760152475,-1.4849981203,-133.1501459097,-0.7884291509,-0.5812420673,-38.2662132378,-0.088738127,-1.9123823339,-0.561321244,-26.8093960528,0.7321974947,0.9824585364,-0.7431498385,-1.9369306981,0.3146831005,1.3489476015,-32.9540283243,-64.6243117382,-76.3727304714,-0.7773058265,-3.336129196,1.1273913554,-0.6644753599,0.1709996214,-67.1762282402,-1.9559033884,0.3033212723,-7.1747764143,0.3834411775,0.7361032168,-20.3810089172,0.4510085771,-12.4670232923,-0.7559887137,-0.770444446,1.0075764465,1.3458163849,-230.6911631682,-0.2442061518,-242.0345557994,-212.3519622782,-5.8531576483,-0.3153371242,0.3000971106,1.1808144352,-90.2133337808,0.3414202958,-1.4344771926,-21.6892094165,-0.236474554,-0.8416731344,0.1419304381,-0.673735442,-1.8096691904,-0.3787538536,-25.7979770956,-0.5030136332,0.3063511023,0.7163782048,0.1033973605,1.2360345077,-105.6326571628,0.2873378963,-265.1336813811,-0.284597458,-0.1527665216,0.9709216192,1.1553873419,0.1551501204,-257.0053037827,0.7457854629,-0.6324070468,0.8413602148,0.9354526415,-0.2460224631,-0.3070341319,0.0008272637,0.709784766,-8.7560461426,-0.8722038404,-4.7207459494,-0.2727528415,1.0743448517,-0.0834234071,0.7426823804,1.0044663148,-1.419915984,0.5352632527,0.7272704411,-3.1243382249,0.3676309633,-0.1208238679,-0.3693218845,0.3847521734,0.6686184822,-0.4621576025,-0.4702411978,-0.080793393,0.1058700052,-0.7801418628,0.769062985,-0.1726759409,-1.4236776967,0.4811464158,-0.8527033754,-0.3012799071,1.1408246469,-0.9750679698,-0.9664504545,-9.618844843,-23.0775980808,0.7023603337,-0.2993631998,-0.3436587452,-0.2824689117,-0.2427254598,-10.0178565995,-50.5069114357,0.5045509257,-313.0177951575,0.0637413315,0.7158405407,0.4211556604,-241.4346814257,-12.550137012,-0.8974208357,0.7709095109,0.3916854602,0.3349159466,-55.2870872466,-1.2079061698,1.3063559664,-0.9259128383,-0.4883014374,-0.7322524996,-202.1596568369,0.4667541008,-0.0106924291,-0.2442042388,0.7891386571,-0.1662938407,-12.1868205661,0.0974993187,0.2896665873,-0.3701885317,1.5508774679,-76.3359651054,-285.2113559069,0.9994947831,-9.3626189001,-0.963342683,0.3369497307,-0.3525189015,-0.1848534539,0.3255451705,-240.0605170989,0.5764862746,0.076754955,-1.7253151928,-210.084729465,-0.4127654121,-0.6333541817,0.3427305157,-0.3615370998,-0.2158234502,-0.2978804942,-1.0699057843,0.1215627854,-1.48827664,0.0993988002,-0.3585008592,-0.3329280819,-0.7186242682,-12.4656695343,-0.4140634491,0.9136918911,-49.7423762603,1.3875401418,-18.2068219206,-1.4326810461,-0.1298885708,-91.8238950716,0.071735862,1.2184359133,-0.4117606553,0.3609611865,-7.2392429332,0.789803417,-0.147248208,-0.0142561862,0.3522408572,0.6460852507,-21.3105719786,-0.256683516,-3.3053041213,-0.0249180414,-26.8704582277,0.8333679339,-46.0753877183,-0.184191173,-0.6505020251,0.2974092383,-2.2578460274,0.8323834173,-198.4883090919,-31.21934634,0.4251814053,-0.5157056853,0.2150777699,-0.9067261106,1.0307991508,-0.9758068414,-116.9574656644,-2.9074502536,-0.6122110108,0.1510134829,-47.0068583149,-10.557962078,-22.4972711728,1.9580101043,-81.9161191871,1.4065336048,0.7505728915,-17.3998420341,-0.2185739138,-5.7503625153,-0.0533960812,-3.8248302593,-108.4978553962,-23.4312539973,-0.49987637,-3.8435279342,-23.5528606354,-0.2290780305,-31.8072784144,-89.7494873828,-0.1367738372,1.4008534483,0.2336535934,0.8663404042,-0.0459699363,0.6537567272,-0.2715113581,0.5455114727,-1.8902112948,1.3508440377,-0.0523700366,-21.601588087,3.6302017789,-0.2026889044,-0.0473458284,-2.0266729349,1.1164020617,0.0432788415,0.5702722219,0.8078843215,-0.7221716825,57.3002380228,2.54531689,-70.519056103,-2.2883994891,0.7260397389,0.6167719123,-1.6189648651,0.9435852926,-62.2443645114,1.1650114466,-0.3037258356,-1.8546110963,-1.2618269466,0.3681065191,-0.3268621501,-6.7423919801,0.2457127464,-152.616422966,-65.091550843,-1.0357599056,-153.2218204051,0.1815801928,1.211974873,-144.3480419482,-4.7603865509,-67.9430058529,-10.1866083336,-53.4913662788,0.1559726745,-88.7898524973,-0.6022315634,-25.433338926,-6.166749766,-0.6659694183,16.7927330509,-0.0539144082,-0.479991772,-0.258419688,-300.6684373202,-108.5148957821,1.1891236156,0.0192504438,-212.8782212404,-1.0140478598,-72.8456112055,-17.1753995605,-28.0018389702,-58.9656057398,-69.8999657738,-5.9197790528,-20.0061276168,-0.8149136576,-13.8984454992,-0.207646405,-0.612090751,0.7713949549,-47.287254568,-44.0873759913,-23.7231881035,0.492069661,1.6617941804,0.8366165119,0.3553544818,-28.2304614392,-257.7175756948,-0.3605407978,1.0273718041,-0.3971119322,0.915148744,-0.3964620171,0.5757548371,0.8347394817,0.4031492203,-0.3352309926,1.2190909926,0.3642215922,0.5643050612,-1.1643491501,0.6411642517,0.1448986834,-1.8099565669,-0.116281725,-0.1075350935,0.456113028,0.73811246,-307.8100531443,0.8571368702,0.4576968874,-0.6771133501,0.8015261392,0.9647536171,-0.2828985174,0.1042254545,-0.1967106968,-0.7095370859,-0.0803846693,0.2867766303,0.3746870876,-50.6696832612,-0.427586209,0.4322991409,0.8765508606,1.9928477767,-0.1498673797,1.1012926225,0.1601520252,-0.4730090442,2.2143361325,0.0097374837,0.5805277152,-8.16720447,-0.7152649021,0.2866442418,0.638443289,0.5167624795,-0.6792836148,0.5513399974,0.7228151989,0.4520995534,-0.2383924827,-0.859187466,-0.7174190575,-111.0282385296,-0.3098023363,0.8470993357,1.3929691494,0.5823261541,-0.4366408948,-16.919808109,0.9092769394,2.1464577826,-8.5086586674,1.9263128576,0.6727346954,-225.3550275813,0.7304621759,0.5044005838,-0.3174549759,2.0018824985,0.5533824674,-3.4467792312,-0.4045774019,-0.2766352261,0.0760981257,0.3379239568,-102.0514928459,0.60193286,0.5666349561,0.8980241182,-0.056745046,0.0384457265,-1.0595164,-0.9304184633,0.6419309157,-65.8164623477,-0.1150614399,0.7080931663,-0.3131326103,-0.9731792287,-0.0888569633,-10.105870083,-0.8195370261,-0.2433338308,1.2709623168,0.3239271044,-0.2944023124,0.9122588417,0.5953628169,-0.8869935601,-0.3078948866,-0.2259084144,0.4112415189,-0.1831960884,-5.2917925528,-0.8039257941,0.3851669487,0.8358123713,-0.9807033151,1.4070213739,-0.6984676528,-18.8884515392,-2.713803058,0.8264928144,0.1078520341,-0.6912196586,-0.6992677016,-0.9495457555,0.9547635109,1.6079365816,0.5871293959,-0.5109074238,0.9524071339,0.701227497,-0.3944723258,-0.065678622,0.4171880085,-25.2206133809,0.0039481704,0.5605391447,-0.3825183272,-0.9940624762,-0.5383059309,2.1314466535,-410.5349615383,0.5897761367,-1.0623593413,0.0605386277,-1.8265586961,0.3097981391,-0.7737001352,0.0096028279,1.0305139314,-0.8040378167,-250.4393063084,-0.2240792013,-0.5655114963,0.3267403404,0.9313581494,-0.7962898818,-5.8035841903,0.1505167679,-12.5548453229,-187.0409419453,-0.0181161286,1.2039912202,0.2937614071,0.9262406266,1.113289851,-0.2719586622,-0.7222460466,-0.3518208086,-3.2036058391,0.2821222823,0.6898570997,0.2895535915,-0.4429291775,-0.9546837946,0.3899966,-0.1543094841,-335.3972597685,-0.2493205831,-0.6463677143,0.1133439946,0.0441942794,-2.7929529744,0.1036540997,-8.5529785447,0.9103953828,-0.4828406126,0.232505678,-0.5182907178,0.3415776972,1.0436357025,1.0001895361,0.6351767751,0.059628118,-18.0948839044,-0.136446657,0.1803916529,0.5300654918,-0.0152313164,0.3638332327,-57.7445297992,0.4456024744,0.9304286187,0.4274772641,0.2148937585,0.9515471205,-10.8864297934,-1.2503755408,0.421891822,0.9609428259,-0.1372821903,-0.0228686137,-286.5037172221,1.5562931893,0.178379692,0.9567456001,-1.0210557666,-298.8246103512,1.3539819081,1.2803987573,-286.191554593,0.117531952,-0.0166541193,-9.3026403602,0.7083345422,0.0179841979,-0.336155605,-0.12768989,0.6406933138,0.0927799229,-0.9602395162,0.9177080153,-0.9481624876,-58.8428730087,0.2721264667,0.9207890163,1.1440266229,-0.0584380174,0.0190274825,-66.759991628,0.5176349244,-0.2925486473,-0.2412533587,-2.5317519116,0.2511977616,-1.0782278469,-53.2069925111,-0.2100541017,0.1048120028,0.6986735225,1.1171587315,-247.7329297134,1.1722792547,0.6317882245,1.010108402,-0.0182112949,1.0293729342,-2.855587932,0.2485406804,-0.3586554728,0.4535361742,-219.354652037,-0.5765079564,0.265169243,0.3397682085,-53.5203501137,-5.7997461847,-59.3652940325,-216.5171850414,-191.9121813085,-79.5771937265,-0.4731415352,-214.8094735658,-1.1176554474,-0.4169393622,0.0292146039,0.9713693839,-61.915006926,-27.9377760579,-0.192781328,-0.798541258,-36.9145693131,-5.1976956558,0.3037887066,-33.775314711,-21.8733707855,-8.5353969404,0.1362035432,0.2906410825,0.2399947851,1.7155035729,-123.9764825467,-9.8444006719,-92.8193661586,-15.8318866522,-2.0793663237,-16.5574090026,0.4045598224,-0.0426126045,0.2228873907,-41.8294731824,-0.7856307189,1.7115127539,-9.9050012756,-5.9627446425,-66.3455245324,-0.9380410321,-162.4647657816,-207.8180331424,-207.5176632513,-7.647014442,1.0347469794,-21.2899268707,0.6463028825,-0.4588578014,-65.2626174891,-2.0649044855,-24.7755898355,-7.8476804681,0.5531646671,0.5614649916,0.2358753658,-1.4670243059,-3.3251252248,-18.4072484092,-1.1859138861,-50.744630617,-9.3929248878,-1.4356221926,-1.5664694204,-16.8951753942,0.9981530325,-0.8072242397,0.530803866,-2.0469487592,0.8197092178,2.0655724034,-15.6582300898,4.9693396456,-68.7509220289,-52.3785096077,-33.2992058262,-0.1604492161,1.0273038554,-0.287000776,-0.86022187,-158.6389105155,-57.6636910021,-3.2644820948,0.8909502839,0.8185708594,-110.4185951961,-0.493424072,0.1358274584,0.4074047032,-5.9093378433,-4.2868105451,0.6504576092,-0.2334265553,0.8887754581,0.3447850306,-204.6802173232,0.495603345,-95.2296766032,0.112167976,-0.6580690916,-64.7999684266,-4.8889324874,-141.2544032772,0.5568705633,-59.8635692726,-5.6348308783,0.9496852306,-0.4856244735,-1.5482400728,-0.6638148287,0.6955692899,0.9687184254,-0.209926338,-33.3077486235,-0.80521663,0.0382243833,-0.4215051458,-4.1071445661,1.0847466632,-9.5437011732,-34.2739283295,-0.5924812355,1.19056677,-0.4407034698,-75.765533584,0.4507132211,-0.1339721961,0.7493688098,-2.0323592475,-4.2397117448,0.3498144253,-0.7743640158,0.1638354019,-2.0766027667,0.1596379913,0.3306713461,-7.997733508,0.853302317,-0.6026193482,0.8396554402,0.6004900857,-0.9774961183,-9.4937055957,-0.8488467565,-13.0757594096,1.1350874259,-0.8553088958,-1.8680452843,-0.0034341576,-76.1594946081,-0.6926453442,0.5192542582,0.2650510486,0.6046819147,-1.0533490516,1.7232064898,0.3530375843,0.184928402,-2.521278172,-5.8515963868,0.4062420461,0.9683731288,0.8711128341,0.1537472597,0.4628899772,-27.8031161754,0.7814569046,-70.7504230706,-0.5295707719,-0.7017976139,0.5949181276,-1.839746449,0.4120523244,0.7679500294,-297.2191152854,-1.7509385933,-0.6963174921,-229.0997407099,-42.743159826,-250.7042853878,-0.6122442026,-0.369120595,0.4230462123,-0.4981648678,-2.9379520275,-4.1642368395,0.6055801466,0.226368932,0.2104421527,-22.6710996378,-37.2919587025,-0.389496968,-0.839857873,0.4382241019,0.0532261824,-0.1765063943,0.1434424888,0.3759911823,0.3116470646,-0.1544826175,0.5445368099,-335.20185927,-409.7603487689,0.6074621668,-0.1481937052,-0.5885019761,0.1758840652,-0.9307118681,0.1892722575,0.3654112208,-102.1219546284,0.2414573136,-0.1742947794,-153.9383167949,-87.5117982594,-1.6508252274,-12.5855999512,0.2676948558,0.6813770162,-0.4635403459,0.0372017732,-0.8433083018,0.8923770283,-410.4170855655,-0.0520658521,0.6645455118,0.1859335158,-0.9674395942,-5.2345505775,-3.7770226198,0.8054418409,-169.0774683851,0.6527328522,-1.4504576348,-2.9256462918,0.3802333293,-2.698458422,-0.1401852716,0.981266886,-0.0720510272,-0.3821173218,-325.349015179,0.4722594443,0.2379351686,-0.1340732147,-0.5910452866,1.2488030748,-3.0647050902,-0.2499765732,-0.1129822964,0.0227950669,0.9696613303,0.0988865316,0.8858329272,-43.0986858444,0.0267130188,-28.0110781667,0.2747509915,-0.792538645,0.4287325646,0.7696600293,-1.8949109908,-0.21279234,-1.3623484684,-0.9270553629,0.3606515127,0.5872019971,-4.3056331555,0.470843427,-267.1629122554,0.3156106391,-0.041158645,-0.6255599018,0.0187996664,0.4366458127,-240.6953319013,0.7064754206,-0.3674948256,0.3241144557,-0.0243980868,-0.2080927584,-0.0613356549,-2.8825608612,0.7117871212,-0.1477746357,-0.2721529237,-71.9839685901,-310.4722302561,1.4539574065,0.7531737339,-13.9990079956,1.035593602,-198.993880078,-35.3209622057,-0.6242903073,-1.949102624,-0.901577403,-1.8186571916,0.2891018055,0.630584353,0.000877504,0.5852873348,-207.0025358713,-2.5540847492,-0.7282009234,-0.8378301429,-89.6619945028,-3.2776447416,0.6218782457,-0.2858669128,-0.4849351357,0.3224192522,-31.4942080082,0.060833513,0.5434597488,0.4529685594,-0.0550963808,0.055352961,0.2707669997,-0.6497638099,-0.2571925951,0.6566403576,-2.1563023331,0.4670745454,-0.2781177347,-0.1221600703,-0.1322942306,0.2364512702,-0.4589742167,-0.49070449,1.2007854873,-6.7267031678,-1.9596484077,2.1424006405,0.3293057274,-161.4641999317,0.1130335987,-89.9851024656,-103.1107995439,0.4104228929,-0.7047791574,-0.536866538,0.753802653,-1.3482690219,0.3952651581,0.5592176609,-1.2086417042,0.5976217808,-0.4360155802,0.8689008927,0.540761299,0.8368571929,-0.5524411416,-0.3660554654,-0.5659552911,-0.3454432093,1.1542524222,-27.0517480132,0.5954188637,-133.8756119705,-0.1588610316,-15.7033129933,0.5602768471,-0.8771205717,-22.0358656261,-11.0171718536,-0.9073096408,0.3504036315,-25.8900297627,-42.2435407552,0.3634381894,-0.9368783906,-15.5528021213,-0.8767007169,0.8738475374,0.1722010442,-0.1735680433,-1.545630666,0.2622769101,0.3160971643,-0.1657399762,0.1375763318,0.2292254,-0.6029653486,-0.0539288235,-58.1242486385,1.3371811962,-0.0982202808,0.6786681146,-1.3140181498,0.8251373735,-0.7096059108,-173.8961645577,0.8147944603,1.1526848112,0.874767385,-0.9134524656,-410.5251572735,-3.6736582625,-0.9804691067,-2.3096916063,0.5588745085,-0.1446818999,0.9117590282,-0.9855625929,0.5088268698,-1.9224632777,-0.5254539117,-0.7766048955,-0.8592574201,-6.6502156249,-247.0735968115,-303.8765630376,1.1466234078,0.6072347991,2.3726786071,0.5630313765,-0.7518112368,-0.4646221574,0.8658885964,2.866556766,-0.258764503,-0.5522538757,-250.6967698882,-0.2675483119,0.0622738959,-2.3546940673,1.0576688069,-0.5503652306,0.34342754,-9.6699343309,-0.6316719498,-0.2811929099,-9.9113848209,-1.7642226095,-0.1061299329,0.6402341262,0.9848942014,0.7062348326,0.5346185395,-5.9668484031,0.5163995584,2.1804570323,-0.0198196377,0.3915143078,0.8411573659,-2.5642026925,-8.8771632665,-0.1395177323,0.2191939816,0.8015798062,-0.6991516712,0.0195125538,-0.462393866,-0.4762438047,0.5389857146,0.449072108,0.5076330654,-2.1093974165,-0.148491313,0.6274135042,-0.9978691952,-0.0060240635,-0.1826890106,-0.9399700976,-0.6990646047,-8.4818089375,-90.1884841858,-0.3086756277,-383.0626931555,0.3463831005,-7.5358984906,0.0983325029,-0.2002541243,0.1339642059,0.4082331611,0.6476201122,1.2235774897,-0.9886651809,-0.4630423102,-0.4147918383,0.2399333302,-0.997704905,0.8209057962,-0.7390476994,-5.1748074587,-0.9985594741,-292.0964795752,-0.6542753354,-0.9124311497,-0.3380599083,-0.4338629406,-3.3673568943,1.1412687059,0.1850617601,-0.4548954442,-0.9017640397,-7.529382916,-0.7735777278,0.2730966689,-0.1778117617,2.2740444278,-0.6927129454,-1.2100858732,-0.2280611305,0.5579426437,-0.1828126261,-1.0287437622,-0.7771577659,-26.9363818732,0.4343721917,-0.8795444491,-1.2897219382,-0.7023370458,0.1201056026,0.6131981326,-0.0738226978,-39.3453048102,0.4414721131,-1.4209798534,0.3593478882,0.7722411805,-6.7505391375,0.4947059522,-3.7979061572,-310.0331422645,0.7724062583,0.4770211009,-115.656386117,-0.5565978434,-0.7153556724,-247.5401655658,-0.4999576752,-111.0428076273,-5.6670372052,-2.3324282209,-25.9138620041,1.7264967449,0.3389893973,0.5630372208,-2.9572330933,-0.4477171587,-75.3337196073,-0.3307222775,0.3292311227,-2.097301228,0.9322502059,-1.700076725,0.1472038696,-54.8027025262,-0.7127522433,-0.3748800691,0.8309851169,-0.763919757,-0.4718989058,0.0392702603,-40.1634258197,0.2248490862,-0.6457811389,3.1391123472,0.4907601299,-1.7358321007,-56.1167225893,-0.9030949826,0.7721030023,-21.8351569488,-0.366452678,0.6856298917,-4.1618579405,-0.3017955752,-0.5093325476,-1.0521956815,-1.454088984,-37.1358855038,-93.455007398,-1.2464928572,0.2640549227,0.6463672128,-13.6188363624,-19.0086024486,-0.5878136601,0.6690242633,-80.8899200522,-285.6344052968,-0.1819972227,-0.3495156537,0.1000992989,-7.1499981269,0.260402982,-0.4687317784,-0.7582358606,-238.4350123042,-9.7526254942,-0.2774965101,-1.2772934567,0.0170433882,-0.7764850806,-1.136203342,1.0465900404,0.2396917514,-0.4229739622,0.9144402958,-49.2173186906,0.3914198221,-194.0181555204,-0.5334277609,-1.7502031543,2.2167575883,-1.2105194735,0.6043368324,-0.7221983583,-9.6792984472,-409.4051870101,-2.4096001002,0.2887868646,-6.5763069921,1.1506996431,-4.6705906146,-0.0937027371,-12.062076877,-32.7107303965,-15.8057352914,-10.4616565879,0.8668832016,0.0720613813,-3.9044505998,-27.2328188989,-175.1541697718,0.844333731,0.3083726826,-0.1949089931,0.36719609,0.0479254492,0.7069525985,-0.2476157101,0.0298431499,0.6399300293,0.7694516043,-0.2344079219,0.2086891594,0.8822310767,-0.3706058593,0.2862936429,0.6650961851,0.4870660544,0.7402625206,-0.5782421463,-1.9038253476,-41.2952205577,0.4092757961,0.1884145858,0.3623315704,-0.5536325723,-56.0259799096,-0.552308013,-9.7551642313,0.836227132,1.2803692252,-0.5123373432,-0.2033048938,-0.7805784339,0.1015914768,-0.2424043233,-1.1145250676,0.9896567331,-248.6600553076,0.6154693291,-25.4602894157,-1.1971141861,0.7042792396,-0.2133347655,-0.266767041,0.6628150274,-0.3242600571,0.0043088297,0.9944102561,-0.3400646819,-0.4330509782,0.6270411281,-0.748763092,-0.8690707707,-0.5410642888,0.2414592797,0.354259765,0.3477363435,0.8953658884,0.8164345425,-1.7121376898,0.4428961629,0.1627080983,-3.6302674652,-0.4090193541,0.1001530892,-0.2846998264,1.1958582001,0.4969507119,0.4031907659,-1.5602899079,0.2630527959,-0.4497277221,0.1529175447,0.819088591,-10.8578367378,0.8056683232,-0.7301288289,-0.9315699205,-0.2969618293,0.7158494773,0.0492234137,-0.1047295321,-0.6081326518,0.0051959703,0.2432457786,-0.3491287675,-1.7921122583,0.1570300255,-0.1300277352,-0.1595441165,-0.0463816661,0.4039475949,0.7071428436,-0.424345517,0.6368846384,0.7561484195,0.0307418496,-0.616122196,-0.9143355216,-0.6530804831,-0.5432080865,-0.3893479576,-0.1039341451,0.0486250456,-0.7612455059,0.7908137061,-0.3984160163,-3.213637229,0.6760963253,1.3197245321,0.254095485,-0.8532399721,0.6015344652,0.500897725,-0.8249901268,-1.5377817876,-0.7638895352,-0.7892683252,-1.4219623608,0.9549946044,-67.842999536,0.134206345,-0.6459177877,-0.5545920594,-0.858330214,-155.9752374052,0.2663052572,0.2314254282,-10.0621868536,-0.1186802506,0.8342648015,-2.6297375329,-0.5179818806,0.8230880825,-0.435529721
   0.8916776111,-0.1013814479,0.3838366975,-0.1425967347,0.6639344385,1.5237880911,0.4337682381,0.4876542421,-0.2860283121,-0.7145052023,0.4985566653,-0.3793974932,0.7439043324,-6.7977251763,-0.4119986032,0.5860498663,0.6231542313,-0.5371521093,-2.6677969082,0.6077872408,-28.0284611469,-0.6411968323,1.503808622,-3.4183441338,1.5208075059,0.4392128205,-0.7694744154,2.5912022992,0.3936934412,0.944626383,-0.3248065045,0.1084560453,0.6034789885,-13.9061762399,0.0685639177,1.5645712274,0.8980469355,0.5462408696,-0.3072861384,0.393220609,-0.27890041,-1.1508543439,0.5023837737,0.0991613791,-0.0188753526,0.2813144271,0.770847639,0.1055161463,0.2746242045,0.7025567501,0.0637422695,-405.6667860136,-123.5386787761,-0.9129337477,0.0137141884,-2.2055524064,0.9341139812,0.7280196375,0.7624225611,0.9319374463,-0.7471287491,-41.7729642683,0.5379561631,1.1607480673,-8.6791961978,0.9821077642,0.967410745,-201.0462616505,0.1755177163,0.3464168213,-0.8258898329,0.1366437566,-0.2748513914,-4.0676434919,0.970084241,-0.2258997001,0.8141370463,0.9794210237,-0.3366162348,-410.117942749,-0.6145386811,0.3879326464,-2.1730785701,0.9032058002,0.3091015812,0.8094791909,0.5742292755,-0.3292422386,1.5268025985,0.5135103387,-1.0212021031,-1.0621077662,0.6912546824,0.8405387494,-0.0354249051,-79.1729848038,-0.1620670812,-0.2440197918,0.1067769252,0.3259564254,-5.4075079869,1.0014543413,1.2943257562,-2.0838713266,-0.8431217571,0.7675863202,0.1127429403,0.0964040409,-93.8766830118,-0.2692030457,0.4713045404,-51.2282449915,-0.8640274267,-93.6466494703,0.8122794616,-0.1008827277,0.5199998724,-0.1053984525,-0.0072089317,0.2132345181,-0.8314716286,0.2866888715,1.4350561927,0.6695981558,-275.3557421797,0.7713227512,0.2294691992,-0.3690565625,0.6263576605,-0.8428971821,-3.0206051429,0.3294602053,-49.722408835,-3.4731857522,-0.4471248025,0.870133797,-130.463739122,-1.5861092431,-0.0740039445,0.9603108436,0.9501834415,-2.0818624165,0.0475034928,-93.1395904902,-94.7422939635,-12.3618680694,-31.9599906038,0.4770580334,-126.9183076874,-19.980988374,-0.0451765474,-48.0111330245,-54.7246790346,-0.5812672191,-0.6330702907,-48.9425534152,0.1841103101,5.6018624996,-182.065846127,-11.3611860629,0.3593157159,-21.8601222981,-0.15094982,-59.9170124251,-48.8293995934,-17.7961499849,-194.5782132494,-96.202704934,0.8880324243,-76.8237956139,-33.85194324,-0.9673100945,-195.7396382115,-1.6894573006,-0.8522232424,0.1606689297,-3.0103822204,0.6752616667,2.0561117256,-29.9008528381,-8.8648773823,1.2047506892,0.4307196518,-2.284649897,-92.6725643477,0.0282576408,-0.9820662584,-31.6804903761,-231.2716863756,-5.4096990098,0.0350048292,-70.0761881179,-0.4348149088,-8.5987376327,-0.1649109537,-0.2744906218,-1.9843169456,-54.5870433572,0.4639650339,-1.1229618856,-0.2458184614,-1.4142464349,1.770138447,0.7365492232,-60.1392574985,-256.6037850975,-102.5624129383,1.0645625735,-1.7686525893,-0.7918092377,0.8231970818,-0.8165012452,-117.1555271565,-4.1482394376,-3.9609979582,-6.0255683355,1.4835679305,-0.7302584545,-51.0885854867,1.0180676755,-9.2788683329,-0.3005186045,-2.6660914465,-9.97181393,0.5418441068,0.2474252112,-0.271824433,1.9699885898,-0.6986464655,0.2272368037,-5.8239181621,0.6180526089,-2.7520756716,0.8152183656,-9.8110178985,-6.3753561313,-75.5679404902,0.6726611405,-38.1546744376,0.9279852403,-0.006371905,-7.4197422741,-60.4353453466,-36.4005036026,-0.5120331277,-51.9970736167,0.0197801344,-26.6607969134,0.9244021239,-210.6002125717,4.0775266282,0.1799895784,0.5710944063,-0.7776501989,4.5009554917,-0.2031936394,-0.9000483409,0.4005407139,0.822522488,0.3302572851,0.5935284166,-0.6391470421,0.4077238305,0.732866778,-0.5081064744,0.9804416242,0.4118595167,0.5722615861,-0.0190688278,-25.9346130587,-0.1857338788,-0.7479269921,-0.0259255569,0.0048863323,-214.4939896498,0.4244926059,-0.261575937,0.1158127204,0.0363232443,0.2786314182,-0.3888738352,-0.4474315372,0.8295538746,0.4605839197,-0.2858427051,-0.5684235597,-0.7903341827,-20.8999247449,2.1757104568,-1.6058108817,-0.780480936,0.9111421933,0.6949261993,-0.5571462403,-0.1296723914,0.8623827087,1.0312072486,0.584154994,-1.7073401063,0.926302826,-235.5466453629,-0.5044977476,-0.0327305058,0.1520478104,0.7353358535,-0.4606146473,-0.5431088031,-0.8358815511,-0.0709511699,1.3871047257,0.4894123494,-67.6307846348,0.0508951049,-0.3944532651,0.3660615289,0.2979192075,-0.4706391077,-4.4453373026,-2.6982348986,0.4810716249,-0.8022740054,0.1745332585,-1.3029700042,-1.6548512857,0.836732269,0.0994838836,0.8659835877,0.275669491,0.8814791618,0.6557875832,-1.0681808185,-32.2738973917,0.2704712268,0.2829751584,-0.2011289544,-78.6547891171,0.9598376201,-0.4514493668,-3.1720712742,-0.6402786324,-0.163689359,1.1219393184,-0.4346691584,-409.8048763103,0.8918513255,0.009814044,0.1088122173,-219.4899763466,-2.1729423461,-0.7990320463,-0.1356347614,-0.2982148516,-0.6702866004,0.4509965872,0.8415186887,0.2543012442,-0.7180145599,0.2194997273,0.84801793,-0.4108586698,0.3313890872,0.8902901387,0.357192632,0.6979995501,-313.2364136538,-0.5259475614,-310.2934646836,-2.2104158976,2.6370527459,-10.1207699855,-0.7737243376,0.6957851032,-0.3422269618,-0.346961578,-247.9760647411,0.8205191364,0.4100466965,-0.8797799866,3.4566423304,-0.1865128203,-227.0887763744,0.8826655214,-0.0181987261,-0.6787788372,0.8206361605,-0.3859282104,-0.1000280387,0.6676730781,-0.6711784563,-1.1397052528,0.3608123326,0.8021170518,-0.0265704257,0.8053371119,-0.8395925535,0.4980341049,-4.9530327314,-17.1033417657,0.9155706416,-0.95982479,1.2937143926,0.0373840239,-5.3472082611,1.0197637654,-0.4117225738,-1.4569006681,-1.7254439558,-0.652443686,0.5875519729,-1.0898076733,-0.950261661,2.1406641883,0.1358277586,0.7965743871,0.0238413179,-11.2480488347,-0.4908514556,0.1434193289,0.4067926602,-1.0032628316,-4.2296293924,-0.3489754224,0.7231511484,-0.6553556972,-0.7359550072,0.3942829391,-9.3716915308,-0.8506441464,-0.1955271159,-3.8810107272,0.5883982126,0.4484452917,-0.011874572,-0.6242340242,0.0908035033,0.2553875949,-0.0346537865,-0.1272653472,0.7437760004,-49.9576217347,-2.7147463528,0.4796081565,-0.2207529623,0.4929852541,-3.854089558,-95.4303001535,-0.9280041911,-0.4749716567,0.0197929865,0.705317583,-0.1450124967,-128.7196053749,-0.3701590499,0.5387462479,-0.1377226135,0.3152340265,0.534392399,-0.4700259607,-1.7498190099,-4.6494267337,0.8678705596,0.8723111999,0.8345625309,-336.08397409,-0.6265625637,0.63740406,-0.0581261081,0.819608223,-0.0041440289,-0.3579601791,0.3023131853,-2.4238090145,-0.3857039882,0.43221455,0.9141187628,-1.6554935871,-19.7992854355,-0.0265403801,-0.5617015036,-0.9778332939,0.3963920609,0.3130664068,0.1056033561,0.7462837999,-409.2558492911,-0.7717144495,0.2817768658,-0.0472693765,-0.1465913739,-7.5109013417,-1.1683406192,-0.5724666869,-28.1029576883,-0.0515378913,0.4770871549,-0.2354292968,-3.3231961309,-0.5400489952,-0.9887849243,-0.5074092539,-0.100059523,0.1953939681,-0.7598965778,-0.4027778193,0.9492016099,-6.913826567,0.8911595689,-0.2040521838,-51.4184018766,0.0229316725,-0.6180134967,0.5167138223,1.8697745718,0.1698637468,0.5229053185,-0.717823102,-0.3367496588,-2.6915004971,-3.3803126947,-0.4087522426,-257.9647240292,-0.0293521575,-4.675007844,0.2617340187,0.5340177673,0.4798909099,0.0118813521,-84.5591502743,-68.1879638628,-51.0909201269,-75.6560586364,-0.7895189157,-12.7815430416,-41.295017829,-0.1321677525,-8.7710437157,-116.2651571984,-0.2613517947,0.3335376262,-105.3753121418,-0.2858000856,0.3617365502,-165.4642113015,-40.3900915926,0.0181037212,-71.8312887928,0.5274876396,-52.9333632028,-1.4935917423,1.0498450514,-28.5718358386,0.4735232989,1.5849502728,-1.4060190958,-35.2934284708,0.2711359813,-234.9702663484,-0.6991051692,-0.381066439,-0.0691424569,-9.6796926511,0.3836003941,0.8584866217,-57.2827422566,-15.4149714789,-0.2504382214,-0.7139923315,-6.9628212736,-272.3726295985,1.1537474515,0.1426612663,-0.7162675373,-1.5768497967,-6.7257130573,-0.6285702218,0.0232481354,-0.0393844004,0.8197619988,0.2046578364,0.1584352174,-121.1331277234,-7.0921223584,-0.539879562,0.4985221695,0.438924692,0.8744471979,-0.5553734149,1.582298007,-50.6712921672,-23.7671468136,-1.5525054611,1.6866650619,-5.4379864315,-2.2960316322,-0.5290764071,0.5736047307,-254.2689246678,-1.3411413273,-19.9044305313,-15.5797387071,1.1687347551,0.0679094176,-203.4821234588,0.2636347412,-24.1806056301,0.3191369989,0.7392855769,-15.1684115876,0.7643991117,0.5337910664,-0.5156203312,1.6160461527,0.9578309513,0.1267642093,-0.4356926104,0.2913109812,-0.9775978033,-0.8150121679,-0.9374666877,-26.1978709044,-48.4808376143,1.5077277788,-13.838202157,0.6304286266,0.0267305305,-6.6001201898,-203.52508321,-14.0515191071,0.8592036966,-21.8862915176,-220.8777767311,0.6441872757,0.3589228714,-310.6840750452,-0.4936672436,0.1466091433,0.5153456941,0.6471196261,-0.0159101725,0.127608112,1.2333013842,0.4806011623,0.702587095,0.3038233226,-30.8696675608,-14.891054146,-1.0674488712,-0.5041394318,-74.9897240023,-62.9724565063,0.0810380017,1.0641731447,0.9794208236,-0.2077059614,-0.0216547865,-38.1926255619,-25.2901429479,-11.0254999598,-20.5602519659,-6.6202456312,-48.4247430664,-16.856688375,-5.8762477932,-17.4254925237,-29.6351236,-0.3494715941,0.5331134408,-15.1507889552,0.1971508918,-5.8228622678,-108.2387396812,-11.6329403771,0.123660285,-27.797587055,-0.3147389096,-33.482056858,-29.3005406316,0.7587700032,-77.6955653988,-48.2581249149,1.6157938233,0.3097085531,-18.3039225836,0.7284311464,-259.7771565113,0.1469949327,0.5923354212,0.2364725402,-0.2256378157,-0.2683083026,-0.4408549413,-22.9742524802,-7.192404381,-0.5441706552,-0.2568676507,-2.7674182073,-29.0190130706,-0.4547340519,0.1640630714,-335.0327188136,-66.2154096327,-4.9430830752,1.5498421508,-56.4282919242,-0.961391181,-1.6265377778,-0.3817275036,0.6142701242,-33.5299853912,-0.5818847253,-0.2988816954,0.2977751387,-0.4412202014,-0.2326636065,-0.1743118448,-0.1376162282,-31.55318007,-37.8593643747,-66.4911035206,1.9178235778,0.7739433994,0.5184198225,0.3225963152,9.4209605245,-82.2797630687,-1.9826064418,-55.6571345864,-6.4988716443,2.0329176289,-0.0156675112,-33.4840797154,1.2602534538,-5.7700143784,0.9077010957,-0.3179945033,-11.4191265951,-0.6022871246,-0.6301028704,0.3602566383,0.4007505449,0.9888168822,-0.1772798923,-77.1962823304,0.9955252817,-0.2624327946,0.226853695,-14.5617175386,-1.5943572784,-35.6526229043,4.2133382365,-15.9767329463,-0.0573720098,-0.7108352047,-7.2338896113,-63.1143656791,-17.4563350445,-0.008965013,-14.4457202567,-80.0680071812,-19.0981339399,-0.0617575635,-94.9061709185,-0.0042966128,0.9250239067,0.8600977441,0.9049913164,-0.1941496161,0.3888177285,-57.6828075794,0.4182603555,1.3722865423,0.6735715119,-1.3459322687,0.3138631511,-4.3872326128,-6.8297100006,-335.7706256601,-193.8157233059,-1.1923809916,-358.5256028519,0.8670472797,-0.9547490681,1.0149041176,1.2874105323,-194.851482509,-28.2997568593,0.5206235241,-0.6726175288,-30.9546944033,0.1169410793,-4.8022894767,-1.8697665906,-74.0874383505,-67.4559955638,-0.1777267419,0.3854700204,0.5431789618,0.7763943919,-197.7761588964,-36.91139969,-195.289829387,-82.0063653695,-0.007542569,-89.4571100909,0.0650509838,-0.7803575034,-0.0156643423,-139.7310143294,-30.5456722791,0.3044667299,-23.4964959221,-13.9906172104,-196.8585962365,-0.7659279616,-4.5101502665,-198.3574010791,-38.8254811782,-0.9159714671,-0.2164765317,-54.4332171975,0.5057539798,-0.7025538381,-150.2670707481,-2.5498843294,-15.2228659658,0.9912019389,0.1876093356,-0.1527820362,0.0445431143,-0.6143259728,-5.5879272212,-18.2981579886,-1.0056525778,-0.4025826879,-3.1243401477,-2.3626643139,-18.6741606042,-1.5803273613,0.378338965,-4.3760170458,1.2254999113,-2.4653807273,-0.4769530466,-0.3477533887,-8.3110287097,1.3434154474,-135.5469307154,-164.1390802968,-23.9540386199,0.1912541338,0.4976379169,0.5768597016,-0.2633406591,-127.80388657,-49.982839108,-9.606273003,0.8545942903,0.2848011529,-256.4206561835,1.1890650154,0.6260884928,-0.5579687807,-0.943795802,-7.3245786173,0.3298393544,0.706919821,0.5660551656,-0.7399929763,-368.1478520909,-0.6918504025,0.6514608116,-0.960747577,0.5604316874,-164.8635634824,-0.4069134464,-27.1651774852,0.2886625055,-18.5011986367,-56.9754845645,2.4348051864,0.4413213922,-2.0184072303,-0.524602149,-0.577700684,0.4680171042,0.9596749692,-59.1011261898,-1.7396291696,0.3732419231,1.0676640243,1.3247357948,0.3623430292,-12.4858860957,-0.0066060396,-0.6795429222,-0.1523853043,-283.1376815263,-0.4346419314,1.3758094637,0.5871317524,-0.1509222284,-14.9079513666,1.4264019749,-86.2569919166,-154.2295542501,-62.0781497588,0.9799455236,-0.2767607763,-6.7081090367,-0.532662928,-0.4640260369,0.8749122105,-36.6237827339,-14.208301097,1.3648256588,0.046973241,-40.3273056369,-5.7651110629,-46.3441882116,-37.1444002406,-7.8215206634,-9.448964816,0.4993673967,0.583917036,0.510391662,-0.1817919308,-93.0905985102,-11.6335139839,-125.247499921,-24.4257728026,-0.2707655214,-34.770932704,-17.5043393334,0.121370189,-115.8550863636,-59.0939786761,-0.3757260633,-61.4246796201,-7.4991015014,-0.4999635674,-0.7484799205,-0.6931319874,0.1435802465,-258.1293188224,-0.1593133636,-0.6410652108,-180.3612678843,-16.6017739702,-5.0794982693,0.4969472365,-0.1616115768,-0.9025840397,-56.4890736969,1.1161967495,-0.1480340827,-0.4053652017,0.2979197575,-1.3442770253,-0.330832798,-25.8367445315,-0.8068017938,0.6650219325,1.4241090687,-5.4983633944,-46.9739217325,-0.4509671725,-0.4769481681,-1.162796215,-0.329609364,-0.9376750996,0.3699260738,-0.0364643911,3.2099782645,-121.1361828034,-59.3524140259,-184.0382403176,-0.331417531,-0.5849009773,0.7157578699,-0.3794263492,-69.828832466,-95.6855963847,-56.8796410009,-0.559820325,1.0897904201,0.036624911,-38.3058482791,-124.0828805667,0.5505202798,-0.5480634197,-10.3085616875,-2.4158408842,0.6717613786,0.6509123486,0.9532291754,1.4196868671,-0.9407420456,-196.0113044739,-120.7430736518,-0.2786588548,0.4502498965,-58.0532465945,-1.557984222,-0.0502344599,-3.8134386246,-5.0544643444,-4.124019401,0.2524473944,-0.1309758315,-1.3632542945,-0.4930433355,-1.3456843166,0.1975401832,-30.1824872337,-54.2358933286,0.8636301503,0.9554111641,1.1398970888,-0.4876540389,1.0815199385,-0.4740982506,-0.0249170294,-28.2872460438,1.4368348727,-179.0062887546,1.3370111403,0.7828229693,-0.5373243158,-82.7720787144,-0.2368195238,-44.6182694278,-0.178761851,-75.7480422825,-54.6750848526,0.6447818307,-151.8667600565,-4.920585067,0.6584133966,0.4153453108,0.2652255987,-32.0719282535,-24.1075980351,1.0057841532,-0.3611764513,-31.5498358503,-4.4581057036,-0.7463746552,-39.7803483361,-12.7870915038,-10.8259761291,-0.114302539,0.9985910669,0.6057128612,-0.2519843656,-169.085826003,-6.8972948452,-66.2347971192,-10.2036706995,-7.2690400934,-15.473973816,-0.4180214914,-2.188476243,-0.8242380471,-23.7283559252,-2.6150809727,1.0142191934,-6.2291343789,-6.4827057253,-62.5632143358,-0.9242571883,-176.6676591673,-82.5355690496,-173.5055764016,-7.1262396795,-0.6923515587,-15.9245858854,-0.5010311007,0.8725036754,-40.2277799126,-1.0190233465,0.211323316,-219.4850570642,1.163410473,0.8869018587,0.8972252353,-1.625604774,-0.795195827,-11.0765149736,-3.6293283159,-72.0778655523,-10.2952234447,-1.3737198421,-0.5796100198,-12.8091461505,0.570861183,-4.8368906688,-0.0859339374,-1.5151493255,-0.005482313,0.6621318314,-0.9701996063,0.4488291717,-42.7400898603,-56.5534007578,-30.4983289452,0.4048623325,0.604643139,-0.6550151214,0.2392358432,-109.5044128373,-78.1127337477,-4.0173335693,0.736701403,0.5058956185,-58.2572798815,0.0484737225,-0.954126043,-0.5477456277,-2.8319710309,-2.4227978863,0.1414796849,-0.0956369134,0.3142010431,-0.6158267921,-81.64119168,-0.3981856386,-23.8824135168,0.7576096734,0.2614755057,-96.9240429512,0.3371632296,-141.5996529077,0.6097479924,-41.3095921102,-6.9868324931,0.8346272833,-0.4365641408,-2.3774383947,0.6133325792,-0.655048676,0.6789512245,0.7129091862,-28.4921464256,-1.0981542234,0.0682109879,1.0042534273,-3.1976332228,0.5667679208,-17.1989223824,-66.4611739021,0.1689882125,-0.5506879945,-0.184241074,-1.0482304657,-0.1809953597,0.0292405469,-0.6673244312,0.1077867963,-0.4133591651,0.2885538769,-0.8679248496,-0.0647064952,-0.088160295,-0.5945828123,0.4019341287,0.829713951,0.5625486742,-9.6538095439,0.0027256738,1.3595698635,-336.5265940329,1.0391462416,0.8101331936,0.4490778082,-0.9806123905,0.9383852025,-0.9043754165,-0.3470944601,0.7168865217,0.5728364929,0.8725766763,-0.0006957568,-0.2873008507,-147.2256763475,0.5048688025,0.0501012298,-0.3145481627,-0.0964562301,-219.5420482178,0.7892208695,0.4299927641,-0.1206811324,0.3267248793,-1.6916119545,-25.7989778489,0.2914056509,-1.0669888558,0.6419184059,-0.5754910105,-0.3857950821,-71.2644130478,-0.7536752337,-0.1103757843,-20.3345202429,-33.0274585826,0.3150563425,0.0728137444,-5.9858046002,0.0558314194,0.6338575944,0.0754816175,-0.9772930884,0.335733982,-42.6612378055,-0.9578339019,-0.5758739379,-2.3962555504,0.6809945958,0.5722332014,-145.3733184844,2.8187266365,0.612276765,-3.3191773266,-0.7761679491,-0.5378321176,-5.2323044212,0.9481293422,-0.9726500504,0.4620907675,0.8972168036,-0.4953217629,-409.7789037799,-1.0843335621,0.0238904302,0.9057778367,-0.676621943,-0.5345489504,0.9049535906,0.4335254677,-94.7348760919,-1.2114383749,-3.77746858,0.9596022226,-96.8751599358,-0.1007167857,-0.0268083763,-0.0072350461,-17.9710180673,0.4939222157,-0.5336379204,-17.9878790523,0.9292396207,-0.649658249,-0.4081112258,0.3702149049,0.6308871086,0.0426031172,-0.7475789194,0.3769284,0.6756978174,-1.8129879223,-0.4587891777,0.1555745254,-58.7161948049,-0.125899411,-0.8451746081,-0.5967572114,1.0015042953,-0.0868911699,1.0063117877,-409.6803140708,0.6652215777,0.1577948788,0.8724933848,-0.2937887503,0.7582049922,-221.6403708861,0.0458989652,0.3900603955,1.1681471397,0.0749912655,0.4485651655,0.855593383,-0.6926004786,0.8306720254,-0.3007418079,-0.1110290637,0.7046006973,-410.2540099468,-0.8840840167,1.9513768188,0.2849848964,0.9054704572,-0.7491703492,0.9582083186,-0.4209646783,0.7757263926,-0.4911258059,-44.3437515361,0.9369403256,-3.9231928485,1.213950476,0.7756508824,-0.9279031745,1.4388680861,0.708873242,-1.8477293337,-0.9746790544,-0.3297929262,-0.696395633,1.4824302238,-0.173723824,-0.9392627792,-2.1481189196,-0.4548780403,-2.3942308201,0.6109892914,0.9337220896,0.6862338484,-0.6051290231,-0.2028780181,-1.7715789332,-6.9865001113,0.5575969771,-0.3506282954,0.971858582,0.6060283736,-0.7136181811,-0.4490736713,0.6266271223,0.4545395269,-0.8706716184,-1.2499301764,-0.2314308622,-0.099876351,-46.8787039757,-0.022805548,0.5426476283,0.3787379134,-0.0233427666,-409.222478917,-3.1939919849,-1.9511687195,0.079619979,-1.584932391,1.6848610282,0.7686932216,-147.3108036728,0.8933801577,0.8227663032,-1.9215236298,-0.4779281769,-1.2138851348,0.9488319458,-0.1501447133,-0.8318948941,0.6474129469,-0.8573750585,-0.6634462273,-285.9378801023,-166.0020776279,-0.5787645043,0.3102563904,-0.717150976,0.1468655282,0.9324225509,-0.5739673687,-240.523506735,0.401944199,0.0394635215,-376.2532834403,-221.4033464338,-76.6516844494,-13.8586714962,0.521366,-0.6601337895,-1.0034982761,0.8463405954,-248.9006203467,0.0860832136,-1.3927349153,0.6871785611,-0.2373795129,-0.734934689,0.5815781988,0.696379877,-195.1053043792,0.6351631888,-297.7015221189,-0.9230937015,0.2189549826,-0.5620218115,-4.7397615547,-0.0378217465,-5.8053388487,-1.1616015697,0.2232503916,-8.2516531466,-315.7565977075,-0.0278381559,0.7475304586,-4.8241934397,-0.1199083333,0.8590112377,-29.0486250301,0.8753819415,0.5599225239,-0.8293628712,-0.228817969,-0.6263575988,0.2778623908,-0.0128986776,0.0869772731,0.6867374154,-0.0362820684,-0.2934572469,0.1713389554,0.8647426432,0.9511768174,1.7894331113,-0.6373174444,0.5271492004,0.4348656222,0.38762674,1.9054206438,0.180779647,-410.2684483462,-0.0539993327,0.2207837918,2.8827828333,-0.1508590986,-0.5376117414,-0.3380827314,0.3696967808,0.2813893683,-0.7085605949,-0.4824358332,0.8322049914,-0.2245238829,-0.9639393763,1.3205113807,-0.2976999528,0.4441631803,0.3862582845,-0.0970826579,0.6631158516,0.4469464123,-0.2308339158,0.272725278,-0.9473096253,-187.2450334807,0.3479629377,-26.4609667009,1.2262037653,-0.7561845228,0.0985770355,0.6477178344,-0.0041839307,0.4415179433,-0.7097344224,0.4955455109,-0.3646306005,0.6906934345,-39.009022624,-2.2246549212,2.1968887674,0.8297862678,0.4949612934,0.658026206,-113.1380993013,0.8101304324,-0.2300778582,-0.7652606505,-0.7711005043,0.7138297126,-178.6083484992,2.9416962012,0.1881154683,0.7602637108,0.8867819096,-0.4368539777,-0.843435338,-0.3524436575,0.5714797868,-0.5125645731,1.1723278052,0.2683169962,-360.0384079532,0.8291315778,-3.924430563,-1.3403417669,-0.7739979035,-0.9786248751,0.4900587406,-0.8027325796,-142.4361650535,-2.8835820515,-0.0653956548,-0.8929307853,-11.8275895012,-1.422253757,-0.1841413766,0.0490486599,0.2773629818,0.8110769945,0.9784589213,-0.5203177332,-0.1392852641,-1.5188579605,-0.0265072137,1.1797142057,0.7789850283,0.5105047494,0.5172506078,-71.8596818602,0.9531672996,-217.0505005048,0.9563827114,0.4245501351,-0.8914599847,0.0462893006,0.4643135116,-0.5547693149,0.2081397137,-0.6225202381,0.5536378718,-204.1055368934,0.1422161286,0.4641892118,-2.5375057127,0.2647187806,0.8007180904,-10.9326737683,0.5976184172,0.7595448975,0.1356648196,1.6633687133,0.7852101017,-0.5274410508,-148.1611896799,-0.8973688647,-8.6870582548,0.5596365214,-0.5831982228,-92.493539926,-0.2751296326,0.3635178324,3.3233097988,0.7940859234,0.8901862913,0.8653232499,-2.0327479087,-29.0212709718,-12.597770719,-22.7509959622,0.2753914992,-54.1183322714,-6.703724462,-9.5055972265,-80.4953155925,-15.3658588431,0.7095978346,-0.5368709204,-17.2600195887,1.0512434291,-9.8671034448,-174.1433669296,-5.6444546283,-183.0979895042,-23.4803429777,0.4984833314,-24.7448761957,-36.1856229516,-2.4453441612,-79.4774735041,-58.2013904386,0.2657333877,-58.006506621,-0.7764613834,0.1057250993,-259.1772881732,-12.8225980807,-179.9304190738,0.6791862638,-0.3427575739,-0.5632148321,1.272157387,-17.1093746297,-4.4355741576,-0.5848208414,-0.7539662254,-1.4580594781,-36.6543383348,0.9787186107,-0.7701770957,-0.1756719712,-231.7716199311,0.0326788527,0.6322089641,-27.8473297807,-1.377233269,-9.5564060754,-0.5942681713,-1.692259034,-1.4031124116,-0.4657765983,0.3809004839,-2.5224618401,2.1336925294,-1.2693988472,-1.2848001606,0.2177375231,-38.2479500727,-129.2318553031,-54.8777266587,1.2533269077,-0.1211807162,1.1410990673,0.428122413,-0.155904433,-80.6905619284,-3.8451995092,0.5370277718,-1.3311862622,0.1337443936,-0.7611111461,-67.5894118799,0.8591883915,-6.825617457,0.3364647624,-9.9506059907,-7.2059129752,0.0873952562,-0.1262996645,0.0168174906,1.9714149072,-0.6220869263,0.1046083052,-183.2017206014,-0.8595028363,1.4016278288,0.0557528431,-8.4294907773,-1.8424718262,-23.0671586149,0.9682666311,-22.5576380091,-0.0794216177,-29.3636326227,-10.4314701342,-34.8292519275,-27.2790277588,-0.8465541048,-46.3699078124,-236.050404915,-21.8266382495,-0.7009284572,-156.7526659899,-0.2997095329,1.6326244057,0.3614860873,-0.0648813349,0.7035728885,1.8118898336,-82.8106516105,0.5853205929,-46.7673875399,-0.2540033259,-41.8387061887,0.0357997918,-8.1513549958,-51.9856307062,-11.2220059691,-75.8094213788,-0.3426047635,-108.754017924,-0.017144462,-3.8746895388,0.9093216274,0.0568787373,-0.8146336278,-5.709278733,-4.9771308242,-107.9139486421,-0.814612177,-3.2907728821,-1.8656826887,0.7894339635,-0.9901142745,-16.6038617629,-102.5810269015,-12.8762062693,-0.9927938073,-3.2871455093,-3.2793467368,-4.8884322342,-0.1559897883,-7.6933506573,-7.0761378474,-23.3539429638,-39.660048572,-90.9047246185,-27.1266492361,-35.2883483095,0.0509648988,0.8918257395,-7.198071237,-6.0340817924,-39.3191414067,0.6551097754,0.88137927,0.9604652638,-0.1256376749,-11.762870037,-0.2076534287,-7.2412778804,-6.054449591,-0.0882567426,0.7786059334,-1.3942184535,-4.1940099294,-0.6723304699,0.8014697953,0.01057193,-1.8685988103,-1.8992482626,-111.2452240071,-34.2641072572,65.442881968,-0.2783694781,-3.413760827,3.2267110007,-7.6927788047,-33.6857114734,2.2136794818,-1.3356953349,-7.6956402916,13.9817483162,1.7248728126,0.2980049356,-0.9362233642,0.8914815812,0.0716037554,0.7602074872,-0.5957814142,-105.7451759888,-166.2826905549,-6.8403812522,-74.3153960345,0.7804204367,0.5013118306,-0.2497646747,0.3233024499,-0.890710804,1.5881562688,1.0515214967,-5.4717486007,-4.6695646065,0.0785240831,-0.4229716468,0.9354915931,0.1203618795,-38.7127957989,1.1369076613,0.7854830553,-90.8847198537,-0.9570249938,0.2350387127,-111.7365252797,-37.2954806129,-9.979264411,-89.8584439129,-37.1561519437,-36.3865102803,-8.6691015239,-0.2648029096,-0.0964376221,-1.8963688938,-40.6851135978,-19.62340069,-0.027745303,-13.3173747557,-48.8253782403,-0.5688765548,-15.0091370348,-54.0670293604,-0.8045165134,-2.6133781326,-0.4957618954,-42.7711479426,-0.2749282431,-0.6944925214,1.1498496761,2.0380718511,-0.6138364629,-0.7208086164,0.585316548,-0.2602477687,-0.7300197139,-3.7576829308,-0.4109696971,-0.0836076217,-0.3669144539,0.7849161579,-0.8089875636,-0.2115270415,-0.6085278411,0.0792381841,-0.9194528089,0.479032201,-257.1872953361,0.2659031903,-27.5883973274,-20.8498882294,0.197372868,-0.3598974038,-187.3057139776,-1.0458547122,0.6217366648,-66.0157032133,3.3399520075,4.2553558287,-92.8794754227,-7.5517182751,-0.6350654837,-0.1164876498,0.412408445,-3.7949256957,-310.6958324141,0.2728704432,-0.6829940678,-251.9992485222,0.871607829,-5.8536618298,-33.2745607023,-0.933650909,-410.3609916133,0.0032321296,-0.4517440723,2.7253993789,-64.4048342203,-0.0157656362,-0.7300527911,-44.8717374197,-0.4377862244,-0.7846574157,-0.5267159539,-39.6450804737,-0.8581475773,-0.1257421363,0.7696101778,0.7492036603,-0.0285557668,-1.7764967771,-0.4073801933,-8.1868069814,-0.2303317322,0.8240539734,-0.6463258701,-0.4103121739,0.2818240713,-0.7262408696,3.1617750324,-3.2166350271,-0.3076772895,-13.4287672856,2.3668985951,0.8051071097,-0.4270292798,0.2205816141,-360.0100724369,-0.9722945633,-2.9482614695,-0.0821332164,1.8993814461,-0.609036323,-1.1791730435,0.624370454,-1.3449757689,-142.9198087508,0.3220478887,0.6423477894,0.4522858747,-0.7763474301,-1.1273258485,0.2156645136,-0.5558415874,-1.0579464944,0.0960129584,0.2829404541,-1.3796067019,1.1849760718,-0.1018429117,0.8709049161,-0.1816698905,0.5693554041,-0.3096105738,-0.1782144986,-1.594371772,-0.2308739983,-153.8831370318,-1.0083697354,-143.3763272065,-0.4805579876,-0.5874902818,-9.2394496749,-4.4402777154,0.9069325246,-0.1441956361,-3.0729896532,-0.0344694462,-0.0231231906,-0.7228660143,-249.2590550252,0.7013697714,0.0698864088,1.2727804379,0.7531019983,0.5606613671,0.1522662981,0.2706858198,0.6297092335,-0.9270907315,-0.1991519385,-27.8666699785,-13.5505629884,0.5186169366,0.7363126404,0.2291579747,-0.3561370237,-1.190286952,1.2789594908,0.2549078709,-231.2197007899,0.6339241827,-0.3732869609,-0.4271853494,-1.9965167925,-360.5100045488,0.7778880004,-10.4796154683,-1.1861987463,-184.5854470443,-9.5542149302,-37.0575518797,0.441970716,0.3007280969,-110.4593697303,-1.7923967701,-0.9370797759,0.9905908376,-6.3040207556,0.9013486995,-2.2300388764,-0.3924849222,-410.3673095617,-360.4259983074,-0.679934406,-0.9318204868,-239.8973067127,0.5963647293,-0.6482499699,-215.1807326084,-72.6896874354,0.4082067658,-0.2137349097,0.2793657877,1.0765271108,-15.6048719343,-90.7778889721,0.2018118434,-354.1442094002,-0.5207619224,-0.4774339834,-209.3232403151,1.5523265251,0.4088008092,-8.457974888,0.5243269249,-0.9178992462,0.7454204206,-35.2881278186,-5.6373680204,-0.9654099515,0.88197279,0.0678303206,-1.5135953222,-0.8602987518,-4.7149984864,0.4131331137,-0.4157783029,-11.8586395919,-199.785535706,0.7849735459,-0.9954757212,0.7363469628,-0.5509275164,-0.3948239174,0.7507365204,-359.2624214321,-5.6444085791,-1.2035585846,0.5333387811,-0.8162092887,0.6272383805,0.8634633439,-0.4396690321,-114.9889559708,0.780647832,-0.5157353065,0.5970963669,0.0086793799,-1.0158383106,-0.3931668065,0.1300822874,0.4805708658,0.2550523073,0.8099836539,-2.0110165736,-0.4134773446,0.1231590345,0.5822257674,1.0605379591,0.4062150648,-2.8229937197,-0.7824929688,-47.9484228953,-25.7714989122,-9.2069301526,-249.5182166975,-146.9955475111,-0.3925313185,-0.2258282938,-2.56269751,-0.9246718063,0.8125915247,-0.6567781491,-294.5413094487,-0.3791866132,-0.977462289,0.5728731962,-0.0167458232,1.655694422,0.5286588869,-4.8546141938,-9.1541080877,-1.6304766822,0.7027203511
   -0.8493177807,-26.2580224789,0.4293452139,-0.2427582021,-0.445193298,0.5458582888,-0.5012607582,-0.3869840893,-0.0654213563,1.480561647,-1.764517614,-0.6127475192,0.5948536204,-0.2597561485,0.6433271459,-0.8789940142,0.4891789387,-0.1251000489,-16.5550308811,-0.38815901,-0.8739216517,-0.8256906926,-0.0619255785,0.1222321281,0.6438418804,-0.6242286399,-0.5945292226,0.3917937254,0.3511160495,1.108699092,0.3972120622,-0.1630724813,1.4440147459,0.2000277165,-0.9484869157,0.1698006008,-249.7648157867,-0.601881495,0.3121069097,-0.6212154163,0.2364465376,0.3574869528,-26.0475554547,-0.7536217605,-92.7804850408,0.3865632535,0.7390641971,0.3656113531,-0.8199758739,-4.2431237505,0.0977124132,-52.6245669196,-0.6188835995,-0.0029337922,-0.687940549,-117.4300139902,-0.7508025126,1.155913324,1.318106456,0.2328703099,-0.694242815,-91.0101942097,-9.283390548,1.4829999793,-0.9305705957,0.7172050352,-31.9493480814,-78.0655245201,0.7612492527,-0.0560155014,-0.5609218166,0.5386780728,-0.6373042619,0.0183735949,-1.0026771804,-10.1307590222,0.460506267,-0.225169973,-193.9251477575,-409.9531642203,-0.6710362571,-0.133689571,-0.669994021,0.105538234,-0.6132241053,1.4893646643,-3.9874808209,-6.19541988,-0.5921325452,-0.3825206447,-79.2520829214,-3.491176861,-3.2159826627,0.9818785461,-0.6185835668,-0.7789056359,0.275507988,-0.1389197826,0.4828192311,0.8985056497,-335.865412841,0.1634139927,0.6947071274,0.131461205,1.0429033956,-0.4251199267,0.7858521908,-0.2067876731,-69.9073691858,1.689195992,-53.2817041067,0.1916581505,-0.9437243379,-75.3652201528,0.1241695549,-0.0033451994,0.2669602827,0.9487664405,-8.4293301087,0.8149827912,0.6304206561,0.7206295506,0.6978059037,0.6354287325,-10.8410736654,0.3968400648,0.4756771939,0.373777458,-0.7823583526,-0.1627215457,-0.4506223376,0.9899027613,0.2583663384,-0.3137628747,-0.6301787426,1.1038862616,0.6528469475,0.5200750029,2.044319914,0.0149400629,0.415301964,-83.3450786581,0.2110379508,-0.2844505328,0.0498089655,0.2868443129,-0.1832109516,-335.8200824877,-249.8132147588,-23.9623286194,0.9567241014,-1.9045340625,1.5168053557,0.2692299522,-0.3939927277,1.0103098199,0.5207876389,-26.7679595496,0.6453502143,0.0420874798,0.8253226927,-0.2673976827,-0.0460279686,0.2821081084,0.2591831502,-0.2701725483,0.5434509439,0.4561638091,-0.3234227512,-0.3711685407,-1.7699911451,-0.1623995118,-360.6974530332,0.2656701796,0.8471920137,-0.7256785056,0.9082139754,0.0653026518,0.7533235074,0.9306960744,-0.6539224046,-0.0843034044,0.2272394984,-30.8501719458,0.9259921093,1.226855989,-0.956044756,0.8330657294,0.9479860687,-1.8907368426,-0.5780599894,-0.6620918532,0.1758688307,0.8909506184,-0.2155299119,-27.4463746025,1.0071560134,-0.6699319893,-18.5547326916,0.4159139675,-0.4504732846,0.3917493624,1.7928406458,-9.9484052613,-0.2090167348,1.1488132956,-0.1468665678,-256.5783592153,-2.8928181449,0.6716676275,-0.3320515922,0.912437449,0.1676559355,-0.0738480685,-0.3639048166,2.2650920197,0.3164453263,0.872560184,0.7959710223,0.867460125,0.7769671489,-0.7794948366,0.0022311946,-0.2095085562,-0.3679924032,-0.2443568604,0.3193709323,-26.7286638401,-354.7813120252,0.0249088218,0.4366405517,-195.2710114022,-0.3977669406,0.8173434107,-24.5029217792,0.2397645199,-6.6101115982,-0.9269951802,-0.0229189517,0.6139801699,1.2544725497,-1.1767304431,-0.6770952434,0.7338358997,-0.5430329848,0.9169834399,-333.8799968205,1.096956564,-0.7690644214,-341.5968466751,0.0290204161,-0.2590452802,0.0279925975,-0.7923564141,0.01352786,-0.2334139148,0.9333748979,-0.3148291667,0.4314979511,0.2064668373,-0.7422985863,0.8004381392,-2.4262326331,-0.1654690154,1.7849779293,0.859013377,0.0737871337,0.8077540879,0.5291555977,-176.4949818225,-0.9376500114,0.4566627718,-0.7186476232,0.9979498024,-324.0637977551,-9.8990433439,-205.703500863,-0.3986367325,1.2504578746,0.721673627,1.9696897805,0.9613682583,-0.3171084164,2.1719377679,0.3545224509,-2.4657319031,0.1049782149,-0.7482951143,-0.17913486,-0.4377460127,0.6584788468,0.0391765555,-0.5394960232,1.0002491197,-0.6990902342,-0.261772531,-164.5893736307,4.4438943601,0.9438685845,0.8593982465,-4.4123034504,0.9460280516,-0.0873726316,-0.8949194127,0.8011758616,0.9785581219,1.1298238085,0.5159248479,-0.5829648421,0.3824037596,0.8496150305,-45.4716289885,-0.5610601153,0.1004156296,-0.6815623983,0.7487874271,0.7391941427,-5.7836012346,-9.0285601037,0.2545419707,-1.303081311,-0.7606347705,0.1467564396,-75.790716255,0.8609306129,-0.4385407768,-9.8402399001,-0.8814137064,-0.8143602383,-3.0089505212,0.9571704124,-6.3590465462,-0.0951834526,2.6565115451,0.0403874199,-315.6827440291,-8.7535144481,-0.1997268544,-0.7364988281,0.6985700233,-0.0118492832,-0.5475008395,0.2395153549,0.9100593539,0.6007537796,0.3281343183,-0.1569728865,-10.1869158992,0.7244435588,0.0746266185,-0.8151247483,-1.1468058289,-0.5333687588,-1.3828537246,0.0141937949,-4.1973693609,-9.1403586548,0.8532435977,0.4990607913,-25.0116163844,-0.4232260536,-91.8469862674,0.4481447713,-0.7186724284,-6.6308435481,0.2330917238,-84.3666272985,-0.8120312651,1.2404971222,-4.4216559985,-0.4292507237,0.685495552,0.36580898,-0.3277372777,-309.5970735658,0.7874586641,0.5792375703,-0.8071940146,0.400946625,0.7748648986,-9.6481772777,-0.9143878565,0.3960356127,0.890138336,-1.2421440048,-0.082357069,-0.4997411037,-0.7194632006,-9.0447712837,-10.6845765027,-0.712717784,-247.5289276738,0.9979171378,-1.0003363476,-0.686013993,-25.7026290997,-0.4327811207,-9.6561100515,0.1510713365,-4.622571826,-0.7600607858,0.5566344945,-398.8200255398,0.8658758393,0.8386293544,-1.1471249099,-52.1914593657,0.1280836272,-28.37698446,0.9458275481,0.3020556306,-3.278952911,0.3979430784,0.8365403062,-1.0281585367,-1.6391668461,-0.5904212322,-0.2177467439,-8.3198637381,-6.7787031665,-359.8097448743,-0.9542485369,-0.8485529911,-0.299813555,0.812522944,-6.2696905327,-53.7070876122,-40.0603048872,-409.9964080333,-0.6170319124,-0.928724323,-0.6907996497,-1.4649637091,-0.3567143552,-9.4028415131,-128.1914010208,-1.4360246152,0.8408467151,0.4998223591,-37.7343694793,0.6513763639,-9.229827492,0.0537684111,0.1806735579,0.523944591,-8.6087280019,0.0607579161,-0.362461005,-0.3885298711,0.6085729488,-0.1561015684,-227.088130808,0.7279823466,-0.8092800297,0.1753996974,-18.540026009,-277.9398602984,-0.2988009174,-0.1257934699,-0.2007976,0.7845512173,0.3605623367,1.0418559847,-0.787447066,-17.1770631022,0.6204503851,-0.9650204945,-1.3404236588,0.8776883513,-215.6536092764,-1.2907565906,-23.4512788448,-0.744865984,-1.523079673,1.0945234877,0.9785084415,-10.75287652,-0.7232259927,-0.1100654174,-0.184678551,-0.194279085,0.9618750362,-57.3531738739,-0.3759045243,-0.0036911154,0.4228719039,0.7677871073,-0.9251999983,-409.5394939687,0.4688761949,-0.2927350556,-27.5959012358,0.8021738051,0.1796287273,-15.9783488948,0.7310195965,0.5289742988,-0.3636213586,0.9221678861,0.4880993143,1.0504147109,0.3827628853,0.4763448143,-60.1321051541,-0.5908353383,-251.8318950053,0.0869561432,0.8396196845,-12.0708632387,0.3779001163,0.2136916218,-0.8280478094,-245.8022758459,0.7296180517,0.5496471712,-105.7313914209,0.8393613058,-1.0000509403,-0.0243701461,-15.0337951685,-44.2827510793,-73.2741427614,-0.7480433369,-0.004558472,0.2064463421,0.0592837943,-0.3763126309,-41.3453615239,-0.0803189277,-4.0530946015,0.1090579432,2.1676819696,-0.6079876488,-5.8270330199,-21.6747160934,0.2623723694,-63.7592409555,-0.172162938,0.5996084633,-0.8947360373,0.076508763,-0.4890193645,-231.7188617564,-16.1841720542,-39.2462508526,-0.7698018294,0.7701449826,-42.75946311,-0.2191867647,-0.4445114728,0.6558833003,0.7615928772,-0.8805596443,-64.5776122832,-11.0833683024,-6.3699753817,0.7840818393,-56.5756263895,-0.3420272284,1.1765184739,-0.9467354027,0.0952883197,1.5203072344,0.4343511624,-0.4126515832,-0.4790548731,-0.2768774595,-1.659013343,0.3135925359,0.3694240528,-0.7865018561,-62.9474452204,-59.2646890469,-0.9463588752,-158.3962094173,-0.3830587804,-0.138742178,-15.9142290552,-0.5463966475,-6.3528758188,1.2829346901,-31.9752398703,-1.2027070577,0.590184716,-0.8493216644,-0.6514640093,-0.9336090012,0.8445709338,-46.0542273466,-144.4537969001,-1.0645962319,-260.0864189172,2.0311037954,-106.1552288048,-0.1236537364,-0.6782034143,-6.0566858951,-2.1566449645,-72.0955689221,-5.58867195,-2.447229399,0.637598682,-39.0574724962,-0.5133468331,-3.2486767989,0.2377646044,-0.3471956271,-0.5148678924,0.8860961706,5.3203579921,-0.9491886137,0.5637358444,-109.4870472298,-130.8942670359,-3.5303137472,0.6246801924,-1.0963755614,-0.0436140268,-0.0585550096,0.2695006762,-14.5508893901,0.2327964866,-0.6370880869,-24.2529368115,-43.8522178405,-2.4080690086,-0.9154974863,-35.4189799584,0.9753998414,-1.2835954842,0.0026833185,-21.1087917757,0.3264857298,-117.3641365113,-0.1897527548,-234.3026160389,0.8357864311,0.5090571988,-0.9991759108,1.0970206659,-0.5390091548,-335.4774426607,0.6135321094,-0.0263754138,0.6681561972,1.0618220638,0.5868361725,0.1915525233,0.9308055775,1.933705935,-0.203356932,0.8472203089,-0.2411025569,-8.8174835703,0.417455478,-0.3652930524,0.4827764722,-0.5730090534,-0.5513446565,0.1153333676,-3.9318387666,-1.7994320592,2.3847036177,-0.3802528446,0.0003252235,-0.3362573334,-0.4293593128,0.1617805764,-0.233558156,-0.3573674521,0.633855653,-2.7479852414,0.0181090201,-0.0191144265,-4.3112054678,-0.7954902691,-291.3604652731,0.2367961236,-0.6443406182,-0.8288286749,0.1027522586,-0.6142446736,-3.0914198649,-0.6739104348,-20.9574194186,0.0404108881,0.9067967584,0.6102767304,-1.0257751648,-2.4599182129,-0.2696979385,-1.3356801009,-2.1134846812,-0.287578157,0.6195614282,-112.8881450566,0.8704751426,0.2738754468,0.3174488518,0.6255501528,-0.6018004339,-130.4876206964,-0.4008568396,-0.3826812393,-1.5381660716,0.5605736118,0.7170983408,-51.2791282306,0.1393245259,0.3686965272,0.7721737749,0.7995671138,-0.9335122724,0.0561882531,0.1001166896,-0.0374208562,0.0617338479,-0.3469827106,-34.5894292433,-246.5439457438,-0.2503313909,-1.0452353866,0.7965134061,0.9905020828,0.3453782053,0.7201215103,-10.6903679573,-112.4355943052,0.1276272631,0.1255126243,-0.1355576575,-201.2419178406,-0.1838211586,-13.6659262851,0.4975982039,-0.2387575334,0.4756521183,-0.0826992673,-0.3732770228,0.8493297805,-408.4448675952,-0.8027405837,-0.2698094505,-0.3890870825,0.3315142504,-25.7226400277,-0.3099840016,0.827231741,-70.8030390911,2.3385398867,-43.8718999659,-23.4469890538,0.2334001104,-35.4834556835,0.4378307599,0.9878346746,-0.4061530805,0.397861996,-295.4284675567,-0.2997878732,0.1324500715,0.9223330394,-0.6884462368,0.3573142195,-108.5490664774,-0.7472320628,-0.827673667,-0.2830385489,0.510993367,0.6997456107,-0.7807298706,-118.8587715941,-0.6009662199,-13.9299752159,-0.1175186861,0.3177836438,-66.7202360424,-8.5213692305,-0.677878923,-0.2631521555,0.3297977073,0.8352357057,-0.2152085922,-24.7113762531,-25.0916677193,0.2902161869,-16.5349805102,-122.8396234376,-32.7216191404,-4.2746847745,-0.6770189782,-50.822381205,-10.5998201369,0.5584882256,-0.0765880438,-10.1286203845,0.123908979,-32.8452423362,-108.3137710367,-7.6597719315,-99.5595614581,-7.0460682781,-0.0345237179,-20.5723049853,-23.4554955779,-9.5773033759,-55.9205208523,-37.1853630375,-0.4818130634,-66.9461971505,-6.7443931545,0.5862078567,-260.2990017978,-23.3956303244,-163.6946002001,-0.6200072504,-0.7344001178,-0.2795641541,1.1035601458,-21.700448537,-1.6176104747,-0.0651314399,0.3637357682,-1.1060686187,-39.8524403951,1.0129277406,-0.7857020392,-0.4506177719,-281.4521166536,-1.8348994502,0.5578323575,-26.3995403099,-0.4492209366,-1.7645246309,0.390414181,-0.8246978557,-34.5415072007,-0.2300765373,-0.149522949,-0.5445889162,-0.8874306257,-0.5896191142,0.6451824687,0.062201929,-23.9943253216,-27.2412777399,-53.0161529822,2.8079864488,-1.0593831093,-0.4213476669,-0.2401319066,-0.5537325583,-78.1207716483,2.9022869124,-11.7694338412,-3.5508133817,3.106129913,0.9302304997,-42.7680324745,-0.4683915624,-8.0252882065,0.5977446692,-2.9858624768,-4.2188701776,-0.306041003,5.1648082002,0.6814607716,0.0372067963,0.7225818162,-1.2220932702,-126.6303166861,-0.3347025943,-1.4726382241,0.031009921,-12.3314107952,-0.0793968579,-13.8672091421,-0.8771102959,-11.7338823553,-0.6283777966,-1.0621046277,-0.2355147477,-40.8615279282,-12.9908394294,0.6540965484,-0.4078937739,-0.7511540432,-18.9944007786,-0.1216180544,-94.5272587448,-0.978582143,-3.8980736254,0.3702305261,-0.7647838447,-0.4229963684,-0.0270759602,-0.5509714258,0.3535409153,0.3763783347,-7.1030954453,-1.0931184478,-0.4108262041,0.2060265487,-183.2589150224,-110.0422562061,9.9276785196,-0.5408709192,-234.3852521723,0.4597088784,-0.0577375828,0.2164034916,-0.7609096404,0.3147780279,-5.9245865961,-28.688546768,-293.8920714298,0.0357485191,-2.8485352888,-29.4278099876,-0.1527115662,-29.4250115474,-32.7223242859,-241.6914617449,-18.7984131574,0.5517643195,0.6023452828,-110.9932693204,-3.8632769995,-80.5491645287,-10.051269026,-6.0897087822,-0.850735649,-40.6295369304,-129.8000156689,0.765728439,-1.0169135497,-244.4966223219,-0.7323803936,-8.0816932762,-5.1997274094,-36.2889334087,1.8023295449,-0.7418538165,-286.1207492225,0.9550299286,-7.0279762213,0.7803330062,-7.2484422038,0.8122974649,-286.6008430576,0.585785948,-1.4630981468,-0.0596195099,-36.9510535163,1.1743832471,0.8331560007,3.7302682824,-0.5185044762,-186.5387632845,-20.651715785,0.5526375943,-0.8537400424,0.1869353369,-6.1337609085,-80.1311462931,-0.837583936,0.9732563093,-0.2565372137,-24.0021847018,-6.812256657,1.046708125,-0.2888855464,-43.6354590608,-0.32496753,1.1834323825,-0.1471138665,-20.6086026621,1.3833792584,1.2815836837,-8.3235597782,-219.6474359307,-190.2992396069,-2.0110480273,-1.0434322741,-0.0938859476,-0.5063081702,-0.5457217538,-0.8271350754,-0.2195575969,-0.622620847,-5.0801487386,0.8464218506,0.3037132366,0.867256767,-69.4275038496,-0.0517272492,-0.1281526693,0.876086415,-2.173979059,1.174403363,0.2716479282,-0.5733660681,0.9746358176,-148.877023411,0.3379193825,4.7813127728,-0.4601760804,0.6339872845,-36.2190627212,-2.6150341998,0.338961371,-0.2407709448,-0.3697592655,-0.8092052399,-172.550830408,-50.6058517271,-1.4462350731,-37.1434583476,-0.8738405882,-2.6857384513,-0.8522121322,-147.4003929623,-0.7365249238,-0.4230770126,-0.1305290757,0.6499123816,-0.3856340487,-0.8781087884,-1.327209222,-10.3355810638,-0.6606564337,0.914521938,-260.2724722684,-115.6715296717,0.5285497736,-0.7062736295,0.7901774697,-1.9381604153,-0.0289713166,-15.5850643068,-162.3118772241,-30.4051491166,-189.3177741009,-0.7127565146,-144.2757417517,-8.6060612983,-21.0073201513,-156.0353745572,-95.550375156,-0.0847083869,-0.1782805668,-85.948652288,-0.4997826663,0.6022461204,-0.7026427066,-33.4870599703,0.3847051215,-19.7230932194,-0.3354628223,-0.4042578269,-19.6816720839,0.2317416155,-309.0371219396,-178.4864791284,1.1349131042,-15.3378408335,-94.3911849395,0.599390806,-359.1095930321,-44.7613596487,-149.0524899545,0.9101890401,-7.1018649888,-0.3968635614,0.4252178121,-72.2976241266,-11.9335726124,0.1343370089,0.1228218768,-11.5844213193,-308.5826053345,0.9633940183,0.3225978172,0.3522068325,-4.4585303494,-3.939486298,-0.4729009744,-157.9136742528,-0.7357280769,-12.9200265057,0.734026256,0.8601761359,0.5772255732,-1.5576110473,-0.5200699073,-6.0923188249,0.0979415221,-11.2375332601,-0.6069788893,0.798215582,-18.7964377732,0.0308715256,-230.7528654193,1.2037679054,0.6527163352,-0.42559844,1.4410258688,0.0864529496,-211.3515494028,-1.366905573,0.3435373438,-9.7959022323,1.8662077418,-1.1459854831,-215.1927477941,1.0329150944,-15.5760848477,-0.6864809991,-0.8845107441,-4.5162225224,-0.4153022765,0.9037414096,1.0337460325,0.2928960287,0.6586306235,0.4317368845,-249.1297909894,0.8291028894,1.3881902743,0.6483286512,-28.0471978499,-4.2975759365,-96.0346846087,-2.7659410435,-18.477806619,0.8880709353,-0.2813106175,-9.6362930644,-69.3960891651,-10.3938320971,-1.0125639612,-97.0701179405,-0.5374045458,-15.9162484146,-0.2910864096,-1.6561681312,-0.888005061,0.8456403511,0.8916405837,-0.2769743678,1.13417985,1.3204156996,0.0063384366,0.8338310571,-0.3180636092,-0.5493279206,-0.7647668958,0.4983794649,-1.8763800971,-0.7105435368,0.1032848985,-0.4837657774,-0.1304558311,0.6310682073,-0.7993994259,-0.5129348397,0.1152643416,-1.0173587129,-0.8907744482,-0.2044533898,-1.6116804664,-0.7674013293,-0.5060588461,0.3309559748,0.7474006927,-0.413732387,-0.9827600317,-0.9851069416,0.3276354179,0.9385981294,-0.8160919777,0.799212758,2.078556644,-0.1756844059,2.8127203211,0.670091091,-2.4460265154,-3.4052141483,0.3768290022,0.7318228689,-0.1994917185,-0.9532847221,-0.9483012656,-1.2806004884,-0.7489964423,-0.0728763829,-0.0113695995,-0.5221982826,-0.9947384306,0.5288859549,0.7701009936,-0.1649403243,1.1002911817,0.8373525117,0.4899691197,-0.5036946716,-0.2430411231,-180.0152216334,-75.2526087491,0.0407139128,0.1361761868,0.1580218109,0.7014098179,0.6971125666,-26.0700662912,-1.9725996943,0.0319781978,0.6749560343,-5.3989243289,-7.6808963508,-8.3048102562,-0.5537144091,0.2906948349,1.0889521458,0.5440609909,0.7984667667,-0.4487476716,0.9160369065,0.5690772491,0.9918223192,0.0668048026,-0.4909353646,-0.8273884576,0.4024547321,0.0057168202,0.722129245,0.906789525,0.8482400155,-0.8303733422,-127.0573888083,0.4982569933,-0.3465702625,-0.3336855909,-219.7797260441,0.2076362679,-0.5669170271,0.4083835034,0.025647584,0.8238582622,-0.7699403641,-0.9274537325,-0.327888765,-0.0054090499,-0.5787105299,0.9655084846,0.076702029,-0.1221752569,0.9573232252,0.5000640144,0.4405309137,0.3823604847,0.7700652156,-0.8501543845,0.6336654227,0.8948204087,-49.0071559393,-0.7786869634,-0.6988831967,0.9880415262,0.7535982252,-0.3786627886,-0.3459235132,-0.4523029141,-0.8898254249,-0.3147077259,0.4613146052,-0.0490137858,0.9515424741,0.3319846147,-0.7595834766,0.2377228856,0.3260752549,0.4589135755,-0.2116598167,-3.2389726188,-12.8879977003,0.0164202841,-0.8965800993,1.8643117145,-0.9214483877,0.538416952,-0.3223050937,-0.518714921,-2.2487048976,0.5941198218,0.1997734688,1.7888414892,-0.1964745601,-0.3068284583,0.687771054,0.0747864517,-104.3854410417,0.4248667412,0.1770508527,-0.4409714172,-0.0769500816,0.0987898676,0.0032831358,0.5664130038,-0.5182341667,1.2004986479,-170.9782560942,0.6839734462,-5.5789549664,-0.3725979662,-0.694457689,-2.4600539121,0.2529537145,-0.130552297,-240.2133288748,-0.1311663122,0.2884783616,-198.0630183702,-0.5760541154,-5.4794838158,0.7062934291,-0.8400041614,0.1854231406,-0.9428417409,-8.1110454715,0.2909508233,-0.25530567,-0.6196576274,-0.4185071914,0.3791457996,-144.1919697523,0.0277079363,2.988819549,0.9773110702,-0.3231848855,0.8398549814,-141.139216789,-0.4378397858,-3.5053351191,-1.8033463151,0.8781428356,-0.8125618943,-216.8508276348,0.1147919271,-0.3621862127,0.4248866654,0.3076738634,-0.2341547893,-5.3383258273,0.7786355248,-1.4097118323,-2.9904481158,2.8581092314,1.039171866,-13.9279433661,-71.8455856484,0.5623856096,0.6205741562,-0.5401195871,1.1193798872,0.8648377903,-0.2389492109,-1.1794702088,-1.3703611363,-9.9968068384,-0.0181452675,-2.5730709721,-154.9584514133,-3.5936003488,0.9247031161,-59.370420872,-1.186945375,-1.1907999009,-0.3190053436,0.0316004264,0.8371068371,-0.7584126083,0.3377957046,-2.7454976279,-0.3473420922,-72.2378886534,-1.5726254463,0.2546695615,-246.5993385719,-0.0621234297,-0.8561419356,-190.755432865,-7.351422878,-61.5563317835,-0.0832714228,0.8943174085,-0.0672256508,-0.9997039929,-313.5237622376,0.1535427918,0.8044865908,-0.502396683,0.8851294414,0.3032593996,-159.9161690725,0.4561087245,-0.7154301472,0.4802454574,-0.8812944893,-1.1097540769,-0.2655837264,0.1043984401,1.2336404275,-0.538302703,-1.2951974979,0.931106672,-0.5681001905,-0.8106845989,0.6481353529,-0.956937121,-1.2814909851,-0.779931022,0.7329965871,1.1210993363,-0.3618351485,0.1542314054,-3.1042517024,-0.9884902148,0.2128618593,-0.3236176702,0.6240825547,-3.5506705054,-0.8747455532,-2.8353484879,-2.1154359873,-0.7881380615,0.8691311932,0.2571435656,0.0183887794,-0.4705156721,0.2889798583,0.399155144,0.5171177878,1.3174206725,-2.1095643009,-1.3940042223,0.4922117139,0.2144571102,-0.1788312892,-3.7466801539,0.6511474028,-0.7873459187,-3.7430256548,-26.6471269612,0.9197528037,0.3330206913,0.2007823718,-0.3320447975,-0.0701591861,-0.8730523,-0.5561496346,0.7586754497,-0.5077493718,-252.209866311,-0.0964066481,-0.6956153915,1.102098132,1.2854434349,-80.5592631781,-0.4544872215,-79.4452319498,0.5097544189,-0.8303740604,1.5030723647,-156.7384040571,-125.2633094691,0.5358418136,-0.509395683,-1.1456926973,0.2868247703,0.9157541625,-0.4094240252,0.4311828194,-0.1719598013,1.5958075123,-0.5320090183,-0.0034835478,0.4304945498,-0.2211443019,0.4594116593,0.1863506701,-0.1062111956,0.1940921944,0.2648860873,0.613298695,-274.9950113696,1.7371367219,0.370354561,0.5478666213,-70.9120722409,-186.1740206161,-0.5114223075,-0.4758005454,0.5463207731,1.0626364609,0.5886603825,0.1743427354,0.9548889914,-0.8614348655,0.3405536808,-0.4113148528,-0.0912931787,-0.449432228,0.4229201005,-94.4601699035,0.6645866248,-71.2574626378,-0.0476849898,0.589241571,0.7979379,0.7037630572,0.2224140129,-0.5228147636,-0.3019001657,-0.3704660518,-0.4711222497,-0.1957881128,-0.51510106,0.4830742625,0.6761214557,0.1985435583,-0.2280352384,-121.1660872945,-0.7600674208,-0.3982862314,0.596328535,0.6385402859,0.573325905,0.7128913509,-0.0245418189,0.4739737443,-0.1891522474,-1.1136125073,-0.8787691023,-12.2625845028,-0.5524633943,-2.6402557771,-0.3603348938,0.1218063123,-0.6013052874,-0.8626698632,-2.7762889499,-0.6707382882,0.1239584372,-410.823258835,0.0981983735,0.7321537844,-0.5150853066,0.17563,-0.5970870574,-205.8871405706,0.8631523146,-0.0917932416,-1.3248381604,-0.53134954,0.3109710164,0.562531778,-5.80297104,-246.8727466246,0.3741305969,0.3553569288,0.7641711078,-0.9813300683,0.711214244,0.9447065129,0.5836965212,-0.4998033565,0.5350411753,-27.0112163305,-0.1263300953,-0.8805381096,-0.2809331002,-0.6511200172,0.8548954745,-3.0844190882,-0.109092619,0.9682795506,0.8747480969,-1.2554405312,0.8424061895,0.5264155534,-104.2321169907,-0.2519615258,4.5120275023,-1.3976434836,0.1795930147,-1.6357362255,-99.2909099775,-0.2749150686,-0.0926223285,-0.8124609255,-0.2270644542,-0.991245655,-232.4252225978,0.5689388579,0.7663162936,0.9787170914,-0.9065946356,-0.5718142181,-0.2695449773,-0.6303147297,0.7074656923,-0.5712084002,-0.6761215478,-1.3122369777,-0.9711694581,-3.8145898941,0.2742411659,1.8109634519,-0.1226119948,-0.103388219,0.7925546317,0.8758838708,-17.9318786272,0.3922294018,-1.065798721,-256.9425363125,-23.537388764,-0.4499067776,-0.5023853225,-0.9721338015,-24.6353570484,0.732348207,0.646445919,0.4681778807,0.0412677183,0.7991690729,-0.4576411832,-0.3552043724,-0.4623263892,0.6983950928,1.067546533,-0.2146359162,0.7348251615,-5.1772587247,-0.4203791768,-149.2034035059,-0.8222499005,0.8968381478,0.9760081432,-0.2623435322,-0.456232482,-0.6554350403,0.495793216,0.0356153815,-188.3823594181,-1.1078549469,-18.8401555751,-0.1750021865,-0.5354448801,-0.7671125312,0.2131816235,0.582649208,-0.1723843572,-3.7075545979,1.0671026878,0.7728423955,0.7457259433,0.1192572235,0.6085661568,-1.2301293389,3.2272107286,-2.0507985943,-0.7306431569,2.7602181254,0.8360136487,0.557867877,-0.2418528156,-0.2347417575,-248.5252659113,-0.5270872812,-2.6110520258,-30.9298749725,0.4996436267,0.1196847301,1.0512270746,0.7661636649,-0.3635384194,2.3103031903,0.1150310702,-0.9914793942,-0.8134221606,0.6187932606,-2.0237743616,1.1564757267,0.0466818375,0.8710830085,-0.0153574929,-1.0254545118,0.1629142862,0.8682252424,-0.2999182514,-0.2240302316,0.6915176096,0.333979584,0.8260689057,0.7138713398,-1.0225347578,-0.1087521713,0.84864289,-0.6383781081,0.6522202785,0.0502768171,0.5717294227,-0.8578293514,-0.5384705625,0.1273015482,0.0954216514,-0.9300427644,-184.1858756483,-0.5106512384,0.3537938792,-0.0965020516,-0.3541734965,-80.6217674584,-137.9643634791,-0.6582110624,0.9401458925,-0.3796078747,1.4907618569,-11.3687614065,-230.3129793548,1.4206922369,-0.358620907,-0.0876169243,0.7296372639,-4.2470766263,0.2084654828,0.1768376145,-0.1272919431,-0.4522873563,0.5182191572,0.6217628445,-90.5714429736,-235.7426782144,0.9341779563,0.041167712,-0.8295350262,-1.0064366354,-0.2193825862,-0.4396526496,-203.0356299414,0.5266121535,-0.7568969887,-0.4343810955,-98.0366000394,-5.3859755513,-10.2862934589,0.4369439448,0.3937761681,0.4191886813,-0.320569276,-1.4234133005,-0.279493117,-0.4610273582,-0.0110028542,0.1145221383,0.0812531231,0.899600639,0.0658723475,-25.551433235,-0.2454171635,-206.2794390093,0.23087928,-0.7623929129,0.2696025967,-15.2459277136,-0.1023803586,-0.9236546889,0.0516401759,0.0631947679,-0.8692935148,-359.4096536595,0.845212021,0.0353667102,-0.4212248995,-0.8092319081,-0.2744910603,-29.1251703472,0.8748854072,0.1115781232,0.1173589194,-4.176640084,0.8661804975,0.5387770199,0.1714181729,0.4605429413,-0.1334421496,0.8752953773,2.0888733613,-327.9876874053,-0.2247298311,-3.0550071107,1.2914302491,0.0547466423,-90.6807538234,-0.4998531964,-2.2628348499,3.8237445744,0.2775850575,-288.7921636254,-0.6524027522,-0.7939566473,-26.3785232933,0.3519157945,2.6360941879,-6.7170353075,-159.1933756882,-360.0132217868,-27.8046996303,1.0249455114,0.4045214911,0.5529193406,-74.577724747,-0.7823531424,-25.4118604882,0.694088773,0.4011753344,0.3147392429,0.4582131768,-6.5615123844,1.8491476042,0.3952169044,-0.7555262059,-3.183423013,-24.4464985541,0.4285554904,-0.7217730813,-0.5099913968,0.1086466031,-0.3029174806,0.5979374478,-0.1179789243,-9.0754953386,0.5612292692,-0.5286606492,0.0250647365,-92.4572550184,0.181209289,0.2005103759,0.111607826,-0.3280197851,-0.6830326187,-39.4739290403,1.6403893138,0.0483552231,0.334237245,0.9618004532,-44.0987450162,-44.2408170871,2.5090888381,1.0667356815,-1.6779324787,-2.1471065317,-23.9943495246,-5.3246763204,-0.3855281125,0.3423627221,0.2466025183,1.1358003321,0.4715424553,-167.9465249857,-9.676526955,1.0786545775,-0.9536076312,-0.3008365779,-407.0328405575,0.3034673455,1.2319835575,-216.5691536234,-80.262763244,-0.6797928467,-227.5439170279,0.0224054388,-0.253605143,-3.6042992695,0.8562999336,-0.8122279593,0.4290086093,0.9297173355,-0.5110167242,-0.0275764594,-3.7547836697,0.8149519108,0.9573664785,2.1362484337,0.9695103744,-0.0854752877,-215.4104227184,-0.3953015015,-0.1803856671,-1.4136841944,-0.8984798483,0.5927910394,-3.4224688295,-2.4487444817,0.7297673584,0.4966218934,-0.7052407489,0.326565174,-323.9070671085,0.1139645242,-0.9140505353,-0.7633130712,1.3789538133,0.3055092404,-5.0550654773,0.5193004346,0.4672756225,0.9319950296,0.2429965925,-2.3475428352,0.2876957737,0.1006251878,0.6460137817,0.729613765,-1.4424089746,-0.2125686876,-0.8390049537,0.1256213376,-8.0861373858,-0.159967417,0.1223237595,0.4207426139,-0.3907818376,-0.9391553574,0.3912315742,0.5523610876,-313.6506533091,-0.4360708917,0.3906730154,-1.0271095465,-0.2363797855,-0.8675816854,0.6857507291,-0.898359626,-0.6658738091,0.7720660616,-0.4200989654,1.3696709819,-0.3673393775,-188.8341409421,2.8687534395,0.6752700661,-0.7748453124,2.4209090941,-3.13318443,0.5499960806,0.6278553978,-0.5571091086,-0.0693251497,-1.4857522967,0.5752996799,0.4119412382,-0.021009651,1.0506368476,0.3813512018,0.6721106357,-284.2384520285,-0.481090724,-0.311648484,-406.8244091171,-0.327083566,0.6899192289,-0.0672150435,-1.5567547965,0.6799940211,0.2334243441,-292.2052705218,0.2714305139,0.3918115853,-81.9404575967,-0.1336121471,-0.341198717,0.5462848379,-0.3274824971,-0.722075119,-221.7035902158,1.5416549415,-0.3203278243,-0.8267785264,-1.3403335676,-0.4558745602,-4.4082582042,0.1544214199,-0.6174672768,2.5776298631,-0.694304005,-0.4386900814,-409.5831104925,1.2183690398,-0.0295014149,0.5951118682,-0.9567194109,0.5634487596,1.0488584665,-0.2344515567,-261.6397585903,-74.9513902655,-20.9860749555,-0.9588034542,-4.130926668,-0.3813772449,0.2035770331,-0.9460877895,0.1741741542,0.8825133476,-3.6103551645,-37.7447455834,0.9653449564,0.3010948551,-0.0996830561,0.7667756544,-0.3138013224,0.2526107399,1.3374066463,-1.9314221909,-0.1238404617,-237.1770562085,0.5560144186,0.9920957953,-3.4927820827,0.6527507025,0.79769069,0.0417780336,0.4867182415,-0.4140715484,0.2306788569,-0.7969459051,-0.1506722645,-0.2967459535,-3.83654022,-31.6765024809,0.1075177644,-177.6814908685,2.5249257867,0.4965272161,0.188929005
