encog,BasicNetwork,java,3.4.0,1,1589904908319
[BASIC]
[BASIC:PARAMS]
[BASIC:NETWORK]
beginTraining=0
connectionLimit=0
contextTargetOffset=0,0,0
contextTargetSize=0,0,0
endTraining=2
hasContext=f
inputCount=500
layerCounts=235,128,501
layerFeedCounts=235,127,500
layerContextCount=0,0,0
layerIndex=0,235,363
output=0.0000512506,0.0000725545,0.0055102292,0.0002301184,0.0000012032,0.0009655214,0.0000000076,0.0000084619,0.0000161945,0.0040538242,0.0000035832,0.0000387049,0.0008879782,0.0020479047,0.0000587953,0.0001998228,0.0029375384,0.0002043476,0.0054907528,0.0104313584,0.0013624839,0.0004935265,0.0004337185,0.0002131095,0.0000260577,0.0068702147,0.0003014438,0.0000242187,0.0002576747,0.0000441823,0.0053085314,0.0016503635,0.0000224437,0.0003676001,0.0001566026,0.0000580071,0.0003985447,0.0001480322,0.0000012809,0.0000417305,0.0038547673,0.0000034503,0.0144484678,0.000000607,0.0000661324,0.0000010081,0.0000159531,0.0012824376,0.0000209664,0.0001551924,0.0000174314,0.0005238885,0.0000402133,0.0002855216,0.0156232406,0.0000603922,0.0023148528,0.0011961287,0.0000001499,0.0199656258,0.0001687536,0.0047497835,0.0022146238,0.0002125716,0.0006744718,0.0000395933,0.0009546298,0.0000831854,0.0000565818,0.0001246769,0.0016642022,0.0000487618,0.0000644126,0.0000010884,0.0088416915,0.0000504261,0.0000018035,0.0005462833,0.0000136674,0.0077060713,0.0000080182,0.0251979155,0.0007675914,0.0000157884,0.0001135626,0.0030742449,0.0021726083,0.0004253879,0.0000012322,0.000135787,0.0005942717,0.0001148657,0.0015504649,0.0019969829,0.0010493262,0.0014608155,0.0000199973,0.0007419075,0.0000868363,0.0005751824,0.0000241684,0.0000148161,0.0000751442,0.0000610502,0.0000098432,0.0001038435,0.000002404,0.0004715311,0.0005437663,0.0773701575,0.0144847948,0.0001569673,0.0002084358,0.0000572541,0.0000807277,0.0000000072,0.0037304395,0.0000025556,0.0000127922,0.0004068806,0.0007810366,0.0550249403,0.0091566037,0.0370134795,0.0000243981,0.000022531,0.0041804106,0.000015181,0.0000299281,0.0001195615,0.0000001082,0.0000014472,0.0000176851,0.0000036028,0.0000111335,0.0000007281,0.0000189758,0.000042675,0.0001208933,0.0009217613,0.0006409924,0.0003318018,0.0018516992,0.0000282724,0.0031578539,0.0006130999,0.0099834585,0.0001092054,0.0002181066,0.0120481583,0.0000552444,0.0000042452,0.0000260618,0.0004744621,0.0020166949,0.0000053485,0.0003848741,0.0000779159,0.0002984546,0.0003032912,0.000022792,0.000026307,0.0000008178,0.0007772857,0.0001599143,0.0009909911,0.0002921039,0.0164405772,0.000056658,0.0000146656,0.0000026921,0.0000321252,0.000000475,0.0829020168,0.1512386676,0.0210110403,0.0339807475,0.0000188673,0.0029113665,0.0336855237,0.0007056262,0.0002891999,0.0000457865,0.0147297551,0.0092687336,0.0000003951,0.0000968907,0.0014449818,0.000549354,0.0000439988,0.000013656,0.00315919,0.0002191499,0.0000443892,0.0000057275,0.0000260976,0.000084754,0.0000638739,0.0008157081,0.0007328861,0.0081194698,0.0056469437,0.0010545375,0.0004580209,0.0858105519,0.000218753,0.0000884911,0.0002100511,0.0078211346,0.0000230061,0.0000505806,0.0000570725,0.0576882652,0.0026907342,0.0000544208,0.0144350545,0.0002280053,0.000007635,0.0001948979,0.0000005824,0.0000435695,0.0001139485,0.0033363795,0.001584209,0.0055715515,0.0000048639,0.0003058425,0.0004254966,0.0014714206,0.00517498,0.0001407524,0.0018955194,0.0000305075,0.0004742333,0.0001224151,0,0.1408908101,0,0.2355168146,0.8321625631,0,0.3487563704,0.2766629112,0.6299689815,0.6530906164,0,0,0.7297600893,0,0.0107639017,0.6373852522,1.9851573875,0,0,0.3181138304,0,0,0,0,0,0,0,0.5203896132,0,0.7434109633,0,1.7301394443,0,0.3713181897,1.3324545262,0,0,1.2531889434,0.1509991096,0,0,0.4733404566,0,0.0781444704,0.4370114308,0,0.0140593558,0.0961333359,0,0,0.6091834411,0,0,0,1.4146434374,0.7348337074,0,0,0,0.8249288215,0,0.7783390344,0,0.8393902319,0.3420619137,0,0,0,0.7849746235,0.804368406,0.091653571,0.0269534519,0,1.3474499202,0,0,0.1000110654,0,0,0.3231465363,0,0.0709500887,1.0161684972,0.0891547753,0,1.2332734892,0,0,0,0.1256983912,0.2218333994,0.3196245754,0.3689935294,1.1361342357,0,0.4173105839,0,0,0.425643366,0,1.0521345071,0,1.0667863463,0,0,0.6423893678,0,0.7625207388,0,0,0.3080772383,0,0,0.2133322984,0.4603109062,0,0,0,1.1277922307,0,1.1752338403,0,0,0.8360171967,0.3604249872,1.1035889583,0.6344154871,1,0,0,0,0.01,0,0,0,0.039,0,0,0,0.059,0,0.049,0,0,0,0,0,0.167,0,0,0,0,0,0.069,0,0,0,0,0,0,0.01,0.029,0,0,0,0.069,0,0,0,0,0.078,0,0,0,0.02,0,0,0,0.01,0,0,0,0,0,0,0,0.029,0,0,0,0,0,0,0,0,0,0,0,0.088,0,0,0,0,0,0.01,0,0,0,0,0,0,0,0,0.108,0,0,0,0,0,0,0,0,0,0,0,0.039,0,0.01,0,0,0,0,0.01,0.059,0,0,0,0,0,0,1,0,0,0.059,0.039,0,0,0,0,0,0,0,0,0,0,0,0,0.01,0,0,0,0,0,0,0.01,0,0,0,0,0,0,0,0,0.01,0,0.01,0,0,0,0.098,0,0,0,0,0,0,0,0,0,0,0,0,0,0,0,0,0.118,0,0.049,0,0,0,0,0.029,0,0,0.039,0,0,0,0,0,0.069,0,0,0,0,0,0,0,0,0,0,0,0,0,0,0,0.039,0.01,0,0,0,0,0,0.127,0.01,0.039,0,0,0,0.02,0.029,0,0,0,0,0.01,0,0,0,0,0.01,0.02,0,0,0,0,0,0,0,0,0.02,0,0,0,0,0.01,0,0.01,0,0,0,0.01,0.049,0,0.01,0,0,0,0,0,0,0,0,0,0,0,0,0,0,0,0,0,0,0,0,0,0,0.01,0,0.098,0,0,0,0.02,0,0,0,0,0,0,0,0.275,0,0,0.029,0.039,0,0,0,0,0,0,0,0,0.069,0.01,0,0,0.029,0,0,0,0,0,0.069,0,0.01,0,0,0,0,0,0.02,0,0,0,0,0,0,0,0.01,0,0,0,0,0,0.108,0,0,0.108,0,0,0,0,0.029,0,0,0,0,0,0,0,0,0,0,0,0.049,0.049,0,0,0,0,0.02,0,0.01,0,0,0,0,0,0.069,0,0,0,0,0,0.069,0,0.01,0,0,0,0,0,0.029,0,0,0,0,0,0.029,0,0,0,0,0,0.069,0,0,0,0,0.049,0,0.039,0,0,0.02,0,0.069,0.098,0.039,0.029,0.039,0.039,0,0.01,0.029,0.235,0.01,0.049,0.039,0.049,0.137,0.186,0.01,0,0,0,0,0,0,0,0.039,0,0,0,0,0.039,0,0,0.01,0,0,0,0,0,0,0.029,0.01,0,0,0,0,0,0,0,0,0,0,0,0.176,0,0,0.049,0,0.039,0,0,0,0,0,0,0,0,0.01,0,0,0.01,0.01,0,0,0,0,0,0,0,0.01,0.01,0.02,0,0.01,0,0,0,0.137,0,0,0,0,0,0,0,0,0,0,0,1
outputCount=235
weightIndex=0,30080,93707
weights=##0
##double#93707
   0.5348018526,-0.0991265856,-0.11869097,-0.5221482882,0.4513067648,-0.3958201397,0.3052417357,-0.9461977588,-0.7575488586,-0.5103467438,-0.5112480211,-0.6802945318,-0.4850950561,-0.6233201973,-0.1347730566,-0.8473772549,-0.5502287699,0.5863416958,-0.2497471952,0.9255296642,-0.5112856844,0.9949006673,0.5136274514,-0.5498744839,-0.5215697974,-0.2926560364,0.7672930734,-0.858434988,-0.9891498463,0.5727692656,-0.4853673862,-0.0528583118,0.8441182865,0.086462282,0.5946410329,0.2670835925,0.269921103,-0.9257304495,-0.3755041159,-0.1229941518,-0.673141259,0.6396641637,-0.1891090269,0.2121170953,-0.3656312273,-0.07554769,0.345779181,0.0416896152,0.9325716445,-0.1420904548,-0.9601095015,-0.6512061109,0.4205498546,-0.1150089693,-0.0325351813,-0.3021248418,0.2400133049,-0.0117467843,-0.0350763079,-0.2157298744,0.443342499,0.6225949963,-0.6948248261,0.9208463707,0.0421238374,-0.5857753424,0.3267585557,0.2382524129,0.6169103774,-0.0942155929,-0.2293312149,-0.5240109178,0.0698743585,-0.9221129926,-0.7485450268,0.2474087294,-0.2895517179,0.2107683437,0.5599465181,0.9262766294,-0.6604937976,-0.467092799,0.8163371655,-0.0288344463,-0.8711371447,0.2752807523,0.809767971,-0.3522775859,-0.4021640635,-0.0382282054,0.2261307184,0.2212935375,-0.2387794341,-0.3366670644,-0.4448403402,-0.4981778927,-0.4818008814,-0.7175402921,-0.8705935368,-0.8651243736,0.91722902,0.5788417055,0.3228977026,0.089186978,-0.815486783,0.2007179806,-0.1363596654,-0.038219479,-0.0411088109,0.6425384128,0.5962889934,-0.2441767005,-0.4103869019,-0.0542008092,-0.605580973,-0.659065436,0.0228544524,-0.681687907,0.0860969189,-0.6412065773,0.111089349,0.3905319252,0.8670225973,0.2367425512,-0.4636966293,0.37371286,-0.6575296056,-0.2309254935,0.7246216479,-0.0206210742,0.6995279487,0.8280564473,-0.9699014387,-0.5712201532,0.4961518168,0.8798807792,0.9313401827,-0.0772787265,-0.1088177558,0.6344593062,-0.7433430735,-0.2297440798,0.3082736152,-0.9388067402,-0.6834196242,0.9019709342,-0.3685803757,-0.5675299506,-0.255461361,0.9219510851,0.476235933,0.0092390704,-0.4515444403,-0.4824140976,0.8845463783,-0.0485943242,0.1735343842,-0.5317351959,-0.2851085912,-0.5341701444,0.1170166197,-0.1816335394,-0.5694123109,0.1487052156,-0.3138378566,0.2242460646,-0.7572493994,0.4635479704,-0.766650093,0.3922958154,-0.2530168111,0.9316651702,0.4136477683,0.3743048568,-0.5294701922,0.6960786572,0.6226096748,-0.924562879,0.8931596772,-0.3372060636,-0.5677233664,0.8145077786,0.8775886626,0.7707088072,-0.0251853595,-0.1606480996,0.3274222142,-0.9463025855,-0.9538992417,-0.0422318423,0.9945128879,-0.8070452522,0.5197304896,0.7311101622,0.7218012868,-0.2379667546,-0.2563006826,-0.067082063,0.3213076129,-0.6281929395,0.6970073519,0.2227978832,-0.1679250361,-0.9846632744,-0.5341573884,0.3482756544,-0.8401241791,0.9943916596,-0.1012582099,-0.2049286236,-0.6456677581,0.7575510387,0.0433642403,0.4045644508,0.1965451655,-0.6380150669,0.541308326,-0.3468276483,0.6215347583,-0.4608582473,-0.0158325178,0.6498141812,0.6104554837,0.537879668,0.1309212012,-0.4255113811,0.8499481282,0.2944156089,0.6014001542,-0.3089515348,0.4737314414,0.2341341784,0.5175121772,-0.9574888522,-0.9511491221,-0.4133693992,-0.5628768388,-0.0045036661,-0.4725492977,-0.5596466326,-0.6437786461,0.5620890985,0.4058397844,-0.6894445251,-0.3381212207,0.63205917,-0.007072998,-0.914726946,-0.4666243419,0.0366796805,-0.8564299453,-0.031915022,-0.8107453874,-0.0811341509,0.107207893,0.6033710316,-0.2684280401,0.5474174416,-0.3944582643,-0.7305923449,0.6691791241,-0.2308080467,-0.0797823026,-0.681376115,-0.4130204634,0.4848113842,-0.6015824576,0.8243670882,0.7455963427,-0.7538285023,-0.296797295,0.1320534871,0.2802377259,-0.9236552612,-0.5184657486,-0.648896844,0.4148433015,0.2306987299,0.0699991218,-0.1173492017,-0.7419411064,-0.8561786913,-0.4570321163,0.0751130112,-0.61115264,-0.6195401772,-0.2825556278,0.046815555,-0.4926119867,-0.3689347135,0.9015688207,-0.36598766,-0.7667364408,-0.3787871039,-0.6753063366,0.6042978922,0.8685741195,-0.9953961474,-0.3184853345,-0.3082621161,0.5298007321,-0.8621913563,-0.9037439802,0.5657236903,-0.6625997138,0.2338804354,-0.172235094,-0.6724528141,0.7761375012,0.7420250016,-0.09420232,-0.9725757979,-0.1288721245,0.824191576,-0.3395515408,0.3571465085,0.3857976836,-0.4604012029,0.5202395147,0.2270492281,-0.7595378369,0.6890136827,-0.4824794633,0.5082641593,0.920718155,-0.3737518355,-0.1857917099,0.040972683,0.8896946586,0.5514601588,-0.3614380802,-0.3990256061,0.0211050768,0.0925559377,0.0078438852,0.9758532841,-0.8774805626,-0.5607334415,-0.2336570388,0.1187522327,-0.0382281605,0.1086407166,0.0009913637,-0.9953945884,-0.0884049749,-0.4157141166,-0.1942787724,-0.6478594309,0.2094173511,0.1481297401,-0.0291592072,0.9870181069,0.7564317083,-0.5355379232,-0.9443399921,-0.5674237763,0.538253716,0.5796689253,0.9650694794,0.9869452451,-0.547772212,0.4704729563,-0.4031783326,-0.0062782187,-0.6983013456,-0.7228307598,0.8278675562,-0.1784318725,-0.4859576166,-0.4170765838,-0.6265395792,-0.988843226,-0.7583280074,0.5624305759,-0.378840168,0.18491801,0.0313511307,0.9536420306,0.3637452185,-0.83605605,0.5071455704,0.5405629378,0.8292982084,-0.3017182242,0.0629586601,0.197666652,0.2108882651,-0.1636787212,0.9263585768,0.6203631128,-0.1706237796,-0.3950563725,-0.9324355013,-0.2504828009,-0.5540752619,0.7461338399,0.4507054407,0.4334949978,-0.441399852,0.1223768327,0.0706369579,0.6998430725,-0.0181415928,-0.6664725868,0.732897808,-0.7621958168,0.7766434746,0.2347386057,-0.2269075022,-0.3621871794,-0.9830837159,-0.3308723457,0.6729182111,0.0190116027,0.2795832756,0.633957109,0.7797416301,-0.4747979988,-0.1253222022,-0.3513654326,0.6183393211,-0.4463170793,-0.4137388466,0.8932264136,-0.4599884746,-0.6689925377,0.7255580487,-0.7404363603,-0.3732257296,-0.9215352309,0.5216265389,0.7408010531,-0.2266009655,-0.7015274586,-0.8014808598,-0.5444372962,0.9261346009,0.3919478995,-0.7933228703,0.4222810503,0.4771213306,0.4202646743,0.9370323661,-0.8930032824,-0.7814520976,0.3299519706,0.2739999622,0.6329741761,0.1210699442,0.8507670018,0.6708222914,-0.5480267277,0.8902772184,0.4471075428,-0.3399340583,0.4359431894,0.1096629508,0.1749637671,0.1534413619,-0.6523703057,0.3703907635,-0.5265587731,-0.2323484675,0.7326402308,0.9933021151,-0.9954554033,0.4994765653,0.306304044,-0.8568544046,0.328692058,-0.8270453424,-0.3908302526,-0.9814427219,0.4870775072,0.4038191889,-0.4938850301,0.9712356645,-0.299343374,0.5327591695,-0.8991213912,-0.8002753892,-0.8847733765,-0.8374722233,-0.0980662724,0.9895590737,0.9882160011,-0.5532660121,-0.5297418262,-0.969306327,-0.4522232893,-0.5541987903,-0.4361729464,0.7433252499,-0.6561352999,-0.3212411912,0.9960552027,-0.8575830546,0.5264406366,-0.2618083078,0.1341584821,0.56962253,-0.1097598419,-0.929580296,0.9855604234,-0.1898585076,-0.1716559593,0.8883621892,-0.0628536555,-0.5128744782,0.5777863684,0.1368632147,0.80093631,-0.0557259319,-0.5861857831,0.4543380115,-0.2515450461,-0.8690478275,-0.3814564227,-0.2305903105,-0.6740456959,0.4957573237,-0.3205343059,-0.2587886199,-0.5223980948,-0.0262764715,-0.8718867884,-0.0371721148,-0.111327654,-0.6454201744,-0.0416781187,-0.970045298,0.7845792553,0.0789404257,-0.1092048042,-0.6649789493,-0.3252159579,0.1309077888,0.7001978333,0.3645668323,0.7662046543,-0.7187076506,-0.5045685159,-0.5790184951,-0.111858843,-0.8479397512,0.9032406606,-0.3526359496,-0.8655664385,0.3790376232,-0.5477894248,-0.0036573798,-0.7453185884,0.1800308903,-0.7381389607,0.0526023702,-0.5082849707,0.5438040045,-0.7549559537,0.2228570364,-0.9491494537,-0.5877996659,0.7133757879,-0.8189760621,-0.3490937283,0.2101111568,-0.0940012418,-0.4224276164,0.2042371272,-0.4149700606,0.2096570177,0.5533374275,-0.956302751,-0.6225098857,-0.1923303121,0.335720626,0.7285725976,-0.2942026894,0.9048379337,-0.3679850834,-0.7889312211,-0.3295002753,-0.0403204635,-0.3173210784,0.0495019584,-0.7214615315,-0.2472501405,-0.8720407001,0.4968610544,0.4337085301,-0.8108340333,-0.2570058981,0.5022971563,-0.524966167,0.3971494849,-0.0554457824,0.1333936739,0.2402589555,-0.6282076141,-0.1294191076,0.2320161616,-0.3993630301,0.9676987409,0.3576627044,-0.2355851786,0.6776482638,1.0022044201,0.3441643195,0.6412001028,0.69697822,-0.4178425825,-0.9906444362,0.6481800517,0.393791048,0.8803775226,0.602829847,-0.6241405335,0.9021130832,0.836570087,0.792868001,-0.8072364865,0.6733534177,0.6031321663,0.6912354757,0.223449399,0.6383603318,0.6357176066,-0.3543888747,0.5161414923,0.4761123253,0.5067497546,-0.7511266938,0.1774879516,-0.4079452795,0.0491178936,-0.4654939754,0.7739302461,0.0479245478,-0.567752701,-0.5852553814,-0.2119541728,0.8861852354,0.9891828654,-0.6140180873,0.7585333403,1.0007128181,-0.5199119873,-0.6686880541,-0.2026578798,-0.6748063767,-0.8497900931,-0.0663465085,0.6370929182,-0.3465378664,0.2390403447,-0.1770028602,-0.0275471148,-0.0097428258,-0.2090899143,0.4091368734,0.9383108453,-0.5152010982,-0.1683548578,-0.8146281391,-0.1905300764,-0.973049795,0.7417353959,0.2575568032,-0.8465246734,0.1032173438,-0.3372326505,0.1113216359,-0.4879513384,0.6202054823,0.4518416194,-0.0693021173,-0.391947516,-0.3835261071,0.6636032659,-0.8922784609,0.9791808627,-0.4299142397,-0.701902348,0.1263790632,-0.7351099268,-0.2728352567,0.0210683592,0.7165726297,-0.1822952377,-0.9720089054,0.0053100966,-0.453057225,0.8927595664,-0.5683136927,0.9368894251,0.5163442949,-0.3254831265,-0.3770887507,-0.9618750601,-0.7515854858,-0.0550090608,0.6123126239,0.4982265317,-0.573038537,0.8116201476,0.4971174236,-0.3429678028,0.6247591299,0.8158626352,-0.5550718917,0.7943781603,-0.7653347191,-0.2055615304,0.21954626,0.918343913,-0.9792926825,0.1185874534,0.3615843375,-0.6987415244,0.3688130044,0.9901913314,0.9503095874,-0.8917026151,0.7895226196,-0.2598608599,0.4250635862,0.3465990484,-0.8345504609,-0.2094657488,0.9111372618,-0.8139936758,0.2865761231,0.8201617869,0.7454354209,-0.624730843,0.828890664,0.4281331266,-0.7200358254,-0.9163117143,-0.2749638711,-0.0806278856,-0.148026064,-0.8144243297,-0.9122002394,-0.8840710154,0.5759128946,-0.4443555166,-0.9098128017,-0.7633978016,-0.9783252726,-0.447283354,-0.7825818079,0.7527025104,-0.107991136,0.1559711609,-0.1226946434,-0.2468119527,0.917602058,-0.1560701052,0.8429690956,-0.9153170079,-0.4005230043,0.113631693,-0.1025386803,-0.6687326941,-0.4696657165,0.9657366508,0.6373078663,-0.3463766655,-0.9643183022,0.0256676053,-0.9403309732,-0.1663564884,-0.5847881078,0.9613216738,-0.4431348953,-0.8354818565,-0.846935981,-0.5819510945,-0.2710365856,-0.0530431242,-0.7824628728,-0.8282667255,-0.4592761465,-0.3412024972,-0.9439674498,-0.9843762616,0.7252613241,-0.3184934972,-0.4711654347,0.8641894537,0.5660266687,0.1939659663,-0.6442151655,0.0866799344,-0.4637514162,-0.8122937511,0.8882899326,-0.4859812693,-0.8759824345,-0.2690971253,0.4881467075,0.1184951571,-0.1502762128,0.1021920007,-0.8789728082,0.8684444854,-0.5404773935,-0.4747838968,-0.750105047,-0.7154314788,0.8852398453,0.2754456501,-0.708931134,0.874606373,0.7638524677,0.5278754014,0.3062954958,-0.3627675344,0.6281757271,-0.8110236167,1.0110038048,-0.4824298437,-0.5253573128,-0.4337004327,0.2992607065,-0.4935000255,-0.8210451202,-0.0682553222,-0.974075778,0.273438674,0.0090146329,-0.9710150278,0.4719345769,-0.3406042614,0.5972690425,0.5327025879,-0.3524107906,0.6022549599,-0.0897744602,-0.3573196009,-0.8925799364,-0.6734342643,0.1569284881,-0.7991391596,0.3169083021,-0.4103367166,-0.5179273593,0.4932633351,0.2488119063,-0.4622507092,-0.4649847105,-0.2669268395,-0.6219345201,-0.7044999586,0.995134835,-0.4392072969,0.1270616382,-0.3271831849,0.0727479947,-0.0551858277,-0.9728815435,0.6872186666,0.4478643305,0.3433800173,0.729460134,0.1180703616,-0.0994410239,-0.9301668783,0.382055742,-0.4694728598,-0.1178847464,0.9389238395,-0.1004749246,0.3170266461,-0.6177487999,0.3192763271,0.0336669122,-0.9538191631,-0.0210178214,-0.1090137664,-0.8795366667,0.2565548085,-0.5960401694,-0.3290402138,-0.5621397454,0.9676233056,-0.1430959428,-0.7230491335,-0.5056281628,-0.139654114,-0.2009277288,-0.6573943573,-0.2070641297,-0.6494285904,-0.5715294687,-0.2616137027,0.9388082895,0.7040844219,-0.1218456105,-0.6949044038,-0.1339678842,-0.0682490731,-0.2191312476,0.3987596009,-0.6368150218,0.2620144279,0.3076070306,0.7123000736,-0.0321970091,0.4552653079,-0.748006909,0.4896599958,0.894964301,-0.4341826699,0.3862422681,-0.5407822234,-0.5991754019,-0.2428302906,0.7056912868,-0.6343191768,0.1569877171,-0.383212756,0.8326624501,-0.5556916549,-0.9949678322,-0.1670369214,-0.177791526,-0.7281913932,0.6529481474,0.307831014,0.4022943027,0.015419173,0.7609306524,-0.7317971489,0.9795135706,0.1780374049,0.0834248941,0.5632358224,0.4782252438,-0.378259861,-0.375672237,0.8725487277,0.0520301976,-0.0640157609,-0.1706197983,0.3095265859,-0.1678553898,-0.1726127099,0.4576490225,-0.1041388745,-0.3395305773,-0.3410031485,0.1972797064,0.7843349379,-0.8701756336,-0.7874762204,0.062536411,-0.578843688,0.3730466613,0.2166259293,-0.508228952,0.6660406885,0.4158023593,0.355245128,-0.7269564775,0.8351162783,0.2912612733,0.0427338798,0.3990524366,-0.8790593705,-0.4738279697,0.7438331247,0.8319530946,0.8065884071,0.9173850012,-0.2953103507,0.3922441325,0.4175624145,-0.5719153164,0.8262432195,0.7171757103,-0.3490574018,0.9645898727,0.7635708372,-0.2631236873,0.9082320466,0.6752719537,0.5709764063,0.645384404,-0.9449822705,-0.1314557856,-0.2679234813,0.0854878636,-0.4439824262,0.3579174149,0.2161319418,0.2415679627,0.4960705561,-0.5849523227,0.0163854976,-0.1910978902,0.708897627,-0.4216932218,0.666865737,0.8244632641,0.120919625,-0.0813633594,-0.2117925785,-0.2225775485,-0.3925381114,0.0505630204,-0.631362717,-0.8619226035,0.6561241028,0.3943767723,0.4939695143,-0.9550026257,0.7821830094,0.0819925399,0.1853167849,0.412314969,0.7448475563,0.7004227663,-0.3293907513,-0.8699570901,0.8673488577,-0.2196464723,0.643183584,0.1714927096,-0.3966672645,0.7736913285,-0.660644659,0.6790611158,-0.8301106876,0.4703942908,-0.4382245941,0.9147676408,0.5259246523,0.6934221744,0.1759388557,-0.4257401308,-0.5182014715,-0.933695318,-0.861923649,0.2555408125,-0.7776582693,0.7691469771,0.006891377,0.9630967478,-0.4631166987,-0.1715807776,0.8715033246,0.8095046835,0.5511734409,-0.5764379226,-0.6381207755,-0.6396946754,0.1781813409,0.3720221589,-0.885946968,-0.6280567989,-0.6290425021,-0.9363315193,-0.8276802554,-0.5420791661,-0.821944519,0.4207638845,0.9147495838,0.7989396752,-0.7434411014,-0.4505383727,-0.7296237639,0.3463100014,0.89252205,-0.2180358635,-0.1304034808,-0.0732723213,0.1581402673,-0.6670658338,0.9503039447,0.8661753986,-0.9406394906,0.4047877091,0.7027083143,0.3390630703,0.7771165536,0.4766559987,-0.2260321782,-0.3883462998,-0.0925353651,-0.0922052709,-0.4990928869,-0.0192991165,0.9148110043,0.1476390597,-0.1727379004,-0.9156098094,0.4394068037,-0.5549445726,-0.4624188911,-0.2475556173,-0.2272006517,0.9116394431,-0.0830019277,-0.3904559873,-0.6657875976,0.3226318549,-0.8568852355,-0.8314042269,0.9404632135,0.8363492331,-0.0457662856,-0.8756229287,0.3701383032,0.1056548982,-0.4429631787,-0.8061364582,-0.4349302821,0.0556690484,-0.4425642669,-0.5229647072,0.4919921245,0.5768983405,0.6868780313,-0.979573795,0.380702145,0.2462800555,-0.354870756,-0.4857975922,0.3005186758,-0.128455072,-0.806830031,-0.0227976652,-0.3987716068,0.6391540009,0.7587201127,-0.7484510942,0.0593655619,-0.7234693068,-0.3627662353,0.165622653,-0.0074472099,-0.7159788722,0.0743310736,0.1110401798,0.6683945897,-0.7826430783,-0.2707395972,-0.572110004,-0.5723964086,-0.7873978516,-0.9056348395,-0.7624683117,-0.2385495127,0.2605475134,0.2723827886,0.6708522563,-0.5183015435,0.9791728368,-0.8017762495,0.7296557881,-0.36631013,0.9030130731,0.5589533535,-0.6515808971,-0.4625839358,-0.6160886508,0.1184137629,-0.4891572355,0.2360670488,0.0079166624,-0.8033421078,0.7183302926,0.4232024295,0.9538169036,0.714987715,-0.252172523,-0.180171046,0.7235769028,-0.2018535919,-0.3794006225,-0.0525774899,-0.892798675,-0.4792064116,-0.1923508291,0.6899083673,0.3820231501,-0.9619177358,-0.9220551671,0.8339476594,0.5346557188,-0.1198833829,-0.12811864,0.8983825252,0.2583450548,0.7548972721,-0.3839876313,-0.3571318795,-0.3771671958,0.0947093781,0.5337864747,0.0676251066,0.1092874712,-0.2479998685,-0.2036376825,-0.5672801947,0.0398097485,-0.3449284242,-0.6600351586,0.0615988397,0.1383295306,0.3908558166,0.5262575112,0.8463888986,-0.8554770074,-0.7281675772,-0.0698549544,-0.3828420075,-0.1061874182,0.3470877427,-0.9917028124,-0.4344633013,0.2642927131,-0.8619091047,0.7731103164,-0.5893248567,0.6836713022,0.4234178481,0.1162462139,-0.1720551064,0.0999824625,0.3540557779,0.4916980277,0.4675047588,0.110957947,-0.0002872698,-0.2813885357,0.5424169174,0.7111820886,-0.4509441643,0.7823875241,0.5514139669,0.1458241168,-0.5606128493,0.9232567599,0.8230474508,0.2923498633,-0.4678431929,-0.1346100373,0.0640946693,-0.7573008771,-0.2673928116,0.7889361916,-0.6271499704,-0.1139496378,-0.5290061597,0.6701851291,0.9866673964,0.8045357223,0.2879613628,0.0893941379,0.1879567369,-0.7158649112,0.3460265251,0.1017840655,0.8535189972,-0.6875928582,0.3159956615,-0.4144258691,-0.2375311248,0.3810562254,0.0449142061,0.1708282081,-0.2878941112,-0.150645175,0.8489075268,-0.3806544121,0.050335036,-0.3815395983,0.1086424585,-0.8102286476,0.3345899199,0.3577516127,0.7002809182,-0.7546932429,0.8364448415,-0.584290209,-0.3376010947,-0.634863803,-0.4220768299,0.3986890413,0.1974793059,-0.9179691061,-0.5154834526,0.7985944814,-0.9330416386,-0.405697378,-0.0330930064,-0.4080854192,0.9209092876,-0.4948414383,0.6024945051,-0.9635924877,-0.1703456866,-0.1390023782,-0.2522247043,-0.7985335484,0.8277341007,0.8090433899,0.8254325044,0.9576625759,-0.0375918716,0.3606274226,-0.8027247683,0.2569785665,-0.2995341639,0.7740084497,-0.6979480322,0.0424134024,0.594216884,-0.0094467176,-0.4368918829,0.5939788059,0.3572312526,-0.0568918139,-0.2633211281,0.0372709179,0.0176522694,-0.0232006265,-0.1459674209,-0.3645412464,-0.8539617193,-0.0764764014,0.6363808198,0.1290325511,-0.671368198,0.6522237984,0.9260807764,-0.2190621248,0.0293591462,-0.6590812861,-0.3140647594,-0.3088475739,0.8101171952,0.5506973826,-0.2874051287,-0.9035604588,0.7231242536,0.8985347626,-0.5342886287,0.0228271848,-0.0161575315,-0.2521592753,-0.9572345007,-0.7085388599,-0.2574973701,0.8908608965,-0.1874987604,0.3470835012,-0.9099320557,-0.746618903,0.3591150516,-0.5662421109,-0.9641678932,0.6613345338,0.0554454677,-0.8655979816,-0.3659920903,0.1963924625,0.1620660752,-0.4368554416,-0.6498949938,0.9924779286,0.2415554089,-0.3538019735,0.9456708766,-0.4892092211,-0.2255686323,0.2490630398,-0.6950149849,-0.3672429137,-0.3626983488,0.5138035176,0.3806117832,0.9078397468,0.2179605108,0.9196481644,0.3991502125,0.8220036877,0.9329569595,-0.1252032716,-0.670669975,-0.7674070689,-0.0856293881,-0.6620711892,-0.965126428,-0.9836213628,-0.4590908966,-0.5387914458,0.8366747417,0.2900052972,-0.8094595105,-0.1618361576,0.1526694267,-0.5580126397,0.5500138945,0.1497070797,-0.8395172715,0.6755411788,-0.8783555852,0.7033057916,0.2007026048,0.9924798586,-0.1107991112,0.5973203673,-0.5548308751,0.2703706713,0.0731669815,0.3453019875,-0.0282112245,-0.5454270293,0.9116030235,-0.237540772,0.3640753218,0.6194891322,-0.5658264274,0.6887755216,-0.7659121793,0.0503343099,0.9485098491,-0.4492924831,-0.4581495386,0.5809709806,0.5250825026,-0.2397942793,-0.2622071969,-0.2132413872,-0.8522599155,0.0924812697,-0.8219682355,0.3733135731,-0.7365949068,0.1699370753,0.7251300901,-0.9475220568,-0.9198152399,-0.3698598592,0.7611058518,0.1456633038,0.968793131,0.4854944156,0.6466363631,0.3258831838,-0.8887257287,-0.4741885873,0.8722336005,0.3678003085,0.056145184,-0.0128016346,-0.0271035185,-0.395216809,-0.3443580647,-0.6801539081,0.2796910251,-0.4851406298,0.8798640131,0.512774463,-0.5395074443,-0.8859054347,-0.1449759593,0.089544272,-0.8420141085,0.3186550214,-0.5145191528,0.9857499394,-0.2633177623,0.6895288087,0.3094958051,-0.2583898525,0.8151219602,0.8686985922,-0.0057111244,-0.9712735005,0.9110875375,0.5627668472,0.0740316852,-0.0167401073,-0.1689626503,0.2979762744,0.1544951303,-0.1736156094,0.4963828811,-0.2899144015,0.3168870239,0.7324374367,-0.9833914712,0.0316409782,-0.3730826118,-0.669514532,-0.0803005027,0.7929390804,-0.2672865684,0.9341912741,-0.1566496977,-0.3821097798,-0.1627417583,-0.5858209324,-0.7714489938,-0.5934878689,-0.7096136524,-0.0819646035,-0.1385533736,0.8335533335,0.1299672259,1.0062947747,0.7081235563,-0.0322552472,0.9032808929,0.6527735132,0.8324206611,0.1950537217,-0.3113652496,-0.6039432698,0.5929978245,-0.7037330354,-0.7900512972,0.9078414015,-0.3132507806,0.282298538,0.0392401272,0.4968102034,-0.7236898735,-0.2706686032,-0.9518905977,0.6753610969,0.6251392058,0.7535601173,-0.252123122,-0.812362319,0.2823905001,-0.6482903922,0.113656223,-0.5500556848,-0.9755958372,0.5567203743,-0.5958858628,-0.4194123569,0.7680974692,-0.6690004108,0.1196826729,0.7200244966,0.0237170396,-0.9528467527,0.1239887092,-0.8603299175,-0.5771444819,0.3765936499,0.5554030483,0.9803203557,-0.7688200235,0.6332119814,0.4711319955,0.493115143,-0.741873566,-0.1608438222,0.9570192532,0.9260750309,0.7881825812,0.2973379125,-0.2910310279,0.8966601406,0.9601040742,0.597915535,0.7712668967,0.5629342532,0.1866351436,-0.599767488,0.5995839101,0.9426242254,0.2178598993,-0.0785254176,0.0958413095,0.9930272946,0.3234733928,0.5582322686,0.2786714143,0.2408319653,0.1745184979,-0.6225945485,-0.6990228771,0.6474253516,-0.0312161193,-0.124497581,-0.202302283,-0.6154240703,-0.3949683103,-0.7502866293,0.7641792835,-0.6264621208,-0.7288206275,0.3719371219,-0.4538178597,-0.6761138613,-0.7139599118,0.5050103536,-0.9753407584,0.6709697195,0.0287815738,0.4292213668,0.5306076537,0.7228093838,0.791229761,-0.5392236195,0.6183971169,-0.7159429468,-0.9631253036,-0.9785616584,0.9296200494,0.6906802098,0.0554216374,0.489145017,-0.3120724216,-0.5396487541,0.7156037943,0.9230646254,0.5625121203,0.8798615041,-0.7006932337,-0.8154633802,0.7360745637,-0.8998068271,-0.9226488815,-0.6881513582,0.7908097851,0.4206682182,-0.1520380179,0.4722798456,-0.6124757749,-0.3661176649,-0.9844982316,-0.5106741866,-0.1060327562,0.6075011332,0.9676542151,-0.8102115877,0.4772539079,-0.9830183555,0.846704952,0.2657527709,-0.2554308578,-0.0211955549,0.9257475352,0.1322698519,-0.18743136,-0.0594216282,0.6856790409,0.4408728674,-0.8117968625,0.7890899112,-0.5337877691,0.1779159485,-0.171222082,-0.8049671656,-0.7119168083,0.0697782814,0.821343393,-0.0678891423,-0.2829803539,0.5204481463,0.388064171,0.7553922846,-0.6534715904,0.1870459714,-0.2416842315,0.9449617811,0.1917125054,-0.8905564202,-0.4924413876,0.3229075557,0.5868205946,0.7732153943,-0.2159293968,0.3662536504,0.0269315064,0.4434764716,0.7390924314,0.7576964795,0.3788966634,0.2362415871,-0.7237479644,0.2913863295,0.2039318,-0.9783492278,0.3291219449,0.8146864096,-0.4676688114,0.9169098996,-0.6009422466,0.7354136264,0.3321376939,0.4973140283,-0.1310414921,0.9341575266,0.0023935191,0.5038130197,0.6127022848,-0.346634141,-0.7890441858,-0.5931072729,-0.8251173473,0.4326247669,-0.9754863884,-0.9641635126,-0.6436766474,0.4424902902,-0.5296237689,0.1933572983,0.5746971162,0.8322882999,-0.8508987546,0.1484883688,0.4047905313,0.4608161288,0.6851897212,0.543078572,-0.3888653233,0.4289211342,-0.2930355104,0.5945731478,0.0898809819,0.8263468026,0.4138957464,-0.7199078479,-0.9019939127,0.8063476612,-0.1390338998,0.6855977811,0.6055940859,-0.3903525483,-0.4676794336,-0.3804709007,0.1984654722,-0.9823013715,0.4812846024,0.0337024014,-0.0828377235,-0.9694698909,0.8178976352,-0.0620150142,0.6662774968,0.3624190205,0.2057697585,0.0033687167,0.1516569879,-0.3595354574,0.6899332286,0.0707880281,-0.6986445489,-0.2737137081,-0.3341629803,-0.5732159813,0.8663295511,0.6435016638,0.1579327691,-0.4322865214,0.6983953416,0.7081734479,-0.8435456259,0.8643562545,-0.7931344115,0.2479901978,-0.6046351093,-0.0447289415,-0.8337781979,-0.2236185522,-0.7525991017,0.7153602501,-0.7155110153,0.5783404008,-0.0658306368,-0.0217117068,-0.3536510223,-0.590671829,0.0713260201,0.8211559225,-0.2944689189,-0.1523492114,0.4689121871,-0.8324143251,0.1905951245,0.442323255,-0.2952356209,0.2332029157,0.9185258047,-0.1336118421,0.6313757641,0.2064132022,0.3944556074,-0.3288163334,-0.8213650559,-0.4937322335,-0.1991292549,0.9977465717,0.9004986518,0.0521834201,-0.9903879624,-0.6213144727,-0.8372921361,-0.6062858563,0.8732052938,0.276698299,-0.8636508919,0.2344694779,0.6151054186,-0.8215318749,-0.6182336227,-0.7617213375,-0.731391157,0.9085614406,-0.9068240888,0.4891571587,-0.5510270946,0.47605742,0.8390262382,-0.3701832423,-0.70674086,0.645900856,-0.8524804722,0.5091062089,-0.7506918549,-0.6543706819,0.5684360537,-0.7187192721,-0.1042943477,0.8695808775,0.4630880744,0.1726328978,-0.5532654258,0.9604670813,-0.3518251184,-0.2620773379,-0.568622856,0.9646345128,-0.6803153509,0.4825522572,0.5394648554,0.404047773,0.8045819092,-0.1336610489,0.9617469953,0.2492131468,0.0601245391,0.8068473728,-0.0371425989,-0.1525221384,0.9146209168,0.7730661421,0.8040461255,0.8584233916,-0.060612616,-0.2273811296,-0.7531227482,0.6763336411,0.3160668455,0.3917840332,-0.713020483,-0.0391111321,-0.3631145799,0.14361629,0.3959446141,-0.2108504562,0.8589893875,0.7169583523,-0.6848469757,-0.9524206751,0.3282075928,-0.6847283206,0.9890591899,0.0653401358,0.1106968673,-0.3436381868,-0.3940142775,0.5840630866,-0.6240257596,0.3328391576,0.199121192,-0.6760034843,-0.0478179639,-0.5423344446,0.6076662341,-0.0146949376,-0.3812366953,-0.946207924,-0.9745693514,-0.4090226055,-0.7627978029,0.2134373248,-0.9151100439,0.8829495874,0.5116348575,0.0226900939,-0.1113237658,0.816448212,0.5425214594,-0.1573688378,-0.3805228691,-0.7129233248,-0.429578303,-0.6688514758,-0.480105869,0.7549652632,0.4291100188,0.1664898416,-0.0812512436,0.4881171557,0.0572942641,0.6794940517,-0.8036698487,0.0696847011,0.1249496873,0.3408740961,-0.1407480408,0.7857986047,0.2769675035,0.986961728,-0.0706694818,-0.3435137688,-0.1186146481,0.5977730849,0.8522007925,-0.0577295933,0.8349298875,-0.7057105845,0.3543554892,-0.0277147002,0.6053453021,0.5188853477,-0.3039455157,-0.2046941506,0.5991275252,-0.3661085905,-0.5355639866,-0.805199483,-0.9881540002,-0.4400830261,0.2598855557,0.4503743452,0.1936454689,-0.9510009539,-0.0088532357,-0.8864038938,0.0184596234,-0.0750753139,-0.3931514482,-0.3413441476,-0.7125531175,0.309952214,0.2567616185,-0.2070261113,-0.6617277821,-0.2356789601,-0.2064879615,-0.3253698985,-0.9457931643,-0.5663047067,0.2619853486,0.0893256934,0.667555252,0.5505202524,-0.3423380252,0.1401862214,0.9669686139,-0.2162447195,-0.0356863435,-0.4210961875,-0.3787879981,0.9945965062,0.296698359,-0.7635241447,-0.2394343119,0.6028119066,0.5629072055,0.45138224,-0.5732300671,-0.4614111927,-0.9546395889,0.3165024598,0.0582355047,-0.7719022717,0.9404870179,0.4169557172,-0.5537361685,0.3614804268,-0.4398557784,0.0091992442,-0.7978654412,-0.9471469905,0.8887541011,0.057832821,-0.4307374821,0.8050102251,-0.7092795827,0.9682001004,0.1359252354,0.3371092641,-0.217814712,0.4791001317,-0.2733493689,0.9514726141,0.5114464846,0.3378505636,0.5815489314,0.3318949649,-0.1598604224,-0.7765471009,-0.7725790126,0.074582408,0.9548699881,0.6792492753,-0.135462965,-0.0335380445,-0.249626841,0.6074870571,-0.7506444382,0.6154148843,-0.2261167271,-0.2039978592,-0.043565822,0.0045312669,-0.8348004621,0.1966192466,-0.5306100247,-0.4277788482,-0.5025921878,-0.7483888236,-0.1243671235,-0.1044153021,0.7391450435,-0.1070172392,0.7720506528,-0.8110367834,-0.6278230282,0.7201162163,-0.1014333751,0.2864924224,-0.2910896767,0.519804227,-0.4949627626
   0.4647826979,-0.8318457973,0.3714367076,-0.9171008445,0.8192283148,-0.0933577771,0.0787665915,0.4806647529,-0.4909659197,-0.1874746403,0.475199494,-0.913835794,-0.2752776121,-0.4142054874,0.8164841366,-0.2270416206,0.4159246786,0.6501053216,-0.5422331733,0.4644392729,-0.0351097947,0.8772781158,0.0395719794,-0.9516113254,0.5488190859,0.4898686356,-0.4333631764,0.0773813509,0.34797907,0.271452867,0.4743920574,-0.0749059568,0.9632045187,0.8878752319,0.4279488539,-0.2342818197,0.9563289529,-0.1422290087,-0.418847726,0.9991507119,-0.3686138927,0.2218714496,-0.3681271387,-0.8993514603,-0.0980278479,-0.7937486158,-0.1548793958,0.9203074424,-0.9944507464,-0.8650136436,-0.8812628238,-0.7247773203,-0.3653224004,-0.6248934101,0.2865724657,0.7602649176,0.3512527052,0.9354685152,0.4034889001,0.8726538445,0.9450625043,-0.094469225,-0.2875758683,0.3124333754,-0.2971421029,0.0764741082,0.2563934249,0.3760014885,-0.9736940032,0.1834861481,-0.9286558798,0.5457614458,0.131095438,-0.4296345303,-0.222247241,-0.9640984098,-0.0315781034,-0.5973907439,-0.6646457426,-0.5875735816,-0.63782882,-0.6144320111,-0.4241670682,0.760674969,0.605490166,-0.5593964881,0.4928202351,-0.0674354583,0.7781437466,0.0469205546,-0.2229990144,0.6724296929,0.190544689,0.6255483,-0.981330226,0.2608139988,-0.0362490883,0.2083862449,0.2930032493,0.0816663571,-0.1781620294,0.5479722094,0.7118202649,-0.6297146453,-0.8757670548,0.4078047629,-0.710958735,-0.7029114325,-0.7173307471,0.5802131423,0.619259714,0.6834972287,-0.9474129292,-0.5486933031,0.354127241,0.3564028177,-0.4143030628,0.5142114511,-0.3428119753,0.4405317483,-0.0943768654,0.0535315671,0.0869656281,-0.339789138,0.3212691479,0.3768311403,0.0996347216,0.6845422684,-0.53899805,-0.4215093193,-0.014216443,0.8899769684,-0.2491424082,0.2630042606,-0.4796411537,0.4405046629,0.5880245649,-0.7671751039,-0.6330619325,0.2545277141,-0.6597250446,-0.572620908,-0.9743255604,0.2050995519,-0.8532773383,-0.3014727899,-0.9695658526,-0.4320033432,0.4595833979,0.9620412836,0.5475552783,-0.075111467,-0.660783516,0.832177399,0.8048423839,-0.9681191029,0.6900542348,0.5479827823,-0.0770466541,-0.7102126684,-0.5057670825,0.5360532926,-0.9553805406,-0.5375818263,-0.9278142133,-0.0938081106,-0.5009850379,0.7083200805,0.8679816151,0.0064956182,0.1241056707,0.86489891,0.3450475908,-0.8811325642,-0.7397356246,-0.3504037607,0.7758074177,-0.3718420105,0.6624368815,-0.271366879,-0.2208831012,-0.6564047241,0.9267958967,0.0736800298,-0.3224796539,-0.4714143153,0.2886100365,-0.4389272629,0.237694152,-0.5658225567,-0.9857158033,0.5404313882,0.5005353358,-0.4435896603,0.2212062734,-0.7870080056,-0.9650369089,0.026516505,0.5244746429,-0.1894038072,0.465105678,-0.6805230063,0.1490182951,0.4407659748,0.4803996351,-0.5081912721,0.0926491736,-0.2434162163,-0.4574294687,0.3748831515,0.4699205003,0.3547925941,-0.004578729,0.1146940224,-0.9635391126,0.0866015081,0.6212267351,-0.1567609008,-0.11025732,0.9122860378,0.2193150572,-0.260025656,0.0273426446,-0.2820514755,-0.7709987079,-0.9704124597,0.7605058999,0.3501600236,0.5518903512,0.0765526754,-0.6656730431,-0.3901039274,0.414348815,0.3073443724,-0.6651711474,-0.0029952805,0.1742399458,0.1149879154,0.9473360201,-0.8389817306,0.5592007042,0.7159673081,0.8336925015,0.1857267473,-0.8026580197,0.1187107984,0.6938654077,0.0644136133,0.6958008676,0.7894515637,0.7595684194,0.2251888327,0.4317031216,0.2995970406,0.9038272367,0.0262094143,0.1783628899,-0.8950957789,0.0914600808,0.7231960123,0.6183206235,-0.606039729,-0.6330823448,0.3316017885,-0.7737724434,0.3193754758,-0.3471321734,0.9559970669,0.7767409375,-0.2859302158,0.1334926896,-0.0663039558,0.8799141836,0.2991079235,0.9210780237,-0.0001179618,0.4859320196,0.4080617565,-0.1303328683,0.2603840985,0.3339492511,0.6897191632,0.6234024478,0.3554818001,-0.7460976079,-0.1683338101,0.8940583467,0.5170031868,-0.5088436233,-0.8651043552,-0.8678078926,0.5758320613,0.6467922074,0.3082018328,-0.4684069334,0.0621683802,0.9065793021,-0.9338924401,0.0030893527,-0.8225969664,-0.227140591,-0.9264532136,-0.8850120477,0.6035629225,-0.3778771987,0.0418721164,-0.2742103368,-0.5492745502,0.513791905,-0.6509939795,0.6856844483,0.6162849445,-0.8324766786,-0.1424295698,0.7369221351,0.3107871894,0.5218078703,-0.9936174746,-0.6351685184,0.0068543464,0.6183053349,0.7161304973,0.3264092958,0.0179954238,0.8598827948,0.9136966791,0.7157971696,0.7995177787,0.2945494445,-0.9021712257,-0.172333174,-0.1424220873,0.1151463408,-0.4241881521,-0.1123157906,-0.1986170111,0.3909268658,0.6100619063,0.260446162,0.605315099,0.7625359582,-0.161133687,-0.5629661025,0.9005440075,-0.359189988,-0.1713032816,0.0852055961,0.2882814635,-0.8897273753,-0.3689201707,-0.659843293,-0.7820149647,0.7419422783,0.4670101338,0.8209089879,0.7835424265,0.8810717581,0.1671145508,0.1214400391,0.2138159059,0.4638202781,-0.6582806381,0.9401136065,0.7135712184,0.2927458097,-0.5323861379,0.5778243545,-0.2213690547,0.7665421959,-0.9784662123,0.8283263043,0.5028342421,0.0334446728,-0.0878808346,-0.4013155401,-0.8566933596,0.3435249324,-0.0598655608,0.1220479759,-0.3871785393,-0.8797993492,0.1259859256,0.7499764166,-0.7373612995,-0.8729526879,-0.5740399905,-0.3125082955,-0.2854813292,-0.5356159268,0.2718406507,-0.2397286657,-0.4429633874,0.3675686348,-0.6807705973,0.5476516564,0.8375324099,0.7007409606,-0.9950923655,0.7531521185,-0.9034718973,0.1836745946,-0.7567729131,0.5883541474,-0.0650882582,0.8611528796,0.3829447204,-0.5095897686,0.5509511483,-0.6270713366,0.8210150335,-0.1641600424,0.3146709479,0.148637345,-0.6196341737,-0.3598046393,0.5522598844,0.6288858029,0.593794239,0.0900059417,-0.0044169058,0.6478533207,0.4078446076,0.0381628524,-0.9541641571,-0.8101220689,-0.7114729165,0.1272139717,-0.2183132118,0.5573946609,0.7902618513,-0.6520429564,-0.4448368946,0.9742681134,0.2311089698,-0.0823846118,-0.1895916906,0.5031294231,0.3129920094,0.3663975607,-0.6285031916,-0.1209400351,0.5877988188,0.2618239394,0.8651346607,-0.0289417084,0.3519642256,0.6726532582,0.5672125001,0.1430860351,-0.0402012686,0.2871007285,-0.9215889563,0.9055685055,-0.6304627862,0.4362800535,-0.3572845352,-0.3795750153,-0.1704430413,0.7355645776,0.0778126164,0.6437445733,-0.5428631467,0.8489394989,-0.6256909966,-0.4373872172,-0.5826209465,0.7782015026,-0.806311166,-0.4250768729,0.6551313745,0.8984789062,-0.3845400983,0.2017951869,-0.6353476925,-0.6179062497,-0.5516807043,0.4726514289,0.2388505628,-0.4860161419,-0.3769081669,0.8491333731,-0.2197678308,-0.898512253,-0.012478975,-0.5206380577,0.4847699154,0.588436474,-0.6469778869,0.9665120161,-0.5243982049,-0.3189595386,0.5363219546,-0.2499783348,-0.4634351755,0.2886573439,-0.243043003,-0.7518683563,-0.0586856422,0.9307207411,-0.2527779411,0.0908555939,0.1557716393,-0.6051736074,-0.466952969,0.6525647002,0.3844160693,0.4321473999,-0.7538882113,0.6949979551,-0.1342959577,0.2302276531,0.3555355528,0.2185143456,-0.8730250986,-0.072007612,-0.3785200032,0.0072263327,0.1469543349,-0.4222573645,0.8786340906,0.3638956633,0.6531078466,-0.8379526639,0.4461239003,-0.3546573632,0.6788727157,0.948250104,0.5383806063,-0.149748997,-0.5895488366,-0.0273961738,-0.8287942201,-0.3286956326,-0.3449912778,-0.7983881077,0.5893940861,-0.9860842024,0.7589721916,-0.2090532691,-0.0375013503,-0.1212243855,0.8145281872,-0.0260309865,-0.139411122,0.8628275367,-0.9586993863,0.803597062,-0.4341859922,0.8835555704,0.2162538526,0.2603521424,0.7326306975,0.8689521639,0.4498953912,-0.5470559217,0.3084879111,-0.1441079416,-0.9820097143,0.2698138258,0.6172210127,-0.4957128948,-0.4651382202,0.013787815,0.2334096462,-0.7709027069,0.8377743266,-0.8038341522,-0.0816330474,-0.9592565194,-0.5294845368,0.6093196323,0.6020521369,-0.1098591205,0.0097307005,-0.9009346175,-0.3602521786,0.0144259006,-0.9235891361,-0.1626306634,-0.9742441861,-0.3029068397,0.9783385497,-0.7145308915,-0.6010082616,-0.9841392354,-0.652355472,-0.9429030681,-0.2047595516,-0.2569665934,0.6096970878,-0.6478566189,-0.3546294113,0.9515717917,-0.7060033059,-0.459069589,-0.6927755724,-0.3883412404,0.8177155581,0.1396080064,0.285877095,-0.104738822,-0.1052885902,-0.1125536076,-0.0772467889,-0.2333117561,0.2381829883,0.66757955,0.0486897606,0.6907217053,0.4149039121,0.7461988948,0.6593022073,-0.9302888257,0.5500858163,0.3853846478,-0.6025640612,0.9354517851,0.3686484066,-0.4140091648,0.2697682023,0.0383211591,0.4043128179,0.9630418656,0.9483871075,0.0600153153,0.7304976403,-0.6036739022,-0.6407978168,-0.3462830397,-0.2619063798,0.6968270968,-0.1480361657,0.8737156374,-0.4982694546,0.0216506526,-0.5581645475,-0.9356905601,0.0855634199,0.0790354373,-0.55351901,0.3327466652,0.1905906999,0.1406262596,-0.15736685,0.3006712409,-0.1584261736,-0.4211997827,-0.7204074723,-0.8341302593,0.076753242,0.2760677946,-0.9352926588,0.7354955718,-0.4597845431,-0.8963312008,-0.2480714191,0.066378156,0.3298125209,0.0244368408,0.9578887428,0.5023915865,-0.7321620477,0.2886119642,0.1150533965,0.039421952,0.8820284687,-0.6174807948,0.3169702194,-0.1012619994,0.0749277067,-0.9630291677,-0.1014882125,-0.7095641886,-0.145999724,-0.6424226847,-0.2690647785,-0.7680592137,-0.4719553305,0.5367962192,0.6078456198,-0.9411053059,0.1071298815,-0.0867870217,-0.662440619,-0.4078507489,0.778054963,0.3634511105,0.2705996594,0.9567555898,0.137011811,0.1100523049,0.814491925,-0.4794957964,-0.659817611,0.0350765039,0.2025409609,0.9925266958,-0.4987834334,-0.4354378644,0.4319196861,-0.8880649831,0.3935484687,0.9026748418,-0.0335430394,-0.095234393,0.0031219868,-0.0229004904,-0.9683860624,-0.2994801049,0.6052920077,0.5717193508,0.8968791434,0.8951089606,0.926913875,-0.5731649494,0.9037679269,-0.4683931824,0.9907075296,-0.5816934762,0.4377009472,-0.7795475266,0.5219334842,0.7075419392,0.0234002732,0.4582568976,-0.2428857153,0.3399829834,-0.0826880375,0.9364410789,0.0362636365,-0.9027953095,0.2305958192,-0.4281049949,0.0708753171,-0.3573568272,-0.9798820663,0.4920463243,0.9320808898,-0.6204023694,0.2038323655,0.1993787319,-0.977629085,-0.3000829914,0.4024123766,0.9067173844,0.8126192812,-0.6262039881,-0.1130027286,-0.2509355003,-0.1011333045,0.4441129394,0.0222319158,0.552685721,-0.7866990737,-0.0236723737,0.0902706408,-0.3665669499,0.6098311722,-0.6672583136,0.8172992808,-0.3541798229,-0.9462220779,-0.1872289439,0.4096178237,0.2214811641,-0.6896464089,0.7208093008,0.6170493378,-0.869768552,0.6584428303,-0.1636707139,-0.0082435105,-0.7568998042,0.399934466,-0.4815577095,-0.0820611749,-0.4837954234,0.5370208591,0.8801653282,-0.7892641084,-0.0145715381,0.2513088074,0.6043415211,-0.3069844599,-0.2026965468,0.6282645766,0.3958259468,-0.4812242251,0.3276480585,0.0860198502,0.8685376939,0.127159894,0.6936128667,0.0639431239,-0.1117505468,0.5257370024,-0.0529416687,0.3546339617,0.7917976915,-0.0216120416,-0.8986142778,0.4087422213,0.4331618816,0.3794772293,0.4252226587,0.0921404336,0.7651908532,0.0672744402,-0.4281150272,0.2880792047,0.8421423177,-0.3420182736,0.0477087514,-0.5941397669,-0.9798688969,0.3404001694,-0.8812417993,-0.4936614338,-0.1728614997,-0.6070267295,0.9246262241,0.0974863434,0.3837406548,0.5982081392,0.1841312766,-0.5600137707,0.6057599254,-0.8173091332,0.4630953643,-0.1745351609,0.2463990743,-0.3593507604,0.9042331271,-0.9155144304,0.7256655284,0.4498761749,-0.9851935235,-0.4239240281,-0.435441342,0.6056517404,0.0032562569,-0.1654537564,0.7013098537,0.0602972141,-0.5489535077,-0.8201249457,0.7732578295,-0.4658442992,0.2135027909,-0.4523115226,0.6154220731,-0.2135317368,-0.3908455479,-0.3594852209,-0.0465063024,0.3069500898,0.0589650127,0.2351055521,-0.3287247964,-0.4141463126,-0.8182787104,-0.0570968626,-0.2270315214,0.5877780301,0.5370578743,0.0921403828,0.5730479301,-0.9251708377,0.3533412147,-0.7863949007,-0.3072371961,0.8783812943,0.802763448,-0.0544322474,0.5986579619,0.4734391857,0.4819809492,-0.8816353919,0.7965657935,-0.462767114,-0.6584908172,-0.2024160548,0.2391829023,0.7129941354,0.7681016973,0.3772649237,0.8435180874,-0.3268662335,0.5060155095,0.9482935308,0.9021501502,0.3104202309,-0.5221151984,-0.6826540911,0.488933203,-0.0659142252,0.9356284374,-0.5738811215,-0.1253792442,-0.6269493916,-0.3113873471,-0.9734239476,-0.9629939803,0.9578553387,-0.3539782217,-0.1913079792,-0.0661529827,0.9343797865,0.1742097283,-0.591941965,0.3871202401,0.3191823817,-0.6754991697,-0.8269118446,-0.2432007402,0.4080942814,0.1698456724,0.9668417768,-0.7054735507,-0.3468907697,-0.82293228,-0.9715654218,0.5744832279,-0.179513958,0.7216982586,1.0010051773,0.2566994402,0.1652461607,-0.5617367702,0.7310105004,0.1373384583,0.4792689406,-0.168207811,0.8040634224,0.9926101741,-0.5568890053,-0.8757938586,-0.0813905261,-0.9035497255,0.5156270111,0.6793613744,0.3870613455,-0.2540336377,-0.0513102228,-0.7418040073,-0.9956908577,0.0906804608,-0.8206768014,-0.4176822005,0.0933907469,-0.706412553,0.5482592472,-0.8017193351,-0.0398663621,-0.5570238373,0.9854054438,-0.0749578094,0.1174292955,-0.343737685,-0.2610255952,-0.6776283062,-0.9818512397,0.5362721089,0.1715126083,-0.2714413746,-0.0098574968,0.6863694375,0.6897055189,-0.043010793,0.9966742384,-0.2540656973,-0.9731995042,0.759301925,-0.9287110381,0.986428634,0.8128730723,-0.811211044,-0.7626298242,-0.7741516052,-0.4555333589,0.7563750827,-0.0335299781,0.253566528,0.2295868446,0.5743582176,-0.1377561605,-0.4620487182,0.864530326,-0.4213228442,-0.6746604579,0.517424591,0.7682105594,0.1369603377,-0.6483637287,0.8943785133,-0.4096075656,0.3355099792,0.1854655278,-0.892324579,0.2612624819,-0.7908003191,0.7497289305,0.7940465507,-0.3280010505,-0.2373923913,0.6986659842,-0.5186327598,-0.5653891352,0.6840658484,0.7023070025,-0.0484508055,0.5430535537,-0.4531801394,0.4608246224,-0.9116155984,-0.3853789668,0.8464914725,0.5312291215,-0.4141760089,-0.2215547465,0.9414719976,-0.9490937905,-0.1606186765,-0.2589036318,-0.0804978351,0.7214197979,0.0182007682,-0.5613531559,-0.4172001325,0.8444675418,0.3658172942,0.0146527864,-0.5027122075,-0.848581247,0.3988383696,0.651992405,-0.6448463571,0.7822665193,-0.245735995,-0.1805971662,-0.7558183288,-0.5685625605,0.8552770703,-0.083689378,0.0936827501,0.9169475033,0.4261377356,0.9305927662,-0.8313950825,-0.1033972088,0.1567608535,0.1525066579,0.2587194926,0.2944514699,-0.2362290368,-0.8679905234,-0.0936501535,0.7007855045,0.4196827852,-0.1315630534,0.6715297632,-0.2279944513,-0.0856101559,-0.5823703383,0.1304988349,0.6431967517,-0.6419559405,0.7042917948,-0.5735644303,0.7559995363,0.3762163812,-0.2943007832,-0.5677702194,0.1702947489,0.5472425313,-0.0088782956,-0.8970007746,0.8139213306,0.8589908904,-0.8585019497,0.9300181483,-0.8575413631,0.6613215288,0.4111753033,0.5830932837,0.74335436,0.2454536146,-0.9646848785,0.2241209475,0.5987816776,-0.6414278211,-0.4442443144,0.3951436125,-0.4581257598,0.0315891754,0.6296451495,-0.1662359894,0.5927406672,0.6996122353,0.2939933563,0.9259268195,0.4385404734,-0.9804022151,0.0391357755,-0.4115504773,0.0332541724,0.3709400227,0.0398206333,-0.1321473729,-0.4599183515,-0.1153148026,-0.1546366985,-0.5895561693,-0.2879963913,-0.4037358859,-0.3907920657,0.8969534417,-0.6877829728,-0.8009383892,0.4718957423,-0.5706901385,0.1344059563,0.8259699911,-0.6662137793,-0.4584326984,0.2713715302,0.2103472984,0.2456814204,-0.1048574195,0.0525596221,0.5147916866,0.3626788097,-0.6639573741,-0.2050502758,-0.6156601577,0.1377642872,-0.4555970648,-0.4468835575,0.720497471,0.3087662989,0.6617860054,0.7619927364,-0.4966045119,0.8361870622,-0.6916337455,0.4749460728,0.6141908892,-0.2929050089,-0.5688008679,0.9817455547,-0.2776545,0.7495635377,-0.7303700487,-0.4619743837,0.6723756265,-0.9484558856,0.2906822393,-0.3549435729,-0.3527016351,0.1289446832,-0.1250713832,0.6865685277,-0.4585361834,-0.4020740535,-0.7751067208,0.1342938861,-0.8038512543,0.8953071165,0.3771854834,-0.3132845798,-0.7912083432,0.3710516156,-0.7937643313,0.3806553786,-0.8361594547,-0.7816681127,-0.5106050582,-0.6104808299,0.7271191863,-0.2193491182,-0.587303488,-0.3974993591,-0.4931775837,0.6148017578,-0.1971860117,0.8173059859,0.9356960808,0.8739814032,-0.5876428869,-0.0334801958,0.8614382388,0.1337533231,0.6900530294,0.2679929118,0.3565374769,-0.8661942839,-0.3796424066,0.4703460365,0.070678755,0.3185813011,-0.339700889,0.9582799598,-0.8365389482,0.7774556529,-0.8886167807,-0.3119642685,0.2228151638,-0.7792235164,0.5809739035,-0.6827449539,-0.5944719989,0.7785047762,0.406036918,0.1107862659,-0.0016369364,0.0086090377,0.8925188226,-0.0324767347,0.5044329829,0.0518638745,-0.0695538503,-0.7831280462,-0.3837070519,-0.5184806965,0.4527235842,0.1234863281,-0.679825521,0.7154249632,-0.9625428881,-0.9282456632,0.3067649455,0.3087824567,-0.4527458883,0.0849053007,-0.1012152074,0.5824667788,-0.5792372051,0.7806633103,0.8332559593,0.7918541596,0.2008257808,0.8452489976,-0.1730653695,-0.566787547,-0.662481947,-0.1858338819,0.2370232381,0.1963424275,0.2401475042,0.802580259,-0.704406953,0.9560527399,0.1869978263,0.838672343,-0.1602474799,-0.2455155848,0.9805565908,0.576535445,-0.092419234,-0.464125415,0.8240562991,0.0686418177,-0.1584385175,0.9562646052,0.8231270597,-0.662493352,0.2473602111,-0.112168227,0.1489873902,0.4473359708,-0.4500839353,0.8318841982,-0.9188624952,-0.237120671,-0.4982541428,0.8929928206,-0.0110302143,0.8616268774,0.7866868341,-0.4191490062,0.2219020212,-0.1277303271,0.1136807875,-0.1408707891,-0.6246259251,-0.8063877773,0.0838956584,-0.2318687169,-0.1680874382,-0.3417601501,-0.5245484834,0.6829728054,0.0801396487,-0.1948479755,0.154469441,0.4939674942,0.4773525499,0.340287077,-0.3519903728,-0.080437485,0.6086181659,-0.6538212204,-0.3709955109,0.631975645,-0.8312679763,-0.5729391187,-0.9153692521,-0.8822029974,0.5434877892,0.4047587699,-0.4281756088,-0.6446888306,-0.2749537542,-0.1377007683,-0.3865492751,-0.1812689636,-0.5280162684,-0.0123911737,-0.7780167165,-0.7416719212,0.4050183428,-0.4601428719,-0.1662664141,-0.0496904372,0.7650679719,-0.2780992438,-0.8895232119,-0.7855346515,-0.1777934858,0.3268910981,0.5653974221,-0.5428417569,-0.2315901181,-0.5442437387,-0.7962548058,0.3286579071,0.4613471738,-0.7199960969,-0.2304059878,0.9453431099,0.4078684376,0.7569294325,-0.0064298894,0.0164965493,0.5918361619,0.8404121516,0.4750253906,0.7020042805,-0.9293353847,0.5099510602,0.9757155778,-0.1583121823,-0.4684080119,-0.4215463577,0.5338484023,0.4016476487,0.9516923463,0.4109555859,-0.1719315325,0.7708785432,0.8981642106,-0.2780636291,-0.679941105,-0.7238999955,-0.8188632579,-0.0328892825,-0.7779594749,-0.8275244438,0.90405494,-0.2985410539,0.7579183881,0.4784331017,0.1320482942,0.3233074763,0.4850394203,0.5050287766,-0.8205054548,0.3421855784,-0.2166554966,0.7337745262,0.2557818375,0.0808880263,0.3957336817,-0.7922925229,-0.7555312434,0.1846150681,-0.7349576955,-0.6328492592,-0.5161526659,-0.9522828343,0.1911646089,0.7923293745,-0.4837143137,-0.5440463482,-0.1546882678,0.2420068444,-0.3626623987,-0.0952130821,0.0344718953,-0.1679161664,0.3073092204,-0.8547437179,0.5592539226,0.7576037962,0.2024163268,-0.3361518468,0.4215306254,-0.0219630125,0.0265390291,-0.4093931926,-0.9167447668,-0.4965402911,0.755699267,-0.3732608069,0.5466521017,-0.5101060667,0.6928404385,0.1849116435,-0.2854935196,0.641774936,0.643505194,-0.6300689642,-0.2255994767,-0.9471190792,0.4463508869,-0.6532908933,-0.1370874273,0.2874648395,0.5278865429,-0.5138550013,0.7815610111,0.546397795,-0.4570715523,-0.413910089,-0.620630014,-0.1801129758,-0.3982211038,0.0705303373,-0.4386781163,0.225210448,-0.0962596046,0.3273249984,0.468733362,-0.4718137876,0.1503403831,-0.7137778355,-0.3632936124,0.0308010394,0.1980005953,0.4777202093,0.130409289,-0.0191707546,-0.7045538686,0.1482247524,-0.376929978,0.2361335477,0.6755939112,-0.9685762014,-0.6080235807,0.4817708033,-0.3678075647,-0.3283264969,0.2744482045,0.6405869102,-0.584533259,0.8825681242,0.1613576416,-0.0294225393,-0.913101658,-0.7015701859,0.1245877156,-0.5671772887,-0.1155041717,0.6239803457,0.681227423,0.5647120842,-0.6100092911,0.6376032678,-0.2551962255,0.2612191915,-0.7339070344,0.2713229496,-0.8588014415,0.1580707711,0.7562025139,0.3486961432,-0.7961606946,-0.1414080408,-0.4589458058,0.9648983817,-0.5628867503,-0.2545671737,-0.0286847377,0.255800075,-0.4183528737,0.9477995032,0.8754301956,-0.3781316572,-0.7993730656,0.591081387,-0.7915047373,-0.9296374808,0.9391684305,-0.8336390901,-0.5602221457,-0.1279704398,-0.3370944759,0.3433289703,-0.1940657823,-0.6183196508,-0.586186753,0.8514358814,0.4798665849,-0.2262919413,-0.9633458715,-0.1218070193,-0.0969375161,-0.196454714,-0.2564631866,0.7946168619,0.0662688029,0.4853716084,0.1858132678,0.2563799389,0.8521284465,0.2317827407,0.073491882,-0.1393219223,-0.2289097333,-0.3149394028,-0.7070314458,-0.6776584771,0.2123166129,-0.4510776985,0.603839252,-0.3006977412,0.7997178998,0.1165583997,0.292267306,-0.0112874519,0.5060931087,-0.057144746,-0.5769758449,-0.9930939858,-0.9171065772,-0.6248908335,0.9496537435,-0.3946811219,0.969097002,0.293694074,-0.8523932399,-0.7416866923,-0.1517866233,0.9763687772,0.9220081708,0.9005323998,0.0751385214,-0.3146761488,0.8035057837,-0.8940903433,-0.2043106727,0.784295478,-0.0993658875,0.0916954329,-0.8458552424,-0.6155865322,0.927675221,-0.8576302244,0.1335952019,0.753203672,0.591797415,0.5483996672,-0.2914129409,0.4156256148,-0.7878961763,0.1479856154,-0.5813502086,-0.5230248723,0.0708417807,0.0595538905,0.2321536279,-0.9346109467,0.28569628,0.8104155777,0.573590376,-0.6940856938,0.0073850838,0.7475185245,0.4785877534,0.5329277369,-0.430663717,-0.7107051627,0.3378400385,-0.9276961852,-0.9228871159,0.783098029,0.2689908689,-0.7972145418,0.2031881857,-0.8893602872,0.7297865686,0.3980731008,0.603589243,0.7486198148,-0.7783254115,0.2835424905,0.3960401514,-0.4137367535,0.1744663624,0.3923066118,-0.6716898863,-0.588316109,0.6186117748,0.7200511557,0.439805786,0.5228576141,-0.2749730151,-0.8166163473,0.2962995474,0.5793239213,-0.3470832146,0.9250251203,-0.7693030553,-0.2159185004,0.4476318608,0.4940442314,0.0343165441,0.8727536067,-0.7661108817,-0.0872756722,-0.4513107657,-0.6792566445,-0.7787408028,-0.242936854,0.6026523452,-0.3802863377,0.1055642986,-0.7689423963,0.8534896763,-0.660311466,-0.1234981636,-0.9588821287,-0.0422012866,0.4256457751,-0.1939158384,0.2733365707,0.4322977291,0.2064831624,-0.230931155,-0.9894651033,0.8555293146,0.1003424166,-0.5503752124,0.9515421296,0.1837765342,0.638788788,-0.1538157861,0.2063262742,0.8097610452,0.4805032628,0.1954484735,-0.7817523043,-0.2678946228,0.6349298944,0.775112955,-0.8237164874,0.5284012459,-0.496074838,-0.5758533729,0.1974639472,0.7263872417,-0.4202970271,0.0886781553,-0.244025048,-0.6644609526,-0.4894063219,0.3774316406,-0.2486714875,-0.4045934195,0.0071482479,-0.5133378234,0.4953269989,-0.7073274045,-0.242145632,-0.7744957793,0.684293347,0.2822047392,-0.0858358677,0.4361576347,0.6254195544,0.2054768843,-0.7521645727,-0.6935393771,0.038684058,-0.6833989609,-0.6779221927,-0.2408045415,-0.6398616097,0.3316565039,0.6421612344,-0.757066079,0.5444075829,-0.6722788368,-0.3667641808,-0.876215975,0.6321138103,-0.6386831869,0.107688697,0.6485519715,0.4436398331,0.1624653104,0.4702010387,0.8483349402,-0.1536442348,-0.2970687733,-0.7397827926,-0.7413149448,0.2299246702,0.0403778068,0.7547159282,-0.0034672059,-0.7227291002,-0.6057998495,-0.3643279052,-0.6740419439,0.1768980274,-0.9377852147,0.6535631737,-0.1305059899,0.7214266585,-0.7220074913,-0.1372899194,0.6618087238,-0.5725194082,-0.6220039279,0.731426054,-0.2736148484,-0.2777094494,-0.9267861728,-0.950972875,0.6455902067,0.5745470236,0.7775648781,-0.1082896744,-0.8591234931,0.0304925779,-0.8485971397,0.4090989907,0.4773711709,-0.2711780441,-0.7846706117,-0.1632069431,0.9838797005,-0.1262161005,0.1845132123,-0.6052310875,0.7386790627,0.2229474968,-0.3849557725,-0.8887901382,-0.3752781044,-0.9888050666,0.6204385656,0.8950255646,-0.115146745,0.4166796271,-0.3889623253,0.8116947987,0.4111901273,0.8380287569,-0.0044232872,-0.4223984663,-0.4264116776,-0.7486743744,0.4555188004,0.5275147542,0.4495347439,-0.7974182448,0.5572088882,-0.8393957466,-0.5133335169,0.6509073902,0.186196447,-0.4333652193,-0.7122319287,-0.5010240003,-0.2641808109,0.3224557508,0.8205910214,0.6466308459,0.0110885382,-0.2335755196,0.7152985841,0.1825247554,0.5882659833,-0.2136705103,0.5137360095,-0.8052672799,0.5965316169,-0.0914784867,0.6820020756,0.4783672307,-0.0594732602,-0.4302892316,0.9261953246,-0.8214965025,0.2502580031,0.0230517757,0.8337202381,-0.2777145667,0.783773626,0.7375581338,0.1496906133,0.9463547986,-0.7511641429,0.1734470462,-0.9926784404,-0.6237020804,0.5228324736,-0.2411771279,-0.6182053909,-0.5416503326,0.0363405256,0.671545097,0.0762586155,-0.5390961681,0.5966636273,0.3832401264,-0.8300832968,-0.3640219271,-0.0460026155,-0.3296735613,0.4366587939,-0.4321620432,0.5623019828,0.4345919506,-0.9843965405,0.7258244968,0.2281168698,-0.1638052028,0.8710660574,-0.4497981489,-0.6402476222,0.4108171447,0.1970764181,-0.0814689642,-0.8540892105,-0.9260192759,-0.3213984416,-0.9132855701,0.6554162726,-0.9623944624,0.1458594403,0.052843604,0.3534138617,0.0549185255,0.5122027785,0.5865885608,-0.8739591387,-0.3895705064,0.237013773,-0.0830988525,-0.3282065543,0.6508215926,-0.6144126566,0.2209918439,0.3100170801,-0.5065739505,-0.4791625483,0.0253873079,-0.8708941154,0.6055354166,0.0308552181,-0.5115899275,0.438861583,0.3906218552,-0.0382855775,-0.3097342633,-0.3940256628,0.1577044077,-0.413111367,-0.9208753695,-0.6103275185,-0.137527791,-0.5955322823,-0.047909924,-0.0784244108,-0.4661482537,0.55890639,0.1719762395,-0.8072783714,0.029979111,-0.5248629218,0.7387713261,-0.4471791924,-0.8452444498,-0.4534758631,0.6217892464,-0.1205553652,0.5354916424,-0.2525072465,0.5253911234,-0.6528661505,-0.1442649178,-0.3912589042,0.7380346649,0.3780079105,-0.1262512941,-0.7899209299,-0.9613796788,0.9674236074,0.0061989355,0.3059412113,-0.0217130269,-0.8534357111,0.5006183723,0.3320216847,-0.3047546786,0.8618170279,0.1836195868,0.338387406,-0.750905786,-0.4985648444,0.4959943096,-0.5837923069,0.2484167002,-0.0987083683,0.3030929403,0.2282481922,0.7542995906,-0.5421681426,-0.9730914567,-0.7961098347,-0.4024984258,-0.5371001141,-0.1421382228,0.782396055,-0.7284119371,0.095516737,-0.9513150417,-0.4843588911,0.7472053445,-0.8545101837,0.6921608094,0.6685235917,-0.6073117543,0.2357056302,0.9623642139,-0.9178774974,-0.5485951018,0.6493971111,0.326254162,0.7277063734,-0.3334682904,-0.7928724825,0.7687599915,0.0498956164,-0.0064411663,-0.5733210936,0.7626542878,-0.8659695512,-0.5958759126,-0.1969989983,0.8750648908,-0.5289701338,-0.8001853456,0.0551455565,0.1873292619,-0.3929472449,-0.4670416177,-0.2388037423,-0.4586378072,0.7142570591,-0.392298017,0.0094097003,-0.0368650591,0.5702829019,0.1585103939,0.6879120155,-0.2583934995,0.4845457782,0.3200572866,0.6842344902,-0.5034284591,0.593148697,0.9243450659,-0.6849091594,0.1497929068,-0.4789494419,0.6258931653,-0.2731386862,-0.530768053,-0.5665601573,0.2707528036,-0.8681144155,-0.3284950399,0.4804282452,-0.3858014695,0.4683913893,0.2689813992,-0.6457111974,0.8947813001,0.4127016123,0.7836695325,0.6199797815,0.5917818524,-0.6532150328,0.9774012271,-0.3020502449,0.4814137111,0.1382880678,-0.4991994665,0.5901766678,0.6287782256,-0.0305717304,0.4408432965,0.3185629892,0.036981247,0.390524146,-0.1539614235,0.6059280473,-0.7926284836,-0.9291698783,0.7886453239,0.532331953,-0.4336958571,-0.8482966145,-0.6281380129,-0.3324654212,0.8321662314,0.5532766964,0.8839115914,0.3566044709,-0.5792281772,0.2089298927,-0.67679701,0.011938874,0.2215567678,0.8249037233,-0.819631432,-0.4472733199,0.8511009897,-0.4910348402,-0.3191594083,0.2856422824,0.6980764434,-0.1986737205,-0.5159805964
   -0.6558833946,-0.4030994705,0.6289825408,0.3406263587,-0.3746667219,-0.18448678,0.9492012134,0.7332774825,-0.8794704224,-0.6549658108,-0.6341624725,-0.5230200339,-0.8321401364,-0.7769551504,0.8441891866,0.9021949325,-0.4421092135,0.9076368663,0.4027962264,0.7305392926,0.8496962606,-0.5031653816,0.6871180442,0.5493374432,0.674131016,0.9506544548,0.6517096278,0.8241386537,-0.4506111798,-0.5607338121,-0.8534023629,-0.3799074042,-0.6792829672,0.5022398899,-0.7345944411,-0.4153806999,-0.7538842254,0.265440257,0.494471272,0.2130838332,-0.1692795196,-0.3058992143,0.9437155394,0.0743967862,0.7233420411,-0.7394609088,-0.207961476,0.2327087774,-0.5855534509,-0.0758659089,-0.2980217555,0.3627748027,0.4023365345,-0.5230173367,0.85893492,0.4357170092,0.038084705,-0.6485598718,0.5235262633,0.4277590748,0.5085066812,-0.4694097755,-0.9220996816,0.6886136556,0.7507526886,-0.9459261828,-0.6337934595,-0.9501474878,0.2009030562,-0.9545846797,-0.8561069742,0.3810872832,0.7515899129,0.7855462818,-0.6607135105,0.9186083114,-0.4141676423,0.1876074946,0.4492291885,-0.1728253874,-0.9698977026,0.550332099,-0.2592935652,-0.6988406917,0.0017147315,-0.083239875,-0.5368712416,-0.164592956,0.5818881385,0.5915817509,0.9630382048,-0.7353767742,-0.4733707691,-0.9264855034,0.5833685225,0.1764067968,0.6461263284,-0.9901545366,-0.8824057796,-0.1257934002,-0.1441815192,0.1499134624,-0.3866081686,0.9280292055,0.2646253199,-0.881611852,-0.0882669199,-0.8910093201,-0.6563290153,-0.897148686,0.9861814052,-0.0615893845,0.3112590627,-0.3759288169,-0.5516725161,-0.5289525005,-0.370646551,-0.8449571523,-0.6689728262,0.4063813261,0.935303285,0.8073402946,-0.878122479,0.9422698913,0.434835304,0.5620934524,-0.3995530202,-0.5853358487,-0.3330702928,-0.9920875931,0.6224899865,-0.0016799696,-0.6727106814,0.0632900901,0.0280628895,-0.481592359,0.0344730195,-0.3847725555,-0.8935935438,-0.8026660103,0.8657807189,0.9570102329,-0.6217636888,0.2300835766,0.6178044286,-0.7341569479,-0.3203349704,0.6001743529,0.0355123525,0.8545271605,0.6607661119,0.1294987196,0.6361873004,0.6676469931,-0.3328228397,-0.6797840603,-0.8603267096,0.5538027967,0.4731220036,0.333484611,0.8071654348,0.5683644396,-0.1872737319,-0.3487084605,0.1406162821,0.9207450964,-0.9242301375,-0.3890479232,-0.3558471181,0.3352421091,0.8331890125,0.2192907267,0.7307148045,-0.593069205,0.9306376016,-0.1451692971,0.7762387929,-0.553940259,-0.5470778178,0.715163256,0.8268048362,-0.8592268766,0.7630004317,-0.9320490591,0.0581239261,0.5370503175,-0.7223243131,-0.843003585,0.693261832,-0.2014741009,-0.1158928032,0.5035698629,0.3924941265,0.8765667636,-0.0390727871,-0.63841146,-0.9557417649,0.26836732,-0.5633877182,0.6231876875,0.9707416775,0.4666241568,0.1589115438,0.0766630504,-0.1312628743,-0.797215636,0.3373820514,0.6141219644,0.2630432032,-0.8078768364,-0.7480295373,-0.1661575451,-0.6775538508,-0.4751924291,0.8815538949,-0.1484387844,-0.3632809692,-0.4276936537,0.3279981192,0.4173405449,-0.6987096483,0.5376270477,-0.7980070784,-0.3893434648,-0.8664306432,-0.5776220308,0.9768094998,0.6566369556,-0.8930098601,0.0297871508,-0.8140457697,0.0518390458,-0.5796522272,-0.4907950383,0.334788447,-0.2358869844,-0.9347887615,0.5649696712,0.6297858188,-0.6606068811,0.4189524893,-0.7224334005,1.002257855,-0.2677873221,0.8734871623,-0.1796160631,-0.4002127015,-0.8911431675,0.2352474542,0.73466891,0.4045779089,-0.6537423175,0.7156290892,0.4321945886,-0.3683131869,-0.1888662659,-0.8911066126,0.5887825705,-0.3481455036,0.1904810338,0.7907460626,0.4436395207,-0.8021206068,0.7576191339,0.3163546805,0.62203792,-0.5374924432,0.5616042976,-0.8002479498,0.8791232586,0.6279186506,0.7581125102,0.2050974054,0.9520969583,0.1542509734,-0.4374575847,0.9065011315,-0.3115680528,-0.1120904909,-0.071429826,0.8806221607,0.162159709,0.9871623672,-0.0448115092,0.5572816507,0.0933665597,0.606060058,-0.0416032329,0.4766000019,0.1899745829,-0.9008850541,0.2915232885,0.1545378177,0.5675361681,0.9048223071,-0.7633523669,0.7932911448,-0.7576062916,0.8453204145,-0.0997708357,-0.9207639616,-0.5149294379,-0.6224088058,-0.7333728204,0.5857501836,0.1840471667,0.8871450083,-0.1829109629,-0.4228103175,-0.424380732,0.8092169175,0.7067423885,-0.3475322187,0.1301857054,0.3728548804,-0.7675511125,-0.1642029155,0.693346441,0.091065289,-0.4841969716,0.160838621,-0.8079825323,0.8306261746,0.8770542686,0.1792003894,0.0579646652,0.3692138202,-0.0061298379,-0.3323661614,0.1183343989,0.3902358282,0.0290948088,0.171611336,-0.7832150244,-0.6862289176,-0.2526455819,0.8973323435,0.9809094421,0.5988607988,0.2503694822,-0.7082350066,-0.4166608582,-0.9613228431,0.4056051225,0.518438312,0.7575671052,-0.0722412863,0.2115519909,-0.0742011941,-0.8468542837,0.8183612592,-0.3152923503,-0.6937796361,-0.5860442575,-0.2972778884,0.9369787312,-0.9724472232,-0.1047747043,-0.1718782415,-0.126822912,-0.0192623685,-0.4288755446,0.1463345583,0.7333888042,0.3207268344,0.3418894968,-0.1766484648,0.5034393174,0.3889127426,-0.6878985362,0.8516615882,-0.7852759439,-0.5404327796,0.5111838749,-0.6976193309,-0.5355702034,-0.3045969649,-0.5788680718,-0.0372486653,0.8686989445,-0.9233030608,-0.596249881,0.3280458046,-0.0394104507,0.086457799,-0.2229010159,-0.5909813578,0.7710948527,0.6540711469,0.0811613072,-0.3261131465,0.0820737433,0.1040368836,0.9799536622,-0.6697737855,-0.1597802643,0.4470828401,0.7707695797,0.7952752994,-0.681732264,0.8922020313,0.4220419238,-0.2017835527,0.9523709642,0.3219879708,0.8337003806,0.8745250341,-0.7867903241,-0.8119725452,0.2588171164,-0.3361826658,-0.6587046444,-0.0947817595,-0.7486441226,-0.2045632459,0.2003870589,-0.0716281808,0.8231826142,0.7213317767,-0.0974758558,0.4848793707,-0.1936374347,0.1801191501,-0.1825164628,0.6942802059,0.0540276862,0.5109454204,-0.7544938,0.5453586835,-0.5606882929,0.9826405891,0.8614751346,-0.6755350242,-0.0794027819,-0.6617885323,0.0758728151,0.4869092558,0.0093845295,-0.1453611409,-0.0329488027,0.3511926611,-0.8702551461,0.1685148928,0.7299507249,0.9180756957,0.6132868652,-0.0208756493,-0.8514584176,0.4962781243,0.7876995019,-0.4666223111,0.3617407344,0.3262625135,-0.2515730438,0.2576951762,-0.6723627665,0.3232897725,-0.775790993,0.6879390682,0.6682354704,0.8101797984,-0.0664468209,0.000604973,0.3843171944,0.5911758778,0.2822528408,-0.8224688573,0.9912785988,0.3731487049,0.0580256383,-0.6851246473,0.7904017751,0.5317492823,0.2712093321,0.7041814074,-0.659613524,0.9246703412,-0.7167654052,0.6361902336,-0.9040170275,-0.4213200037,0.287530128,-0.3036892521,-0.9343117544,-0.4384829215,0.2615084547,-0.3134583145,0.9732608478,-0.5699860604,0.5082232043,0.6414534916,0.3314044661,0.6359745217,-0.6076525724,-0.4768896416,0.6437603016,-0.4298137121,0.2757742422,-0.6681909301,0.6746551871,-0.1136849156,0.5202216332,0.2197220373,-0.3299802793,-0.9624477973,0.1419838443,0.3110244145,-0.3238509268,0.5176250905,-0.8786949549,-0.2023817871,-0.3356151854,-0.3266123446,0.171967605,0.5173360597,0.6962152308,0.8862762001,0.2248828004,-0.076306625,0.2086003365,-0.2087550802,0.6376630983,0.6423949746,0.5768709799,-0.2166159168,0.525896505,0.455995837,-0.4720584483,-0.9343999891,-0.0825356731,-0.2838984052,-0.2032997715,-0.8385268224,0.659859476,0.1124542284,0.8681445993,-0.5877170622,0.7077094251,0.0148531512,0.8371244101,-0.9395586719,-0.1619913032,0.1374921922,-0.6597823786,-0.3853887526,0.412054517,-0.5136047218,0.8328016924,0.0203620147,0.294870671,0.2398031964,0.360424029,0.8977723456,-0.3306709421,-0.3960355893,0.1865393796,-0.9875874235,0.814669882,0.8090600411,-0.8157980443,0.9519067618,-0.2141497242,0.7246266799,-0.3494715123,0.1517853277,0.3322290877,-0.0446849567,0.286256253,0.0964596812,-0.7584656479,-0.6021515339,0.6666046928,0.8719505836,0.3410378439,-0.0968420248,-0.0869480229,-0.1410446666,-0.4897337795,-0.0476707983,-0.0187761498,-1.0261642085,0.0271267456,0.8276099854,0.7983279433,-0.0563047952,0.269960052,0.7494839074,0.9669291248,0.2864664824,0.3952752401,-0.5672057933,-0.3398510989,0.3684443222,-0.9885347181,0.2471500302,-0.4347202675,-0.7580941866,0.3796084838,0.4370184034,-0.2232453296,0.8202312615,0.816098664,0.3654250093,0.7854073505,0.2121624358,-0.2529172749,0.3096490894,0.531397591,0.1699699072,0.3347076449,-0.2307374288,-0.2649045019,-0.5120245847,-0.95434579,0.3459623538,-0.6213961455,-0.2828690828,0.6614031241,0.3462065468,0.0489956409,-0.298413745,-0.707329561,-0.3146916985,0.6366799739,0.4152885555,-0.6749462041,0.2609644451,0.948747418,-0.6776719027,0.9719591663,0.0533574996,-0.9736234904,0.9154058251,-0.1145115311,-0.5473209067,-0.9887826807,-0.0420838489,-0.3335598221,0.8307630792,0.7231903985,0.444025843,0.4705832621,-0.822270433,0.4509979209,0.1166997891,0.469536922,-0.7258227681,-0.713914534,-0.3752133146,-0.0050886271,-0.3383488227,0.8806503145,0.0381650786,-0.8413573219,0.3039461758,0.8942033424,-0.7260411506,0.3166554881,-0.3444737127,0.8185340907,-0.7260129718,0.7763484299,0.9891517496,0.4920657065,-0.1442975084,0.7283076173,0.0180671155,-0.0170370238,0.2468203542,0.4259190292,-0.2153871176,0.6961915673,-0.0972761407,-0.9467307694,-0.2127887851,-0.8766195736,-0.0961303134,0.2838029134,-0.8683455705,-0.0114118198,0.2650910093,-0.6105264576,-0.0093967558,-0.9072555119,0.6120571313,-0.5144053485,-0.1656939578,0.2580192824,-0.5136925958,-0.4371382225,0.2265348161,-0.197332067,0.5153391911,0.8298055613,0.1427602456,-0.7283575399,0.6212267543,0.2730448231,0.4711608893,0.9655009852,-0.4454064215,-0.6331257338,-0.3237342461,-0.8952138395,-0.2070648838,-0.8725901687,-0.0872840444,0.8389091992,0.54666725,0.0072896738,0.1208240582,0.813931526,-0.1188214542,-0.3537414764,0.9148677941,-0.8250514057,0.0130180334,-0.211735498,0.9729947929,0.0164390105,-0.9419435307,0.9360237493,0.5626273155,0.3615665092,0.2205163338,-0.3992707017,-0.5340356152,0.9424895403,0.3578537482,-0.5032701683,0.9750905236,0.7855264101,0.0752440798,-0.0957927859,-0.9964428676,0.605436057,0.9879004387,-0.8563797433,-0.6644639745,0.7075750541,-0.9595716869,0.5842814843,0.31609165,-0.2493500135,0.4026465223,-0.2460607777,-0.061034299,0.9642434339,0.9011710867,-0.8021373043,0.1713187699,0.2933630802,-0.2527524753,0.9498582082,-0.929845539,-0.0226880414,0.90170764,0.2612328061,0.1348917103,-0.5124267631,-0.4673522072,-0.1197001954,-0.3640749888,0.8131430763,-0.927320242,0.7869165755,-0.0499158492,-0.8317918743,-0.9896437607,0.2165479339,-0.2679350845,-0.4010031808,0.8745028909,0.9345386359,-0.4759866986,0.1120823123,0.484707248,0.476110827,-0.0751246497,0.7056898528,-0.5262977564,0.8700378378,0.8288712606,0.2175949887,-0.9398833651,-0.6898908455,0.8328270336,-0.9003814696,0.5400411203,-0.3864861028,0.2908192811,-0.9773506665,0.1244877023,-0.1915441357,-0.4984545297,0.7100284506,0.9657588528,-0.0925542138,0.5046387262,-0.7654738297,-0.0709150133,-0.7490615338,-0.6843367755,-0.0527769112,0.4056123872,-0.575450703,-0.9635137283,-0.9638872671,-0.5046629853,0.9720720131,0.378918284,-0.1623115907,-0.028850562,-0.7620563856,0.0677243162,0.7897546701,-0.8858075815,0.879735547,-0.1813406103,-0.0336476632,-0.7963953429,-0.9118593782,0.0647157445,-0.8996443323,-0.6557701455,0.5321524454,0.9433575072,-0.2017630119,0.531322231,0.3916201931,-0.8721341408,0.4050582132,-0.9649885127,-0.9453219592,-0.3518356808,0.6770299284,0.09409664,-0.27000772,-0.1487648995,0.4042982728,0.4333053626,-0.2005196292,0.5152056383,0.7532767875,0.7084377858,0.9044011174,-0.862414197,-0.1309997316,0.6927018596,0.0826806328,0.4326283196,-0.2444354686,0.8314020918,0.2849579473,0.7724144205,0.6051933987,0.0631153672,-0.9262451449,0.2303485277,-0.2850412631,-0.7831075746,-0.1504426978,0.0591442183,0.391669415,0.1964946577,-0.738587162,-0.2691676151,0.3553937702,0.5821675696,-0.3315639047,-0.7922077652,0.0340702016,-0.5229764509,-0.2280868088,0.6003035234,-0.8526629699,0.0991284964,0.0918968448,0.305201829,-0.1554578071,0.6182287274,0.5809990108,-0.2826015083,0.2742631113,-0.2218689886,-0.8450128492,0.2807502646,-0.2834520982,0.1658460341,-0.3924275219,-0.8048305499,0.951369024,-0.6416833452,0.1813626693,-0.1840385961,-0.9716821488,-0.5667622316,0.7854290603,-0.2975968661,0.0391380313,0.5950239506,-0.7893666375,-0.8457352689,0.9447189664,-0.2194662745,0.5873706368,-0.8675372906,-0.7038975654,-0.5102361158,-0.8194749499,0.5612675632,-0.2654456356,0.3562487938,-0.3035954995,-0.3127441929,-0.8657459228,0.3809176434,0.4250013581,0.3777113636,-0.7251107177,0.9931977417,-0.3898553119,0.5326964576,-0.9040499072,0.2963275107,0.2207712951,0.512257198,-0.0001413183,0.4652960355,0.3796344495,-0.4139116707,0.9727969029,0.7866124597,-0.9990513283,0.1307905699,0.1133376691,0.3416740907,-0.2434721335,0.7228518791,0.9162727976,0.0770192134,-0.0654156742,-0.4763652192,0.1016232591,0.6891920645,0.035843657,0.302158744,-0.2500042158,0.7955692862,-0.7606639353,-0.0727117466,0.3428986547,0.4895923287,-0.5586996655,-0.534579105,-0.3617470925,-0.8661336821,-0.0635582183,0.1345705128,0.3505343689,0.2477912186,0.9507778561,-0.9128314542,-0.5243440828,-0.6541240836,-0.1168811308,-0.2321430393,-0.3448033664,-0.63274603,-0.2695506713,0.5634666719,-0.6248614493,-0.6784505706,0.1267537001,0.4522346997,0.8875448716,0.0767576439,0.8758566641,0.2458532905,-0.432996497,-0.1417197732,-0.2846580668,0.2005472603,0.8341078132,-0.3908805461,-0.7151744674,0.7983080738,-0.7076954297,0.5150913663,0.2927354651,-0.9486054538,0.4526614637,0.9860650799,-0.5105804428,-0.4374166152,0.7429146693,0.1344597448,-0.2256787268,-0.3744219208,0.1426726621,-0.5778278136,-0.2399646347,-0.0019641742,-0.5350518956,-0.8567751457,-0.5506187875,-0.0314106856,-0.3225664895,-0.3954533487,-0.8581674014,-0.1410723667,-0.9444836563,0.4664890913,-0.88543274,-0.0969460524,-0.6325970251,-0.1749752971,-0.3594223858,-0.0243326422,0.545433586,-0.5585586141,0.6375588148,-0.7087464998,0.4322913269,-0.7991578426,0.3405897649,0.4815508666,-0.0549368406,0.880858845,0.1113514548,-0.6266047633,0.1724620672,0.2126429903,-0.7355215674,0.9094238376,0.0565614161,0.7707851167,-0.577651318,-0.8318760958,0.5903717916,-0.3944985952,-0.8809692477,-0.2183844787,0.6713178648,-0.455398317,-0.0378118577,0.7388472275,0.5557165508,0.9871771126,0.3851490961,-0.5682965433,0.9256225201,0.4778279094,0.4317777906,0.9933519962,0.3323722957,-0.3396777099,-0.907161135,-0.1411376527,0.0323743405,-0.3181146312,-0.2216139057,0.0795980174,-0.8333999884,-0.0737699504,0.67442695,-0.1070999993,-0.8417345865,0.6156563629,-0.586323273,0.7341518443,-0.3115350636,0.4060471399,-0.7289679112,-0.894066013,-0.953127821,0.2981143408,-0.3757601722,0.6927198868,0.8486479377,0.4754128414,0.7634799448,0.343073513,0.236556989,0.3215507896,0.9554918191,0.5353986191,0.2595367599,0.6694139646,0.0335534629,0.5249375596,0.0478755619,0.8449657902,0.9256297423,-0.6931373628,0.5488075328,0.16041871,-0.9731598619,-0.8233644997,-0.2733398912,-0.3357555609,-0.9682979821,0.7615613915,-0.0453325865,0.3494048532,-0.8984891029,-0.0126559908,-0.7418607013,0.5607165828,0.2555930274,-0.3778864525,0.6784641146,-0.0249248934,0.2133614643,-0.1954411195,0.2930419797,0.3789994712,-0.1978915237,-0.2310328598,-0.8055107269,0.315718005,-0.0374406126,-0.0522539019,0.8291796042,0.7919729997,-0.63183302,-0.7595132595,0.386759594,0.7344427966,-0.855906044,-0.4052895333,-0.8415226539,0.2695391387,0.0435547285,-0.9850765169,0.3419341781,0.8012980172,0.4659559389,-0.9375748247,-0.6782191706,-0.5340127947,-0.1507080008,-0.2090461544,0.2333591572,-0.6097766967,0.9794523038,0.1372885663,0.018355255,0.1710117655,0.4964311881,0.4862222674,0.6032203142,-0.9540692249,-0.4061151355,-0.2679694108,-0.4894902672,-0.188337413,-0.1597398338,-0.8993492182,-0.4776607583,-0.271380952,0.8683289524,0.0125207584,-0.1757833089,-0.1663181966,-0.3184364964,0.5398050486,-0.3381080535,-0.7350348165,0.3638387898,0.4170704234,0.2448876965,-0.6404989893,0.4104655176,0.0280313058,0.621018552,0.2683223836,0.7172799309,0.0828962793,-0.5581826434,-0.2530683194,-0.5118108793,-0.0894771886,0.8621126941,0.8216916815,0.3169306218,-0.8920403478,0.2208548201,0.1609124682,0.1566338813,-0.4738159886,-0.3622722476,0.236906245,-0.8458467993,-0.3443837683,-0.6392859484,-0.0679025184,-0.6790630623,-0.8538440019,-0.0555451236,0.5955510607,-0.3960912852,-0.1148443867,0.3687395087,0.4989273491,0.8563079897,-0.5231177349,-0.1796930438,0.5055725842,-0.0554294907,-0.6747480088,0.3101387275,-0.6937235626,0.050478701,1.0018454917,0.8237510883,0.7243113761,0.1961773713,0.3044683362,-0.3635158917,-0.8827709813,0.2273091716,0.2350344914,0.3067072381,0.360862541,0.5996353482,-0.5469491606,0.0692607326,0.0991760748,-0.7078348451,-0.3975400356,-0.7373668029,0.7664619814,-0.358468358,0.1204241116,-0.5439988629,0.8682911209,0.2487002687,0.6222907423,-0.8399817365,-0.4830043405,0.8604623562,0.944862614,-0.6263940151,-0.8656666102,-0.6067087276,-0.6628764072,0.4803396066,-0.7701296115,0.9465460941,0.0615341749,-0.5826255197,-0.0668540414,0.2805886714,-0.3112112809,-0.1364927005,-0.3206309896,-0.6793370541,-0.2716599089,-0.4069603344,-0.0038327996,0.3539745329,-0.5492055168,-0.6404870008,0.3700020008,0.935794388,-0.9821574186,0.7109430991,0.252249829,0.4595471688,-0.0203087723,-0.1368732619,-0.7178307264,0.3982109883,0.8572648357,-0.610423089,-0.9203419898,0.9151494612,-0.1289519482,0.6958838617,-0.9107802886,-0.697305743,0.000227209,0.6864143988,0.4993750462,-0.6138286622,-0.6781243287,0.4771126044,0.1141949533,-0.3121384394,0.8573690396,-0.2160439979,0.8865252334,-0.7528374725,0.7863609228,0.6052979994,0.1082470168,-0.7651844911,0.5823919389,0.9710264307,-0.563188341,0.4238613505,0.2306158965,-0.5877225814,0.8027613426,0.2107318401,-0.1835632699,0.7101474549,-0.1438068356,-0.0391110622,0.1351840696,-0.6441482836,-0.6599317745,-0.3806277324,-0.0482833729,0.8011765707,-0.632900974,-0.7420103166,-0.3958624717,-0.4244888981,0.4952388629,0.7214347297,-0.3739152094,0.6120827123,0.6377592786,0.554063392,0.9516104628,0.7615775719,-0.1426752036,0.4571606926,0.2783026886,-0.7141492589,0.1321960561,-0.9960779945,0.618590436,-0.0926615925,0.811650045,-0.5335094445,0.9167588745,-0.5654203004,-0.4066041379,-0.8460378434,-0.7652260835,0.5776958691,0.3869627804,-0.4583531496,-0.8209275056,-0.8260362803,-0.064158138,0.0565812481,-0.8679594664,-0.5584667072,-0.1424828031,0.8045209632,0.2564576263,0.1993470135,-0.450974004,0.7240867673,0.8161058336,0.4384435551,-0.1421930962,0.2652138327,0.6449394598,0.3073536951,0.6888538566,0.9180062705,-0.6325980554,-0.5987359996,-0.305168499,0.9972574289,-0.6675558925,-0.8086627419,0.1226286532,-0.2421723147,-0.3105693745,-0.1963029583,0.0362808507,-0.3837217128,-0.8519898883,-0.6299126724,0.4041715983,-0.2967540494,0.5410001682,0.9103718573,-0.8831659388,0.6575639007,-0.4348751218,-0.3090488278,0.7901531143,0.9598782464,0.3479493735,-0.7549126533,-0.3151651518,0.9829475049,-0.1446658307,0.7031327721,-0.9576608746,0.8221142582,-0.342428617,0.8568556555,-0.6775546375,-0.7453465806,-0.0507924701,0.8352895338,-0.8416713249,0.3924610333,-0.1069203243,0.014540366,0.6412203759,-0.655330593,0.3280257126,-0.9405725169,-0.8349983184,-0.3003167072,0.6387806833,0.9479408634,-0.8520683243,-0.8304056647,-0.2263057138,-0.2377247512,-0.6606360131,-0.4622768299,0.8295547439,-0.4104460171,-0.047444799,-0.7186597754,-0.1273794294,0.8421099486,0.4166066345,-0.422757459,0.5729597958,-0.0993772002,0.6716777992,-0.6906401984,0.3618430922,-0.7399350025,-0.3926732346,-0.6570901429,-0.5331324103,-0.5554066736,0.4846063711,0.8949883772,0.9251626666,-0.1382451886,-0.3477407586,0.4103072404,0.6534694825,-0.7156033086,-0.1320018428,0.1259322727,0.1372197055,0.3623912258,0.5167642001,-0.344556579,-0.4444002877,-0.5760570075,-0.2276772982,0.8199342666,0.7988873412,-0.174224039,0.4072976091,-0.2258568997,-0.9414615821,-0.6572543586,-0.411650062,-0.70982164,-0.3948837238,-0.8084747919,-0.3222996465,-0.7001194203,0.534892771,-0.3687820182,-0.4589766624,0.8124731993,0.6521766549,-0.3103876864,0.7947823018,-0.0376223868,-0.5868344455,0.3213350049,0.501638017,-0.6718793589,0.3204625265,0.7454886893,-0.4014152009,-0.5946931654,0.5587949503,-0.7608956898,0.6518956362,-0.9365009709,0.0180682399,-0.8714038911,0.6905287939,0.6704574631,-0.067974455,0.7454968272,0.4868779123,-0.3853291248,0.5321481793,-0.5011683707,-0.481791051,-0.868756638,-0.8973638329,0.5230401237,-0.8574847157,0.5797297259,-0.6233002813,0.549148857,-0.9691349111,0.1422762515,0.7969500457,0.6949997375,0.1686185271,0.3543191252,-0.7640057834,-0.3428677627,0.6240914311,0.5155199859,-0.0333222354,-0.9225239985,0.4261962831,0.0671241885,0.824369289,-0.5066487844,0.535163548,0.1353465928,-0.5962141374,-0.9661402079,0.6687409895,-0.9468323071,0.4658392371,-0.7669814723,-0.7398088565,0.4280428881,0.2356929088,-0.213629306,0.1641774501,0.2885263847,-0.5624934449,0.5796271787,0.2512512465,-0.869307336,-0.8673519776,-0.383171036,-0.7388487267,-0.8517333347,-0.5371074369,-0.3800426693,-0.1179444385,-0.0349925675,0.9593536863,-0.6185887372,-0.4424864846,-0.7746291536,-0.3652770469,-0.9682791244,-0.1326423202,0.9098336994,0.8627236511,0.9005455476,-0.1089473891,0.6179863212,0.1388955773,-0.6689962962,-0.14212067,0.2018662936,-0.1623044232,0.273382111,0.1566099115,0.2593693624,-0.2202652128,-0.193861102,0.1850054989,0.0325459832,-0.832242752,-0.8958786589,-0.327203255,0.9722064809,0.2217979,0.8370961691,-0.1528831255,0.0205427325,0.0721556163,0.8657954384,-0.4295605918,0.3102097639,0.2402157171,0.3245753444,0.4915292875,0.3504064398,-0.133535401,0.7343079718,0.8666512315,0.2729609954,-0.2030686146,0.1112319479,-0.2495245963,-0.3418798855,-0.6892281156,0.1098528627,0.2022196134,-0.4826562447,0.476837223,0.2649660864,-0.6683697663,0.3088486771,-0.175883101,-0.3020397094,0.5911265841,-0.1652459209,-0.3874320443,-0.3434760644,0.8796286472,0.8502541423,0.873498056,0.8152627191,-0.757814088,0.2185283658,-0.9093513361,-0.061041439,-0.6257419585,0.551861925,0.0248994238,-0.4537240005,-0.8160505005,0.8820206319,0.4493151526,-0.492469627,0.2003370472,-0.374314793,-0.1097162794,-0.8297416387,0.5960714878,0.2810498145,0.498047808,0.8579577828,0.7500350726,-0.0334728213,0.5617355205,-0.3189249651,0.7749606533,-0.7132607883,0.1165242651,-0.4932050981,0.8461653038,-0.243966912,0.9197855363,0.9331298983,-0.8544818991,-0.5789563225,-0.216530502,0.4850777891,0.5280488009,0.9026934949,0.2650614269,-0.8654656039,0.5268323315,0.6965605585,0.0761719762,0.1057397107,0.5205152681,-0.4742745673,-0.3285020406,0.1075463527,0.574858485,-0.9692862343,0.7018566308,0.557966784,-0.9520077535,0.6940229775,-0.1156239161,-0.3959213186,-0.3550880595,-0.029159687,0.7308144445,0.7825875838,-0.5794536342,0.9179199334,0.8074868937,-0.969839829,0.166093148,0.6170365218,0.8312499854,0.8190966388,0.1287238614,-0.7236217521,-0.6894200218,0.4313374621,0.2110241553,-0.5232581078,0.0331902119,-0.4205852852,-0.9811539171,-0.959796881,-0.8593349059,-0.804538287,-0.8075384009,-0.9105973652,0.3885564913,-0.4992602475,0.4075200307,0.7302277978,-0.4893342946,-0.5464677404,0.6828896614,-0.2911333429,0.111020619,-0.0602025119,-0.6590979681,1.0000520289,0.2496908208,-0.6098197019,-0.0169961466,-0.2523181748,0.4116380185,0.4707088244,0.1385016772,0.6787578751,0.5627960261,-0.8972667548,-0.0273707601,0.2917386624,0.402128797,-0.7064143808,-0.0606363052,-0.4585141374,0.8492361166,0.7871804998,-0.5901634568,0.3723473848,0.6832849504,-0.3467149057,-0.8799541563,-0.9310518447,-0.6417617363,0.5978668017,-0.2628996414,0.592522827,0.3590287112,-0.1100250452,-0.3116172696,0.5165812201,-0.7841191873,-0.7579640922,-0.6135534942,-0.405136863,0.5982675018,0.8595829141,-0.7975083428,-0.0798157073,0.7644439908,0.2221597687,-0.7494353366,-0.3383509065,-0.4019949982,-0.3482212164,0.9900006931,0.6984479735,0.5886968811,-0.4849004957,-0.7264567124,0.012477716,0.2494307224,0.560726874,-0.0468411937,-0.181994149,0.3404899747,-0.0517249056,-0.5641393255,0.2463418914,0.1436450038,0.3848911885,0.9506884299,0.3446836603,0.263224694,-0.3653093018,0.9530049242,0.2944675275,0.1018913073,-0.3576272815,0.8266038719,-0.0722696024,-0.7891520008,-0.904801849,-0.4369289946,0.5067221073,0.6910892591,-0.7574844923,-0.8560434511,0.3613863031,-0.9062596828,-0.8552189045,0.7333868307,-0.5050522536,-0.8830780286,-0.2405382129,0.2094928691,0.8610924265,-0.2790318271,0.5871673159,0.5743099853,-0.9364118822,-0.6780772694,0.539935499,0.6661641453,-0.6766091803,-0.263608101,-0.9431319086,0.4704360863,-0.3428544433,0.8497065299,-0.2926091854,-0.1240635395,0.418028708,-0.1950797328,-0.8003261304,-0.6350580742,0.3733065941,-0.134702499,-0.6393391728,0.8510353705,-0.9634158372,-0.0323296347,-0.7197474495,0.0892136422,0.3845938962,0.0135666382,-0.7584192571,-0.2112781279,-0.5467291562,0.9541879942,0.3252154525,0.5141834499,0.045440289,-0.9866863578,-0.855778977,0.1262491881,0.2607212332,-0.8992588211,-0.4292964293,-0.5184883898,0.0690786024,-0.8501492483,0.2100149499,-0.8477514644,0.5742660054,0.6148579917,-0.573814356,0.5187073413,0.5794918784,0.5461409424,0.0498415227,-0.3851514293,-0.4187343254,0.4128707648,-0.5024912122,-0.7529510726,-0.1348747136,-0.6317702547,0.7352095064,0.3049430025,0.7774191864,0.5364710744,-0.8246082209,0.1979963666,0.5861539929,0.6613402568,0.2338198372,0.1455367823,0.3446886291,-0.2484063374,-0.2350418396,0.3182783904,-0.4993973253,0.6748712013,0.9185203898,-0.5884370094,-0.2805850054,0.1539191431,-0.844852252,-0.9076793704,-0.5879839051,0.1418778597,-0.9889482111,0.162394183,-0.7877398585,0.7968337781,-0.8281191813,0.169657695,-0.8710441207,-0.0001716772,-0.7119314043,0.1405296752,-0.0622928959,0.2298948272,-0.6770558761,0.7457486899,0.8959769928,0.4244089824,-0.2292980919,0.6357017045,0.6878792166,-0.0734440091,-0.7328330547,0.011032304,-0.9514443741,0.7946334952,-0.4380198331,0.6942581225,0.6669252435,0.0774636349,0.5010168245,-0.4721236791,0.4808747538,-0.3596594268,0.0578780859,0.924767318,-0.3252916902,-0.5383003694,-0.2031780427,-0.1534184869,0.1768880628,0.9404393433,0.6106444896,0.6975402107,0.781669882,0.8042297012,-0.069676178,0.7855049366,-0.3780749581,0.7970150628,0.1272953085,-0.6294895406,0.5478491199,0.2817979469,-0.816412257,-0.8131787895,-0.4615913335,-0.8526261818,0.8303370756,0.8668839171,-0.9878558335,0.2002331143,0.831442096,-0.6870470716,-0.0203172161,0.4956979039,-0.1167773118,-0.7411197839,-0.6413232098,-0.9713778862,0.2378120936,-0.9697573965,-0.3300029412,0.2431462131,0.3346956043,0.7969680013,0.8093497976,-0.5116321521,-0.6505962746,-0.0115449423,-0.5654243407,-0.7771464409,0.8680191396,0.0509980577,-0.4406632728,0.7053642454,-0.2548439733,0.4907485258,0.0389577003,-0.3933254728,0.5961231745,-0.3790056857,-0.4427909408,-0.5939801573,-0.6076873328,-0.204586971,0.5736237073,-0.3086719025,0.5145188303,0.6596924147,0.8542517893,0.9600526736,0.5084599915,-0.5162806771,-0.5614290363,0.3295736693,0.0692707924,0.4471415695,-0.2131345441,-0.7318252633,0.8600879481,0.8134182875,0.3514099097,-0.3753270274,0.5001776362,-0.9182926778,-0.2698310982,-0.6174176655,0.6489558535,-0.7169085961,-0.0977235487,0.6519671241,-0.9757214988,0.8057790754,0.5748484863,-0.5218304944,-0.1711415168,-0.7157213716,-0.2516665651,0.623357934,0.1473861801,0.4299805517,-0.2065573482,-0.4950509199,0.9155046145,0.4432293648,-0.6412358838,-0.966119641,0.8580141248,0.6065994307,0.0300957634,-0.5794464519,-0.3396518522,-0.6181227059,0.7773775637,-0.5754640214,-0.88755953,0.5819556647,-0.4432377675,-0.691291506,-0.2505366879,-0.7728990565,-0.8545768865,0.4471730174,-0.339441217,-0.1274009977,-0.7395879931,-0.2837322537,-0.5915640785,-0.1744254139,-0.9395834549,0.3391692106,0.2978808062,-0.89190296,0.7346018345,-0.0199519451,0.1590670322
