encog,BasicNetwork,java,3.4.0,1,1590080304433
[BASIC]
[BASIC:PARAMS]
[BASIC:NETWORK]
beginTraining=0
connectionLimit=0
contextTargetOffset=0,0,0
contextTargetSize=0,0,0
endTraining=2
hasContext=f
inputCount=400
layerCounts=235,134,401
layerFeedCounts=235,133,400
layerContextCount=0,0,0
layerIndex=0,235,369
output=0,0,0,0,0,0,0,0,0,0,0,0,0.0000111204,0,0,0,0,0.0000042138,0,0,0.00000312,0.0000000051,0,0,0,0,0,0,0.0365448277,0,0.0002457342,0,0,0,0,0,0,0,0.0000004096,0,0.0004941314,0,0,0,0,0,0,0,0,0,0,0,0.0012428641,0,0,0,0.0262619853,0,0,0,0,0,0,0,0,0,0,0,0,0,0,0,0,0,0,0,0,0,0,0,0,0,0,0,0,0,0,0,0,0,0.0000000046,0,0,0.0007969248,0,0,0.0000006349,0,0.0007158883,0.0028306926,0.0000583574,0,0,0,0,0,0,0,0,0.0000053842,0,0,0,0,0,0,0,0,0,0,0,0,0.0623856938,0,0,0,0,0,0,0,0,0,0,0,0,0,0,0.0000000002,0.0016007051,0.0000835245,0,0,0,0,0,0,0,0,0,0,0,0,0,0.0000032811,0,0,0,0,0,0,0,0,0,0,0,0,0,0,0,0.668261573,0.0399475163,0,0,0,0,0,0,0.0053426357,0,0,0,0,0,0,0,0,0,0,0,0,0,0,0,0,0,0.0006261146,0,0,0.0007252881,0,0,0,0,0,0,0,0,0,0.0000341184,0.002595252,0,0.1491770661,0,0,0,0,0,0,0,0,0,0,0,0,0,0,0.0000009194,0,0,0,0,0.0000000133,0,0,0,-0.8197051207,-0.1284815501,0.0997533319,0.6337567011,-0.7064691627,0.4172285897,-0.2504058878,-0.8360202924,0.0399253248,0.2398107122,0.0478680623,0.8612653792,-0.6662042012,-0.2670215633,0.0776382505,-0.782719377,0.2803741385,-0.6771771794,0.1546458987,0.1669652104,-0.0566867665,-0.2459047676,0.6207643133,-0.1169296747,-0.2618130039,-0.9760232677,-0.6074666458,-0.3327607955,-0.33156751,0.2501657991,-0.3001975716,0.4328869961,0.1947639139,0.0245443766,-0.7270829459,0.3861019648,-0.3291244866,-0.1076794842,0.9097880037,0.6204088903,-0.8724006336,0.068476367,0.2528504163,0.1420816059,-0.3712146937,0.4413546682,-0.0836842532,-0.6318102059,0.0753267089,0.6958986728,0.2238761854,-0.2741512097,-0.2134152242,-0.5129827993,0.1441132123,0.6866754441,-0.1622007293,0.6685065374,0.3788676789,-0.4424274713,0.2637041389,-0.6001850024,-0.5574629992,-0.0160179437,0.2485628908,0.1257792237,0.4057235629,0.9002212593,0.1450469293,-0.1331635724,0.5397548317,0.1081571941,0.2728947286,0.0626614591,0.5156565469,-0.8858794791,0.4780259929,0.116681046,0.4174860225,0.1110413089,0.3745948983,0.2827785905,-0.7521205493,-0.2047250264,-0.9996611804,-0.0494153248,0.2000263441,0.6354945575,0.5349265727,0.2142151502,0.4488066745,0.2617531165,-0.3690128868,0.1408189464,-0.4834387592,-0.4342415832,-0.0103606228,0.0136500215,-0.3472766912,-0.6135282916,-0.4030726508,0.0169666917,-0.2345465372,0.2808844518,0.4606303423,-0.2054244642,-0.5975741449,-0.1563579797,-0.320928824,-0.2461340096,0.2356324346,-0.3386489701,0.179982957,0.3050494551,0.4598540534,0.7081886998,-0.5340087773,-0.025766497,0.095032767,0.6608518423,-0.3530712114,-0.4732829928,-0.1632433215,0.7346577322,0.267626785,-0.119312313,-0.3886089318,-0.1032389669,0.3026281389,0.0105079926,-0.0230010656,-0.3557219538,0.0102753442,1,0.039,0,0.069,0,0,0.059,0,0.127,0.01,0,0,0.059,0,0,0,0,0.02,0,0,0,0,0,0,0,0,0,0.039,0,0,0,0,0,0,0,0,0,0,0,0,0,0,0.01,0,0,0,0,0.02,0,0,0,0,0.049,0,0,0,0,0,0.049,0,0,0,0,0,0,0,0,0,0,0,0,0.157,0,0,0.098,0,0.029,0.01,0,0,0,0.01,0,0,0,0,0.098,0,0,0.137,0,0,0,0,0,0,0,0,0,0,0.01,0,0,0,0.01,0,0,0,0,0,0,0,0.078,0,0,0,0.049,0.039,0,0,0.176,0,0,0,0,0.01,0,0,0,0,0,0,0,0.01,0.029,0.02,0,0,0,0.029,0,0,0,0,0,0,0,0,0.01,0,0,0.01,0.098,0,0,0,0,0,0,0.029,0.029,0,0,0,0,0.069,0,0,0,0.118,0,0.049,0,0.01,0,0,0,0,0.02,0.039,0,0,0,0.02,0,0.069,0,0,0,0,0,0,0,0,0,0,0,0,0.039,0,0,0,0.01,0,0.078,0.039,0.029,0.039,0.078,0.069,0.049,0.039,0.157,0.01,0.098,0.039,0.049,0.137,0.186,0.01,0,0,0,0,0,0,0.088,0,0,0,0,0,0,0,0,0,0,0.01,0.069,0,0.01,0,0.029,0.01,0,0,0.01,0.049,0,0,0,0.049,0,0,0,0,0,0,0,0,0.01,0,0,0,0,0,0,0,0,0,0,0,0.02,0.01,0,0,0,0,0,0.029,0,0,0.01,0,0,0.029,0.284,0,0,0.029,0.039,0.069,0,0,0,0,0,0,0,0.069,0.01,0.02,0,0.029,0.02,0.01,0,0,0,0,0,0,0,1,0.02,0.029,0.01,0,0,0,0,0,0,0,0,0.01,0,0,0,0,0.01,0.108,0.039,0,0.108,0.01,0,0,0,0,0,0,0,0.078,0,0,0.01,0,0,0.01,0,0,0,0,0,0.176,0,0.02,0,0.01,0,0,0,0,0,0,0,0,0,0.01,0,0,0,0,0,0,0,0,0,0,0,0,0,0,0,0.01,0,0,0,0,0,0,0,0,0,0,0.049,0,0.039,0,0,1
outputCount=235
weightIndex=0,31490,84823
weights=##0
##double#84823
   -0.7795418457,0.4515437561,0.8654616709,-0.8265998724,-0.5356028275,0.603960013,-0.3856804725,-0.6883553405,0.6703332043,0.5441202871,0.7946195797,-0.2452853997,0.4380452248,-0.442938904,2.1762022265,-0.8845982448,-0.0274352671,0.3923257275,0.8290516274,1.5239166755,-1.4883879777,-0.2806412519,0.0230631287,0.601501244,0.0564420644,-0.789213116,0.8176083245,0.9787257926,-0.4455945486,-0.1136225153,0.7906061932,0.9652519974,1.6773262205,-0.7596306264,1.7551148935,0.3315088022,0.5118579187,-0.4544234392,0.8438491009,0.3382387114,0.0515381475,0.8380070862,-0.4439854856,-0.2132998575,-0.974208954,0.0390847802,0.7384834808,-0.5603346742,0.6182218369,-0.922680784,-0.5490881565,0.909492217,-0.9151516841,0.2625514637,-0.5374226548,0.758642807,-0.059952576,-0.0041534148,0.716171109,0.0992839598,-0.703166666,1.4547966131,0.1327218975,-0.0851914918,0.4461470639,-0.6716761098,-0.6163964084,0.4885761955,0.5857718521,-0.8954668536,-0.4433224561,0.1256725901,-0.231870531,-0.1152054201,1.1995124232,-0.2762813175,0.162105176,-0.8569843304,-1.2789389338,-0.779186949,0.5988206951,0.6652439726,0.1284717027,0.90145644,0.2321235909,0.7052444475,0.7257319984,-0.0721926422,0.9465000186,0.1689646951,0.3503834571,0.4875456723,-0.9706057094,0.3013383866,-0.3945991088,-0.0393364067,-0.2553338224,-0.3839527307,0.0990557047,0.6682993288,-0.1009193671,-0.5762674784,0.9163802724,0.4919965068,0.454230199,0.7185734044,0.5597501105,-0.2248782214,-0.1774124675,0.3762409438,0.1836650611,0.093621763,0.2062855091,-0.1452718114,-0.1672515616,0.2948643213,0.5251770881,0.5811804291,0.2530091035,-2.1110660626,0.6996800121,0.2208056131,0.2259096012,0.2739201205,-0.5579158594,-0.9955473119,-0.2845098693,0.6426585326,0.8643806693,0.9138004025,-0.3971067033,0.9267586844,0.0031249309,-0.9791334248,-0.096255645,-0.9847978622,0.6106353537,-0.6274479044,0.0547859244,-0.4524447971,0.0793746548,-0.2200144007,0.5520720018,0.2823130172,0.9332861337,-0.8797774282,0.9784027965,-0.3447840736,0.2160679158,0.8355604727,-0.7252693622,-0.1243066554,-0.1204198147,0.5268648406,0.9465711968,0.6757933695,1.0698530662,-0.6563117592,-1.0194396056,1.1116224696,-0.493572237,0.6997595066,0.0601021877,-0.861556334,1.3032417212,0.0578248304,-0.7222216186,0.6093547129,0.1826482898,-0.1993693741,0.1683832386,-0.7570463311,-0.630967539,-0.7903398756,-0.2649859383,-0.3599693415,-0.7128125743,0.02076253,0.9722394316,0.8412832893,-3.4303114695,-0.8100299153,-0.0965671053,-0.9296750176,0.2873805066,-1.4686057961,-0.6797179302,0.4048434867,-0.4216228152,0.2187582429,-1.5863177671,-0.3319512298,0.4437682434,-0.3683630302,0.0272170832,2.6979093105,0.4674687072,0.6272579305,0.9185125437,0.8547558118,0.3918096992,-0.9874648749,-0.3685961021,0.5741843669,-0.9781517241,-0.1380988159,0.1059403091,0.2403711717,-0.4953758385,0.9635433665,-0.4198403095,0.3822850193,0.4649323314,-1.0326332916,0.2797570922,0.2822163506,-0.4709799339,0.9418819816,0.2784618985,-0.1611223587,-0.8447737782,3.0892928785,0.6210657517,0.5340651372,0.2416911238,-0.1884530504,1.1222992184,0.0148153673,-1.3336810116,0.3517080959,0.6556169168,0.2569337194,-0.471768846,0.3062224234,0.0589863604,-0.0935247217,-0.5301321211,-0.5719013071,-0.6504737601,-0.3565192287,-0.6454768167,-0.3710522602,-1.7943062087,-0.8024891881,-0.4339842078,0.889747484,1.2633444628,-0.8277984988,-0.8743144074,0.7789664018,-0.1863343298,0.2366163204,0.6987637326,0.0843658166,0.3497666474,0.732490806,0.510996386,-1.1049200458,0.5544566831,-0.905751513,-0.0658958412,-0.4913704833,0.7685991942,-0.3982739651,-0.0551099339,0.7789969594,-0.4158782223,-0.4763298659,-0.9932014252,-1.0723470828,0.2355166158,0.2556604277,-0.2694451956,0.4153658715,-0.2027997986,0.2752749094,0.6472713774,0.5400858827,-1.8209550487,-0.089450584,-0.2332202604,-0.0110008292,0.0581749336,-0.0559668019,-0.1519666402,-0.2577488256,0.287177327,0.0968359838,-0.885671403,-0.7638769326,0.0880206304,0.0054637812,0.9676782233,-0.8889891776,-0.0727983831,-0.4463129037,1.0146249547,-0.2318546434,-2.9687342569,-0.8060355088,-0.6482631493,-0.0763649003,0.5832440162,0.1899125789,1.0665489678,-1.0230012799,0.209747069,1.6930044586,0.3549352884,-0.3181363419,-0.7393814096,0.3063514028,0.034002995,0.115761156,-0.5088138103,0.276828227,0.054523756,-0.9743215202,0.4621199525,0.5679112716,-0.5351345746,-0.8333785358,0.3134195366,2.6498568832,-0.4448413597,-0.5513637587,-1.5806438628,-0.5087890474,0.2631741268,-0.2748370226,-0.3142165163,-0.377622384,0.0886508571,0.7625681257,-0.005840809,1.13767508,-0.9072056174,0.3728031872,-0.3626267575,0.2336641969,0.3580409597,1.0290794548,-0.3966933208,0.2362563893,-0.4463381802,-0.2040154631,-1.0717054414,0.5451068668,0.4198531515,0.6088927151,0.9356455646,-0.1495624904,0.5960261905,0.0382081004,-0.7406019432,0.2116716363,-0.1718868032,-0.5810075282,0.4916664618,-0.403014752,0.4337119063,0.114843244,-0.5718498844,-0.5403540573,-0.6389629692,-0.2205501541,-0.5434658909,-0.3017444331,-0.6748988869,-0.3911587401,0.6859489365,-1.0648106469,-0.4802161445,0.3494645074,0.2123798533,-0.2164463136,0.5283789406,-0.8645885228,0.2621315296,0.5819015882,-0.530819371,0.8848056919,-0.210600308,0.6001301041,-0.2722807304,-0.2906394455,-1.4057204019,0.9664813525,-0.1223059951,0.3134595396,0.2485532169,2.0785997955,-0.6464648001,-0.6500427156,0.2984806317,0.6797936798,-0.3028194608,-0.7072223006,-1.3159042718,-0.8354133072,-0.3588763019,-0.7059519207,0.3363457556,0.5448091553,-0.0598621486,-0.4592905692,-0.2157217509,-0.4718553452,-0.8001144383,0.2493951425,-0.358429469,0.9483835871,0.0730158823,-0.0358106282,-0.2395610836,-1.9537637486,0.4521425151,0.6291071504,-0.3918535187,0.1869174944,-0.5052161752,0.1488818149,0.483724347,0.1614190844,-0.3666029714,0.0851660053,0.3250728743,0.190839143,0.8567802709,-0.9987392787,-0.9777073053,-1.4432357428,-0.8694710927,-0.7111552587,-0.5668814403,0.9494251354,-0.5695219424,0.3672452149,-0.7681828489,-0.4067125346,0.563762637,-0.5370674333,0.6037960343,-0.4303922263,-0.6967877206,0.4517149442,1.03359063,-0.302526819,0.3369043777,-0.1427613831,-0.4859730235,0.4232968061,0.4971415234,0.2756202498,-0.4256425188,0.9835652778,-1.0313114133,-0.1532056128,0.7037871206,-0.1638539625,-0.7152742366,0.0340966643,-0.483047364,0.1826258622,0.2235148145,0.8031436326,-0.7199106305,0.4515318846,0.528552335,0.8762648242,-0.7218480383,0.5733764226,0.3829975568,-0.1031318151,0.2768976301,0.2500164065,0.4432954867,1.9319836506,1.4433653442,-0.820841809,0.4366169266,-0.5000273906,0.1957733657,0.5297590906,0.1009354851,-0.00621268,-0.0867935327,-0.7453150878,-0.1691807208,0.4190418039,0.4310245636,0.0944255077,0.1783240302,0.9232507318,-0.3661126995,-0.6300664132,-0.5068938527,0.1817899211,-1.4353805347,0.2769231623,-0.3816032533,0.5937903679,-0.786320175,-0.4071971391,0.9637623725,-1.91004899,-0.9109140441,-0.3939022952,0.5046989406,0.5207842324,0.9213915061,-1.7778274754,-0.1716765954,-0.0617088316,-0.8250710625,-0.024494594,-0.0646798531,-0.0868705595,-0.5414016271,-0.8625223047,-0.2607875203,0.2119427651,-0.929091867,-3.2178242049,-0.7876614924,0.8122986047,0.0194403489,0.1902468354,-0.3010184651,-0.1420977414,-0.4589278836,-0.2394435501,-0.1282572101,0.0075306193,0.520293217,-0.0922470969,-0.2648554204,0.6387184102,0.1533917161,-0.8679680221,0.6622232829,-0.0342077004,-1.4400967561,0.4380893148,0.280806568,0.8136926355,0.7747216654,-0.5755472142,-0.016281502,-0.1956678217,0.7848545237,0.2237877779,0.3289437773,-0.7394157231,0.4053998831,-0.0316094946,-0.8336745788,0.9745052067,0.3475838767,-0.9764971704,-0.4336692426,-0.7915465621,0.1528308941,-0.7169608112,0.3657338669,0.5199884032,-0.532729365,0.4803218811,0.460704139,0.7552059233,0.2594951749,-0.9959088182,-0.0306894498,-0.8310935295,-0.6042346998,0.7136399564,-0.1044649919,-0.5439198168,-0.5688685935,-2.0761151142,-0.0187991847,0.0621469005,-0.1966624196,0.5284079989,0.7445684197,0.731259774,-0.2932732286,-0.7672004655,-0.2849458686,-0.0054985602,0.8812406327,-0.683145935,-0.5080615788,0.7171659007,0.2700345723,-0.7410981731,-0.270495956,-0.2954541832,-0.4749051243,0.7369036667,0.1853099437,-0.4122152201,-0.0602474764,-0.13517792,0.3023005654,0.8468844014,0.9431960104,-0.6376196993,-0.7074046726,0.1460289151,-0.1958050139,0.3135440097,-0.6661721467,-0.4765523078,-0.3906601331,-0.1932134207,-0.9355802242,-1.0111504469,0.843203689,-0.082172225,0.9963966477,0.8916604713,-0.7245652476,-0.1453500259,-0.7501176524,-3.2872939844,0.8698688901,-0.0886374045,1.0112112955,0.4705670087,-0.0533698332,0.8297192433,-0.1717633383,0.3787197229,-0.7758179407,1.1280330187,0.5886198324,-0.0503814107,-0.8269569189,0.1104799934,-0.51710476,1.0458432672,-0.5932663052,0.3204155297,-0.2488454939,0.3676995128,0.3682519515,-0.1849112347,0.2037696269,0.3246085772,-0.4578240785,-0.8508502647,0.3525331331,-0.8097378612,-0.0646517758,-0.7184626985,0.8233974456,-0.6715746291,0.1202244016,-0.4894570875,0.056936288,0.9042261802,0.9663239977,0.9234108252,0.9805566369,0.3609958846,0.1815493591,0.6499338291,-3.2401826541,0.1439671289,-0.478174927,-0.2605743981,0.2068811114,0.2206034739,0.3085263947,1.0234396034,-0.5361554158,0.4459403135,-0.9331930426,0.0558837911,-1.8337783735,0.922812951,0.9396208187,0.9446685701,0.3613482895,-0.4160034512,0.5750386846,0.5253834158,-0.0814027332,-0.5781436565,0.2689494979,-0.3959109449,-1.5487186017,0.7925275021,-0.4313253735,-0.3453958118,-0.1785731486,0.710630882,-0.9717474951,1.0402179685,0.1611964772,-0.6928317073,-0.1823366876,0.5079302933,-0.8851413193,0.1555812773,0.0221576607,1.2562312755,0.582890348,0.4623656586,-0.1413880931,0.3501144215,-0.0378961611,-0.1977684293,-0.9617728088,0.3602159985,0.7193596754,-0.0033808304,0.5492386357,-0.0525103464,-0.7169591719,-0.3092872874,-0.3162232697,-0.4517784247,-0.0676823833,-0.6039735971,-0.3923223087,-0.7863506881,0.3878520468,0.5106955749,0.4894666696,-0.5426444045,-0.8938180681,0.1790726738,-0.1728436197,0.1533641014,0.187596329,-0.9600771614,0.7611304746,0.1490025889,-0.1757341588,-0.6314387494,-1.1094536797,-0.4626796973,0.9021098305,-0.8968992057,-0.4554520066,0.7741198118,-0.4744884911,-0.6957799915,-0.269524512,0.5762593435,-0.3744860104,-0.1493213183,-0.6414873073,-0.5490252738,0.1366387806,0.1011276588,-0.4685242048,-0.09983059,-0.023216082,-0.0973485763,-0.712461771,0.4712356695,0.5193838851,-0.486157327,0.8309813806,-0.5981817327,-0.346187783,-0.7833264499,0.0154175073,-0.1515973808,-0.3320744017,0.1434699926,0.0424263774,0.2858616092,-0.0752115863,0.1042381543,-4.847079949,0.4608720953,0.0812655586,0.1176722794,0.7664023758,0.4100384692,0.6125578252,0.9574142503,-1.1436073297,0.3954675925,-0.0907631019,-0.8983921994,-0.6557158747,0.2337834557,0.4101729183,0.6329482719,-0.1509987165,0.5040912255,-0.8372361686,0.225503805,0.076335141,-0.5635766259,-0.640518692,0.4891539462,0.3117143952,0.2542275825,-0.5297208624,0.0161515403,-0.9213097589,-0.4867749108,0.6537594673,-0.3562966943,-0.4052516623,-0.4234029188,0.2777366061,-1.4737218604,-0.518328369,-0.7432390248,0.6302591938,0.6449062136,-0.1416791853,0.2603292744,-1.0464981204,0.4042040302,-0.3024052367,-0.3916800779,0.030429429,0.2453964797,-0.1202914136,-0.3716245681,0.9767600439,-1.103986608,0.9232662152,-0.3325488377,0.4106510727,0.1996115078,-0.0334614609,0.2414344644,0.066539058,0.3962665727,-0.3944462203,-0.8269548689,0.1705323829,-0.0554319901,0.4738441665,0.2558073797,-0.3819187177,-1.397723743,-0.9140363754,0.2547981662,-0.2644851623,0.9004779614,0.4736318017,-0.2470672697,-0.2635620407,-0.3466799214,-0.3117513492,-0.7139230739,0.5871133126,-1.4827443192,-0.4758714308,-0.2193459545,-0.0029045788,-0.5310827146,-0.055493506,0.4831379372,0.2700371597,0.0445773394,0.3702375044,-0.8286700072,0.772535182,-0.2321859043,0.6277567454,0.0211838932,-0.2988203996,-0.9726661617,-0.6937255636,-0.3528198334,-0.2548475517,-4.1325004858,0.4679228094,0.210588515,-1.7132842674,0.5764675687,-0.4321970896,0.8673227302,0.2603524663,0.135617616,-0.3521552202,-0.261147946,-0.8149252532,0.3795403191,-0.6284212383,-0.7449932708,-0.9232187218,-0.854155019,-0.2813826076,-0.7503653592,0.0128730903,0.3931698435,-0.2309005112,0.3264444363,0.9287803067,0.5963555404,-0.337795558,0.8418033159,0.6191314358,-0.8561529284,0.1554710516,-0.7295640795,-0.4124181073,-0.9953970928,-0.0863923193,-0.6502096608,-0.8763494676,0.4502180615,-0.3904699683,0.6069717245,0.3460055353,0.6824465288,-0.5942709875,-0.0239728156,0.1584634301,-0.6063286576,-0.1534503585,0.2399837381,-0.6341275654,-1.0029091728,0.3322995898,-0.0566898535,-0.5269529424,-0.5407054383,0.9597995792,0.5717310912,0.5254821078,0.692196613,0.373008621,1.1245152129,0.8000820419,-0.3281423659,0.2147159287,0.0044819576,0.3563532687,0.6214393338,0.5707909232,1.0663454461,-0.1950565727,-0.0395555496,0.0312047286,-0.2117420245,0.2057548946,0.1557511417,0.3626945489,-0.3487361324,-0.2933909339,-0.653691263,-0.3362400377,0.1615267029,-0.1502893336,-0.461255552,0.3644050025,-0.3996187133,-0.4050280122,-1.9596344535,-0.6405140557,0.2052732196,-0.8599049629,0.397529616,-2.1277024082,-0.2788056149,0.3788058376,-0.4483913198,0.919014587,-0.3310288081,-0.8672472907,0.5146063339,-0.6638143468,-0.6831457487,-0.5280854435,-0.2409033998,0.097629649,-0.7384291862,0.0134657865,-0.3504736213,0.4803621452,0.1835187884,-0.5260476668,-0.1588219982,2.1786234795,0.7371435334,-0.0574772442,0.5967858331,-0.4764125731,-7.2002236162,0.0630553972,-0.0844972236,0.0042301476,-0.1209617641,-1.0144390294,-0.4332016678,-0.2722830192,-0.9897542171,-0.9365920922,-0.4933243517,1.1153253723,0.3947245118,-0.0408086731,2.9822925207,0.8917933199,-0.4949581361,0.4037329916,-0.1284398819,0.1505501754,2.8543147694,-0.335971362,0.2206363243,0.7781026696,-0.7240099954,1.6082727617,-0.5601753821,1.3675150135,-0.4296411481,0.921879848,-0.7586769751,-0.7474775468,-0.4725425191,-0.8597463528,-0.3940136211,0.0645740457,-0.1108291346,1.4491372164,0.5901301366,-0.4397543521,-0.4136654455,1.2199343983,0.7011491707,1.4840415979,0.4842528204,0.4616541957,-0.642327226,0.2517119073,-0.7784881661,0.9445375249,0.4499077675,0.3914895955,1.8258654863,-0.0653533307,-1.2555717168,0.4383869342,0.1901099491,0.4321184065,0.2876600152,-0.5883378487,0.7033854756,1.1190352963,0.8139555497,0.1337500795,-0.1593949659,-0.4774187088,0.9568026596,-1.4318994031,-0.1768025506,0.2692624552,1.7492749254,0.1664797076,1.2608005398,-0.4642081575,-0.4941778786,0.9268529573,0.3134894707,-0.0140282229,-0.0664701326,-0.9246072954,-0.8180690152,-0.3732777015,-0.3210276674,0.5621695997,-0.2042480549,-0.1668641629,0.0219654758,-0.0815377706,0.6436947103,0.6987949913,-0.4277206931,-0.5396215181,0.3445269037,-0.4569925891,0.8489610325,0.6322519134,-0.2329272886,0.3199196384,-0.6043375065,0.765388235,-0.5885036087,0.7423209514,-0.8275013969,1.3022781827,-0.30218436,0.3134732748,0.0057581795,0.2614110798,-0.8677832684,0.4346951214,-0.761356007,-0.0042085559,0.8921043149,-0.450795772,0.5898250438,1.1442501066,0.5537260294,-0.3087452634,-0.1678080167,0.2085632044,-0.6888412986,0.1129952062,0.5646925352,0.6674461053,-0.400607525,-0.1839144543,0.2167375533,0.0843526154,-0.4057664298,0.5786292746,0.0698915666,-0.7424699993,0.4037310683,0.2423598844,0.3486480477,0.4246602527,-0.0197453566,0.1042926153,0.6682493765,-0.2949646696,-0.6593131222,0.3886964854,0.1958091011,-0.0296844702,0.5090981905,-0.1222102501,-0.4272876041,-1.1016868699,-0.1016451107,0.1142674175,-0.8164835894,-0.2916898069,-0.4022450734,-1.8000228329,-0.454056382,-0.8227197356,-0.8547319673,-1.5365569568,0.3796375602,1.5816239364,0.6334684245,-0.3619809784,0.0656066003,0.7816270858,-0.5371261418,0.8177847002,0.0060221739,0.7688479698,-0.1198655409,-0.4886588253,0.6610117418,0.4562524617,-0.398345429,0.5505747708,0.7687985033,0.115279967,0.5935362529,-1.0738126164,-0.871897694,0.4947983807,0.1863076824,0.1571519168,0.3778476491,0.7125788589,-0.5345205073,-0.2366302449,-0.1835494857,-1.2175941259,0.9271301786,-0.5584994155,-0.5943154068,0.6363139108,0.7001195937,-0.4241926907,2.1754632699,-0.1458963442,0.5904452148,2.5479590588,-0.3891149975,-0.49588846,-0.7830420259,0.0262133411,0.4785740929,0.105449324,0.0351844624,-0.7025712415,-0.0298122601,-0.0820241851,-0.243704383,1.2791451105,-1.2542734318,1.5373685206,0.1485334238,0.5993736153,0.8937445241,-0.6454329536,0.5390010544,-0.2592032148,-0.3873103153,0.5337145749,0.0426634961,-0.2039305863,-0.0078273234,1.3390747839,-0.0079826059,-0.1847758607,0.1813245608,-0.0673787713,-0.3576754559,-0.161016305,-0.4340658463,-0.4192772531,0.2647460733,-0.6019244055,0.6647840936,-0.1887785348,-0.680131335,0.1524364102,-0.9262943683,0.7398591011,-1.7100032272,-0.315936126,-0.1552469566,-0.0347770125,0.2688454739,-0.2489064863,0.221228909,0.6794057322,-0.5367266904,-0.8542239823,-0.2777509973,0.7799507583,-0.3668516886,0.2149850541,0.0503434862,0.6669133854,-0.8875401681,-0.645832854,0.0781663665,-0.4211519735,-0.2921913959,-0.4527594955,-0.991100561,0.5062002051,0.9800200604,0.8360427822,-0.8045323393,0.0943932297,-0.1342126042,0.4977200773,-0.8324947911,0.3143693825,-0.5317005231,-0.3333348556,-1.0108104968,0.9349889874,0.2611249636,-0.4909591384,-0.1716123986,-0.2066581292,0.156321605,-1.0405369343,0.2864902278,0.0636203572,0.6557652241,-0.1860686908,-0.6017210794,0.8170924215,-0.4448149271,0.4312376403,0.9630891594,0.5107359427,0.7779026017,-0.3536924187,0.5986888025,-0.1035421197,0.5094374538,0.9296896463,0.1548028271,-0.0872019744,0.5685759642,-0.4885095609,-0.83565055,0.6642301406,-0.7681774227,-0.4531513994,-0.260435084,0.7511293622,-0.17951679,-0.8044851779,0.7059255025,0.6867032743,-0.1878751513,-0.4189432639,0.0266576247,0.2181301376,0.8063780242,-0.0725101419,-0.2951307209,0.8557637152,0.3876954593,-0.3949453985,-0.661558031,0.3877681503,-0.5002982441,0.1714187043,-0.328336574,0.354351831,-0.0246650859,0.1173680252,0.877714865,0.6774696277,0.2074761459,0.2121466332,0.1346914957,-0.6604729358,-0.0386890666,0.9525448435,-0.8364217632,0.850900672,-1.2493834292,0.1707534543,-0.6589300857,0.068174285,-0.82866392,2.37641512,0.6744706446,0.8247475189,0.7037150205,-0.7027966291,0.904068575,-0.5301377731,-0.0941339117,0.0702756149,0.5234599076,-0.0001885294,-0.0108827198,-0.1841352283,0.5112322639,0.2065190077,-1.1725532682,-1.0712244091,-0.6920609714,-0.5627441245,0.0140888511,0.8985346668,0.7877216138,-0.4945674385,-0.4298132983,-0.6345019993,0.1346262937,-0.4825887545,-0.2139705592,-1.2163489031,-0.1645138178,-0.4772985065,0.4234523294,-0.4471486826,-0.7735826612,0.7982173564,-3.080373345,-0.6129627855,-0.093872428,0.5761492701,-0.6377910175,1.2266466264,-1.3844540869,-1.2455634526,0.8435129353,-0.615178535,0.135719504,0.2921679045,0.0339572743,-0.5095201382,-0.046340499,-0.0854895348,-0.5836119604,-0.2827202269,0.828168544,-1.0069318409,0.7411524194,0.2449490227,-1.1617098752,2.4604689118,-0.0570926403,0.0292538923,-1.1435722703,0.2836739765,-0.5513460685,0.5062020528,0.5774376054,0.8312287264,-0.4200920962,-0.8004267282,-0.1413844947,0.945757067,0.6072120297,0.8094195575,-0.3615804259,-0.6345484496,-0.8217500731,-0.0747140691,-0.1358533344,-0.1219975529,-0.391611701,0.3562875993,-0.924241325,0.6237778145,-0.0125876362,-0.4350614171,-0.4968172306,-0.6543020996,0.5109994382,-0.6312978913,0.9330102145,0.4888316406,0.4152488124,-1.1443261727,-0.4360421471,0.703027105,-0.4507862724,0.0864599075,0.5614266737,4.807658802,-0.4096395618,0.4550857236,1.2024679927,0.2355478459,-0.0181022201,0.9302452987,-0.2056321089,1.2028384479,-0.114106225,1.242296967,0.539541006,-1.0665173042,-0.1170285013,0.4431836109,0.1866362444,-0.6926133334,0.2215080753,-0.7201720712,0.1063305123,0.4436355981,0.8507586596,0.7405716934,0.073846955,0.4503500122,0.1760693176,-0.7859397051,-0.605805633,-0.3723074466,1.1379592902,-1.0809858145,-0.8306050811,0.44903327,0.0633454893,0.2965679673,0.9054545887,-0.8186754395,1.1299018872,0.2507231627,0.0792584078,-0.2124059862,0.9877698006,-0.8691836567,-0.095262938,0.5909815613,-0.5569119498,0.2391215467,-0.5693744807,1.0443742156,-1.2937086552,0.4348382595,0.6442279198,0.3791741855,-0.9483329663,-0.1894026918,0.3034707387,-0.8306915946,-0.4184899133,-0.872243271,0.1181572108,-0.3653131527,-0.15191043,-0.1895701041,0.5869917689,0.8059423217,-0.6874003459,1.0893534105,-0.5523076733,-0.3262180682,0.8396024579,-0.2842116715,-0.6965758833,-0.1269846493,-0.9366726664,-0.18704291,0.047336608,0.8649655175,-0.5238774131,0.2223670314,-0.1747024,0.8453780499,-1.9950641405,-0.8874710702,-0.0704160188,-0.6779111064,0.6040561097,0.8037857091,0.4081006738,-0.0994543664,0.2501784225,-0.0628141738,-0.486606712,-0.3756577122,-1.0645577574,-0.3978888582,0.7337832912,-0.292346077,-0.9555538623,-0.0146607516,0.1772854217,0.4413273134,-0.1527119989,-0.7727624279,-0.7878071453,0.0126432879,-0.6911294626,0.2483107698,0.7887740002,0.356851405,-0.3921606241,-0.1261002554,0.7969958652,0.235539182,-0.7866957295,0.8550841894,0.9263982903,-0.9496715669,0.5653375356,0.4364585519,0.5598985152,-0.0553902667,-0.0066339276,0.7861404411,-0.1527087821,-0.5476608772,-0.4622461678,-0.5901777981,0.6660209477,-0.5947849818,-0.3550951559,-0.7317575487,0.214346834,0.1924354062,-0.1752755248,-0.051652474,-0.6543947291,-0.8424125763,-0.5221656617,-0.894938498,0.7849168816,0.1299326663,0.2465868459,2.7230348953,-0.3585411008,-0.7051107912,-0.8011759196,0.5104797125,0.9771652392,-0.5515802014,-0.4936923574,-0.4555164839,-0.0596155314,-0.3390768614,-0.8901691122,0.1732717818,0.8776706583,0.2059368014,-0.8035831502,-0.6802082619,-0.4804825388,0.7039838488,0.50855544,-0.7678526094,0.4318873942,-0.6232975049,0.5627556072,0.3449904306,-0.8151926134,-0.1944753927,0.4283793817,0.1069160251,0.6795880969,-0.6202418407,0.496820064,-0.7916975721,-0.3245207023,-2.5963736218,-1.7091181241,-0.0027808477,-0.8629845935,-0.6266840697,-3.7766651344,0.3462989905,1.0634624754,0.3944684946,3.2655832771,0.0569419413,-0.9474371304,0.8925926805,-0.070833841,0.3211710009,0.6857881816,-0.248648645,-1.2376940061,-0.9937535831,0.8584270726,0.3907351797,-0.804437689,-1.6723902043,-2.6078751045,-0.2211217396,-0.4481631404,0.6487861908,-0.5115291859,0.1843714552,1.6758208146,-1.4700161516,0.8660443357,-0.3462130417,0.2687366887,0.1905176881,0.1344541657,-0.1887502526,-0.4976331033,-0.0537824622,0.1710955039,-1.8555662481,0.9258769587,-1.3362118625,-0.0617426973,0.4626178899,0.6632747985,-1.2042720856,0.4427358572,0.2627678043,-1.543487277,-5.1634195802,-0.5994432639,-0.4622052234,0.1690276428,0.1913278687,-0.7147575361,-0.9241555205,-1.0396044981,1.8851219583,0.4741498622,-1.1407596851,-0.8091105875,0.0670758179,0.76281511,0.8822999838,4.4204671043,0.6787711753,0.0590788878,0.3355888238,-0.100444306,0.1659019091,-0.0187670119,-0.5848180763,-3.2471566835,0.588087026,0.6446854675,0.5780169967,-0.8309049834,1.9247883289,-0.4594344205,-0.3920285851,-0.8887542773,1.1407473206,-0.2967219271,-2.5332657627,-0.0955142941,-0.5102622896,-0.7211631205,-0.3306099578,1.0832851434,0.5300868915,-0.7194173537,0.5705794227,0.3493793186,0.6447531535,0.8817720136,-0.4106951287,0.2596228844,-7.3476477818,-0.8932394855,-0.1640040761,0.0451873487,0.8758857089,0.4313358751,-0.1040947166,0.1719656097,-0.5418159149,-0.3877055276,-1.2125176258,-0.7229058842,0.4087874209,1.7407210367,-0.3242105956,2.7545016911,-3.2742935411,-0.5570584697,0.891408838,0.906537868,-0.0921842476,0.0600649002,0.9348286423,4.418996689,-1.0059718347,-0.0197668485,0.1016897176,0.1336894784,0.4609409162,-0.9105312255,0.8024734823,-0.7704217319,-1.070071486,0.056951845,0.4574239901,-0.5149983468,-0.8693053682,0.7840103632,-0.2964892971,-0.7137930119,0.4829037968,0.8040028386,0.7428696042,-0.763715235,-0.531322552,0.2197744948,0.9275305431,-0.3382243591,0.7322279002,-0.0506170277,0.1710214574,-0.5270976862,-0.9923834525,0.149280538,-0.9822640833,-0.6626960867,-0.4877696652,-0.3527052628,-0.2836398685,0.9579353254,0.2173182462,0.8617322553,-0.9146517113,-0.5089763214,0.8796271251,-0.551430019,-0.5342757543,0.2116324597,0.2115127359,0.0694230591,0.2741256868,-0.8934520413,-0.1662044776,-0.115840766,0.7557099656,-0.9129927649,0.8870607119,0.592882027,0.0646927216,0.77702107,-0.7343088897,0.5935938774,-0.5292149792,-0.6331373748,0.7652301291,1.2992560318,0.5002929011,0.2567874945,0.0863468144,-0.0984249823,-0.4912728075,0.9053117038,0.7718355716,-1.0191545486,-0.3390320896,0.3169489109,0.6370807407,-0.607199441,0.4969768435,-0.6447680759,-2.3855697236,0.7944948098,0.2187729906,-0.6171198591,-0.0161315756,-0.2074301315,-0.1518970974,0.1340186593,0.5421510001,-0.8557866425,0.1878400925,-0.3313299237,-0.1846642693,-0.9211449291,0.8295368367,0.5230917734,-0.5837239386,0.943328639,-1.1773730259,0.2483377957,-0.3750633417,-0.219846832,-1.0431153307,0.5882244578,-0.9177592183,0.1704604692,-1.1895174677,1.9654580779,0.6906147975,-1.1663833452,0.3184558473,0.4260052254,-0.8024154992,-0.1919179355,0.5030019995,-0.0785748471,0.4436167153,-0.9397321064,0.790368121,0.2453844658,-1.2759640461,-0.1351898545,-0.2995450858,-1.0849920761,0.4817984661,0.3236813251,0.5713768394,0.8351934125,0.0932247312,-0.0346687524,0.7413075624,1.6007404781,-0.8745916506,-0.3536989026,-0.4943681443,-0.0317048553,0.9730915759,0.7426907929,-0.2060156713,0.1480393562,-0.0952078401,0.8670740087,-0.1601195179,-0.7546272954,0.1970170936,0.8981184495,0.9573256634,0.4453668406,0.9132825459,0.3199308322,0.0796902032,-0.585803981,-0.6322161046,-0.2700012543,0.2325073832,-0.5174553875,-2.9836796787,0.2756969725,0.0086378653,-1.527040375,-0.7343998441,0.4662499228,-0.5592236257,-0.4445565176,0.0905735186,-0.413766211,-0.9550092083,-1.1655680091,0.004134746,0.0493678604,-0.233675318,0.4401671074,-0.4203696812,0.2808265838,-0.0540960279,-0.304680149,0.6233825645,0.428351234,0.4686396911,0.0029759335,0.0305063353,-0.0015540979,-0.2154555594,0.4937898476,-0.8262778668,-0.6412692261,-0.1951141028,0.2418098283,0.7212561592,0.5882010033,0.1019878303,0.9304038993,2.9678070226,-2.2668638659,-0.1765266913,-0.8317227633,-0.7605086354,-1.3058611151,-0.3999181581,-0.413119058,0.8918427403,-0.2949448238,0.9514806169,-1.8152292201,1.1776367149,0.5038675551,-0.5307571146,0.1022730413,0.9656922495,-0.575938821,-0.616878973,-0.136531298,0.5444866065,1.7040088257,-0.6287836579,-1.0509742522,0.0635015196,-0.0387102143,0.0163027418,0.3934521203,0.0170705322,0.7513464953,-0.8054105212,-0.3146629951,-0.6627250614,-0.8562331761,-0.2670492476,-0.5304630101,-0.6150009424,-0.3605287066,-0.738098302,-0.0779110734,0.6592839717,0.6636526848,-0.4206529878,-0.6834093957,0.2795532734,-0.581019197,-0.7156104228,-0.5615949282,-0.8397395812,-0.3034479773,0.5535526079,0.551817742,0.6723559878,0.0810045741,-1.6685361698,0.1003414853,-0.8287997181,0.809668743,0.3727401302,0.4533472818,0.3075809517,0.9151647337,0.2380749064,-0.7607651816,0.4347105338,-0.9037743499,-0.4187858277,0.4293668724,0.0005702983,0.5104971783,-0.4976518838,-0.6245583273,-1.3307500559,0.7914631006,0.2732272739,0.2194693551,0.1581938089,-1.0610484437,-0.9702483099,-0.4308698661,1.2832066923,-0.1320247424,0.6414682524,0.787058089,-2.0216610472,0.6124778241,-0.0070823295,-0.6654929526,0.8769370307,-0.3945994559,-0.3448570089,-0.9032757366,0.415981017,-0.6441956532,-0.69426075,1.2355357027,0.1816821742,0.2655164127,0.8049066547,-0.0352227271,-0.3949012654,0.7004657947,0.4098136754,0.9430119946,-0.2698265899,-0.8060883232,-0.7041701494,-0.5284070315,-0.588316789,0.6213259658,0.4306382218,-0.563558655,0.1732191208,-0.6352902989,-0.0832750567,-0.40150784,-0.296759835,-0.2122015903,-2.6562424961,-1.0059054384,0.2200219568,0.7245029345,0.3857141293,-0.5922074364,-0.433627357,0.3612882812,-0.0431720869,-1.0048000917
   -0.0979565138,-0.3767094204,-0.588286,-0.8257686826,0.040406899,0.4447378796,-0.9587763375,0.4519978028,0.9182383114,0.4831386768,-0.1981444279,0.8830815278,0.7819666201,0.7126795341,-0.3442247903,-0.843601416,-1.3199631928,0.5920483381,0.9578707907,0.3237744235,0.3745153725,-0.9594736857,-0.9188359294,0.1576969186,-0.5051566844,-0.6986845383,1.0333443486,0.1437787665,0.2897761399,0.0067469212,-0.9034969638,-0.5174947027,-0.7666839374,0.4421238548,0.1521746473,0.149649293,0.4801912609,0.7584638352,-1.6293784241,0.9978524011,0.3534471078,-0.9140406066,-0.0912289992,0.4931162305,-0.6048470094,-0.3022126112,-0.6583238557,-0.6184704459,0.4820629004,0.5494916496,0.9242016003,-0.7830218916,0.2631180234,0.5326631342,-0.8782351245,-0.3148915064,-0.3018574787,-0.9525137329,0.3510931098,-0.7879051629,0.5636015572,-2.1514563089,-0.7684618025,-0.893434105,0.4130163802,-0.2251933606,-0.6588077489,0.3068482864,-0.0455785332,-0.1136093825,-0.4502536076,-1.1021983326,0.0470192927,0.4222961828,0.4152415292,1.1180973333,-0.5122745985,1.284762323,0.7565696564,0.3328414701,-0.3680392388,-0.5346205858,-0.5687686099,-0.0124607154,0.9530042218,0.3003389352,0.7638175802,-0.8494456817,1.1749718894,0.0810537798,-0.8734733659,-0.5939037403,-0.7952597782,1.7387843354,0.6551383359,0.0710592012,-0.6716695166,-0.5218873756,0.3249549021,0.4618057517,-0.2451686992,0.9056714462,0.7918955083,0.2825217849,-0.0259366737,-0.660090744,0.2595148627,-0.9185846666,-0.3844885368,0.7630570958,-0.4481174516,0.0455336531,-0.2698921033,-0.5917247986,0.5361730714,0.9717341011,-0.0559880886,-0.7840839435,-0.5710977325,-0.4473821432,-0.1541363242,-0.5927642263,-0.6075518652,0.1484601452,-0.1195472738,-0.9894152251,0.135788189,-0.7136335691,0.1142101688,0.3302153172,-0.197069627,-0.3591437341,0.0182357094,-0.1283472163,0.2870438236,-0.1511101343,-0.2240382447,-0.1484882226,-0.7913383624,-0.8797733159,0.5190780578,-0.639043002,-0.1113058979,0.1112202971,-0.5268215987,0.2160166901,0.8833495346,-0.5833004489,-0.5080161092,0.7153093521,-0.5140517722,0.4691164223,-0.1586516679,-0.7313639052,0.2325879422,0.6050991979,-0.1180768705,0.4769785348,-0.0238687527,0.6362031568,-0.2263921821,-0.6829429925,-0.4216428268,0.5106689599,-0.8493982026,-0.7766714035,0.9488401716,0.7008130388,0.9470096718,-0.5458502686,0.9409955566,-0.0009186885,-1.5850633581,0.1449210603,-0.8672404083,-0.2736569493,0.6748019671,0.3808465028,0.1121379364,0.6465445467,-0.422051985,1.2610220711,-0.0899777597,0.9978848814,0.6025809904,0.2267985888,0.1426156426,-0.304434573,0.0189965102,-0.0611726146,-0.5733045857,-0.6740847899,-0.233107941,-0.902580662,1.7969012083,0.3328476165,-0.6410691947,-0.3098817979,0.5672920411,-0.4577457401,0.4241444866,0.5719061945,0.7929078234,0.4731668274,0.6330922607,-0.0647233614,-0.6123901071,-0.4637651996,-0.2066009803,0.2437240711,-0.33698372,-0.801318134,0.767747205,0.6165848428,-0.1540113962,0.8008669385,0.3354193183,-0.0684278505,0.8168206347,0.9628924062,0.1181159971,-0.7308365498,0.4096124553,0.318919173,0.7585356323,-0.7339290295,0.7486138736,0.2243860118,0.0452921251,0.968486973,0.7472381176,-0.4996644262,0.5618141165,-0.3433621422,-2.1511708303,-3.2383885249,-3.867491993,-0.7223917079,-0.3845913117,2.248929367,-0.7384244382,4.1654040989,-0.3831264364,0.006784853,-0.3527075515,0.4037706799,-0.9172373124,0.769146847,-0.1329368427,-2.2827005525,0.8137253966,-0.0432234368,0.5330267413,-4.269567849,-1.059168812,-0.0151307983,-4.2784996468,-0.4357848844,0.7192244223,0.6812302647,-0.9556580249,2.0143528286,0.7653540514,0.8277938743,-1.9049099663,0.7559045606,0.680169588,-0.7058540341,0.7073462003,0.9933199545,0.0811285636,-1.1997946521,-1.4417005704,0.5964379906,-1.3184728366,0.4754818517,-7.1154868214,0.6776297557,-3.0947811949,-0.1854028605,-1.2928230415,-0.9938666353,-4.2386149153,-2.4686420778,-0.6924745694,-0.3832199574,-0.1237383512,0.9215719693,-0.1690843949,0.3992956921,1.0170824432,0.0493369075,-0.8202527213,1.114399743,0.7631843347,0.3812793947,1.4233652663,2.0301674971,0.2156913188,-0.1196216343,0.735150941,1.0489333504,-0.6265673652,1.7633734947,-0.2783079568,-0.670291363,2.6832817512,0.079614806,3.7460504021,-1.8050879185,0.4881099083,-0.3310204193,0.0301498342,-0.0403137544,2.1104847596,0.7937017198,0.0408094765,1.1303352342,-0.717669953,-1.3311115371,2.5666326563,0.8561205667,-1.2415758331,0.6042061896,0.722924224,0.6645576812,0.7886535737,-0.4800434198,0.3163720802,-0.2000259374,-0.9166503111,0.3584007289,-0.8606384865,1.3039670353,-0.2006030828,-0.602241789,-0.122353397,0.3796860189,-2.1061312658,-6.0411988832,-0.0604517522,-0.2476728799,1.3501123201,-0.8020549015,0.8506740517,1.1680071382,-3.6617581259,-0.2707864672,-0.2029448449,0.9505660269,-1.1688707341,-1.3698556389,0.8563370355,0.1041366341,0.3657542712,-0.955099854,0.886085528,-0.1410242397,1.5867567495,-0.4562850174,0.5147735692,0.3118643979,-0.8028065645,-0.7586516404,-0.7746368147,-0.1059185958,-0.8151927397,-0.3267925681,-0.7316257759,-0.2138379085,0.2822202312,0.8803792641,0.5125532373,0.0542600078,0.6991356913,0.2106810299,-0.693558175,0.5532850309,1.5035608912,0.1554135555,-2.1718486972,-0.6375240822,-0.7083769334,-0.8092767836,0.8818177478,-0.2370545842,-0.7014650301,0.6721086093,-0.3318567116,-0.3410898698,-0.0219796243,1.0319857737,-0.3761001929,-0.5542518701,-0.992071019,-0.792368873,0.4098765369,-5.4243209868,-0.4656169237,-0.6471359132,-0.2785067513,-0.8788794619,-0.3853298034,0.407753715,0.0349984324,0.0950038192,0.260391386,0.1858812006,0.238311648,-0.1365823686,0.6705373761,-0.6526113095,-0.8949019938,0.5773802882,0.9368565063,0.4836204973,1.0782032434,-0.6277738827,-0.7660531575,0.3996217806,-0.4655686213,1.1556129399,1.4243076864,-0.2983883433,0.648164427,0.9694529715,1.0025440942,-0.3305178875,0.1830214374,2.3075765163,0.9426723579,0.2176122397,0.659212346,-0.0678861641,1.0242295353,0.9700545861,-0.5083004471,0.6440951957,-1.4783996798,0.0675105789,-0.1491020661,-0.129585489,-0.7443579374,-0.4262376011,-0.2551223744,0.1804378036,-0.1974394344,1.3703808739,1.1895173509,0.952312665,0.7474582624,0.9369799177,-0.0516863255,-0.5250923474,0.1365933441,-0.1484315741,0.5504449324,-0.1063114388,0.4993709625,-0.9053927725,0.7607739761,-0.4987518227,-0.9487157166,-0.4211427907,-0.4977811929,-0.8825741778,0.2114018647,1.4554995739,-0.164296591,0.0004366351,0.1263224314,0.3213190107,1.0674100179,0.4641981046,-0.3359519691,-0.3283933504,0.1732695165,-1.1350034964,-0.9691279356,-0.4654037803,0.5687937858,0.220382273,-0.1151724131,-0.6128245162,0.6709214491,-1.5515028315,0.8927421871,-0.7184741317,-0.2105974643,0.1569617843,-0.3393931712,-0.0228823614,0.5732334602,-0.6022675162,0.8560829619,0.4356748604,-0.0414768331,0.9093462481,0.4415556167,0.4666199911,-0.5440596689,-0.509681407,0.0046666349,-0.9242306841,-0.7885677674,-0.0934612335,1.5047423822,-0.2200717744,-0.5066564224,-0.5190789206,1.2311236018,-0.2207615978,-0.0921256903,0.384043374,-0.7471571045,-0.5472012211,-0.5874332848,1.4866812831,0.2754100456,-0.6486699286,2.0472745891,0.1893439474,0.7318673231,0.4822840636,0.3975472093,0.2017786226,-0.4409422693,0.8061035635,0.5330952763,0.0869514454,-2.1675686083,0.4889251988,0.6772668489,-0.0639721766,-0.8133693595,-0.1976718972,0.6075922899,-0.2627531347,0.0910275659,0.3053100916,-0.0823868617,0.2047855075,0.2067848306,0.9497719067,0.1422621757,0.8376729419,-0.839668815,0.9495790005,0.1966861497,0.0990569871,0.5789500322,-0.6236663177,0.508110873,0.761490689,1.4564650891,0.0283874622,-0.4356849376,0.5311967579,0.2261272144,0.6519953758,0.6247255212,-0.2307611263,-0.0869503594,0.7899936685,0.7660356365,-0.3389661593,-0.6533508837,-0.4671154447,0.6156120892,0.2769376393,1.1674105162,-0.4652296046,-1.0023882699,0.2629198268,0.5756818788,0.5830637791,0.5352285606,0.7399930154,0.9987286937,-0.3993992259,-0.2476882085,-0.053365442,0.2660062332,-0.914887036,0.9433151983,-0.1689469414,1.0703436441,-0.6615706823,-0.2253051738,0.1271765259,0.9272224856,-0.2793776502,-0.0924800597,-0.133901313,-0.9142675486,-0.2743393501,0.1339172721,-0.526360599,-0.7792873732,0.3081185855,0.8948604487,0.3339179194,0.9246954267,-0.4629511292,0.5725007572,0.3075463987,-0.7479145799,-0.6626593618,0.270267605,-0.2247364686,0.762803821,0.8468967586,0.246394575,0.85192499,0.9681989605,0.5790370668,0.4141964062,-0.1286418072,-0.2616761165,-0.6648036799,-0.1081177544,0.6221655681,0.6109506542,-0.4757425091,0.2108093446,-0.840894906,-0.2501188163,0.7668663542,0.150672256,0.0562910984,0.2810632468,0.2694947207,-0.4425935639,-1.1830760738,-1.0320742855,-0.3999739289,-1.5925370958,-4.0835516598,-2.255313931,-1.7002196999,0.1024865942,1.3458056405,-0.9097689574,0.6760908285,-0.130931386,-1.0497048807,1.3564435489,-0.0915805587,-0.5218425466,-0.9708427686,-0.9209831417,-1.0035518328,0.9839689898,0.3578777844,2.67399808,-1.7530078374,-0.604824639,-1.2899775251,-1.5240557647,-3.5212010622,-0.0363974702,1.8658767894,0.2535107435,1.505846545,0.6386017746,-0.2292395956,-0.9294924703,1.052219657,-1.08437663,0.7882348083,-0.8711277327,2.1942533053,0.3704731097,-2.6845470939,-1.239598877,1.1416068005,-0.9845914894,1.4093009267,0.7585867777,0.6696760143,-3.6995376832,0.123411972,-3.7477787071,-0.8700296832,-1.2467997829,0.0039710538,-0.012197401,-0.5325915857,-1.1595587896,0.1516156892,0.391676147,-2.7155475107,2.265828422,-0.1024321996,-0.0882612074,0.6288577147,-0.1550218236,1.1478304842,0.9634515586,1.9418119543,0.5020878481,-0.1479286273,0.3830790135,0.714488604,0.9336017426,1.0688547507,2.0835437169,-0.9326119133,-0.1492928162,0.0730037742,-0.7039247807,-0.4592288605,1.6673118239,0.6553674616,0.0390727961,-1.7676511547,2.6271915869,0.7495640758,-0.4179647808,1.9055391995,0.1135798965,-1.8417691356,0.2816582715,1.2404174654,-1.7449222375,0.2860547436,-0.6341291947,-1.1187304231,-0.1108504991,3.2236570564,0.5146599716,-0.6682026753,-2.5035967182,0.8535140426,-0.5296976082,-0.8260873715,1.07600527,-0.5097181009,0.6983659484,-0.4565288323,-1.9357908543,-0.3491584935,-1.09272726,0.7050885267,-0.2046291736,2.3723863499,-0.3841978731,0.9804914546,-0.1500578089,1.7951346463,0.0416763399,4.4117467305,-2.1876920057,-0.3396634557,0.433431625,0.7364953351,0.6714951112,-0.7164155108,0.3660520623,-0.2342950808,2.3770479759,4.890744588,-0.0847197827,0.8900742099,-3.4010776139,1.1196994123,-0.6912694451,-1.3752684402,0.6355755532,-0.5286544924,-0.7894286683,-1.7345557931,-1.8284873493,-2.327357978,0.5447374624,1.8947629741,-0.1202012353,0.7565026476,-1.126377033,-0.4159346249,0.7346844491,3.066864327,-0.5412487377,0.7834336911,-1.4580629133,-1.0077519013,0.6785733543,0.9297585636,0.5354938066,-1.3740138974,-0.0385541169,-0.6418245331,-2.6024403649,-0.2607355327,0.1251744089,2.4877884675,-0.0854601684,1.2291702691,-0.9961652123,0.7067436314,-0.6603024579,1.89700804,-0.7978528432,0.8572957221,-0.0415027287,-0.0097760826,0.1693336146,-2.0028335058,0.3651452947,1.0213519647,-1.4554236291,0.9949479998,0.0062305917,-0.3056220045,-2.9333443756,0.3719029302,-0.4999681002,-2.4506289692,-1.6985303964,-1.4565326877,-0.6897325053,0.0581805648,-0.4805644933,-0.2600331072,-0.1859349408,-0.792237852,0.603983343,0.3735626182,-0.0258334717,5.8447542668,-0.6006051177,0.9468202186,1.6648828028,-0.4001891566,-0.1377163716,-0.4394267275,0.4307617359,0.1203559985,0.5396794329,1.0492419542,2.2464499911,-0.8346740596,0.1180479274,-0.4826566911,0.7741651809,-0.2925286959,0.639940285,0.3706802362,-0.1547090197,-2.9705861962,2.0764982262,-0.5834246641,-0.8809288676,0.7848474942,0.7747286655,-2.8861071963,1.1236081366,0.8939858096,-1.9269038879,-0.0637634554,-0.6255023036,-0.2265521251,0.9090039572,2.5004198636,-0.2134697751,-0.8212769953,-2.7941551675,-0.2558930472,-0.1784130319,1.5112548712,0.2580952438,0.7118366699,-0.2658607482,-0.9004116347,-0.941931477,-0.3039308197,-1.121758195,-0.8387784194,0.6540760783,1.443760346,0.3872935596,2.3053228219,-2.6044166225,-0.0564113569,0.4534016471,1.5381641379,-1.7655920718,0.609729192,-0.2232873594,0.0152139039,-0.4953430062,-0.4221717382,0.3655736878,-0.0580402681,0.1305424563,4.2181711625,-0.2266552887,0.3857847655,-0.922870207,0.2590536188,-0.2902033131,0.150542606,-0.7167938729,-0.102839735,-0.4580272891,1.2408303474,-0.3700188978,-0.7271517329,0.3202777715,0.0707585958,0.7812614659,-0.6292848461,-0.4949565694,-0.3817806458,-0.3862577719,0.8565730206,0.8188982029,-0.7127203686,0.5153683447,0.7158879067,-0.1442843151,0.4041056897,0.8698434318,0.0750612149,-1.1025522074,-0.6902915012,-0.1610901525,0.7276993486,-0.1267572144,-0.6902844122,-0.1398310133,-0.3338962257,-0.6847251091,-0.106471022,-0.0159703632,0.002839044,0.7956754069,-0.8005006239,-1.10033285,1.5803921396,0.5247493068,0.5410676884,-0.1115490149,-0.3102758872,-0.3086217406,-0.1445027993,-0.0809632197,-0.1497267153,0.0350195204,-0.6492179857,0.4705941253,0.2827928478,0.3010528993,-0.8387819513,0.9012405487,-1.2581081245,-1.0459248429,0.2762081438,-0.5316340419,1.147482617,0.1549873985,0.8411426314,-0.6165430037,-0.5410660255,-0.7011511377,0.8168336312,-0.1810468776,-0.7442397241,-0.2068553843,0.5998621059,0.4818953042,-0.6492616685,0.0625411649,0.8701031122,0.1407457058,-0.9112026009,-0.6987171475,-0.4793612642,-0.9497846835,0.0741002166,0.385404653,-0.863575051,-0.5238868756,0.9184658842,-0.038503338,0.1604734673,-0.9530365518,0.9714351754,0.3438615395,0.2202431589,0.9016209708,0.3382775135,2.4261444435,0.9219743452,-0.2193925522,1.0236659794,-0.9531395437,1.0240659021,0.0163252889,-0.1264094919,-0.9633434066,-0.6151611064,0.1250715508,0.0875045121,-0.5354210671,0.6178717256,0.3441350775,-0.7161578325,0.9775641792,-0.4628150048,0.4102130685,-0.3013428522,0.6485202866,-0.4366258409,1.0382972506,-0.3019068616,0.6219976473,-0.4466695203,0.3542687763,0.9885514543,-0.9919805411,-0.9262289106,0.9550504552,0.8892521987,0.8066380309,-0.9396885926,-0.3788724222,0.6062086002,-0.3837502941,-0.771780283,-0.7626211684,0.3431368527,0.4929695445,0.0190828461,1.6677983789,-1.1647766232,-0.3541385683,-0.0139588709,-0.5257382963,0.5559623271,-0.7403135544,0.3949520563,0.3594193675,1.6369817724,0.5389692367,-1.0466234652,1.5067828475,0.09956045,-0.5771937964,0.7631278112,0.7793223046,-0.26373997,-0.3841720411,-0.7163589765,0.0850871988,0.0200888848,1.4111323902,1.2477490306,-0.4477035229,-1.3754889837,1.7540074855,-1.1690662822,-1.1669877578,-1.3222867696,1.8728928047,0.7452921569,-0.789111904,-5.8185127655,-0.0670762253,0.1728361645,-0.5183583764,-0.0010448297,-0.9042728175,-0.7252080836,-1.2242256613,-1.098459299,0.0797650209,1.0485601851,-0.0876275465,0.4697145495,-0.2830431578,-0.8033824255,1.1114490771,0.8285004067,-0.1729017673,0.760206335,0.9987962294,0.7660667738,-0.4984714696,0.939894837,1.0144822849,-0.8984925697,-1.3292179751,0.3608848005,-0.312890569,-0.0288253358,-0.6326201128,0.2019870522,-1.2095417245,1.8053680227,-1.9863150377,0.4623953248,0.656762551,-0.0480657417,-3.5579664242,-0.2227083225,-1.1595735915,1.5662478068,0.3434517821,-0.9771775565,-0.6424890171,1.0580331944,0.6063455451,-0.6759269262,0.6686415434,-0.0502404197,0.5454671326,-0.4369932841,2.9149888679,-0.4900157095,0.786573968,-0.0879650381,-0.4525205567,0.9976479115,0.4329920155,1.4690738843,-0.0194834573,1.293407468,1.3560046176,-2.3387156979,0.0656052477,0.0971567119,-1.4349318895,-0.8512962855,1.6405235828,0.6641051636,-1.1936675602,1.1816306601,0.9598978776,-0.6695856233,0.6653703405,-0.3639723001,0.2078993148,0.276396029,-3.377120274,0.2750038648,0.2272142146,-0.1210456925,0.129582928,-4.1276401834,-0.100356914,-0.3760217338,0.0849709721,0.4055732609,-0.6849110727,2.2918001854,-0.8972806196,0.0790222463,-1.013614094,0.6436060394,0.689877335,-0.7674159806,-0.7344252899,-0.9653116225,-0.3168747199,-1.082329888,-0.8706723276,-0.4593772693,-0.7665311307,0.0253276058,-0.3715553947,-0.4175498211,0.2616372777,-0.7250909405,1.1133670217,0.2391372601,0.1303484178,-0.3742343622,1.4524421107,-1.0582713585,-0.5497569647,-1.3675643297,-0.6440982038,-0.3930357788,0.0838948322,-0.4070556007,0.6564783792,-0.2101714091,1.1138262421,-1.0777378956,0.3065105808,0.6751899079,0.2062722969,-0.1236866615,0.8776924081,-0.2463483584,-1.0144105122,-0.8972519519,1.1754450944,1.1837320584,-0.324039533,-0.7860830315,0.163073575,-0.1245845439,-0.5925354878,0.0713355312,0.2030334482,-0.542515153,0.2369730068,0.1867324282,-0.9857530402,-0.0618538786,0.7157518668,-0.1420658186,-0.7513909228,-0.2812822408,-0.4835712712,0.575202563,-0.3447575939,-0.0096327534,0.2821809403,0.3923869643,1.4143858896,0.3672471047,-0.274511972,-0.0067387451,-0.7549482178,-0.0785860665,0.9270215898,-0.4797141547,-0.7434075334,-0.1641309915,0.1887726926,0.7427250132,1.1496692459,-0.100077536,0.7301505372,0.7218764375,-0.0488889631,-0.4369155322,0.0213381423,-0.0627711161,-0.4349096716,-0.459723104,-0.2654394908,0.6228162843,0.2288839994,-0.2121932015,0.1592127906,0.238801248,-0.6895171599,0.9902086226,0.3729486717,0.3220999437,3.1068373288,0.4027691729,-0.1976175398,-0.3391827617,-0.2951453234,-0.7039583624,0.9877865965,0.4667425631,0.6272899306,0.9217059498,0.8819499447,0.0697352003,0.4180937576,1.1249539193,-0.119344736,-0.3393202198,-0.430255882,0.5357404981,1.1109571022,-0.9183265604,-1.2355054462,-0.0172934969,-0.2464603407,0.3523868949,0.1821448002,0.125362136,-0.115970586,-0.092961254,0.0980859412,-0.2627639972,1.175978173,0.4639943653,0.2942073155,0.8576622476,-0.7964703582,-3.9270132363,1.4883870478,0.6871573071,0.6054062649,0.1200234771,-0.195184081,0.960629279,-1.1939622111,0.1626047006,-1.1720405312,-0.3485948537,-0.8792147587,-0.3115758522,-0.7396827652,0.032904907,0.1721818402,-0.018817868,0.7028303761,-0.47226592,-0.7588345765,-0.6758093391,-0.9101204174,0.4438984103,-0.4149878736,0.1786050968,0.3752644391,-0.2046653355,-0.6139777302,0.8200155786,-0.9456259718,-0.7454053128,-0.8179463772,-0.443722466,-0.9850018355,-0.6762808332,-0.8787176296,0.4897680742,0.9412950126,-0.5395575199,0.5243813242,0.6257244148,0.5015876448,-0.1143982991,0.2924877739,0.3333685472,0.0415834636,0.3749169596,-0.9407838448,-0.674217733,0.1186570144,0.1463374289,0.4466262685,-0.9710522603,-0.1511792991,-0.4146241951,-0.1755666371,0.6953855167,1.5229314536,0.8109354836,0.1969061723,-0.2767070316,-0.6475049315,0.4901092894,-0.6947764427,-0.2973665777,-0.5169620089,1.050999262,0.333883923,-0.5001741862,-0.1398247724,0.8714621481,0.4510890533,0.7946860292,-0.1447929034,0.7954706937,0.6440607715,-1.2436101579,-0.3151633734,0.1990425535,0.6978404779,1.6456486316,0.5065989003,-0.9147141495,-1.249260663,-0.705064895,0.1048910389,0.1114263098,-0.2978173863,0.8053647258,-0.9823478045,-0.8631221094,0.3703992852,0.2140914483,0.3515481481,-0.7591864814,-0.3135647194,-0.6127139221,0.9958151449,-2.0976648187,0.5248907279,0.7157542575,-0.0012154945,-0.0616777834,-0.4328791129,0.7347337183,0.6271272316,0.3431578925,0.1082466495,0.5678007131,-0.3257967119,-0.6002747152,1.1614482367,-0.1398506377,0.0328170251,0.5425926041,-0.2907563368,-0.5303150058,-0.6883165567,-1.9433272714,2.65390793,0.7425691506,0.1500777378,0.3989442698,1.561771576,0.5513613926,0.5718439166,0.1743591708,-0.3624736784,0.714893582,0.8085178351,0.6575808645,0.8207071193,-0.4721761244,-0.6484784079,-0.9301056237,-0.5741018622,-0.1527125728,0.5710581728,-0.59814256,0.6892246156,-0.6900323608,0.8203717519,-0.5051313113,-0.4272299617,0.7157945023,-0.7995208643,0.1279900691,1.7391970072,0.779070613,-0.2403712794,0.0315708498,-0.0475506645,-0.9698327016,0.2308926401,0.8374397482,-0.4666163089,-0.7638411633,0.4300821016,-0.646887626,-0.6235589231,-0.4242912151,0.709422499,0.0380847315,0.9044473982,-0.4519801471,0.091381674,0.6755979793,0.3898038861,0.8981662983,0.9092127228,-0.9426479541,-0.0660267798,0.1879029549,-0.1699338472,0.774762318,0.6313718296,1.0230632825,-0.0139769431,0.6616008976,0.0696250891,-1.577491589,-0.6908262482,-0.1869956144,0.5782010769,-0.2778637211,-0.2983637005,-0.4336613678,0.7802695191,-0.4854375654,-0.3301480878,0.4478719361,-0.5871215602,0.390269925,0.3141237195,-0.1586767651,-0.7400054775,-0.1571484919,-0.0106288571,0.1754141975,0.2159416003,-0.7408903371,0.3640186579,-0.6131021099,0.2768574,-0.390315845,0.4696537299,0.4059309137,0.3199820587,0.8301932345,0.2293428364,0.4609752173,0.3794630208,-0.3241415074,-0.1140835695,0.0351844742,-0.5897368346,-0.3374749221,0.7650490366,0.0150838644,0.8173978779,-0.6422985465,-0.0128591541,0.764971691,-1.2984698354,-0.5119536624,0.566781369,0.0514014875,0.0585212301,-0.5266980235,1.1236241577,-0.4499402705,0.5098906722,-0.4064566209,-0.801123616,0.8368689178,0.0570477363,-0.488478243,0.8867482289,-0.7674718345,-0.7785699561,-0.1511566317,-0.5252429978,0.0861114635,0.9386949693,0.7956515894,0.7546039249,-0.9276122153,-0.1718830746,0.5017530362,0.7901830871,-0.4684888191,0.1855264213,-0.2297286955,-0.7790439829,-0.0383023655,-0.5896228109,0.6425224877,-0.8176624031,0.5137955735,0.3940828025,-0.5763437144,-0.0985193741,-0.0989007885,0.3113432934,-0.884429737,0.3072279132,0.5499726439,0.5630416677,0.3811767233,-0.8253680446,-0.4109537379,-0.4086264123,-0.4014368024,0.2558319644,0.0114180704,-0.4051253051,-0.1384338886,0.526715901,0.1415718273,0.4225256581,0.1425603423,-0.3323856377,0.3942433663,-0.9760435879,0.3040731277,0.255361716,-0.3033191603,1.015684826,-0.3415230025,-0.5141451738,-0.9741942451,0.4667502357,0.269248917,-1.0036809337,-0.3041869258,0.1866077232,0.5830935903,0.2220599986,1.1598861857,0.1616075778,-0.2153647569,-0.3928740272,-0.0351076675,-0.8995928396,-0.0897855659,0.6599101125,0.7564546163,0.4904457693,-0.1671164116,0.5106452457,-1.032613842,-2.2673591581,2.6897453795,0.6197922321,0.446556815,0.7456097476,0.2978223887,1.0970779967,-0.3779816114,0.5736661368,-0.5174832106,0.6013021606,0.1367337714,0.4184384085,-0.2331990451,-0.9095948452,-0.4345318613,0.9126487815,0.1295432126,-0.203330281,-0.0890564228,0.9108916313,0.5960247056,0.4163115132,0.5411061201,-0.3871696047,-0.7492048953,-0.1663268842,0.1665528786,0.0140221397,-0.298439757,1.0569132458,-0.3982656322,0.2026475892,-0.5651219965,1.4424933201,-0.3560056389,0.7944968345,0.3336460456,-0.9064442505,0.7341887922,0.1960804534,0.5565808804,0.4495492899,0.3351723847,-0.4755543155,0.4662386336,0.3619573422,-0.2869583155,0.1165146246,-0.2499338913,-0.1524042309,-0.3166988428,-0.4558340425,0.613796017,0.0253949261,-0.9592318412,0.6120260108,0.6326057043,0.9994749765,-0.2721698844,0.582245005,0.8390145567,0.5152271013,0.3156824293,0.6433489066,0.1534715063,0.3755936371,-0.4510193841,-0.5992384231,-0.629394418,-0.284344492,-0.544504789,0.1679849122,0.22185237,-0.8752234348,-0.671676635,0.8548171282,1.0432155055,-0.499764961,0.4956178192,-0.459838098,0.4688448058,0.7824258626,-1.2130710297,1.0610279051,0.1445743901,0.3746132786,-0.1660837731,0.7291663476,0.3168084127,-0.0133774254,-1.4806467461,1.1944421905,-0.6502709313,0.1133195238,0.1921719016,-0.2015751955,0.408148273,0.7259194441,0.917085336,-0.0832585891,0.141777534,0.3437982834,0.111976492,-0.5335127212,-2.8975956883,0.6280626045,-0.9190850235,-2.0210202605,0.5113522717,-0.5477974324,0.4582289311,0.0142001193,1.4636640066,0.5159521665,1.6278230458,-0.3972980224,-0.3841664329,0.6301169329,-0.6631911111,-0.0254270665,-2.0741971062,-0.8319923752,-1.4522225437,0.0236510509,0.2571224757,0.3965687956,-6.9127849955,-1.8333961042,-1.1215885594,-1.417255196,-1.2388478824,0.3703399556,1.8840988105,-1.0153738659,0.0511959231,1.8458528118,1.6802940199,-0.6499482454,-0.0554819359,-1.827978172,0.1254826872,-0.6553718186,1.1284248642,-1.3818433981,0.1168454594,-0.7187890915,0.782792756,-0.3675524754,0.4265666753,0.0832130273,-0.2185906998,-0.0728846661,0.6497103364,7.1002224438,-1.0407338154,-2.7787817594,-3.1637779243,-0.7202294893,0.1894924446,-6.9214020826,2.0337007588,0.7477248607,-1.3479894942,1.2573617438,-0.8064939158,-0.0754474886,-3.4188323142,-0.0512614032,1.6626911709,1.6601066031,0.5525384384,-0.6564748256,-0.0402341477,0.3334235726,-0.3092446832,0.772855505,0.3147080411,1.3089444356,-0.1005643634,2.9751721037,-0.5566396597,0.6964789694,0.6148534498,2.2073891665,-0.4850806376,-0.3325782721,-0.0863714105,2.6163039955,-0.4926508676,-1.1349707232,1.5958644168,1.3751136614,-0.2851486818,0.4477838469,-0.3610352133,0.3908125064,-0.299171376,1.8865648434,0.8129435506,-0.375050533,0.276018682,0.1355855403,-0.3549200559,-6.2378232626,-0.4815468955,-0.5788430939,0.7455689299,0.9494220907,-0.5849818648,0.1912120255,-0.1461445443,-0.246232295,-0.423556665,-0.0681877191,-0.9892504737,0.5368304687,0.2158367219,2.3972524713,0.5288972221,-0.4725003529,0.7431786795,0.4926819427,-0.4112307845,0.1789618382,-1.5045601105,0.2968168092,7.4136693413,-0.6949589465,0.4352832779,-0.6296057304,-0.1046402891,0.7532745074,0.1506410836,-0.8531485443,-0.2097718803,-6.0645296482,0.1954806992,0.1342263699,0.0869329059,0.5230924892,-0.7826295632,-0.1658661983,0.0214714792,0.1198062223,-0.7887500356,-1.347704555,-0.828011272,-1.149131649,-0.0666085256,-0.6671028173,-0.7492948624,1.0213383149,1.1779584443,-0.0327233683,-0.2365568334,0.2282013475,0.2444058969,-0.0406818645,0.0789279236,0.3814493417,0.5583261859,0.3897185567,0.9176687768,-0.4470828786,1.0045080185,-0.5754186862,1.237021828,0.9893732563,-0.0769896832,0.1467912567,-0.6889114381,-0.2721184995,2.0321258731,-0.3345489775,-0.3704645438,0.091464101,0.867814506,0.1431056027,0.1941027595,1.275211858,-0.7604405487,0.0322511028,-2.5882473879,1.9910274604,0.0005612154,0.9946690087,0.8296818797,-0.0239758816,-0.108632224,-0.9581852577,-0.6670438377,0.7623871863,-0.7975651649,1.8191832443,0.6654031541,-0.7348943448,0.6674409198,-0.0029235608,-0.6832474809,-0.0707834528,1.0205663231,0.4964982688,0.0833085436,0.183859487,-0.3252420403,0.4466578294,-0.3495985077,-0.2368243441,0.3032815722,-2.5253853583,0.8200850886,0.4456350491,1.2263747375,0.3651525289,-0.8207151677,0.3662713689,-0.436707358,-0.7126484766,-0.0113825423,-0.857576353,0.5165050869,0.2238409466,-0.2171175284,-0.5180387311,0.5962957233,0.7835400813,-0.8959634869,0.5979322343,-0.0702074787,-0.8464295116,-0.1979641723,6.1794965941,-0.6359268013,-0.4208301956,0.7911026267,-0.7685934887,0.0357187441,-1.1907766556,-2.358316139,0.389622051,0.3105215103,-0.2520047561,0.5609480377,0.6928815177,0.4036146554,-0.9502555764,1.0091208266,-0.9997062731,0.6366172098,0.0231328847,0.4545844473,0.9193184943,-0.4407304188,0.0960272788,-0.8961318336,-1.723778444,0.7719505886,-0.8273348775,-0.5131185516,0.0036187504,0.6222645898,0.5486216855,-0.0506190101,-3.6457248602,2.176677217,-1.4197909304,-0.1116455028,0.6236407456,0.8183499494,0.0233910204,-0.8029478293,-0.9738776311,-0.4361710689,-0.8969995053,-1.0097592106,-1.1970330341,0.1140616419,-1.0639025337,-1.1417687586,0.6237062208,0.9690737978,0.2364314676,2.8707709158,0.1897719268,-0.594085001,0.3922887143,0.1278209509,-0.0349635688,-0.812234956,-0.8709537723,-0.0181137072,-1.4168009872,0.311702571,0.9782371959,0.0077675313,-6.003708904,-1.4034097363,-1.7537446781,-0.1426469641,0.3455167113,-0.0528157979,0.280490281,-0.3308943664,0.5132898843,0.963964178,0.1681304201,1.7121099927,-0.3722168343,-0.0018892447,-0.3202487754,-0.2713224556,-0.0516397743,-0.1816553762,-0.4061308147,1.1424745087,-0.7766407091,1.2611473954,-0.1806265904,-0.2289435817,-1.7634280817,-0.5197903127,-0.9522440651,-0.8631829782,-1.5869527674,-3.205152493,-0.1327043902,0.456165255,-0.477333235,2.5317327649,1.0326944772,-0.4173063272,1.9708693231,0.2870293883,-1.5401832821,-5.6823022386,0.3769965343,2.2172620564,0.8030613758,1.3618931878,0.1463659111,-0.8296556647,0.4556625718,0.8507306263,0.6987041328,0.9513405854,1.8506878189,-1.2600435011
   2.2900273909,1.938625936,-0.1017892291,0.4967379041,3.8314296127,0.943661688,-0.1885117346,-1.7532476125,1.0543724148,0.2385148353,0.5022595978,1.0933086759,0.0741916354,-0.0181376431,-0.2042345104,1.3215079512,-1.663944824,-0.2168268944,-0.2377431487,-0.8837884213,1.3147994149,1.0004906616,0.4091116685,-0.8761257332,-1.8610329278,-0.1701537427,-2.8848480033,1.1718024739,0.3850562216,0.9060407767,0.9514775096,-0.1001345126,-0.9889415038,-0.0333943107,1.0116830354,-0.0979283133,-0.5908042485,-0.3860943475,0.0456005732,1.3416681509,-0.9940579928,0.8171565001,0.2785855181,1.2484592672,0.1910535522,-1.2372468854,0.6357664652,-0.7371818203,0.4969083914,-0.2069352266,-0.6192009891,0.5661123197,0.7414010496,-0.1036858707,0.0451904956,-0.7007739592,-0.7132013679,0.8544216507,-0.1403271324,-0.8985983923,0.5269008097,0.4140217221,-0.6181255554,-0.5538522798,0.3953626976,-0.1616180998,-0.0635264125,-0.228041003,-0.1770934041,-0.363525768,-0.5082130257,-0.888808876,0.6860115448,-0.8140665936,0.7849661189,0.7201821624,0.9121082063,-0.3762269719,-1.0622152155,0.8591910255,0.9472054404,-0.0991342361,-0.5107136382,-0.1181578713,-0.7130255033,0.3173288694,-0.491862722,-0.3267767725,-0.9817898102,0.834801889,-0.8970494429,0.7030278041,0.3232527448,0.569238275,-0.5013878913,0.6674598025,-0.3945706957,0.3358387672,0.1280605564,0.6694971457,0.9006205926,0.9588186009,0.2940012832,-0.356980596,-0.1201929922,0.9700812911,0.3385535535,-0.1311778159,-0.478884355,-0.6035489671,-0.8781099424,0.1191291161,0.0338244843,-0.8378652382,0.7327656641,-1.0667295858,-1.6268591926,-0.095117881,-0.007819667,0.5204586236,0.6998643365,-0.1667788235,-0.5079011294,0.9316351584,0.9292690334,-0.8466516821,0.5669163292,-0.5736987593,-0.2952923596,0.9906633059,0.6949063557,-0.4898022089,0.2876821272,-0.4681262127,0.6371682391,0.1617512599,-0.9732311664,0.7021942661,-0.534708065,0.5164379217,1.0270558266,0.8091005962,0.8354139756,0.3008154883,0.4566392633,0.8190957519,-0.6108240958,-0.2172880387,0.6715943143,-0.8309864484,0.723960249,-0.4412918231,-0.0465753435,0.2585664602,-0.9044332937,-0.3574573658,-0.4265473894,0.2717656319,0.2328656835,-0.3794774872,-0.3367238039,0.1767012194,-0.8232083404,-0.8799710328,0.5299422234,-0.5089789931,-0.0074416269,-0.6608948004,-0.8175082741,0.5563101804,-0.1149890713,0.0341111732,0.8351980503,-0.9145573553,-0.7137839485,0.2620217833,-3.7263705815,-0.4083125295,1.0502331702,-0.7722298454,0.2946987918,-0.9190732756,0.2608758048,0.9257644591,-0.1022772108,-0.7936853923,0.2379386155,-0.3563708384,0.8414241417,0.4149624652,0.4944453555,0.8877556907,0.259469651,0.870625879,-0.5384200353,-0.7743164204,0.9699366828,-0.8342654916,0.0097696305,0.2466036784,0.5977278796,-0.9260303693,-0.3069442219,0.714840284,-0.0932219274,0.6319445941,-0.3647474327,0.1283820698,-0.08251263,-0.767768149,0.6104145276,0.7466169163,-0.0019705121,-0.0809461872,-0.5743013977,-0.3841695516,0.3658118688,-0.6744438352,0.5011000662,0.2026066605,0.8426881138,0.9217407091,-0.1813751882,0.8576282929,-0.4352735182,-0.462246308,-0.5381337906,-0.7703317971,0.1796338464,-0.2425891677,0.7370129136,-0.7796189267,0.3640684682,-0.9330053841,-2.0453599608,0.5965930509,0.9195060628,0.9696112791,0.3198382465,-0.3423030136,0.6642795782,-0.0018891432,0.0807917832,0.2145552284,0.081198099,0.8135905579,0.1919332692,0.5594284128,-0.4163121263,-0.7518334977,-0.1462005004,-0.7499843961,1.1140319205,0.2701745085,0.5381819409,0.5300665884,0.7081980001,0.0442331582,0.2981443849,0.6436437725,0.6621607493,0.5273674531,0.3461490005,0.6428462878,-0.0568741377,-0.9984204152,0.3320193828,2.9290323291,-0.9086201009,0.5363320982,0.3700006052,-0.8629465704,0.801104683,-0.028460321,-0.8022162772,0.5825083982,0.5056214647,-0.5840686074,-0.0783606707,-0.3709086094,0.4129017513,-0.2961674602,-0.580879642,-0.046739057,-0.3828516118,0.1760689637,0.6961589038,0.6349443129,0.1220154426,0.6085896017,-0.8235235837,0.7428548447,0.4571399828,0.4947218656,0.9378103983,0.1620134597,-0.0117851237,-0.7444154332,0.5420285478,0.8976302091,0.8185563662,0.0793609938,-0.7462622239,0.0429808616,0.1487323878,0.5592939853,-1.3251309942,0.521995348,0.025610858,0.1406626843,0.5355950954,-0.2353080767,-0.9332013485,-0.7653961508,-0.3045826733,-0.5013505978,-0.5220327053,-0.8401552862,-0.552168495,-1.0983273646,-0.2142655289,-0.7405121054,-0.2778223512,-0.3627882929,-0.3816148811,0.8158136165,0.3456465158,-0.3877683311,-0.5835038745,-0.3954551983,-0.2767094246,-0.4149979675,0.0383300736,0.0675220071,0.0249258235,-0.8559275955,0.3236843315,0.7838286376,0.8899362788,0.8872395485,0.7626927235,-0.324205733,0.5142910734,-0.9308379074,-0.4867578402,0.4141879687,-0.6334726747,-0.9117903679,-0.1754234469,-0.7992935098,0.291902513,-0.9187589714,0.5630784162,0.9591317903,-0.2189254705,1.2411174314,-0.3430487519,0.1109290339,-1.0369611137,0.8795401322,-0.4422647367,0.73173336,0.3195091977,-0.510692437,-1.0006843823,0.3972730006,0.3851975762,-0.8231664065,0.2544837756,0.6330911238,0.1582917306,-0.5844417708,-0.6991158666,0.2700561349,-0.7830115624,0.0247818158,-0.9234389975,-0.7935579673,-0.4973048782,-0.4204888261,-1.4251181492,-0.1229476152,-3.510229256,-0.1850169361,-0.9781881628,0.2688466514,-0.0001438371,1.2822639081,-0.5701969935,0.9069555584,0.5429126928,0.3839871987,-1.433560941,0.1525035255,-0.5405891522,0.0453937295,-0.8197693336,2.5486246998,0.8834566962,-0.1328600367,-0.2691951274,-0.6455200442,0.7355607457,-0.7779021292,-0.4295829508,0.2913878074,-0.1569744067,0.4308211856,-0.2078993137,-1.1969445042,0.8191515407,-0.0139044603,-0.950680959,-0.1122853428,-0.5205250773,0.7783208203,-0.5035818376,1.1270249612,0.4377515882,-0.4703946475,0.3748750037,-0.3119959789,0.9199829196,0.8381969863,-0.2997755983,-1.1057908582,-0.7633960232,-0.6286033068,-0.6136785849,0.6455967432,-0.5145549174,-1.6136984936,1.378700599,0.0507278321,-1.1583432868,-0.1053902743,0.4939783961,-0.0207286677,0.890255524,2.0987989327,-0.0659935633,0.614697354,0.6803111133,-0.6414539307,0.4494907006,-0.2698697973,0.3724252487,-0.5830691343,-0.2498541959,1.4777132592,-0.5215789529,0.2040315978,-0.3689388514,0.229065251,-0.7274692115,-0.8852175989,0.0289252281,-0.3562609804,-0.1425598876,-0.8106519415,0.3084657891,-0.5391699868,0.5299190205,0.4434937766,-0.3062142835,0.5139445966,0.5776993921,0.3165857819,-0.3792965335,0.7003366847,0.4862226956,0.2851660942,0.6200130472,-0.7240690585,0.7610415778,-0.8090867573,-0.4926461162,-0.4280711915,-0.2017902145,-0.2980212235,-0.2360618369,0.3613611626,0.4780685594,-0.8308584542,-0.7943875848,0.4655749275,-0.191818471,-0.0239977907,-0.3415221172,-0.4342378909,0.7613425296,0.464528136,-0.7791513998,-0.9577642893,-0.8302854038,-0.1262188489,-0.0612224282,-0.2288538908,0.3558266987,-0.4490066657,-0.8188458681,-0.7055927478,-0.6498281621,0.135461905,-0.3223617349,-0.6501372742,0.5400283239,1.3043234782,-0.3067725657,0.8786532351,0.1237999618,-0.047097331,0.5614825612,-0.3903096548,0.6341793971,0.2698530727,0.4717595573,-0.2148830478,0.8495279046,-0.138342569,0.2873589685,-0.9668041605,-1.3895127001,-0.4529306229,0.4543083281,0.6802427781,-0.1756763827,-0.7630551501,-0.4365506531,0.8459504295,0.2596465894,1.7295576645,-0.448302418,-1.5452529921,1.5957543658,-1.2346250783,-0.5564612277,-0.1994375067,-0.5551830584,-0.6299352852,0.0948679754,0.1468130824,-0.8981516173,-1.0085686191,-0.6953302896,0.7642080428,-0.7871684457,0.6406893916,-0.6951576289,-0.0130370353,-0.0962623957,1.2733332505,0.0313906602,0.969979264,-0.1734333813,-0.9903985021,0.7702800593,0.0790226074,0.6726152752,-0.713903962,-0.6922630569,0.718125424,0.9712365151,-0.7716684846,-1.2460907938,0.9313326958,0.8137666615,-0.0357614337,0.0586444658,0.2357861009,-0.5516109071,-0.306055098,-0.0760159736,0.6030284224,-0.1497938918,-0.1245337151,0.7446362084,0.1825209601,0.5982498148,-0.2292157113,-0.952290031,0.5686434381,0.7843650019,0.9540285593,0.4375742919,-0.2930807489,0.0345313045,-0.4499274997,0.7320469449,-0.0523356476,-0.1075892286,-0.2092931757,-0.1361907681,0.8689372598,-0.0311417169,-0.3108553742,0.3974185738,0.2674720705,-0.2985551719,-0.4460754232,0.609484327,0.5176253794,0.4725232209,-0.0816682935,-0.0497988532,-0.0812983177,0.5150848132,-0.2093664503,0.3366702604,0.7655887954,0.0742530409,0.1094708305,0.0227582594,0.1362875878,0.2296647416,0.9914571765,-0.0448693695,-0.3963310793,-0.5200822602,-0.2854052566,-0.5790148786,0.2350419986,-0.436013837,0.6504871902,2.3813553317,0.4137362849,-0.866762581,-0.4237955838,-0.1743209243,0.965722915,0.2510027643,-0.2400365365,-0.9522912826,0.067783273,0.39898747,0.5175439578,-0.9975219661,-0.4457487304,-0.4727311882,-0.6968403088,0.4539807836,0.9780428768,-0.6950673097,0.747241507,-1.0867542901,0.358532631,-1.5375694511,-0.1298884734,0.7095462092,-0.6440152896,0.5044210618,0.0693488518,0.134957467,1.0771467933,-0.4781021349,-0.2099457151,-0.3533520828,0.4692214512,-0.8793056052,3.0173941425,-0.1351229236,-0.0432307067,0.7144479251,0.1462304134,0.0988075307,0.8187049219,0.2931163603,0.9075838813,1.0634297272,-0.4869389361,-0.7991540299,0.6841906836,0.4875992318,0.0990733414,0.2445257816,0.9915332734,0.5058077187,0.9822806342,-0.9701934736,-0.5393690651,-0.7137993206,-0.7455285746,-2.742226907,-0.770973892,0.5583635159,0.8778090263,-0.3359093364,0.5397254629,-0.937012297,1.706564262,0.4998033191,0.9157355636,0.7617070808,-0.6039000662,0.9215055238,-0.5069782744,-0.9541539902,0.6142149838,1.7517399244,-0.7668767774,-0.7973959387,-0.3373718385,0.0787177172,-0.7696662399,0.2826937158,-0.2993730931,0.5294034817,0.5131082445,-0.2033328919,1.2478845178,-0.9490265703,-0.6506916112,1.5624688905,0.4006764429,-0.3075771291,0.8276994316,-0.0312490097,-0.6796528424,-0.5120664192,0.5741432693,0.6760647879,0.0972174017,0.9440211952,-0.777381215,-0.7520051237,-0.4795273629,0.0299007174,0.8651421257,0.2669669489,-0.4291368677,0.0008150107,-0.2676141869,0.546501729,-0.1680151525,-0.4610816818,-0.3781688311,0.4892331459,0.3729160158,-0.965469236,-0.9918349585,0.9451015784,-1.2619474679,-0.8172013951,3.2154703724,-0.780524362,-0.9361217149,0.7337065121,0.545814082,-0.7302580032,0.8120329196,0.6275284247,-0.4746987532,-0.7967544696,0.6449089236,-1.0073093287,0.296544573,-3.1266124071,-3.9047311528,0.8837600366,-0.3463618079,-0.3124102764,0.4308968936,-0.7620061318,-0.5866106948,0.2694557931,-0.5718589825,0.6664987239,2.3570578988,-0.2063709893,-1.3237696718,0.1889786526,0.6613112047,1.2838405344,-0.2563954076,0.0883000717,0.3677617899,-0.2481099807,-0.6626620949,0.2228043585,0.1389019106,0.6941761589,-0.3463445521,0.3995513645,0.0491397858,-1.3277693529,0.5145288186,-0.9275298736,0.4968506624,-0.2036199222,-0.0592693994,0.5430900733,-0.19206987,1.5050590598,0.7696764741,0.58643208,0.0009137416,-1.1885611021,1.1393476899,-1.0842903983,0.8825263863,-1.0890630511,-0.4477313549,0.0608921101,-0.5054740343,0.0273944827,0.7949276472,-1.5633408026,-0.5244543168,-0.0064620389,-1.1183277816,-0.7240613523,-0.7717844675,0.5003225239,-0.7591810119,-0.7125773449,0.8416208586,0.4133158215,-0.4589017699,5.8935878329,-0.3162565634,-0.3922958015,0.8811042179,-0.6618497374,0.5128523009,0.8093132636,-0.2687006171,0.6666205065,0.1459498083,0.4505076247,-0.8560747032,-0.367360795,0.7955936559,0.7635977961,-0.300404808,-1.1803946913,0.5562903099,-0.9550124862,-0.2087690069,-0.614127077,0.1805757544,0.5792658167,0.7936566665,0.9987002882,0.794466346,-0.8055284227,-0.4120049812,0.7932210086,0.1583455402,0.4879940832,0.3239940161,-0.5866518223,-0.2441955276,-0.5572769685,0.2358231011,0.4204696004,1.7890532241,0.3860627952,0.8390868309,0.511000845,0.5173675676,-0.3530088321,0.921094358,0.7755014937,-0.5657104927,0.1617462235,0.7946504905,0.339076116,-0.4062605308,0.8888798322,-0.4360665773,0.4872420583,-0.6079488064,0.236929695,-0.7173133763,0.325992653,-0.3338821207,-0.1179297671,-0.1261646506,-0.0718764087,-0.4418818098,-0.088909261,0.1532913067,-0.3838498416,-0.3655091554,0.5655834479,0.4095156932,-0.7840130641,-0.2281978841,0.2777417703,0.5021131742,0.8720984078,-0.0458519708,-0.0898975894,-0.9270630179,0.2769449255,-1.0804663418,-0.1910106929,-0.9606402219,0.4903611996,-0.9582289296,0.5486660821,0.6654317726,0.0838499669,-0.6186270981,-0.7796497904,0.4748423933,-0.7197231992,0.7986089907,0.141982811,0.0252596506,0.1516479054,0.7914096546,0.9694587241,-1.0622383993,-0.2868893265,-0.2411113566,0.0877975584,-0.5893935349,-1.4217889193,0.6053071223,-0.0515648486,-0.7234370211,0.8836717223,-0.8146720316,0.0067309314,0.1019871089,1.4369208573,-0.4886992537,-0.921743099,0.4939460205,0.3556518483,0.3198019128,0.1139581945,0.4923338449,-0.2799361568,-0.6071502349,-0.0114674915,-0.14720949,-0.9589794395,-0.8847217317,-1.2036386853,0.747707248,0.4760546101,0.5011866778,0.5669055586,-0.2931980666,-0.994860245,-0.0589497948,0.2699790093,-0.2493983352,-0.145259485,0.3337572041,-0.0551062099,-0.0045821894,0.8943509245,0.3691817714,-0.0533297612,0.7814968361,-0.2967081699,-0.177825483,0.7447344628,0.4651679191,-0.498263461,0.0402215944,0.4368063084,-0.3283892213,0.740034096,-1.4169060809,0.7877390721,1.050752452,-0.6459809205,-3.3779414736,-0.3782454899,0.2878764291,0.7592480462,-0.0248708704,0.7198549197,0.5494404365,0.7836338951,0.5747579301,1.3858469798,-1.0339188935,0.4228044558,-0.5432561359,-0.97910946,-0.5879593725,-0.8125614641,0.3820204787,0.6560195945,0.2154185092,0.7973758952,-0.3233866823,0.6761980093,-0.276439573,-0.6654524906,-0.7534006693,-0.3020676599,-0.6325351932,0.3831146456,0.0455928864,-0.5964135062,-0.836595284,-1.0061293688,-0.8179155128,-0.5301267782,0.5528918729,-1.9235322441,1.9477280132,-0.2960701204,-0.8117829084,3.4245423102,0.265260222,0.4716510277,0.6919187032,-0.5720533922,-1.8270532793,1.1820482198,1.2688149708,1.1274591779,-0.1050193894,-0.5182865241,-0.7673259942,-1.6407216611,-0.6110439694,0.3800923977,0.9577147618,-4.0547091971,1.6372037633,-4.6121204438,-0.1545002544,-0.1630103683,1.877617794,-2.5183700371,-0.7361366592,0.9788499335,-0.1915363163,-2.9224843527,-2.7881260545,-1.9101169497,1.2433563089,-0.8746507342,2.7196796131,0.9841215842,-0.269106511,-2.713198314,0.9065278363,-1.0209150979,-1.1821749896,-1.7250373942,-1.6240107809,0.6340067712,1.7198635596,-2.322370193,1.2819799015,-1.1385236417,-0.6544106669,0.1981642089,-0.2789411782,-1.0127452675,-0.4305021554,1.5041967226,1.3713586071,-0.2320262051,0.6486949347,-0.3248368239,0.3342103459,0.789035894,-0.193307026,-0.4385859687,-0.1466615849,0.3776902821,-0.1760556519,1.1993405102,-0.6759178107,2.30669112,0.0358017099,1.1635930285,0.5849961079,-1.4423057298,1.7446555648,1.2132007421,0.3350790647,-0.3907927147,0.8146348874,0.3593697244,-0.2089966033,1.5394064671,0.7156993554,-2.7652230755,0.6970941859,2.0217915431,0.3574376366,0.6594599775,0.9746866984,-0.9995120935,0.5450086348,-1.9964221357,0.0607344303,-0.9984537341,0.0357635125,0.9969410829,-0.4255241528,0.0590244333,0.0443058454,-0.5856715484,0.4472329114,-0.7015870308,-0.0040434249,0.340031787,0.8351263998,0.4605829908,0.9730361642,-1.5071570691,3.3196744371,-0.9338997276,1.4164917677,-0.657107856,-1.4169371681,1.1336596333,0.6242140354,-6.8413224539,0.8619638058,-0.1785827822,0.0600481854,2.6308172331,-1.1745267677,-0.8601065947,2.3272473033,-1.2233866587,-0.283483722,0.0997974367,-2.3977271104,0.0828432586,-0.804688005,0.5221914813,-0.8162654466,0.4569992712,0.4535310894,0.2013176058,-0.4502343982,1.0591985862,-0.3317836625,-0.3950104263,-0.2577612191,0.5039184604,0.7470491918,0.8527275488,-3.3798493289,0.3478846555,-0.8800506164,-0.1681168794,0.3896714588,-0.4836208919,-0.7719226977,0.6017723804,0.721423129,-0.709367255,-0.7846844419,0.7621667211,-1.797802155,0.3177259995,0.2215615818,-0.0706475247,0.5965968242,0.5562671832,0.3456217974,0.5150651409,0.8426144748,-0.6508911992,0.6262407658,-0.0606187006,-0.7867922473,-0.0331133776,0.8830740303,0.8734002672,-0.1932780343,-0.0111346486,-0.3948674377,-0.2976064946,0.5688157876,-1.3751142698,0.7072521627,-0.9481010067,1.1702518631,0.7109777941,0.423941513,-1.335654528,-0.5670417397,-0.030549173,-0.8357353483,0.0371567914,-0.1570326536,-0.6550151052,0.6395095623,-0.1883690624,0.3332669427,-0.425784609,-0.002920681,1.2026152912,1.0926230498,0.0655151322,-1.2094671119,0.7598378291,0.419426167,-0.4484000515,-0.2409098469,0.0378027554,0.4094307994,0.037585578,0.2059309324,-0.38582893,-0.7920290248,2.7192950776,-0.1842054354,1.0697933235,-0.1247760751,0.3264138151,0.0837160728,-2.4635981848,-0.7410282431,-0.1392581056,0.9347551961,-0.8917731958,-0.2539751509,3.6504400855,0.8546613427,0.9487126664,0.7142843014,-0.1227496466,-0.0449976616,-2.3378634719,0.7749427401,-2.6789412876,-2.4858206475,0.452811491,0.016367611,0.7432398487,-0.8958322847,-0.8052434537,0.1403561312,0.1633045801,0.3158046341,0.217742391,-0.2207368204,0.6204925862,-0.6558034446,-0.9220475215,0.4281614276,-0.0041325229,-1.211780832,0.4272315454,-0.4015965398,-0.1821806178,-0.0243646264,-0.0762193918,-0.959275144,-0.6941045381,-2.4058848765,2.6053184531,-0.8667117461,-0.5463832198,-0.8609758795,-0.6182899457,0.3839568296,0.0936019318,1.0131672831,-0.0624176168,0.4063628421,0.4576504969,-0.0497378658,-0.3195963725,-0.8214530346,-9.2036478252,0.5675915144,0.7210224016,0.6566696439,0.2466219557,-2.8083537128,-0.9073600883,0.2810249976,1.0031189081,-8.9440887368,-0.350017159,0.1226739486,0.274988082,0.6696012328,0.7034333551,-12.1448925675,-0.6924917268,-0.5569407885,-0.9675871899,0.9382671902,-0.8416325409,0.6112678271,-0.8047328529,0.289644408,-0.0448030665,0.8950977883,-4.4113904425,0.1985501989,1.0236692497,0.9167780018,0.8293581554,-0.5800912159,-0.7667568508,-0.9567503672,-0.3760763337,-0.3268936473,-0.6595941176,0.7096957991,-0.0755089512,-0.6994899829,-0.976087195,-0.2439676592,-0.6506223717,-3.3397541367,-4.2820273689,-1.9107639996,0.7158444806,1.1840436296,-5.8354029981,1.4891311442,0.0217037246,0.7688058978,-0.9848002597,0.392586236,-0.6097004768,-0.8448339228,-0.5032184297,3.454791771,0.0782567761,0.7320994314,-0.3481529923,0.2924946158,-0.3448012665,0.6185205106,0.5490068774,0.7552328448,3.0296622873,0.2941036946,0.5557278042,-0.5021678662,-0.6633172617,1.6662536548,0.168218505,-0.2435748454,-0.5802160209,-0.1807851172,0.3283032828,8.7238256593,-0.4992830287,-0.4412516534,-0.7122681597,-2.5180681615,7.07288334,0.9400813278,-0.2827400971,0.8796238875,-0.1364032765,-1.6771543729,-0.114102767,0.2046694919,-0.191370524,-0.7951483056,-2.154642418,0.7096825823,0.9328593977,0.337574682,-0.469340007,-0.7364255682,-0.2881411313,0.3051649689,-2.0592258323,2.9174689642,-0.8910039514,-0.4639868796,0.6670250621,1.8295411297,0.1380357694,0.067617247,-0.4635368305,0.2536822567,0.7941099056,-0.5172616806,-0.1072304004,-1.5985396176,-0.8906716049,4.9245525445,0.502165649,-0.0670280918,-0.3805459531,-0.0780544424,-0.3220642451,0.4129654522,0.6465368705,-0.7929058533,-0.2963137486,-0.351732583,0.2966594443,0.3309396667,-0.9289088944,-0.8302026024,1.303299815,-0.0339300961,-0.8897097894,-0.1531554397,-0.4707695419,-0.3029627891,0.1442236629,-0.578254507,-0.4632218403,0.6822574377,0.9271846644,0.7902080989,0.4392262887,-0.0521725496,0.5297256352,0.6303717615,-1.3351978398,-0.6717636251,0.6658748844,-0.1090235164,-0.3944070216,0.564634729,0.7764551273,0.5442710878,-0.6076659571,0.9900088199,-0.3558723555,-0.4946287006,-0.2285234034,0.4438800897,0.1368526102,-2.0882913596,-0.9871671232,0.618066679,-0.6214096495,-0.2322355644,0.9447460992,-3.4805962973,0.8063546506,-0.2226478517,0.9274568275,-0.4424611037,-0.0726187515,0.6841768326,-0.1307205571,-0.8850478904,0.8208578559,0.1216374557,0.8194115916,-1.8483473465,0.652982288,-0.6796433093,-1.0152684778,0.5812356609,0.4580461342,-0.1448620425,-1.4437330056,-0.2789679355,-0.0804833184,-0.8180978306,-0.8289352175,0.8152637851,0.818987743,0.1567306312,-0.7226150877,-0.1945578985,0.5448546534,-0.9735504893,-0.0539609197,0.8914388239,0.2369028747,0.3310648607,-0.6244389913,-0.0209356074,-0.1799362948,0.0248228764,0.5415095337,0.0048998637,0.8161951344,-0.6022321466,-0.7804317735,0.8271345523,-0.0265020889,0.5724702023,0.4638000926,-2.3447001001,0.6723789419,0.2793067584,0.3587713196,-0.2469764338,-0.719149816,0.3077620699,-0.1067894861,0.0949054727,0.758244843,0.9811771183,-0.6924371264,0.2934522188,0.2569248589,0.8444023276,-0.1451378991,-0.2089885147,0.8824610818,0.9069270241,-0.7019521935,-0.0510649371,0.2864420745,0.7449782839,-3.2681706064,-0.7717606039,0.5619335762,0.7788055155,0.8612269405,0.3057461234,0.9006489285,-0.3650648462,-0.5069735435,-0.3505822613,-0.4509348408,-0.7995646721,-0.8668482032,-0.7687984747,0.4931932393,-0.5277284994,0.5026362306,-0.7401288601,0.1013072641,0.0727342273,0.2787796402,-0.1344037613,-0.4190105447,-0.977529352,0.0406642486,-0.8464578312,0.427546793,0.7934162153,-0.4276837792,0.2570356179,-0.5145028498,-0.7326679167,-0.7469148401,0.9540939774,0.7218763843,-0.9227639023,0.4095489061,0.5698431746,-1.2764482335,-0.3237244792,-0.3645149543,0.2333329612,-0.3647335426,0.8810922616,-0.1579645914,-1.0036535843,0.2031478764,0.6429779527,0.9500094573,-0.6088800538,0.9564073495,0.486759232,0.2040770265,1.4877107772,-0.3290235862,-0.3034282625,0.6889230772,-0.2482474872,-0.3819604924,-0.5159260964,-0.5297160732,-0.0630673957,-0.3243173447,-0.5571337206,0.6115691892,0.9270066339,0.7972151944,0.7584368299,0.2365046479,-0.5215069253,-0.0829517559,0.6425018466,0.7903456672,0.7010482184,-0.6160222849,-0.0104101983,0.2589087954,0.0680241521,-0.4530026822,-0.2725534293,-2.8143636761,-0.9002922714,0.6650270225,-0.5637470133,0.1921229823,-0.7021869752,0.8712449787,-0.4571899622,0.7611470741,0.1387530459,-0.6693679366,-0.9844505417,1.6158590028,-0.5445832233,1.0753458288,-0.2159633815,-0.7838774553,-0.7833699444,-1.5155402302,-0.9483418464,0.4483725886,1.4949465212,-0.4265654331,0.2323657415,-0.0879139676,0.308059573,0.2555199592,0.2658820671,0.2102729983,-0.2067969932,0.2867968895,-0.5092632156,0.712514249,1.0047114245,-0.4442014848,-0.2390059882,-0.7557357685,-0.3541707203,-0.0847343552,0.7585947229,0.6742356563,-0.660140233,0.8768322796,-1.4641401094,0.344777128,-0.7614424311,0.7957178061,-1.075549367,0.1374894352,0.6417181224,-0.3103568058,-0.4556197678,0.4146858463,-0.7698999599,0.5272732976,0.8348635191,0.0967606188,0.911731868,0.5776078501,-0.813560003,-0.4750369342,-0.6391705923,-0.6131392062,-0.9938901153,-0.0070449923,-0.0566210255,0.9561934796,0.6145492756,-0.8813995569,-0.2066221393,-0.4493936232,0.0268140669,-0.3812048528,-0.9395396688,0.4192909168,-0.6135602521,0.0333923824,0.8808229121,1.0415040673,0.762026505,-0.2198357742,0.383656734,-0.3042423129,0.5228108381,0.5313127056,-1.2414003501,0.2781809951,-0.9516130611,-0.565959175,0.2315331918,-0.0171946313,0.6934889572,-0.4492049013,-0.3415112944,0.0995555967,0.1714793384,0.0612422361,0.1093962818,0.7628414911,0.3706674023,-0.4617265616,-0.4135854754,0.7838842402,-0.4928179191,-0.3868747655,0.3993704868,0.1586896427,-0.8901532266,-0.3812027728,-0.9269812275,-0.3627458168,-0.92068649,0.2768335246,0.1413902129,0.0261208756,-0.0654175279,0.1132079353,0.948323637,0.0639081234,0.0751727465,-0.5513672715,-0.5359386733,0.02976257,-0.1980350073,-0.3658124672,-0.89819668,-0.1015008279,0.026212832,0.6088172939,-0.1210966251,0.0129397182,-0.3963014888,0.6514053439,0.2212120006,-0.7007144838,-0.967109354,0.591878098,0.4029455455,-0.0620359335,-0.5072389771,-0.7285090119,-0.8715012796,-0.0662019935,0.5285843031,-0.4186952905,-0.2627189855,-0.6732696864,0.6586222291,0.2854581533,0.6448140676,-0.9641026988,-0.8453889395,0.3339970838,-3.5968141763,-0.1346417449,-0.5508013953,-0.950399195,0.3760648078,0.5435570634,0.7086045153,-0.9581606289,0.9965204301,-0.3764365138,0.0839572389,0.3468006466,-0.2822861643,0.6613901607,0.3323158894,0.9731819326,0.9066948873,-0.3896888942,-1.1165748478,0.015819511,-0.5629252402,0.6079446197,-0.4404159526,-0.9372801488,-0.3555407591,0.92617586,-0.2696891469,0.6940177728,0.1765345368,-0.3505597783,0.1078515893,0.9275500629,0.7522564686,-0.9300703898,-0.7935960406,0.2232469865,0.3398035768,-0.7452248689,0.0996415931,0.9757641531,0.323886754,0.4731284003,-0.3386274078,-2.3216071239,0.817607262,-0.4015983643,0.2018366999,0.150638104,-0.8895647703,0.125167466,-0.9252766979,0.887796963,-0.7410789891,0.9590281846,0.9506082807,-0.3463704561,-0.7146439107,0.668363796,-0.1662325471,-0.1420540817,-1.1996805538,-0.9589259519,-0.8218727393,0.8970895237,-1.0667683831,0.2174392352,0.3171421093,-0.2629379067,1.2998113628,0.4352279664,-0.0096761024,-0.3048345708,0.0959749428,0.4419275028,0.608617808,-0.1220689985,-0.941704371,-0.8841154194,-1.2124938793,0.9053626888,-0.1178329006,-0.8201667194,-3.4949538381,0.1965818235,0.164654267,0.3602080479,-0.6088251878,-0.0529796678,0.9604031972,-0.5931940167,-0.0241695896,0.1446165183,-0.4020032548,0.8751653601,-0.7480746833,0.9925795328,0.5959602633,-1.0426663673,-0.5312933312,0.1220667854,0.6242520264,-0.4059580992,-0.828145927,0.5414382383,0.2706827711,-1.1009690304,0.2853393269,-0.5495508473,-0.6179165311,-0.1951667977,0.4644851311,0.7324730013,-0.8863493516,0.7289741174,-1.0995913146,-0.1788765629,-0.6576997549,0.2015017579,-1.2719081059,-0.3657498573,0.2991018547,0.7008003924,-0.1799136137,0.58902283,2.841176934,-0.1440033065,0.4002262061,-0.664496301,0.8323907736,0.5510017177,0.0952129431,-0.8646194267,-0.3633648166,0.4434325464,-0.5486538131,-0.8374131733,0.6431898207,-0.7160030189,-0.0331748195,-0.4897567543,-0.8690586015,0.719427006,-0.4497491648,-0.2153548397,0.3539598526,0.1372274914,0.0768679013,-0.3705875282,0.2516198569,-0.8656597426,-0.1287104708,0.8636383091,-1.6434775334,-0.1497636675,-0.644094197,0.8721853313,-0.9591052012,-0.5098451656,0.35545215,0.5663473649,-1.0782293397,0.3103454214,0.6182941384,0.4629111783,-0.8015719162,0.2899004159,-0.887793234,-0.6324854354,1.0840796798,-1.1812156669,-0.3009824565,-0.2456884781,1.2549713782,-1.0911580445,-0.0435900323,-0.7104561755,0.6622326978,0.8413885011,-0.6544289901,-0.0185812902,-0.5415895821,-2.3645277534,-0.5270916905,-0.1205181612,0.6624071576,0.9472457613,-0.4793396759,0.8476271854,0.5404524699,-0.0410941736,0.3039981716,1.0120716073,0.1880290091,-0.4991977856,-0.5131616587,-0.8049710615,-1.0533303179,0.0649647313,0.9176677521,-0.1562700931,0.9140711754,0.3999090257,-0.1401527745,-0.6868767661,0.2034892895,-0.0216354093,0.2491987733,-0.2790810996,0.5521413727,-0.4277077866,-0.4121324374,-0.3728456009,-0.1032830712,0.1017268495,-0.6469175331,0.4969437095,-0.5322218794,0.2358495714,0.6522639335,-0.4916296285,0.9157787189,0.644796895,-0.0363512195,-0.4553482851,-1.2436062304,-0.9525992204,0.521564413,-0.0032871019,0.3956289526,-0.6711307844,-0.0322331006,-0.8178413649,-0.0548281608,0.6196635011,0.2303908571,-0.0970388614,-0.196652124,0.8599655735,0.6010856068,0.1092108386,0.4493027161,-0.6403502448,-0.8695648968,-0.0964159843,-0.0595258122,0.6518253258,-0.6479231259,0.4530733784,-1.0049536548,0.80077521,0.9488362136,-0.0842860376,0.4576138048,0.0478634885,-0.9828204309,0.2053382746,-0.2542802405,-0.4821819323,0.2705010102,0.6988370517,-0.4253766304,0.0659579151,-2.3001564293,-0.1481959297,-0.8338305003,0.0963252301,0.0120897683,-0.8435659961,0.3796445989,-1.0447984733,-0.3949392472,-0.1051440407,-0.9363255819,0.8034185275,-0.5166470108,1.0748752927,-0.5303930204,-0.7175207028,0.5327597033,0.3029451269,-0.7665514712,-1.010874491,-0.5128091383,0.2779021666,0.2063743328,-0.3312949906,0.1337888007,0.3354564604,-0.5067282472,-0.461902578,-0.7714700501,0.4447212306,-0.2478191766,-0.2789269418,-0.0659070982,-0.4735884512,-0.8754735227,0.2705368957,0.5819326391,0.4885840613,-0.0760374875,0.896492794,-0.0383334962,-0.482079955,-0.9079858036
