encog,BasicNetwork,java,3.4.0,1,1590070638418
[BASIC]
[BASIC:PARAMS]
[BASIC:NETWORK]
beginTraining=0
connectionLimit=0
contextTargetOffset=0,0,0
contextTargetSize=0,0,0
endTraining=2
hasContext=f
inputCount=300
layerCounts=235,101,300
layerFeedCounts=235,100,300
layerContextCount=0,0,0
layerIndex=0,235,336
output=0,0,0,0,0,0,0,0,0,0,0,0,0,0,0,0,0,0,0,0,0,0,0,0,0,0,0,0,0,0,0,0,0,0,0,0,0,0,0.3333331422,0,0,0,0,0,0,0,0,0,0,0,0,0,0,0,0,0,0,0,0,0,0,0,0,0,0,0,0,0,0,0,0,0,0,0,0,0,0,0,0,0,0,0,0,0,0,0,0,0,0,0,0,0,0,0.3333331422,0,0,0,0,0.3333331422,0,0,0,0,0,0,0,0,0,0,0,0,0,0,0,0,0,0,0,0,0,0,0,0,0,0,0,0,0,0,0,0,0,0,0,0,0,0,0,0,0,0,0,0,0,0,0,0,0,0,0,0,0,0,0,0,0,0,0,0,0,0,0,0,0,0,0,0,0,0,0.0000000011,0,0,0,0,0,0,0,0,0,0,0,0,0,0,0,0,0,0,0,0,0,0,0,0,0,0.0000005723,0,0,0,0,0,0,0,0,0,0,0,0,0,0,0,0,0,0,0,0,0,0,0,0,0,0,0,0,0,0,0,0,0,0,0,0,0,0,0,0,0,3.6168744803,0,0,0,0,0,0,5.2152965517,0,0,0,0,0,0,0,0,0,0,0,24.6124987301,0,0,0,0,19.6837304717,0,0,0,0,0,0,0,0,0,0,0,0,0,0,0,0,0,0,0,0,0.2141009644,0,0,0,0,0,0,0,0,0,0,0,0,0,0,0,0,5.9991093936,0,0,0,0,0,0,0,0,0,0,0,6.1525883701,0,0,0,0,1.4880186759,0,0,0,0,4.5161884288,0,0,0,0,0,0,0.4898570595,0,0.5722678821,0,0,0,0,1,0,0,0,0,0,0,0.01,0.078,0.068,0,0,0,0,0.01,0,0,0,0,0,0,0,0,0,0.049,0,0,0,0,0,0,0,0,0,0,0,0,0.049,0,0.097,0.097,0,0,0,0,0.039,0,0,0,0,0,0,0,0,0,0.194,0.029,0,0,0,0.01,0,0,0,0,0,0,0,0.01,0,0,0,0,0,0,0,0.039,0,0,0.019,0,0,0,0,0,0,0.165,0.01,0,0,0,0,0,0,0,0,0,0,0,0,0,0.01,0,0,0,0,0,0,0,0,0,0.068,0,0,0,0,0,0.01,0.99,0,0,0.01,0,0,0,0,0,0,0.068,0,0,0,0,0.068,0,0,0,0.087,0.01,0,0,0,0,0,0,0.01,0,0,0,0,0,0.01,0,0,0,0,0,0,0,0,0,0,0.379,0,0,0,0.01,0,0,0.029,0,0,0,0,0,0,0,0,0.01,1,0,0,0,0,0,0,0,0,0,0,0,0.32,0.058,0.029,0.068,0.078,0,0.019,0.029,0.155,0.117,0.049,0.039,0.049,0.204,0.184,0.01,0,0,0,0,0,0,0,0,0,0,0,0,0,0,0,0,0.068,0,0.019,0,0,0,0,0,0.087,0,0,0,0,0,0,0,0,0,0,0.01,0,0,0.029,0,0,0,0,0,0.029,0.068,0,0,0,0.039,0,0,0,0,0,0.049,0,0,0,0,0,0,0.01,0.019,0,0,0,0,0,0,0,0,0.175,0,0,0,0.039,0,0,0,0,0.155,0,0,0,0,0.039,0,0,0,0.01,0,0,0
outputCount=235
weightIndex=0,23735,53735
weights=##0
##double#53735
   -2.066841839,-495.1141513612,-0.4874612059,0.878374203,0.6171982546,-0.7406556117,0.831392013,-28.8461843404,-0.3476105946,-0.5594964768,0.0983959859,0.3981915925,0.3924032544,-334.3954345261,-0.0788792888,-1.251669762,-451.6728882498,-0.1404872373,0.4272669219,-0.2921015864,-0.0356471477,-0.5656485108,-5.745505626,0.1842928441,-8.3110241219,0.8891314945,-397.4080286009,-1.298450759,-1.6389989691,-0.6995005687,0.0166158369,0.8746719096,-0.2603985151,-435.2237951742,1.9869876069,-0.1195192598,2.082831124,0.8698466452,0.3801433682,0.2797926792,-615.9238260915,0.6934415263,-1.0062552448,-0.3321567494,-63.7446981049,-0.7230409856,0.2197372037,-16.9549175577,-0.1162590133,-183.2414527067,2.3014116521,0.3068894492,2.3083502303,0.8893423936,0.4100834141,-0.4018678882,-0.3682242936,-14.7849780912,-0.5322495806,-243.1671226428,-182.9022760289,0.8657092273,-432.5228035498,0.2446482305,0.5244348653,5.4304786303,0.6576896425,-20.7435931358,-1.002805558,0.3347161131,-658.1200643541,0.580968935,-0.5273394129,-119.3020231382,-32.8413099966,0.5672665377,-709.5961888373,1.5003128142,-0.6584456745,-0.3180195852,-187.8602855582,-60.0387860158,-0.514358657,-0.2787819223,0.9764034527,-11.3478684546,-313.5245881411,-0.4625954705,0.1200451785,0.5108944461,-0.1398724859,-61.0287490101,0.0686535922,-10.0033915502,-12.1463898168,-629.6908763697,-50.663537031,-7.2907708713,-0.2205441039,-25.3714151882,-0.4930317482,-0.116363984,-161.9806115958,-24.4778508652,-0.8586863644,-17.7183050002,0.9979045833,-0.1952615399,-1.0558010161,0.2361022739,0.1964244823,0.0078400917,0.1766283049,-277.2271362836,-3.8531157692,-0.9613688194,-387.8201395574,1.8918904579,0.1055279105,0.4887585098,-0.0084245114,0.5390070679,-675.9651316214,3.1055316558,3.5441959512,-649.2514891934,-0.4950460185,0.1838347707,0.8300867321,-0.4750436084,0.8538207452,-0.8346663531,0.9297681089,-8.9982752402,2.0683786905,0.147585382,0.4569301515,0.7295162526,-1.5676825552,-28.3038214595,-0.7261849468,0.378001506,-88.2793279924,-1.3427034845,0.6965165966,0.263578741,-0.5883116604,-0.1702690888,-616.2386760765,-0.1692048679,-3.7034921597,-0.1099765645,0.5647670924,0.0876134186,-0.3083490724,3.7752511453,-0.443083133,0.7856878286,-257.9965921756,0.2314728394,-0.1727246158,0.2543971675,0.8937726439,-0.6522644374,0.7880356249,-552.3210087103,4.5790635541,-0.8175157173,-117.682295497,-1.3756205797,0.1289820866,-0.4944499699,0.3221960723,-0.2737805323,-497.5985514074,0.3807792275,-0.7006887471,-604.7593182639,-1.2829522059,0.9669351663,0.3625081986,-0.0212513594,0.6365315854,-239.9680452754,0.8274598525,-0.8690198996,-0.1889731072,-0.2396915322,0.3629246547,-0.2205332033,-94.7084194839,0.0151920566,-18.7273160238,-263.2391475206,-0.2184188586,0.214757303,0.090184549,2.7731018014,-0.9481539701,0.5266885449,-348.8889229102,0.1498436087,-2.4202095804,-536.9524317475,-43.4749275927,-548.8941540934,-0.3527986562,-1.1797678243,-7.0679017722,-306.3645699538,-52.2461611108,-0.1021303802,-0.3513727128,0.9911377088,-0.2145920932,-368.4436937692,-48.2647287027,-82.3412926842,0.1751281579,-0.347829224,-0.343836828,-1.4860940579,0.0531450206,-0.0144656957,0.9401372993,-0.0113714782,-0.9700518171,0.4697181023,-2.3440527245,0.4802910848,-0.3957886427,-0.5449668278,-0.4563494389,0.3443537813,-0.270060865,-181.6198948527,-0.0602408217,-0.3046054106,1.3565750595,-3.2175631515,1.4683584889,-0.8110747358,-0.7114812916,0.877642609,-4.5763603108,0.7147498227,-498.7166471789,-1.9717013226,-0.1041594058,-0.4948358036,-273.0384927809,-143.8306387677,-0.4464690015,0.5856455452,0.2704234722,-0.6216021029,0.9699760837,0.8538730821,0.6270567075,-256.4043240176,0.8485740862,0.4310888104,-182.991617013,0.0081016865,0.7096369473,-427.1050950586,-1.8192177803,0.0476943555,0.2038184155,-65.569825855,0.650797842,0.8939939338,0.6327018712,0.9880529691,-0.666980517,-3.0163057591,0.6175515041,-4.0625502349,-426.9213311592,0.43601801,0.9156827062,0.16444787,-1.085962717,-225.3787506114,-313.0396983893,0.0838529171,-1.7238182067,-583.6886998125,-372.414844533,-9.3997273146,-5.4402519811,-10.0220910456,-0.8908499879,-24.8596552638,-0.6467553634,-741.3156683957,-0.5374760184,-278.0482601814,0.8745367868,-37.8955501441,-0.2294254065,-0.3428744386,0.8270052478,-32.6609729264,-432.8710474079,0.7952023635,0.0038670461,-9.5659059937,-0.5883772218,0.6008833149,-276.0115235725,-1.2366595557,0.6154289425,0.1356972398,1.6121024504,-0.2477288153,-100.2741434897,-0.8808005417,-634.1334540762,-0.3656814936,-0.8893299399,0.6419324135,-0.5127506432,-2.9688339961,-403.8113174927,-0.7726314584,0.5588957941,-8.9311911897,-0.4296859158,-37.2496905289,0.9807144091,0.6022503908,0.6764718227,0.7120905861,0.5679732848,0.3976637984,-0.4134613271,-1.9277779675,1.4987469896,-0.1578658154,-154.0405826314,0.0955553412,0.4291384725,0.5882698177,-0.5355483427,-208.8832925426,0.2371354552,-0.6931364857,0.9768945749,0.5327468628,-646.9268768219,-211.2158688201,-147.9512570763,-0.064292583,-0.1914980399,-0.4474606844,3.2807763617,0.3948990545,0.1130675587,-0.4254331036,-0.5241526124,0.7846289508,0.2360690243,-0.1329179048,0.1300318543,-0.9233641797,0.6307901465,0.7622713361,0.8102336226,-104.2381180503,-150.622596009,0.5337051644,-0.2376129131,0.8320016409,-0.4886316026,-4.7684863706,-168.8648719737,-0.4031582523,-9.0228470665,-384.7013388298,-344.8216518494,0.0509563385,0.3924344604,1.0069285175,-496.6306060284,-0.6537522344,-0.3087829436,-16.5686703067,0.6002434176,0.0691900548,-1.8573040585,-16.0910706442,-0.8774340816,3.7899727579,-0.7379054372,-0.5601578007,-3.9700255844,0.6579835557,0.0274182596,0.0955276082,-0.0357618249,1.0536825359,0.2627446681,-0.6180426192,-0.0387006411,-401.3491737706,0.9085930933,0.712504359,0.840724335,-44.0212624901,3.8678431005,-1.8988072838,-0.4115253739,-6.9691676539,-487.7341302421,-664.5714769544,-700.9344326067,-50.1521838734,0.5915049142,-1.1767464893,0.5476634614,-0.8303765281,-759.7461208715,-235.6351000948,-3.3641327763,-353.9524059728,0.1826733668,-709.4066706512,-647.5628701683,-3.883674278,-541.9419339071,0.0623033697,-12.9407472462,0.6499370064,-0.1356824251,-0.3135103572,0.9167062161,1.5185940675,-3.9717490726,0.6586593803,-2.1400691263,-14.4847568607,-456.287537822,-19.0221817535,0.3186017728,-71.5576612138,-2.555032838,-178.3875784373,3.1694413639,-36.7325694482,0.6119092349,1.3122650466,0.4901454517,-0.2347971952,-260.0202775389,-60.2566453682,-212.6438917659,0.3978905124,-9.3274074462,2.2029341428,-1.1740271917,-130.4928259182,-329.4882582436,0.2223485169,-0.5331593356,-2.4993880595,-437.1723097621,-599.6890149948,-624.2861032839,0.6073163508,-2.6653628028,-3.2609581224,-0.260108188,0.1289261842,-440.2176910879,-0.1685244661,-0.211035547,0.8005535006,-269.9406506321,0.2744463208,-613.5256561451,-198.90793499,-0.3598548557,-272.3227396889,-0.0282060135,1.7786665235,-132.5397905814,-0.258492076,-10.3195688337,-238.0999852649,-274.3947616372,-312.5987794722,-344.1170595065,-1.2560369269,-0.3634945933,1.0231183668,-0.6873966916,0.3572776703,-0.1458555838,-615.1556741316,-0.0992693921,-33.630259565,0.8951720744,0.6381061938,0.8359691761,-23.7323988017,-12.616141806,0.1624601632,0.9328568366,0.8195091237,-0.5605338692,-543.7185104218,-12.1598106377,-8.437086215,-0.8096496823,-73.634464987,-0.7821034099,1.7384936881,-120.1194908236,0.3723845893,-1.2607433362,-578.0759625466,0.2689261352,0.9355619283,-1.7856993699,0.3356232334,-501.588514201,-48.9361702006,-261.8007090811,1.9983382433,-31.2005870014,-280.9432107475,-7.3704693074,0.1985563772,-10.2201245317,-706.6035347275,0.8719271544,-46.4048892141,0.9366162244,-279.4576455588,-55.285317947,-69.0160425866,-284.8431219727,-331.7219595295,-11.5885417777,-455.8386446548,0.7820625775,0.3316877502,-450.3783972928,-101.0076963688,-10.474047055,0.3437510211,-42.5882700885,0.0931391068,-10.7689108587,0.9019489964,-0.696144543,-43.3726110495,-0.3419957324,-142.5313857446,0.9378994086,-15.7652932082,-26.1829638999,-2.1108743154,0.5759792054,0.289285596,-262.6696819455,-288.6780717561,-201.1402765694,-0.8038221511,1.1822752409,-26.9656903162,-41.7373839641,-0.534268992,0.4443831809,-0.0609224428,-394.3683989171,-17.4703470076,0.8582473344,-30.0230972735,-19.3429876885,1.2414613615,-8.2339944276,0.3052728194,-1.85359523,-162.6140954433,-322.2726817018,0.8814696843,-0.208193345,-17.2110237818,0.2196830232,-121.2859032595,-0.4601158486,-0.5485992312,-81.040941839,-321.2274906524,-0.0950179354,-576.9921154482,-644.633099503,-504.3427748992,1.4757423407,-28.3958250786,0.9118077625,-624.5638457026,-283.0373014221,0.9647426974,-7.1190608664,-22.9516607945,-4.7147422925,-0.2113626114,-2.5815602731,0.0000575981,-0.6268718975,-231.38813971,-1.1620645637,-0.4897448157,-2.5940667268,-0.2781156992,-321.550024604,0.8695303677,0.5767005323,-0.6311386669,0.4048674943,0.5699782567,-56.4635482719,-1.4364576028,-72.2833409739,-635.3600640894,0.2054422543,0.7557579207,-50.0469677975,-7.2055197836,-188.3341868018,0.0061164242,-13.0599539263,0.5990879265,1.0548640474,-4.7831180733,-1.0144036533,0.2129369667,-0.4813177036,0.7801200375,-627.4330643415,-735.4225221483,-0.2929075817,-0.4402525013,1.1112945988,-1.1431847657,0.7485596186,-161.1045536161,-1.1248321901,0.7189927971,0.7112826771,-810.0358188921,-1.880501061,-39.1985921261,-38.1520290126,-0.4248364318,0.7774645224,-0.2929816407,-0.1972838653,-0.5965008224,-0.6464493018,-3.0757347292,0.9687465747,-0.4534008005,-0.6539231012,0.4311888908,-0.2537000875,0.9139092732,0.6008008048,0.3506691224,0.1803505645,0.6394302348,-0.3875425125,-0.1282768433,-0.5246371723,0.1456571941,-1.2980054012,-306.9406310075,1.1813772847,0.4254102125,-644.677682207,-9.2438745929,0.5957742316,-0.636622742,0.9766095759,-735.0960860382,-499.7768960478,-0.6428128064,-332.6496490516,0.2371754638,-68.0361556976,0.6558717723,0.9702254132,-44.5052904525,-0.6255270566,0.1583063655,0.5777477672,-349.6923632494,0.129140705,-0.1190800726,-0.4697540216,-0.6451482239,0.5187324737,0.9383603971,0.9689921015,-121.2769228062,-225.0763773159,0.7588721273,-0.5654270758,0.4469267811,-77.9986188279,0.591057825,-2.8103406089,-91.5647038566,-167.2667034928,-394.2840297371,0.3909622676,2.6120114508,-309.6422713639,-1.5233869456,-1.2041742099,-133.2970994364,-0.8334450109,-3.8530636975,-650.8123777387,-2.813134535,-0.0015720922,0.2127501275,-0.092526844,0.5913334874,-0.8910596862,0.2059062256,0.3019967689,-34.2902719546,-1.1159929655,-0.054561761,-7.9296329604,-1.1551685474,-509.3994263327,-0.2334684732,-3.6679732132,-260.3641263402,-241.82735174,-18.8285632941,-38.6845795916,-241.4181386515,0.8220294813,-126.5470816645,-1.0874614248,0.0744985653,-1.1275901585,-426.1875080194,0.85278857,-123.2933563318,-14.8753317538,2.249837396,0.2470153711,-230.3725208519,0.583983578,1.386978901,0.3892520724,0.5165204593,-2.3377558386,-0.5939995493,-607.4665652244,-224.2552966068,0.9035724845,-350.4819602992,-131.977713913,-18.0567842457,1.0543285277,-65.5358346834,-97.7678800376,-0.0311824837,-88.4917986991,-2.0179160324,-0.6449063557,-89.4480298736,96.9237792771,-4.8164607177,-0.9651031256,-65.2336908436,-1.0896631987,-0.7783277868,1.1706235995,1.5544151886,-224.2291715396,-261.5682355725,-1.873347511,-0.6453150396,1.0851326561,-0.1786502018,-344.7221897255,-0.6302327438,-1.5751197629,0.4424842137,0.2722615626,-611.1958264432,-184.0861216658,-586.210597108,-535.1922695055,-3.371639896,-0.2229982032,0.453662462,-447.2991501737,-0.2086924198,-0.6721441979,0.3864921448,-96.0153480786,0.0367370499,0.2449618608,-0.1047750985,-21.3447000623,0.1000126227,-4.0763208151,-1.7063695723,0.3920282403,0.5871139353,-140.5269430027,0.1207187623,-0.0997272381,-94.4331002768,0.4112749055,0.1087341963,0.3073125417,-70.0571250734,-1.8059298279,-1.5208565838,0.8587163457,-9.7071167753,-0.7522174753,6.6440686772,-4.3691688798,0.2193880271,-1.7290668962,-0.1201031494,0.1019468675,0.0814427736,-4.6775640328,-0.5956662093,0.6439093961,-20.9432122774,0.6211212188,-28.9078952106,-0.3712689075,0.6022118213,0.5495270674,-0.6970291198,-1.2957161392,-1.4083535082,0.3929670105,-24.8715616354,0.5124152008,-0.0781904347,-2.0155745891,-17.6326501633,-0.0594363401,-0.6624679841,0.286631025,0.8458185969,-1.9223052051,-0.3119811601,-0.546971724,-0.2796193683,0.2274939485,0.1595393519,0.8166799348,-213.78069078,-54.4924221324,-0.3449572644,-0.796792832,1.0112437702,-7.2201201531,-0.1651241598,-0.417033141,0.1710219146,-0.5459901088,-1.0242289667,-1.1076001122,-408.566803914,-0.0340453503,0.0030775775,-0.9940297863,-1.3985569749,0.0524875938,0.67941803,-44.1059781144,-0.2967841375,0.4900818253,-6.2630748659,-9.936284184,0.356764445,-2.8178277671,0.97702905,1.9339662625,-1.8092331304,0.3897065438,-1.4820294205,1.9074631669,-12.7268178303,1.166838433,0.8072887599,0.1753928214,0.4106595935,-0.3940174911,-0.1775824102,-0.2696709724,0.5857165357,-0.8601220529,-2.4908759157,-0.4755749135,0.5168614344,0.6141509604,-5.6636887761,-0.8058622555,-2.7499221963,0.6199517238,0.1319311526,-0.6215637627,-3.8648281922,0.1355266189,0.2812138653,-619.9838922255,0.0294809361,0.1888073465,1.7642541756,-23.3876180511,-6.0272883048,-426.0510606618,0.0230705806,-0.7676562379,0.2163789085,0.7691856422,-499.6244322406,-0.8068689659,-2.4545173084,0.443234222,0.4156379942,-0.0853148136,-1.9216990502,-26.4101738003,0.5380347925,-18.3377060606,-0.8067616178,-43.499888792,-0.4300627201,0.524736114,-0.2704955692,1.4471252209,-9.4909114724,0.6933614528,-285.3209628803,-0.0414720471,-0.3189193289,-410.0686677772,-37.3192157903,-6.5782244306,0.7989403722,-0.222758251,-0.4255588083,-0.397177516,-4.1712916949,0.5374938749,-0.9031822498,-0.3771824986,1.0261039219,0.1662107408,2.4617543846,-0.0994515037,-0.5692833619,0.2504887567,-0.7305475203,-0.9197756981,-0.6995959985,-0.0798941543,0.892970742,0.1160525515,-0.0270960807,0.759316418,0.6857967092,-305.9631229284,0.1047002485,0.0015048669,-0.2912064505,-0.3405814479,-0.5406051391,0.9254894274,-0.5822249143,-690.2014441061,-372.3183664291,-0.036263226,-78.502962122,-10.3460124687,-8.2536878405,-15.5436693749,-0.3977167473,0.2575904782,-0.6328158798,-0.2233414125,-0.688756353,-432.0517512908,0.9167718222,-0.9634123318,0.8537233653,0.1575267703,1.3721817692,0.4649088988,0.4452449828,-40.9530572217,-221.5572011896,0.2951510933,0.1803755232,0.7157781528,-74.4871665036,0.3534055712,-0.9693583579,0.3377574802,0.2678471644,-83.4694531895,-810.3595644232,1.0919244762,-59.5813244068,-0.8933801093,-178.527483336,-224.7621975076,-25.4331042298,0.477399672,1.7574393862,-12.2876789224,-0.9830773329,0.1791003422,-433.2030103145,-442.530573296,-0.3482438061,-0.8848105666,-196.5102561204,-148.5382962733,0.7485279277,-10.246572867,-773.2919362161,-7.2831335935,1.0110230987,-32.596275492,-15.7252464738,-2.9502439538,-224.4514419547,-28.8680275547,-257.7249877994,-249.3934837561,-237.313771916,0.2228214116,-14.0414577936,-45.671074713,0.0232930767,0.2341190145,3.2110466617,0.8188173821,-3.9260079009,0.6764712502,-0.5313973524,-218.9108721889,-615.3538417531,-2.265802062,1.2733900338,-0.944565467,-0.0512354005,0.6347945916,1.7079403755,-352.9144256121,-1.4551590444,-0.6679971263,3.2177181331,-5.965930513,-0.6922583578,-0.8855973134,-18.950076054,-6.4432520697,-46.991374429,0.2039746983,-0.778162464,0.5721083171,-273.5646139017,-156.6585114266,0.2145893022,-25.5384651197,-0.2288816364,-360.9329071167,-138.5189679139,-32.1689396125,-298.2501364712,-191.7884794566,-0.6193684565,-14.4958621371,-1.4013261686,-1.6480111329,-241.2913747794,-108.0245151941,-1.4291387524,-0.7395220471,0.6400896153,2.0149493076,-669.6422751961,-599.503155777,1.2397048677,-1.8269880299,-55.98527776,-326.4882995718,-0.7067241426,-0.3064299223,-3.3481004151,-277.0361875965,-0.3811330301,0.6777793837,-0.8747917539,0.9292035144,0.0157241073,-158.3985783616,-0.5583950797,-0.8356265421,-0.7715078473,-0.6870818146,-684.2222690119,-0.8354331571,0.9290728668,-0.6087439935,-0.0735282827,0.695063146,-3.0434135261,-58.8091510857,-4.0773428037,-709.7321679736,-22.2450635444,-0.1416494478,-100.9008941094,0.8128286247,-484.9560622749,-0.5172290017,-7.9692239367,0.2325818605,1.3498973541,-0.0214162846,-0.100542876,-0.2361737779,-0.1740518892,0.6593971709,-297.65560711,-735.6956791032,-0.8650099854,0.3942763357,0.6606388796,2.076738386,-0.4678778545,-491.7332009251,-5.4470460499,0.4827251746,1.1380697951,-735.6253994124,-51.9193932593,-7.7627042425,-1.6733718248,-17.0140118986,0.1688806599,0.1575754073,-0.74721022,0.843867273,-0.4413512856,-1.9403496562,0.5496000495,-0.2825140784,-0.329901299,0.4705946899,1.372195223,1.5224829345,0.069430514,-0.1938827701,0.5128108844,0.5598105981,0.590299176,0.1560821025,-0.0342614673,1.0448257228,0.2826096102,-7.491265455,0.3891163782,1.1471486794,-115.8935485155,-0.8936818147,-0.1186870195,-0.746521533,-0.0259809378,-648.0581402253,-498.231346629,-22.4038318574,-189.7777344159,0.1143423549,-96.8790225568,1.0276533496,0.5585557601,-8.8607602536,0.6089965961,-0.3646077644,0.5382926504,-84.2728329314,0.2565224051,-0.0597087562,-1.4689882693,-0.6001767467,6.4477201351,0.1770689451,1.028377091,-0.776123156,-210.2139523305,-153.5855280459,-0.5976581356,-0.1350521058,0.8384289978,-0.8623728141,-130.1218120555,-0.8812019121,-0.4328553747,0.7129804213,-24.18355077,-8.336763054,-0.9942216835,0.8881584194,-31.3476997951,0.716698087,-0.548452925,0.8885496103,0.5929431501,-7.3359284403,-0.6449853669,0.1765280148,-546.3626420386,-660.384458424,-12.6234621778,1.9862260232,-0.1149977512,0.5604338233,0.5558039704,0.5330780636,0.2758881642,-18.4739873443,-0.5327232879,-0.8312173989,-0.9660106356,-18.2785473542,0.5558634213,-602.1681122592,-584.3044485337,0.8021913245,3.836616651,-16.6371526487,-0.0683012205,-212.5796734703,-0.5101859804,-492.9792731459,0.8110359042,-247.0404899867,-0.4177574723,-4.3194192246,-92.2767765043,0.2707638775,1.2489463386,0.3217238095,-0.4051769863,0.0826158205,-1.8737553523,-0.5176696343,-0.9385322056,0.060968002,-0.0900484915,-524.0188323288,0.8678318521,-0.5728966752,0.7670373028,-3.3536312766,-37.3570946502,-0.5969047167,-0.9396057701,0.5366011219,-0.655871939,-0.546269689,-4.5323724201,-0.4163978416,0.7056557849,1.5027516189,-11.817800566,0.7533127562,-219.4754436902,0.9462705607,1.978417282,-11.5775555664,0.4276144111,-91.3188298482,0.7668037309,-43.825658619,-0.4697669469,0.0111735492,0.7444173352,0.9131905186,-0.1883095241,-648.8882714893,1.0522803787,-0.1114173812,4.2609012863,1.0192474029,0.6292186496,0.2424362231,-660.0110190387,-0.4252516047,0.7432221544,-27.7730994297,-0.1744460028,1.0651234754,0.1082780722,-0.7581275247,-0.3837210411,1.1677498265,-1.500000578,20.7704716809,-1.0798858942,-164.5258117491,-621.3830350952,0.806452386,-255.4544748413,-14.2896361578,-283.0904726001,2.211599048,1.1548473131,0.9996794003,-19.3705016838,1.7519133355,-83.4017982694,0.8946349382,0.0134035656,0.0891010829,-0.2855058471,-1.1170450903,-0.2638013833,-48.5887436808,0.1213856434,-0.6859344523,0.9630668637,-0.4909933952,0.3400769258,0.8962886678,0.5409523241,-810.80447541,0.9232115683,0.4928030605,0.0713123446,0.9048491557,-0.9420729498,-0.7155118711,-0.0153444687,-29.6247148205,2.6654175202,-182.872466713,-0.4814721548,-19.7571506773,-0.5655565073,0.4946066232,-0.0733469195,-0.4001656736,-7.4783186275,-9.3248643392,1.1908319324,-0.6405343172,0.976864881,-46.739238271,-0.1113750531,0.6090585541,-0.1469231567,0.9172374406,0.5069012826,0.1403144661,-133.0189637462,1.1072659877,-0.0008553452,-9.3158004148,-3.456695207,-0.4727803777,0.6594246745,-121.3695684072,0.7992725582,0.3391784925,0.9082262248,-2.835190799,0.0337603493,-1.0197691315,0.0717477421,-649.7682775664,-0.1325515865,1.0474727403,0.6685381517,1.1824735981,0.5897514776,0.1925278689,-41.3759368261,-26.366215997,-419.4659585821,-0.4996795943,-0.7775986953,-0.7390643599,-566.2902740978,-458.7299615687,0.4133226051,-0.1573676831,-0.4264189083,0.4917256611,0.3330454933,-26.9241915775,4.6296716691,-2.3692832525,-27.6011307362,-1.278170457,-9.9659308144,-626.0409711628,-211.7602567686,-1.5505591318,-37.9699016656,-153.0013380545,-15.9970752624,0.056414885,-0.5322310415,0.6580096791,-0.590915125,2.3763539745,-0.3504080613,0.9245780052,1.1484579373,0.3968711315,0.0408402524,-2.8338249616,-7.6124542955,-0.0810412704,-0.3258921458,-0.5152978067,-226.5880019528,0.0837861833,-2.9336555687,-1.1253632566,0.3607221948,-0.2624940573,-2.8325901464,-172.4105839418,-9.9135622946,1.3025757038,-0.6385545469,-0.3491280915,0.1479324512,1.0194759811,-0.2408222068,-263.7161969554,10.2200709233,-16.1583274415,-225.1596999922,0.494081063,1.3512002982,-409.9498712935,-358.6227982715,-0.824303401,-15.1895712349,0.6866514477,0.3522728283,0.6375958806,0.0232008081,0.3189797678,0.3168228122,-201.2935567308,-0.8139000254,1.5112144096,-180.6836273327,-142.159833705,-403.0713479289,-1.2819932196,-0.3482392738,-5.8179200168,-259.1244172685,0.563471849,0.806100741,-0.6294470418,-0.1816689141,-0.7298789579,-21.3871435786,-6.1252684155,0.2220548046,-592.971429917,-0.3800137209,-322.229664432,0.6259709027,-368.9104340666,9.5501975647,0.5644111131,-18.0833974104,-482.8831177285,0.2709845819,-350.5825338145,-107.9599133083,-312.3519105979,0.2690650098,-4.0211187687,-46.2673252419,0.7395292505,0.3564347042,-215.2615480987,-84.1844488311,-67.712208234,0.0585581177,-46.5555568502,-5.1728793079,-0.528916037,0.3243125392,-307.7168652021,-0.4502086372,-0.0638605719,0.1199385916,0.7674501286,4.619357268,0.4908871603,-0.77999613,-0.7110126322,-0.5566737157,-345.6322057269,-3.8725254883,-0.4891984904,0.5245989421,-0.0604119029,-146.7038158174,0.3822839007,0.0781551439,1.7292539427,-0.7739415646,-0.593855785,0.0429435687,1.3042511227,0.8334222816,-0.587865328,-224.2110410388,-0.9935525986,2.5675734854,-0.8450393074,-1.5941278235,-0.7079908226,-0.1958814865,0.1776066192,0.1545757975,0.8132536182,1.5117642068,-0.7026979991,-0.7932319614,1.1661240836,0.7759373948,0.0803570777,-1.0928102305,0.8136755642,-0.3067351137,-206.0472326504,-0.2302878073,-0.1165964303,0.7268197695,-0.0501514833,-0.1912506662,0.2805117428,0.9101837304,-0.22796497,0.6632808181,-0.8198820026,-0.8173837614,-0.7391043468,-0.5736657289,-56.0574004906,-322.2899946206,0.5311866915,0.1301375544,-0.0571276538,-0.6209921753,1.4743663454,0.2728575607,-61.44997213,0.3586726087,-19.5613005729,0.7767253606,0.9134614995,-18.1675293675,-415.7804150391,-0.6629000906,1.0619158103,-24.3437501312,2.7350550327,-0.6201397753,0.3255648633,-2.3741572945,-83.5595726999,0.4677891134,-1.3480617654,-0.1991023952,-0.1605739522,-35.2858784557,0.1377025595,0.98048828,-1.4649421224,-0.2466492498,-16.4968064153,0.2169842333,0.8085773073,0.2966634596,-2.7972880823,-27.3573544955,0.9100144128,-0.4435800607,0.5127218178,0.9896693827,-0.0173944074,-715.843871428,-47.7470444712,-0.5463558405,-4.1620466358,0.8712202343,0.2746068031,1.0120237001,-3.1962415979,0.7519095707,-0.4981934685,-216.0635597642,-809.0168377633,0.6446039302,0.4388659779,-217.2888244489,-4.1035708799,0.5487731455,-0.4267740357,1.2410040228,1.3571967794,0.1636676485,0.5800952064,-0.1969868127,-10.9243094048,-0.6409140796,0.1814685001,0.8480747538,0.1076529011,0.1402093975,0.5361768889,1.0424634799,-0.7514731296,-0.1444216422,-0.3722536846,0.4017984069,-0.3134718486,-0.1075510684,0.7259081105,0.2376114973,0.9813668365,0.5893169619,0.2481873888,2.7402383242,-0.7610921766,-81.0526365116,-2.1719112692,0.244626685,0.467086409,-19.3889701269,0.0725372828,1.1837537729,0.0411960107,0.4211614758,-0.4905884742,0.8961619014,-0.0668844237,-1.8547735036,-0.7134846602,-2.0620060553,-24.236472883,0.3679528096,-0.0137117345,0.9028021662,-2.474259597,9.7784630099,-0.1242819934,-46.2277419216,-0.3847798649,-1.5327392528,-3.6715027617,-0.3236519716,0.7385633769,-200.1827319519,0.6803646085,0.5840067243,-809.5767031534,0.4618288561,-0.7441204468,0.3336685089,-0.9558144335,0.7411657295,0.1528404719,0.2476763501,0.0510368128,-0.0867368087,-6.3670783885,0.4809854694,0.7872650259,-190.3888658674,-0.4044698763,-38.7777598316,0.1380515255,0.7162153018,-4.5922497235,-9.3300077149,-1.2422008591,-0.0558227688,0.1064153111,0.5897276948,0.7360303111,-0.0929833948,-43.2368356423,1.8344586853,-74.6269043648,-0.0380129466,-30.0043425964,0.1554538133,-1.9502262926,-1.1959127938,0.6657838352,-34.1310456986,-119.799247025,-79.7786640612,-0.5188150565,-384.1732356681,-81.9300762059,-0.3155790796,1.6526236229,0.1121234816,0.1112942515,-0.7079141806,-427.2326993883,-23.6009249521,-443.6662671556,-481.1702516938,-431.5833236093,-0.150152345,-274.0177264526,-0.5460356147,0.3039268853,-584.3541542269,-284.6371851296,-10.9084469431,-3.9838113262,-381.0298250405,0.2016004181,1.0201086825,-1.5886080496,-407.5692812108,-466.9816370187,-4.2478101747,-0.749379731,-279.0360617197,-17.875582353,-6.5204446168,-1.2308834905,-735.6871246878,-0.564995508,-140.8457864088,0.471217427,-105.633336791,-9.4444404058,-294.316791805,0.4042916322,0.94717612,7.6581245122,-0.8816747069,-0.0511123642,-1.6696089279,-335.6735961606,-0.8174103687,0.6827402748,-123.2735394629,2.0426496814,0.2075009691,-685.1444638414,-37.2476263369,-28.7384767995,2.6097070311,-0.205535038,-25.0674763861,-478.2861217418,0.2664413839,2.605509662,-31.6226531879,-1.2662207045,0.3688449056,-34.8927685538,-0.1793698392,-10.2975072078,0.0474100583,0.8323710624,-310.6388445877,-0.5426780076,-26.7148318592,-0.6956614635,-0.5272873646,-16.8911202551,-363.3593397647,-0.2508951716,2.0603788532,2.6670792698,-791.6729991206,1.1267694268,-544.4710488656,2.3916299613,0.9782875577,0.1008023167,4.219554113,-144.1823048223,1.8286967189,-0.1480784766,-350.1719958603,0.6812777663,0.105936682,0.2802033711,0.1313881165,0.8597773649,0.7842931901,-5.5944515611,-0.0513715822,-14.3952632421,-9.5120220281,-540.0432227978,-0.1465396565,-0.187908849,-166.7141104891,0.446177284,0.9268634817,1.3194561904,0.4619175601,-0.029776351,-512.9892970618,-1.6165912297,-47.5822989505,-589.9000062797,0.0111117319,-327.494836703,0.6596897154,0.9877360658,-0.6249362672,1.3013161392,0.884924177,0.2609753672,6.4327735605,-81.6758991117,-0.5190723786,0.3615083816,-0.2282540375,-0.9615699948,3.3425369978,-0.7147159411,-0.2458984278,-35.3228373341,-0.4641462954,0.7605283068,-34.0570909298,-603.3171339358,-735.8017710364,0.5793813624,-0.3778247961,0.553211658,2.0181175178,-0.1140225062,-0.15567744,-8.0291954597,-476.2725719265,0.4140149836,3.8342221319,-0.5633758617,0.8370339636,-0.2493611633,0.5616854593,0.2116710669,-0.9499787112,0.0199862563,-0.8700175412,-0.5455781507,-0.2104763179,0.2242945444,0.9419424237,-0.3255268707,-2.9186080071,0.4968046076,-9.27477566,0.1752842923,-2.4821147001,-774.9114313142,0.1552871077,0.5063839793,-0.3912197574,4.0195676031,-0.5257414822,-0.8410627045,0.4412720058,-0.6313534582,0.3984143358,-1.7794627939,0.8594629439,-4.9335607859,0.7456080463,-0.0904076227,0.356085071,-2.8991696662,0.2609822372,-241.9411444747,-73.6351525101,-0.2896541161,0.1440764865,0.170340257,-39.0872426918,0.2768564705,-270.9015425522,-397.792398841,-5.0322374284,0.1640871324,-0.0702574277,0.6852075799,-0.5094097626,-7.2325436831,-7.8499897491,1.1318241898,-0.3998926144,1.1990844917,-1.5631542184,-32.8122915058,0.880968204,-633.8652213599,0.3194255666,-0.2409743643,1.7457175419,0.7471263765,0.0725753955,-371.5574359959,0.9764391465,1.3450373477,-741.2448720363,-0.6628830174,-0.2198215907,-0.0128218497,-0.8972384955,0.6193147368,0.1115562601,-0.0908570883,-1.3147631099,0.8022146344,-2.6907186474,0.6288514275,0.3606875732,-423.5539629033,-0.8843910248,0.535079429,-0.6810338305,0.8523678848,-77.4340183976,0.4053020157,0.3120162922,0.8448346172,-0.3332488143,-647.3901344586,-1.5783566298,-16.057236657,-0.1676955988,0.598352314,0.1840484168,0.0098369342,0.3479695379,1.8365718869,0.2152741809,-0.627163352,-0.6750656573,0.0984255389,0.1399771829,-0.0952001802,0.9594916674,-0.6070681599,0.5345257466,0.9183715824,-11.1984885843,-69.4545960585,-0.5236277182,-0.4376244794,0.4566091408,-0.1034187401,0.0347298,-609.2861681107,0.9370443259,-4.2280795516,-616.8668559091,-16.2456236539,0.7892999251,-0.0120487709,-0.3596297028,-363.0209872759,-234.6109040371,-0.5605497268,-4.4324785238,0.8852242565,-0.1209832637,-0.2809036057,-0.8464764024,-5.3697021541,0.3392885236,-0.1919771785,-6.0104367195,-0.4524179849,0.0153614549,0.2575979574,-1.1318909489,0.4931170376,0.8291990976,-1.7863525451,-0.2789613808,-0.6697544983,-253.6659067259,-89.3032362162,-0.6121329054,-0.980795421,-0.6709303858,1.1998730719,-12.9508378738,-0.6912942062,0.643724314,-558.8855423183,-18.8596907673,-101.8181148451,-249.691096479,-67.6413449538,-117.9138999955,-0.5960531184,0.1816104043,2.610075429,-1.1652638039,-14.7515777676,0.3315822114,-12.9261172174,-597.1181469762,-685.8656044554,-556.2918764292,3.1678527101,-11.4445621309
   -0.5343006316,-1.1958898147,-0.8972113158,0.7386792172,-0.8753741898,-0.5464366959,-453.6663455554,-0.9203078874,-1.6079537895,-0.1483115985,-524.8680344526,-422.7614757345,-8.4203867335,0.385081528,-492.396068529,-229.2419191104,-9.4072398996,-1.0728164357,-0.8914686408,-0.7901110677,-370.9217708737,-0.9834400694,-0.614962014,-0.4481680617,-0.7263813806,1.0960882465,-11.9984223595,-0.4625905477,0.1615931807,-0.3935770648,-5.6801142037,-203.7735558328,-0.3826093074,-3.815247729,-376.1169982844,-0.2182463988,2.1478826307,-0.631448731,-181.9826468609,-248.3686488567,0.1313274585,-0.5917133812,-15.7618096481,-0.6889129434,0.1984353693,-140.7860816588,-51.8433930088,-8.811777392,1.0216533332,-17.933269242,0.8561185962,-17.8245136937,-0.4406645259,0.0821960207,-609.1616255977,-0.0869771594,-58.0665645015,0.3787242257,6.7244404379,0.6128332927,-392.5040470415,-0.4158521537,-0.0627632656,-9.1934978677,-0.1075209243,-0.5943311167,-293.1225128091,0.4116366272,3.2439387739,-0.0193102528,0.0286456884,-220.1878014035,-0.0494001455,-1.0743940931,-140.7156497227,-59.3040083635,-185.7054680354,0.5668960692,-344.5109728779,2.5622890415,-1.3706479333,0.2496424205,-0.2020513312,-132.2251312778,-0.6034270762,-33.5044036554,-199.5919708958,-1.5352044157,-202.4244666948,-75.4447651846,0.6228296708,-1.3783500282,-391.1755468386,-0.0313207963,0.3136062491,-25.10249546,-302.6812610134,-506.6215375048,-443.1627318881,3.4035838288,-112.0033163738,0.7428778773,0.6322756437,-575.4188063122,0.4913622007,-10.2593938081,-4.9809354333,-346.7025780195,-0.1739428719,-1.1084975044,-199.4341233989,-193.4770397704,-411.676327075,-4.292016842,-230.4101304352,-318.4436277003,-76.4751273048,-4.8223214143,0.5908700356,-735.8625126893,0.2537906322,-585.8046384372,0.0768502229,-69.1262894507,-12.7689365459,-225.1722516534,-8.4888887709,-0.4055851355,-0.1963262355,0.0873295216,0.3890881967,-4.1940676857,-237.0641967026,-0.3378390337,-0.6657277794,-279.249601341,-426.920689401,1.6693112833,-634.0986019199,-21.3596898588,-18.8348153249,0.8067566802,0.5697657043,0.6899893379,-323.2234481175,1.2988905338,-14.8133274027,-24.2438288786,-0.1049335833,0.5317272237,-17.7617832073,0.3532711851,-1.7640831442,0.0348284181,0.1519714903,-319.8185033486,0.4538923887,-26.7314104349,-3.4204918985,-0.5679248431,-333.0625144034,-237.8870443233,0.0027677568,0.5692457136,-0.1908155787,0.3702916708,-0.0436137316,-625.0851596779,-0.3097982034,2.2271851756,0.7968173128,0.4214453007,-204.6804709504,0.4804707297,-10.8077436643,-244.5956086786,-0.9945943833,-0.2596357817,-7.4746799596,-415.1275551571,-0.7340898015,-64.1444520724,-0.7628365676,-0.7199637352,-184.2800383612,-715.1000011436,-0.2604702161,-41.5111880427,0.381413306,-157.8413176886,-0.4130983875,-50.5766249321,0.2956443695,0.5448361363,-64.3252158794,0.8028676163,0.9046968506,-699.1879723611,-785.2506226235,-1.2339443625,-0.4253976265,-0.0981906198,-4.3707912847,-19.3732370544,0.7515040838,-810.8709361892,-14.0293934031,0.6796359366,-188.4375000726,-90.7030206715,-84.6219713223,-255.1066615297,-220.1244509003,-683.8454208942,-8.9388039932,-400.5976280327,0.3431784872,-0.5900459978,-100.0920809174,0.1154539382,0.6224130869,-0.1592515285,0.7419165105,-9.8257373624,0.9096803751,-0.2625324656,-489.6029768101,-236.059109454,-33.1691967323,1.2077692077,0.5377026512,-0.8437124023,-0.8951310823,0.7673097774,-1.4600206177,-0.5115677938,-4.7440546592,-0.5617345531,-64.4085688771,0.9477760787,-2.5038540869,-20.7229384745,-1.2288210939,-152.9669186399,0.9262901837,-0.4982050699,-3.0787128296,-522.079666084,-0.3426408715,0.1732953722,-810.5709096731,-1.3885504923,0.1034637954,-375.0608469344,-15.7519176524,-609.9391774779,-251.2443615513,0.1412739303,-36.618097882,-216.4670948277,-1.0794392886,-0.5256340471,-0.2442954533,-16.4845523947,-0.7132738061,0.1294657888,0.6489892126,-403.7039360007,-255.1017119489,-0.0843056317,-0.7435349419,-107.3120350831,-463.0107742182,-0.1079579101,0.0448451272,-71.2926399588,-225.0721593059,-0.9389916021,-0.427086192,-7.445861292,-363.4411778946,0.245119565,-33.7137049169,-0.3100833229,-0.7845464849,0.4501140374,-0.3031867347,0.228323371,0.3994845843,-181.6495882807,-153.367082718,0.5094451333,-50.2807209144,-0.5993272122,1.2510295969,0.7796977263,-0.4228167069,-91.5280209646,-423.8137825773,-681.7219056519,-562.7468907307,-0.4308052749,-241.6197630713,-0.2210251466,1.271668765,-709.7909055009,1.0007255305,-10.6162906927,0.9782273915,-111.615130384,-78.5213749204,-101.3961324103,-335.6145978032,-226.2832085948,-474.3127423621,-23.617778003,-2.2662475404,-286.4181943745,-242.3912006309,-0.6694584025,0.0362585488,-0.3903622453,-136.0284140849,-659.7519116048,-0.0294267902,0.5990499066,-1.3324486871,-375.8489597059,-0.3270554027,0.9890264863,-0.4152577306,0.8786778168,-51.8918447745,-0.0014844196,0.3933238845,-0.646538961,-322.5740167361,-345.0018243744,0.142628407,0.1527068476,-3.8267587399,-43.850047477,-13.9443720981,-8.8940987066,-143.2809029224,-0.2378567063,0.8764507298,0.3194253876,-275.8059186742,-302.4964428715,-0.7517074408,-0.5367030588,-0.8273799623,-7.4779297624,-311.1755209465,-209.1368824966,-644.2061181767,-295.4336619126,-0.5687007019,-27.3072589248,-0.0812675523,0.712499045,-104.7295755774,-305.1654064552,0.121917999,-1.2666154137,1.0227972405,0.3902168293,0.1747174958,-566.9454852564,-0.3327978847,-0.5940477793,-16.2488868451,-760.2745885086,-14.8367461747,0.463056606,-32.7845666712,-219.4926043017,-0.2902829593,0.7593487943,-6.7789142164,-107.3283850795,0.4385638454,-0.7667731806,-0.4985650057,-0.5906122266,-81.4052408875,-756.9452627766,0.1848733229,-70.6371075094,-3.0764726521,-179.7328923941,-258.4743714598,-22.8864988676,0.0239834839,1.0617423165,-12.4986027724,-0.7437562729,2.9666597958,-384.3818899062,-420.071133805,-362.1550280318,-1.5152445367,-214.1704517062,-1.8780712767,-0.8330493925,-4.7256285493,-806.2051837604,-6.2061919738,-11.7578165469,0.0960223724,-18.2556696675,-0.3729980163,-200.8637954717,-16.9905779791,-267.9147175376,-248.1933334169,-251.2377202997,0.7918704639,-6.6602571658,-33.9341769974,-0.5625270027,1.4432092853,1.1518675476,-0.7094762994,-2.6244415462,1.3914537904,-1.8773022971,-168.1517200901,-798.6875164314,-0.0956495979,-0.1190783826,-0.9291417917,0.2818382375,0.2017410049,0.6960352751,-221.1385196396,1.026540743,-8.8022316277,-0.1975103058,-0.2135371387,-0.0796774995,-1.0358819664,-15.9644366614,-5.2061223119,-61.8860108988,0.7130336534,0.3254235504,-0.8293098273,-252.9352285625,-184.4614810148,-0.5918923734,-19.1610714217,-0.814735712,-378.6103507136,-117.9573622896,-0.6146191665,-307.8857559754,-226.6690352837,-0.3691562741,-12.610155147,-40.2508867037,-3.437319078,-281.3297234251,-72.5657509875,-0.3297098363,-5.7249116508,0.2916887819,1.2797058125,-578.7631601306,-617.2988273403,1.1528786724,-0.8106451735,-51.2504781612,-317.160007531,-0.2988184049,-0.1721011841,-19.6501368278,-470.0098141343,-29.4058227745,-22.8115593148,-2.6245323715,1.042073971,-0.4622235474,0.3051657285,-0.8774021667,1.6589537216,-4.1701917307,-0.099729469,-32.7866052354,-559.8864340326,0.1539171001,-3.4035457685,0.2070813407,-0.7061214263,-0.1385877848,-0.1832547539,-6.4564310006,-759.3988249372,1.316581884,0.8319711686,-0.0982142696,-0.1416036627,-68.9560871858,-0.4926406099,0.9616390141,-0.7082011004,-0.3420791323,0.932727537,-0.6178564557,0.8546250394,-24.3155510595,0.1580365377,-2.3682597199,-184.3624783397,0.4152370502,0.8508007123,0.4268165399,0.0751358959,-6.2059070992,0.9122195437,-43.9328478754,0.2844798623,-5.746070107,-427.3419334742,-0.8644076382,-85.0894252779,-0.2866307342,0.6124743923,-0.6075967116,2.3216159298,-30.7713752119,-0.4565824846,-0.2839817561,-0.619432068,-0.5275873138,0.0806352123,0.6630166849,1.2663756312,0.1961896224,0.2234619512,-0.7258031658,1.715985229,-0.8850333016,-13.5857272616,0.4427406151,1.1341384554,-0.0469737839,0.4108964112,-0.6724675139,-6.4918198789,-0.2092378388,0.7134875453,-476.340695566,-15.2915465954,-0.3298003765,-6.4327587482,1.0214356375,-0.5502582144,-0.416287381,0.7786130215,-1.2891858669,0.5411981226,-227.9223240432,-0.4014621448,-0.1974657145,-0.141034782,0.0985664498,-0.0227182286,-0.6510474259,-0.7091263392,0.263253491,-26.9665084984,-0.3942982648,0.2666951278,2.8520628763,-0.368343962,0.7493187853,-156.0301541266,-96.0722860959,-0.4078284352,0.5752597009,0.0141692138,0.9876042436,-50.3095002488,0.5159726402,-1.998477808,-0.8110549256,-194.3489493926,-109.2416203761,-75.9968862079,-435.44114561,0.4697428774,-3.8056338362,-735.8933206393,-0.0980214102,1.3181105997,-0.6815547131,-2.6759777484,-1.077789448,-6.0974195389,-0.0523915325,-27.9906002754,-492.7313121597,-259.5637580222,-206.7399969835,-198.3959716595,-0.2631425571,1.7447998778,0.142950448,-0.4340010644,-120.8550843062,0.3816021562,-1.9665319445,0.248211813,-603.332127412,-346.4745076455,0.3627891512,-16.3803904702,-1.2803314539,-0.5448198602,-15.7371787426,-0.5568533148,-43.5449928629,0.2691558912,0.9320370602,-78.0224631547,-0.4800597653,0.2968645132,0.1322366806,0.3004887131,0.6548568186,1.2022842153,0.5174806783,-0.3219605465,-1.7505919527,0.2416684857,-760.8521861024,-0.6404633011,0.5511513633,1.4155489255,-0.0128651498,-3.1965657272,0.0392199241,-2.8042335935,-17.8181494686,0.8177856098,-313.2016681731,0.2378766959,-9.6155541008,0.4941286743,-52.9770719214,2.3325330327,0.7121038971,-575.900986608,-0.5268575628,24.994986125,-1.1313838077,0.583837208,-0.511323195,-0.1883989967,-1.7397328857,0.1361983198,0.0510363013,-1.1447733573,1.0053356196,-1.3051333901,-401.8449661718,-0.4418930167,-68.8496007656,-72.5614335894,-1.0390671088,1.0293822085,-0.2420244184,0.0180313275,0.7811205098,-0.7780567793,-48.9037229478,-0.1634273923,-276.2766347456,-354.2949835049,-5.8817549727,0.2148327052,-0.8101095474,0.6425667318,-1.1051093813,-0.0817285644,0.1079463718,-0.756015777,-3.9920952555,0.343494369,-6.5585154667,0.8262922557,-0.2157811463,-3.9170661107,1.2006748796,-0.1344347314,0.0335908411,-0.7580810997,-126.8274141076,-760.4307524792,-0.37091779,0.5451101534,-478.6936435256,0.9974937633,-0.4189782004,0.304678929,-0.2530424307,0.3882193555,0.9831578409,0.553812661,-0.9519443419,0.6167614345,-0.2077204265,-0.6582513677,0.8261787606,-2.1458601647,-0.027366979,0.804541418,4.5926523606,0.5471842194,0.692145659,1.6519895308,-4.9535744861,0.8835328107,-0.9598065655,-30.3683196472,-0.2861562229,-14.6141996688,-0.6785753213,0.9836895495,-0.0471307025,-0.5228897771,-39.3374487482,-24.4977402201,0.5045399941,0.3338134042,0.9655531883,-0.14846934,0.8932385884,-0.3092340605,0.8693156426,1.3420313998,-0.3819016746,-0.3672923216,-0.7572524201,-0.3435318313,0.0418214979,0.4598645656,-0.9713698643,0.3096676112,-0.5147969524,-506.2536205,-0.8639380095,-0.4745339837,-592.9862231375,0.0039242582,-0.2443565065,0.2584075663,0.9612692328,-5.8944831628,-0.6472408917,0.5570203861,0.2583356587,0.1154254341,-14.5008569236,0.5819918383,-0.6816116072,-0.7311491184,-7.9315856479,-28.3734735753,-33.5110045548,-2.2266777407,-0.6018455493,-1.9674895135,0.7761548385,-0.0298125378,0.4757805571,-11.1612008664,0.3084733593,-0.1578011947,-251.7593615912,-0.8185023924,-18.6797075154,-0.1252581185,-3.1050897479,-1.2732993158,0.5403696029,0.1057790544,1.0265144847,-0.3451255981,-83.6669866243,-6.7517718483,-0.4749129966,-256.0900602879,-107.9488241472,-10.5142792605,0.9702109792,-0.5653138469,-0.6231188519,0.6325799685,-15.3090120846,-36.4701298937,-175.375177461,-465.8088446834,-308.0429495595,0.5019379715,-111.2802515178,0.3936294924,0.1459889666,-579.3218135885,-5.5224632401,-8.6550031352,-0.4101703975,-309.2349812813,-0.509146554,-1.3871248215,-106.2744954795,-320.461373279,-312.6485198404,-9.7602578085,3.3458268311,-160.0772503784,-225.4212052163,-1.1496031146,0.7782958561,-809.4584475662,1.2721289261,-584.323096497,-0.838676645,-44.6318105668,-38.2956157649,-149.020844964,0.6622102597,0.3845599454,-229.128886056,-0.0823244565,0.8719863863,-0.3564085961,-511.8289124471,-0.5416023232,0.4238571446,-279.8710827462,-0.5081155115,1.1927505167,-627.6082579479,-18.6342777539,-14.8077709033,0.461432616,0.9924585843,-7.9301468696,-292.7203321561,0.7961485607,-1.6346001233,-7.5668607826,-4.1616983154,1.0987203741,-21.4857821511,-19.624133766,-18.9155770184,0.8614429791,0.881297892,-269.0312063234,-0.5500976456,-14.4408566292,-1.0829888405,0.1719963144,-259.5822030259,-196.578334193,-0.539524077,0.842455865,0.4582685397,-809.9180353942,-0.176677493,-424.8056342361,1.5324762342,0.3805576836,-0.3425620458,0.0229207006,-296.7147032472,0.7230447607,0.6709282977,0.2579686966,-0.0529933768,1.0632841596,-0.0074035881,-325.7759772112,0.562327133,-15.1161951418,-9.938805246,-25.2455468317,-30.5473011944,-332.1808472317,-252.3875979314,-49.7958075634,-212.1702126136,-34.9632464452,-473.9131895117,0.9194691134,-0.0714686874,-330.944638575,-7.583847632,-136.4730540183,0.1132816709,-298.2298892004,-351.4422150946,0.2403395095,-213.2202740038,-225.7484775155,-20.952908245,-0.075148936,0.784999457,-645.9525671869,-3.4516894476,0.5434335387,0.5423216782,0.7976987419,0.3189061823,11.2986313528,-251.9402477651,-397.4660678125,-2.1103859749,-6.5563352802,-102.1314873305,-589.5918595827,-0.221056342,-10.2967564941,-2.4964293262,-630.457367957,-0.7311940417,-7.7183860369,-62.9871793266,0.4095511462,-198.1720227885,-559.3708360308,-51.3120107142,-2.4243139846,0.6842862915,-20.365458038,-275.0745178324,-382.8501165319,0.5750756795,-188.7144000829,-0.9308436554,0.9988372396,-278.8148821769,-0.2629713389,-0.2517129735,0.6676054744,-1.6455117747,-179.2339335896,-469.0355320652,1.0688903772,-15.6124171509,-35.742571924,-309.0858075156,-4.6052889218,-255.2362481731,-19.7197574718,0.1098929746,-0.7153987977,0.3335726037,14.0198987496,-8.142069258,-30.3294526255,-15.5385011628,-3.0380715987,-50.1368527714,-4.0493205901,-315.9072782821,-16.3011136034,-344.1335174431,0.4817279893,-0.3787728057,1.026989489,0.1547709854,-494.7411680738,-20.1083674271,-45.7642200373,0.3926493322,-258.9790534293,-0.3572572064,-1.2218849282,-13.3312411815,0.1747152014,0.4967338329,0.8710782616,0.8349508945,-0.3531019297,-34.5171647725,0.4008863464,0.3914874638,-0.4365552982,-0.6206439941,-5.3378874534,-0.8021395073,0.3785210191,-217.665275049,0.0300117302,0.2850665468,-0.3393462379,-0.9025443414,-6.6431637758,-184.2307745235,0.7874336255,0.4392651549,-741.7572780576,0.0876104392,3.7556467646,-0.6847691766,-0.7330707822,-0.3652811383,-34.3756671018,-0.4482312938,-2.0535982956,-0.2453950498,0.162182239,-0.5928009074,-7.587471403,0.8782133289,-243.0530018811,-759.740505515,0.6333915865,-3.5653497671,-0.6495484999,-0.1641309998,-146.6509340121,-1.1730358762,-7.8090784768,-0.2774951327,-12.2689032229,-8.2961342641,-40.1978094127,-325.3906599365,0.0198432645,1.1007425904,-0.0376044203,-0.5114652218,0.3327364887,-0.6175654857,-1.6756976238,0.0620411989,-0.3573727524,-7.1783188346,-760.578500756,-0.3835230183,0.5216586253,0.4932313733,-0.2919058239,-23.7964986651,-0.3433038121,-0.5105640859,0.5632469311,-0.5791288184,0.2321533014,-41.9550213715,0.2507342449,-8.4226625943,-1.4329238907,-81.8688762498,-0.4643561058,-0.041698627,-6.0560505925,1.118221108,-191.2259767476,-0.5290708461,-4.9228532418,-59.5347794518,-249.0492923502,0.3588102261,0.2607469057,-0.4160690941,-7.6093164231,-0.2304388135,-648.9267118716,0.6798299858,0.1610409385,1.1219677903,1.9982844875,-0.5053994374,0.652204543,-466.4681236892,0.9968885022,-0.8810176637,-759.7607170789,0.1629905592,0.769398741,-22.7356642133,-2.6112915698,0.8353931077,-98.3859446247,-0.3050920859,-26.6508258669,-7.9883491161,-0.2103309967,-665.4736532869,-510.6566495359,-686.0217049796,-222.2246033044,-0.5805788029,0.0347319699,-15.9011213756,0.617524668,-38.0855180231,-0.8754998787,-5.8352288869,-635.9693221771,0.7254769099,0.9294081992,0.7191967667,0.1570347992,-147.0642413437,-1.014957575,-0.7899217971,-7.4091503221,-64.5078324665,0.8916787979,-1.0440924897,0.5097916518,-362.2382623564,-305.4378825513,-709.0453466904,-242.4003744378,-1.7487864275,-0.2133419499,-7.2647198367,-0.1060825275,-0.8365348498,-73.5253325492,-230.9186165765,0.602622629,0.6062120986,-42.8150709933,-75.8990939764,-64.9848412137,-0.5450557126,0.9099090797,-9.3569525027,0.0560649778,-0.149282431,-205.8040981165,-60.0725507684,-0.0147239785,0.6935302715,-2.9393026901,-235.1753705307,0.6466909842,0.5907533515,0.6715507135,-0.7912769152,-259.4775148,0.4068487354,-0.4601566818,-0.1577211817,0.0012589564,0.7314722699,-613.3174737085,-2.9561181782,-5.8256517276,-760.7675560754,-67.1772711412,-0.8363307218,-453.1849377543,-0.6952831252,-0.7396602,-3.3486715524,0.776388245,-82.9989774073,-285.5736001769,0.4074917278,0.0726623153,-9.5517038962,-297.5637941857,0.6027564624,-2.5189592749,-0.8300804248,0.1507884216,0.0148813589,0.7315572388,-0.1933005216,-0.3827624222,-3.9592304607,-659.4287510802,0.0305025704,-32.7876564941,-492.4688872561,0.2133551315,-1.072412732,-2.2805350558,1.6480410298,0.1093825887,-234.6475006451,-5.4232204916,0.1092168363,0.5164557968,0.8389547184,-370.5412540929,-1.3066492213,0.9824294368,-0.7510274626,0.8761445816,-3.8072890753,0.8347748177,-0.6954722127,-49.0211926196,-709.8468195148,-22.2022142152,-408.2616024539,0.7351334267,-0.5544092096,-430.8948501809,-1.0446976077,-26.6521931066,-1.1244360482,0.4151035997,0.051663592,-0.4149896618,-0.1119035987,0.5880491916,-0.6944390687,-20.5082164265,-248.4053269859,-3.320519834,-0.7741168366,0.4308659546,0.4400422049,-0.3667651261,-0.1404281772,-156.7758378125,0.3913770572,-0.5051649214,-810.2005527728,-8.1634301937,-13.9737706205,-2.5598761436,-8.1748251648,-0.6070883606,0.4012719795,-29.2808517497,0.2665986817,-0.0489312015,-0.1039969509,0.5928979964,0.7992165736,0.9477933554,0.7872625546,0.2878364159,0.6493822848,0.8211292935,-0.2401476659,0.6204714482,0.490730099,-0.3353759197,-0.1870397925,-0.7716358608,-0.4365508257,-0.4945867305,-353.2017377525,0.8998700488,0.2427546588,-435.4062777436,-0.8182434071,0.240614879,-0.8621374493,-9.9620481354,-265.5014026706,-235.3269249697,-25.9432353548,-384.2688929342,-0.8583288025,-1.0825931581,0.7105171634,0.08843633,-134.4226210233,-0.2032913611,-0.6524371525,-0.0929222624,-202.9323113954,0.5286374169,0.8975064404,-0.1774446371,-0.6158180613,-0.3575224241,-0.1118097046,1.031008286,-75.603243684,-310.5864086519,-0.3956227331,2.0586916792,-2.9098783322,-0.6880227066,0.7938904117,0.1960683531,-1.5456991612,0.3072830251,-0.2813375044,0.0084060933,-658.8461085062,0.5269182816,9.6029059266,0.4261618328,-566.9050281663,-0.7778010825,0.1073641894,-0.2019085559,-0.8616320294,-1.7007566646,-0.9455060168,0.4524761912,-14.6414954634,-25.4401845067,-11.8594476846,-0.571833666,0.2468415819,-3.4645633814,-3.1966137739,-0.5382582619,0.323671943,0.8359066516,0.6400592364,0.8828247841,0.0750441555,0.1074765529,0.8450009042,-0.5852229614,-0.185491083,-0.5167888529,-46.8785304318,1.4481875757,-0.655243725,-176.2969768348,-11.6089921938,1.177690357,-0.6638311093,-7.2989848271,0.1293717546,1.0177876303,0.4930550924,-0.2951159983,0.7762676514,-0.4173386486,-0.3467685362,-1.0207636977,0.5257731534,-5.5543831252,-557.7577502449,0.06021105,0.4503359467,-0.4680002741,-345.7423890471,0.9701762426,-0.3987674005,0.0123184691,0.3953969039,-0.4670088662,-182.5814735332,-0.2152912598,-5.2149596248,-358.9207756237,-0.4525974053,1.8840052754,-710.7638751692,2.8950881472,-0.4248024974,0.6025928556,0.5612085707,-0.0484407407,0.6048399323,-0.0716074757,0.0576243662,0.1199829639,-0.067521609,-0.1615008937,0.8783461693,-85.5489098013,-0.7718063934,-0.373538295,1.0092913783,0.9069127018,-8.0764025582,-746.684912215,-38.4817929003,0.8804122551,0.809196801,-0.9147721858,0.6795320041,-0.1715681935,-365.3473499644,-0.3167713587,1.0600738386,-1.0575088062,0.7493774114,0.8614836386,0.1290495051,-3.5893260528,1.2974062876,-0.5560783824,-0.3913819508,-710.205597318,0.4368748731,0.4484766946,-0.5253242069,0.0787117684,-0.0749930091,1.1156861548,0.1698883796,0.67319275,-0.5265999018,-6.7048996005,1.1826687121,-742.7793685115,-36.4025918169,0.9051989577,0.8550850502,-0.5736567165,-1.9060488703,0.726467204,0.4795053102,0.7944616536,-0.6172852434,-0.4151534732,0.4803070888,-0.171985607,0.2060681192,1.182374037,0.0676891675,-0.4286329966,-0.5824156369,0.050352358,0.2981387498,-283.5212427175,-74.471440305,-29.8450664381,-2.0686299908,-0.4052313335,-38.2022291863,-0.6121979015,0.5511093002,0.5103946238,0.0950615909,0.1766347656,-12.1065768058,0.5096490006,-1.5648520201,0.1281333279,-1.739887077,-0.1251997131,-0.3659257978,-0.0051773107,0.8945670265,-9.441701299,-0.6947937074,-0.2773377407,0.767039206,-0.602446977,-3.4456667182,-603.7949458815,0.0998228648,-8.2626868803,-477.4351190054,-0.4715336669,-0.5925668479,-676.3839009742,1.9324812419,-0.3186882425,-0.6159388804,1.0867029583,-0.2701506053,0.7126436752,-0.7208983451,0.5934345452,0.5207505558,-74.1165361004,0.9406753207,2.7524444324,-4.7035293414,-0.6364378918,-0.3302172909,-3.17909532,1.6268505973,0.9839035432,-648.0681172777,-2.2836995507,-0.5392939832,-0.1141472206,-0.6440726578,0.5242249589,2.0208329867,-258.8391735366,0.8014617046,0.6369824043,2.5586981103,-9.2243699185,0.5912302441,-35.4563924195,-0.7737827205,0.2805643063,0.9892373476,0.7352699856,-717.0726475678,-459.9652368305,0.8047382985,1.3020474793,0.0587354115,0.9412760165,-2.0665712391,0.3781443914,-5.9045216194,-760.0040730326,-0.1249520872,-427.2648122844,0.5525215703,0.3290981558,-421.5886439805,0.5903797303,-30.895986934,-10.2161216217,0.9628581216,-0.3740437111,-0.1831636905,0.0291633064,0.1674869054,-3.1211023665,-16.8663995275,-20.2107718895,-781.4023597568,0.1173669057,-0.8717205587,0.2821905012,-0.8931795217,0.4794355948,-0.3423020077,-10.1305848412,0.8317712526,-6.9350927737,0.9475591138,0.118546277,-45.0142444266,0.5075044623,0.3698254194,-0.0750366406,-14.5260348831,-0.7988904423,0.5593495955,-105.500193751,-546.2115111133,-0.1562635075,-0.7854235542,-138.1807472418,-613.6667244162,0.6718685032,-38.5492651817,0.2753457707,0.3131234498,-7.4099134525,0.0725304592,-6.378207347,-501.3743291256,0.9945574802,-1.4889289734,-0.9635731964,0.7750819682,0.1177723771,-418.1066871976,-12.8100348921,0.0287760755,-112.5668270297,-159.3257882724,0.5773547337,-618.0762946972,-4.3908772811,-9.992481793,1.0441081884,-135.2166402195,-0.8001618872,-0.0623120902,-3.1385519148,-458.319466277,-347.269270262,0.7339307539,1.0075493808,0.8358460428,-0.0182526725,-12.109843526,-110.3806973739,-0.3089623255,-1.8697816863,-0.471928041,-60.6295333635,13.139194929,-0.8163104561,-23.4496411662,-0.8231821023,-133.1210197583,-699.7536719719,-0.2443554968,-0.1220411725,-3.6701277209,-60.9678701719,-0.177767986,-378.3315203609,-69.7523157837,-529.4681307388,-0.5099970901,-34.759153951,0.5943373127,1.7517262402,-12.6834750653,0.5195842546,-758.4241693431,-54.3558861277,-456.5562936617,-1.7401457177,0.444065466,-266.126940612,1.3556535279,0.3985103436,0.0824209185,-0.3087969872,0.5854148211,-0.2821486161,0.9285583743,-318.8000679502,-39.3938666245,-98.1593159015,0.2861920077,-137.8893319974,-3.9845996349,-24.8221911115,-0.8233752654,-0.7185967638,-409.4811081734,-233.5575796326,-1.8276085265,0.310420422,2.4868065599,3.1117823301,-8.5884816934,-37.0133682346,-463.0068716934,-344.1741904565,1.1051341918,-142.3384622014,3.4374446112,-15.8905758039,-25.6832258134,-1.188936901,-182.9411544072,-23.1296443245,-379.7047312606,1.1968483666,-542.058549935,0.4374597142,-1.9882552811,-23.2378133743,-55.8887249246,0.1306612364,0.622046467,0.0834285706,-424.1840954562,-17.0065310533,0.6938428011,-25.2930930944,-13.9505809378,-25.8278367465,-22.1302601983,-209.6875918243,-246.3807054838,-235.9745385981,-579.8401937314,0.9270987871,1.0090309664,-28.0483664476,-273.9396016588,-230.9997765291,-2.8682755705,-332.9534489785,-1.4360201969,1.540232018,-0.1253469215,-6.7514194669,-0.3924468991,-0.4903548332,69.7320395703,-9.5543753096,0.9682293524,-663.8377326703,-36.043535527,0.2753136569,-1.0774711868,-357.812089734,0.8590037639,0.7861383573,-0.4691312712,0.3522057942,-604.347945862,-327.8812128404,-5.5538960355,0.6466047994,-0.4325157679,0.698585167,-459.8675654952,0.3342469037,0.5645665728,-0.1526038602,-0.0361311698,0.6502522491,-0.9760205516,-1.0156005894,-0.5529448645,-339.1942721813,-0.2729100503,0.0501328581,-10.5521150265,-1.0306995016,-0.1766175907,0.9810937733,-10.404239431,-0.8228493482,0.2905826118,0.5455745339,0.7473889771,0.7980922245,-0.4858195592,0.3018967322,-275.4734317244,-177.6570867338,-0.0348329842,0.9600495834,0.4391116346,-0.4747891342,-0.3228848809,-0.1877839873,-10.2705700226,-0.4863230464,1.8260236048,-810.3390277597,-0.5770374347,-17.1046237232,-0.9733163476,-0.3455850012,0.9649241338,-0.4289347491,0.9278545061,-0.3070175536,-0.8286701817,-2.1960282586,0.6834699909,0.1351908691,-0.2636541977,-0.769729603,-0.0449663958,1.15356675,-0.545721046,-0.4113801247,0.6450715344,1.4843958818,-0.5310848259,-0.0591398158,-0.2413710725,-0.0650117693,-0.5829462099,-175.8473403059,1.068223527,-0.4671709374,-796.1775475605,0.6097180683,0.651397612,0.2506250634,0.8262192856,-100.5991956148,-0.2388048338,-0.1059286846,-35.0531107419,-0.8385152745,-0.701206225,0.3757667327,0.3121130723,-77.8956698452,-0.4294203506,0.4701867341,0.0856985123,-1.0516832164,1.7778584475,0.2389114831,0.6350053992,-0.1634456803,0.8124737178,-0.7270345087,0.1158970138,0.9401030172,-48.2989468271,0.7405298366,-445.7944588551,-0.8662471697,-255.0719101062,-1.9768049049,-51.8174008102,0.6893175854,-0.4749140267,-133.0465291102,-161.1847595302,-32.8171451555,-48.2798737734,-16.1115519812,-86.8903338497,-97.0623811392,1.095732982,-1.7156622414,-649.397717619,0.7728294791,-0.1389900854,-17.7658052305,-184.8221489154,-431.6150570299,-278.7600293686,1.7026893109,-77.1986508213,1.7068747005,1.1469580447,-458.6027573915,-207.3370421221,-8.7715061835,-0.7903948888,-274.8242610281,-0.023457814,-1.0543870871,1.105358107,-287.8280395929,-328.7889508805,-1.5884050809,0.6529229309,-255.7967142398,-44.2627115498,-0.4090684137,-0.8849130629,-809.1044984013,0.0627796651,-545.287429782,0.8078536573,-37.6885258734,-6.276463332,-135.6654425095,-0.5504512878,0.4427161804,-303.9951090422,0.3651306709,-23.6407261416,-4.9367829659,-410.4065637894,-0.0385113369,0.6444080706,-249.598011177,0.2317776848,0.989101039,-427.3176411016,-19.1079441027,-25.5423178764,0.4502650369,0.7806652814,-1.1072867092,-188.2459820561,0.4169200021,-2.8678942342,-304.0661996136,-9.7901910968,1.7034165563,-17.2447976683,0.9880960833,-1.4549058923,1.004226452,5.0207644202,-253.7965921071,0.1967256614,-18.7698226169,-3.0852875268,-1.2998040076,-81.536512833,-155.2000191703,0.1844210232,1.7295415824,-5.8913937651,-749.2735350084,0.480430818,-488.5301105232,0.9448669561,1.319526809,0.390330638,0.816469504,-292.4228346636,-0.1281033756,-0.8576584648,-16.5507188104,-0.9936405513,0.2879940017,-0.3017544566,-312.5143086742,1.3811863435,-0.2114792822,-0.1397907546,-0.784006363,-260.1949141813,-496.3233730377,-713.6075767662,-120.0659980931,-0.1387225034,42.6218285132,-0.0996085631,-0.6324095127,0.7957354731,-458.8391560802,-9.4150340564,-604.8441739889,-0.5766125323,-112.789574438,1.9124848544,-637.3667661459,0.161350765,0.3523691687,0.7351354503,1.4084897514,-9.2722281254,-807.4143023974,-21.3087708001,-0.636897834,-409.0849010767,0.0059461399,-0.1001559055,-513.7327942375,-200.694645284,-457.9060371981,0.7013163333,1.1553959938,-250.5180312356,-583.382558939,-147.8382405852,-134.0061780925,0.6356521881,-0.8549549144,-222.2707731415,-6.9787526244,-51.1342571979,-359.0070141303,-254.7713083832,0.0680638225,-4.3483936068,-2.529366576,-0.9470865049,-16.2631078427,-311.7175696526,-524.8332517807,-180.0010370009,-3.2265856171,-334.0692702635,-533.2367834461,-453.063142453,0.5613595702,-0.7754758047,-0.3561592602,0.9112441164,0.900924758,0.6598106558,-5.945572307,-0.6573218285,-249.5328395228,-190.6744172331,-6.0981518652,-636.3638666357,-6.8026426299,-259.6341938935,-16.3004795972,0.4119601978,0.8068156246,-101.3377829314,0.8280214796,-0.2831998895,-464.5008051606,-230.1130430424,-336.8153883918,-1.5322815218,-197.2620445033,-196.6418718556,-28.6499449385,3.0157213917,-0.5331040558,0.6984251866,-342.9644936179,1.7345599443,-158.3212250621,-0.1665371162,-296.8041776515,-0.8368499705,-0.8553577193,-334.3692381071,-6.0312574459,-258.9905677499,0.6599118316,-399.4173613376,-1.5578268011,-4.796625507,-0.9150805661,-0.1361393433,-292.2652450653,-40.0885621298,-308.6272905348,-333.3895181939,-1.5851280114,-108.0931311625,-29.360719768,-1.0530946236,-63.0961061834,-0.2456628583,-1.1032006338,0.2337503945,-5.1034389172,-610.0952551168,-312.66941514,-678.2977882779,0.3955965571,-297.4958653197,-0.5926830921,-0.4670309656,-274.5200828562,0.4505088288,-8.4275941158,-0.3371634793,-5.9140075637,-6.3457518472,0.0140216551,-86.900320924,-508.8868035588,-660.8833847347,-180.771189105,-4.1663773293,-48.4925955706,-216.6249962324,-184.1750805608,0.2230899365,-741.3786124163,3.1233392637,-497.6365332976,-0.9080003157,-142.1906847178,-2.0412323551,-450.029749738,-8.5355695984,-0.328079717,0.1288513744
   -0.5472693005,0.7906383853,-0.8885843268,-0.4594445439,0.9616772249,0.8839508812,-21.2913330549,1.5971660744,0.4207221197,-759.995851253,-58.1857068209,-6.1810206043,-0.1557642663,1.1996105532,-1.5684515617,-40.6369014459,0.948542526,-1.1053197152,-4.3153493491,-0.6701895988,-0.8565025266,-56.0312872345,0.0772568568,-73.6704224203,-0.8164117052,2.1246102127,-404.8117058342,0.7129336852,-111.0028454909,-0.08827275,-0.3153723027,-182.8713436149,-301.9570416529,-0.1108915341,-0.2928454258,-0.0380761442,-1.0330520213,1.2437439729,-111.5605201518,-0.3528468398,0.237803681,-0.7989595947,0.8928998512,-498.0569775287,1.2295674625,-281.3008041589,-442.5600385908,-42.493131321,1.0824005405,-0.4982592033,0.4183327153,-0.378899656,-5.4056299632,-11.8557063973,-37.9699764673,0.5365590759,-0.7345946308,0.7458521421,0.9066757314,0.6267230925,-0.5736141839,-1.107884419,-1.3665063184,-1.951292938,-0.1998782935,0.4643902285,0.2263789988,-10.7331422039,0.9770575498,-810.6902939343,-0.3246163295,-0.192025453,0.5453016444,-0.6951386689,0.1075877326,0.3485463101,0.0224594978,-8.2251426663,-0.9598371414,0.7555051835,0.271766528,-710.1254219777,-1.3025086829,-0.2750783718,-0.3900539766,0.7110809397,-0.6694359795,-1.0793063374,-0.1894240962,-9.8558501099,0.6608284376,0.7053057169,-0.5797463365,-0.1378192121,-252.4410372726,-1.9562785023,0.1414850626,0.2699794485,0.5893548578,0.1414704308,-0.8849533189,0.1029520302,-2.1029979429,-0.6118372201,1.2235005029,-0.1402880433,0.8563824945,0.7836702938,0.3187186508,-269.6953641013,0.5095377851,0.5456902052,0.9415998994,0.7161601009,-272.3474100753,-0.4279665235,-0.5163370222,0.2224645554,-576.6215902231,0.7450450232,2.6646943469,-809.5843767978,-0.7714865422,0.0269121169,-0.0939507946,-0.1028167666,-426.3949074522,0.8707069584,-280.4549178214,0.8616120484,-5.3578474781,-265.3418217916,-0.6788659827,0.3946394678,-16.0677111042,0.8682935368,0.036721527,-0.0975437372,0.0737351704,-0.01721758,0.5946501691,0.0521099505,-0.6732686419,-0.1210940776,-0.9303423111,0.8806680223,-286.9786814114,-810.5265636975,-6.0008584778,0.0063996012,0.246819405,-0.6839433031,0.2915563944,-213.9800876671,-1.1716358921,1.6312174055,-0.1708454542,-0.4083947123,-741.1219135428,-0.517529428,-0.309034427,0.3356089967,0.2568929325,-0.6055921785,-0.2046536149,-0.6892715242,-43.9458905436,-54.7431229741,-44.9386769135,-7.7527775005,0.7036245304,0.7555939019,-0.7138948712,0.5441398429,-178.3801840816,-36.5803543913,1.5438045901,0.7524839199,0.5957424978,-0.6834743708,0.6660597251,-47.3656922742,-302.436248487,-2.0358291911,-0.8049231485,0.8626155822,-0.443912831,-0.6838365964,-4.3490096206,2.414178501,-1.4371448492,-0.0511383554,-10.770173659,-635.6560155683,0.7788802381,-2.9913602862,-1.9200970201,0.0427556302,0.6192202853,-2.0099864847,-11.3878276437,-0.4760365776,0.7066901337,-0.9794991872,-70.5462392125,-0.8414572462,0.4675435214,2.2516550627,-198.4942039153,1.155401086,-575.7334227354,0.4870263673,-14.5779614695,-14.3728496411,-0.9721995497,-1.0539678304,0.86001749,-0.3015906214,-0.9898530206,-177.5906219783,0.0061504818,-1.1762780505,-759.0805399582,-0.1614103888,-0.2992923742,0.3481070151,-9.6732552939,0.0606193784,-166.3112478442,-2.3194494071,0.7548760694,-0.272699222,-0.0446440325,-0.0201984332,0.494652504,-0.837058626,0.2402145802,0.0271593525,-2.3589441188,0.5430457052,-1.0298789324,0.9644338991,-1.8693605873,-2.1209522936,0.9063265886,0.9024242057,-0.9132008515,-0.9658634911,-228.6402645721,-35.9723462875,0.8230682238,-1.1753113817,1.2810811336,0.0828218271,-3.1452026039,-0.3714517731,0.0290180633,-177.3527105002,-104.6588260614,-590.2090949254,-0.129920178,0.0244612804,-239.8501589085,0.7158314569,2.0608138298,-604.3742137517,-0.185461576,-0.7788008334,0.101032605,-0.5565897641,-1.198015596,-6.1400772603,-0.3653465212,-555.2018642237,0.0865152034,0.6934916402,0.533896313,-0.2400134067,-0.0754088038,-0.7565107403,-0.7757823524,0.5282376119,-1.6678473353,-165.937716955,-1.9905888057,0.6862466244,2.6126773246,-0.0378211357,0.0202635438,-124.4663284966,-31.3081589669,-0.6820673705,-0.8803840024,3.9192337866,-0.6349891509,0.7699122725,-156.4032506598,0.4808470203,0.2513071428,0.9523638524,0.8196385675,0.1935942738,0.2887724546,-0.9337023859,0.5871933723,-1.0028801358,-0.9986736932,0.6116055195,-0.0707444544,-117.2946926774,-0.7462215879,0.1422075224,0.1502403144,0.2885387206,2.6504328217,-0.2469217729,0.7924005649,-0.6088221857,-0.2898030653,-0.1548312263,-11.1796591879,0.1335668559,-0.9359744453,0.538298444,0.4082345485,-0.4567321703,-0.9078592401,0.8319166905,-665.5871563155,-0.9726228851,-89.9812950083,-120.1688096188,0.8567523261,-413.3171302753,0.415737096,1.1871701001,-0.6989228006,1.1356207991,0.7697662986,-0.9011047694,-1.2293903333,0.5830020791,0.6258019571,-5.7734029938,0.570354111,-0.3757882324,0.6133994183,-0.8047845761,-77.8246553385,-51.4512561352,0.5452085834,-607.1830820829,-19.2521663759,-0.9484642673,0.6462696777,0.7046309462,-17.9776968222,-0.2406218926,-710.4421061014,-272.1457427839,0.6493985629,-88.9463079726,0.1461600684,-21.165028174,0.8245100033,0.1149542394,0.355112747,-0.6239819788,-0.3596996186,0.7424740843,-34.1260943597,-0.976476917,-124.3234609874,-0.3217241785,3.436976828,-380.1393233896,-0.0781993418,0.501045123,1.1397512495,0.782302004,-0.726145729,0.7795035113,-148.3386322324,-0.1706145184,0.6042979509,-542.0204341881,-443.5656810179,0.2246048383,0.3571924572,0.9130927459,-24.1371999597,1.1294532195,-1.7220746842,-24.2236630337,-29.3930887602,-646.8538025071,-6.1283700053,-97.6217046675,-20.3192667314,-0.8666571049,0.3310669296,1.245653568,-3.8839201448,0.4020903236,0.6711593575,-83.4978520731,-0.3066754246,0.4683079299,0.4967435823,-59.6123537318,0.0090519072,0.9087091512,-609.8240475981,-10.4825763484,-0.6857710903,-124.2632439028,-0.2874899295,-0.9599171228,-1.0616067905,0.6093188912,-0.0123816456,-1.4486914462,0.954487209,-0.1961654109,-648.0011910428,0.911370189,0.1694079915,0.367990146,0.0849560676,0.4414132946,0.0567476874,-0.3064785444,-7.12646889,0.804238928,-693.9336250764,0.9634746176,0.3766458476,-0.2249512215,-0.1259345369,0.3843678205,-0.5956044937,-0.7406641456,-0.8269547147,0.3236035,0.366563298,-0.3299892854,0.7019082567,-2.9327071411,0.3100571619,-32.8800157427,-20.7325192748,0.1475877772,-0.2407226575,-1.2435543638,0.5055969207,-0.6866442444,0.0384174025,-5.6788580113,-0.3636587613,-0.2250682387,-17.2092288397,-534.5615058284,-199.0968265119,1.6129953664,-0.0190133406,-0.6750282956,0.6371760519,0.5502102293,0.7631016123,-36.6945009335,0.9217590864,-196.5661596687,0.0471139336,-0.306477216,-641.7595719057,-22.1663763482,-25.7017319664,-244.3038996676,-14.3917741593,0.8128828476,0.0470644162,-0.0464931213,-168.7528411344,1.028296726,0.0076118336,-0.3003190659,-352.4408198687,-6.0754789764,-0.7659134659,-0.3738512371,-0.337051533,-0.6037366463,0.0789407406,-0.656255671,-226.1312332698,0.7090535435,1.4619212742,-309.1558423833,-66.6090937151,-34.2217308395,-0.9544678634,0.1537684573,0.7900428135,0.4827812876,0.9134234663,-0.6753920451,-4.7715941999,0.6430135951,-542.4009907158,0.6166389076,0.0573107102,0.8260966269,0.8422735208,-0.5100260096,0.3962488182,-384.8469277185,-4.2969510287,-0.7910009476,-4.6668040064,-0.609483094,-1.0863455645,-0.4001592029,-287.9611126706,0.9223223603,0.1424278649,-646.9743632843,-6.5550033612,0.668740883,-0.3759035985,0.8628769233,0.4109323072,0.3059143325,0.7908493704,0.997029599,-0.9085253415,-0.561487508,1.2792566914,0.5516771741,-397.9175858819,-0.9628018589,0.4677564955,-239.5765398081,-0.512681589,1.0779177596,-0.1356238828,-0.1537695379,-0.1975723326,0.4304605823,-0.6882526067,-0.7232254285,-266.6326429226,-48.1760459305,0.9415146785,-0.048850783,0.7315417651,0.8489105979,-1.599048466,0.0113994414,-151.5688044977,-43.084825467,0.7330043136,0.7920754297,-460.9694336344,-397.8615868199,-0.6633397061,-59.4156818566,-334.7392055315,0.6365422095,-0.9649488989,-218.3850112906,-209.06835801,-4.1938021701,-2.6040446658,0.358312976,0.7024242427,-0.8787113019,-138.9169960485,-1.0302566779,-0.381267794,-8.0469095615,-10.5771256093,-0.6074917013,-1.0153054318,-20.9611786001,0.1424462711,-10.4572240266,0.9017430133,-708.92521588,0.6105770015,1.8890932372,0.614537704,1.0246595662,-21.1803815766,10.3830613916,-0.1434400316,-324.8993868622,-0.7106460507,0.1095554549,-284.9732152504,-46.8883138887,-2.1692085689,0.6057003275,-0.2533961579,26.3786544098,-0.0541453232,0.6739899035,0.7194800986,0.3426587635,-0.7337036378,-0.0143417912,0.8473308765,0.777709789,0.2630370637,-0.329566874,0.6932621139,-0.5313959302,-285.7709199956,-2.8300013709,-0.5789894611,0.3385121989,-65.7415370306,-0.7254008118,-0.9677201617,-552.3085067151,-0.1558558377,-1.0674561652,-352.2502481038,-2.6804978034,0.9649534225,-0.0524451466,-225.8542369206,2.2845574126,-298.7457492699,0.9664889621,-37.8623510231,-0.7592963162,-206.4599962781,0.0224186729,-0.2205291862,-6.0932349607,-0.9384935885,0.3401832175,-0.7757274589,0.7953024968,1.0921782759,-647.2672369709,-0.7453442577,0.5784168015,8.5905404192,-1.5058272965,0.1949162247,-0.447972503,-708.0923282522,-0.1721305955,-15.6281925822,-1.1448414064,0.5336791951,-1.988368426,-30.1038688008,0.8386381556,0.1204522313,-5.1545653838,-0.2978467225,-8.6720342153,-610.8722952293,0.337555881,-1.4083265696,0.5653305636,0.2656060136,-0.8715806122,-0.670504558,-5.6580377209,-596.7939529567,1.4261053858,-0.31266527,0.2413979482,-0.0722717518,-272.2346471706,-0.6899760489,0.2908256445,-0.6008782908,0.3606331273,-0.5243201868,0.0494924877,-0.1060474098,-0.5909024832,1.237139939,-3.7722461828,-194.2366875308,0.8018511438,-0.1616892913,0.7494865671,-0.8860461673,-0.5727595531,0.8175883076,-260.811103462,0.0687883461,-8.8811524863,-735.5926760435,-2.5247021645,-0.9685143956,-1.9873551871,-0.4027632003,0.524925532,1.0927417708,-2.2866545421,-0.17272087,0.5329391569,-0.0082329081,-0.0489441449,-0.0138414538,1.0041776379,0.7784371357,0.760076289,-0.3720412677,-0.0988319345,0.380717274,-58.4738848412,-11.6055413129,-0.3253934019,0.9509116759,0.2550946897,0.6773377071,-1.1058829671,-130.3595396042,-0.2691715207,-0.0525775822,-118.1349730579,-9.1401493955,-0.6204758606,0.1679186666,0.8290072135,-1.5063269318,-0.2122430635,-0.3293388407,-2.7652351222,-0.1392993939,-64.9930242967,-0.3565334418,0.3904549239,-2.0452034237,-0.0140159435,0.2518052016,-0.7128139869,-224.6186261652,0.2013024037,-0.3580975301,-0.3727595866,-1.5869085877,2.9343908391,0.0940673243,0.5026090241,-24.5252909068,1.4911385302,-16.0228389453,-0.6825638843,-3.8713811298,-156.8206118813,-4.7896136038,-32.863994207,-8.5089755359,-109.9845598143,-0.1604335587,-259.6396640083,-363.1991058928,-29.8411164997,-267.2111822829,-1.1303830152,-331.5891433498,1.1866224978,0.8869217267,-304.9923498941,-0.7590319578,4.4182144541,0.7445943922,-158.3282800334,0.3574470914,-453.1807612749,-386.4485692432,-143.1966021132,-48.7838183981,-10.2911176195,-424.2494848279,-719.136385081,0.4103372058,-279.995495809,-0.8277986278,-3.7859134143,-121.5402649878,-327.0849389099,-231.7074940071,-393.6664970121,-283.8516434192,1.0775059359,0.8487007396,-398.1302062563,-100.4080040102,0.963584002,-0.1910069619,-685.6151266523,10.6674261498,-6.9152423456,-12.5285056455,0.7967447178,-140.1505779781,-66.9481244466,-0.4235702001,-6.5731556487,-0.0990913558,-15.5509664615,-143.5358465336,-283.1393237007,0.4622403476,-121.6876522046,-164.2307121678,-116.436435836,-359.7926133007,0.7024152641,3.0745607188,-9.3101172122,-7.7692682311,0.4435668516,-411.1127985877,-131.3447572205,-11.7362844235,-3.2620713749,0.2311216703,-9.4130720101,-336.1935230316,-13.456291229,0.425685937,-0.617411897,-237.4959820839,0.1355820532,-1.6599018921,-0.71026839,-15.2160266682,-0.8878868452,-12.86099462,0.8578718721,-112.0708433329,-0.7599736266,-0.3454945692,0.8341571707,6.3242056575,0.0779815159,-491.452375845,-431.4646593181,-21.0393378482,-0.7400141224,0.3654307719,-291.6729613205,0.7767992359,-93.8743033848,0.5488381259,0.7611806758,-0.5197225444,-0.9125261982,0.2263798265,-24.9869202518,0.7270400835,-0.8568339207,0.509096123,-201.4547227127,0.559645258,-0.7766951987,-329.5953541976,0.6818458598,-1.6542570156,0.3420209679,0.5709740898,0.5945718175,-0.7824631354,0.6793574455,-0.6231712998,-7.5282685205,-0.3094559152,-10.86853379,0.2780603734,0.0468815193,-0.0633659749,-0.0276712245,0.2316302776,-0.2271344299,-0.3577873682,-1.3117824982,-0.3193108633,0.8601523354,-1.7201181927,1.3054901179,-9.0913685373,-0.1395862929,0.0609907959,-0.4951259221,-1.2542082574,-101.7411742254,0.9200314637,-137.7103162066,0.5811453602,-0.782196855,-736.5497752615,0.9038955609,-18.615908514,0.0958296069,-0.2009525649,-0.8550390976,-0.1951210667,-1.5189847555,-80.869679894,0.76717284,-1.0316214926,-0.3848581659,-0.619929295,-0.1955089804,-0.7771609713,0.2223465642,0.9537245023,-8.728091717,-0.6180758789,-0.238607153,-53.7405703546,0.2740259428,0.5694614592,-30.8375369364,-0.0407470889,-0.4664037161,-2.8319941574,0.9076838643,-20.852400395,-516.1289625548,1.9202443947,0.4801383867,0.23669131,-1.47178079,-617.9354712999,-0.0195393819,-33.065732455,-65.8877700027,0.5365689752,-94.7646595686,-0.6935225764,1.211418924,-0.5239015536,-0.5234136559,0.3169135914,-0.849976652,0.2637184166,-0.551127888,0.1643237356,0.1074703923,-1.270753513,0.7215291569,-0.3485067005,0.8124023737,-113.101236808,-251.1914241502,-1.3618270189,1.309271601,-7.5572962783,-0.6816394897,0.395741808,-96.4662384362,0.8720771537,0.0743779452,-1.8626568482,-1.0131515595,0.8231617926,0.1662860595,-33.1523950589,-367.0375388357,1.0477473447,-3.6895724444,-0.5437264988,0.3663324557,-1.0531973228,0.9834178072,-3.4541660622,-505.6688979152,-719.9200428212,-595.7342466335,0.7160768986,-495.2548166385,-0.3234891516,0.3343638783,-686.0020163318,-0.1077357061,0.2890084383,-0.3446473695,-0.5937581458,-41.9264866541,-1.0484108095,-541.4670699754,-495.6469446573,-659.9553622049,-149.8931942723,-1.8327921948,-339.1619799923,-223.8707028393,-0.4867486011,0.5727935397,0.3537617891,-616.7489570307,-286.2471081836,-8.6020242126,0.0305278821,-0.6640160637,0.4690655146,-0.3098347597,0.6016705089,0.8722197322,-0.9431306882,-160.7718643909,-24.0801198128,0.0576284399,-5.3536633633,-180.259321992,-471.2671817684,-0.5136391788,-1.109967826,-1.5826834453,-92.2386473341,-3.9151967937,-9.6045658131,-294.8740592304,0.614074487,-0.0983534394,0.8585780578,-522.4854292197,-459.499565169,0.4117495465,0.1203416751,-0.9528506217,-403.3245683296,-484.6623209374,-49.4323880443,-809.2311745507,-556.3715300935,0.4694799446,-2.5790641404,0.6016235562,0.7260840912,-387.3341031322,-559.1744443981,-0.9631112178,0.4040630029,0.021263946,0.7544863654,-0.9696327722,-1.1706397942,1.376497987,0.5354936721,-258.8899656144,0.0720534935,0.3160744483,-0.0527294016,0.5858717443,-187.2092174665,-19.2362331466,0.4868564006,0.5931532721,0.9148397071,-0.713414068,-12.607015958,0.7915389867,0.2201301915,-0.4627683506,1.0177977178,-190.2384039364,-0.8500745685,0.8439555421,-47.7423164634,0.9447672891,-0.7696386412,-3.4855622048,0.04205683,-0.2927968494,-634.8211131319,-0.3704303347,-0.1164666921,-252.6361382728,-4.1456902568,-84.3029118611,-0.3868729949,0.4250304971,-0.6580424034,0.7182416639,-0.7744560309,0.3304795201,-0.5155546067,0.5806200508,-10.6336241755,0.4611875166,-216.2288981649,-1.4442907915,0.0429945411,0.93191608,-2.3435394467,-0.0161509709,-0.478825223,-8.5304687319,0.6515369351,0.2995072238,-736.4257632035,-141.0154610128,0.7843443416,-11.7009371446,0.6932403612,-0.123774968,0.5832500829,0.4649654571,0.2287642748,-0.3990467122,0.7092942882,0.6098846961,-0.7678328958,0.0506214472,-0.0917216058,0.8016500242,0.7446473874,-366.9228465643,0.6587434591,0.5459292677,-69.486175127,0.0595671535,-248.5404827113,-3.287599712,-0.057437718,0.5675352142,-1.1281628741,0.3825672185,-0.65202012,-679.2727363771,-25.5003640015,0.2882936106,-1.0179399294,0.5740839254,-1.0843267778,-413.3315697967,0.4003734043,-0.8134744888,-735.6929892418,-0.023767984,0.3601602421,-0.8769283071,-0.1188685201,-0.4466848847,-0.8978726067,-810.3934509304,0.8878842641,-0.7880931861,2.4204500058,1.6951804746,-0.1428413056,0.9796833411,-0.9600022471,0.7017254104,0.3658183616,-238.0772103549,0.73263809,-194.6422849651,-5.8887139525,-173.0805142269,0.9105511221,-43.3344134742,0.7137610323,0.772267686,-52.4118479928,-32.3245178611,-9.5120001372,-19.5272207249,-42.4840777565,-40.8658247301,-1.5154352259,-0.2299979636,-0.5133031407,-310.9126102926,-0.646057292,-0.0947368464,-12.3559828394,-130.6760561948,-393.9796552773,-315.2066734305,-0.1097429625,-41.4148017472,0.5836936849,0.2964789185,-437.8506255685,7.4248098285,-9.1433580999,0.3350628625,-314.3267465982,0.4478929347,-0.8830803797,-0.6425472952,-266.5507675105,-303.6847702733,-0.62803467,0.465431687,-203.4955297205,-180.593278474,-1.2572173532,0.5162066259,-809.835815862,9.3292847646,-509.662256529,-0.6710028665,-33.147261916,-1.1752831065,-122.8893305935,0.5775367396,-0.4994352768,-646.8838487105,0.9754850912,-0.6565272379,-76.0334437431,-407.4985471747,0.2988650607,0.7598254378,-278.5316227156,-0.0284353378,-0.2516509403,-468.3650865688,-16.0507816116,-16.1365646983,0.8653347217,-0.0492105595,-149.5994748714,-233.6221448946,0.5009658254,-0.7195837879,-232.8125266051,-2.5915809323,0.3159365815,-18.7825564894,0.3121448202,-0.924355193,0.6260483124,0.4173179688,-261.8068977726,-0.0004091262,-15.2298014413,-0.2996752651,-0.4644705173,-279.0986164437,-122.5703759093,0.7738525815,0.2501131366,0.9278394571,-750.3005935906,0.9846027178,-434.3972012159,-0.2712980265,1.3602124036,-0.3365494338,0.3048873989,-295.8157954392,1.715124001,-2.4728490489,-26.7834059585,0.4096458149,-0.9666581343,-0.7601778555,-17.610029745,-1.9575246833,-7.1062110207,0.5927409485,-3.4731629098,-3.9086986529,0.1797452257,0.9300653955,-60.3275497709,-21.3652385159,-0.2897047401,-22.9824968303,-0.8885301878,-0.1642643205,-0.3218584972,-1.1119811527,-18.7055366704,-105.2384631387,0.6201434001,-0.4222307973,-0.7300751066,0.4381944086,-76.2817146881,-0.0270647279,-31.4381674111,-0.6786233284,-0.9457922607,-1.353330509,-1.3364675003,0.3111585995,-53.1876635586,-438.5742395267,-573.2658150687,-664.9782209479,0.6143653323,-62.1234703238,-2.0922809823,0.0550633776,-646.1872579603,-1.7641561597,-317.1098253795,1.4055493439,-128.6157194527,-0.2273600135,-25.6766772547,-0.7441161221,-8.374453853,-0.8970646365,1.3762690695,-220.3634522553,0.9400873548,0.1332396345,-47.3671399785,0.4196750487,2.2018126585,0.0633022088,-459.2800035162,-363.7689913132,-0.6129971748,0.1042486832,1.3936175481,-85.3456039837,-232.897879386,0.2945475133,0.2981333676,-0.3774515633,-2.878063141,-126.6106506318,-0.4650920841,-133.6094334349,-6.0662787744,0.8218286933,-88.3441623682,-0.4652973968,-55.5682895649,-409.2320172451,-809.9231106736,1.1160456534,0.7978862651,-3.86030725,0.8408434049,-406.4614237594,-17.1711512685,-1.3739069323,-14.8282851886,0.3972585901,-3.04506413,-218.6459378931,-245.3191098163,-73.0318759627,-0.6804306512,-148.8977405094,0.100185836,-646.5682744858,-536.3971595469,1.3143916953,0.480030362,-4.6076800259,-24.7142129878,0.705185805,-0.8792191255,0.8329136233,-0.0816521657,-1.7325178256,-3.3651758287,-1.6324562852,-275.0561168206,0.162661114,-638.69576293,-0.9653483312,0.3211894631,-358.4288993696,-0.5157915029,-0.1759710926,-1.4268045979,1.4441204136,-2.1219911126,-363.3504902974,0.3519154187,-0.0428961337,-3.5806354996,0.6397015913,-417.6792764275,-1.7927487146,-0.6511162836,-0.1804633998,0.8793923926,0.6018766105,0.1461911944,-424.8341352481,-0.582067383,-2.2309290104,-1.3921604705,-659.2632068043,-1.5021825891,0.5162077584,-1.5366356122,0.976767664,-0.6513769011,-0.706337557,-0.6369775032,-0.8257928199,0.860476705,-426.8427266901,0.2463435649,-49.4513632558,2.6768584066,0.1084768366,-1.2634952499,-0.9457996082,-17.1186430677,1.2883445247,-0.2526371599,0.562028327,0.0563657367,0.4521403711,3.3967470111,-0.0135451397,-0.9120561036,0.4883694944,0.4459613092,-741.944946976,-0.5588877469,2.6294145082,0.6440123808,-245.1252839223,-2.8184078185,1.3120538089,-6.7728952033,-289.4761279307,-0.8506379167,0.5869944729,1.3238933919,0.4388876727,1.3262739372,-0.9651251115,-349.1177835177,-809.1184985076,-426.5857269058,-0.9726532889,-45.7398487534,-0.5696292798,-370.9696611362,-1.0416416141,0.9794013346,-0.0404277139,-0.9160301361,-19.7243308244,-0.8208677154,-606.1406238942,-0.3981780895,-0.4621335481,-81.3439853584,-0.0967645237,0.5130755215,-0.3877962419,0.3569543335,-0.1128631735,-331.0070181881,-1.3261095507,0.6575904631,0.1148633956,0.7703550617,-0.81758609,-259.286867365,0.0909923423,-0.8507517825,2.4846510345,-0.2264952833,-621.4667624822,-0.2562457678,1.2586461627,-0.5438839901,0.0316698575,0.038980387,-0.8579664261,0.9256641417,-46.0820156605,-709.6995489076,0.4230512756,0.7667389923,-4.9245911379,0.197789362,-0.1009707089,1.345959343,0.2598791545,-0.7593655052,0.5567664118,0.4167747861,-0.1806187379,0.5004775116,0.1896343839,0.0471913889,-176.0432068909,-1.1115658106,-538.5230955339,-0.4524051357,0.9815219517,-117.1994705365,-0.9390790092,0.9728307335,-478.0402452718,-0.3493938569,-0.1354967759,-810.3954436275,-22.1805618383,-2.2476167615,-0.0932373538,-0.4424674312,0.8987362937,-0.1129071341,-0.6238442138,0.9427243989,0.8880666943,-10.9931957176,0.391736378,0.7097837051,-0.6966698484,0.4745400506,-162.8924483096,1.2753598074,-0.0431752653,0.6575264381,-0.4965314635,-23.3640632766,-0.5832875837,0.8444598212,0.2664043078,0.0869547761,-0.1490838439,-43.9778836214,0.3298816521,-0.3235289238,-308.1664205251,-6.2105903416,-0.1399949744,-0.4608573746,-3.9031557676,-710.8664694492,0.4087632125,-18.4947336052,-33.0104694836,-0.8801609602,0.3207588082,1.0615735146,0.7232538931,-1.0013053112,0.8796751224,-0.8094076239,-735.3561413537,-351.2259235563,0.9175647414,1.4557874277,-1.2086699055,-0.0507396163,-0.3454045275,-0.5709514993,-0.349082884,-0.2955306872,-251.3359383347,0.5956427152,-0.6961152236,-0.7804314411,-122.776467373,1.158991603,-1.4465052573,0.3402438685,0.8173366019,-0.0424611745,-44.311045283,-56.4192069988,-24.9749657854,-374.7013595243,-106.4099033709,-13.068218979,-0.4473345938,-0.7988835307,-0.7894677609,-0.2985419144,-0.1796798876,-29.9795624933,-205.7672487846,-409.8734527543,-332.1316720755,0.4205912746,-126.5845595763,0.2376896358,1.1475473524,-458.9004237026,0.3194700238,-10.7772445558,-0.9162903608,-287.0218595868,-0.0086364245,-0.299366359,-150.9180297452,-289.066300657,-332.2081562853,-9.7634159127,0.9211167134,-240.8508546164,-243.420152988,-0.5545028629,0.1450083917,-808.9634584736,0.902754671,-634.8299133732,0.3690931611,-37.6916793771,-5.2529573933,-216.9037721768,0.1205721974,-0.1921736635,-1.3860470338,0.6221600284,0.8846248337,-0.2960944635,-381.7993749613,-0.5487246046,0.3792823324,-303.7955613989,-6.1359680745,0.2052790198,-565.9810596552,-20.9749291026,-14.1486759221,0.0524345738,1.1533604099,-21.8048819277,-266.7599772387,1.0720832647,-20.3085371635,-13.0247901503,-0.9061647124,-0.3292806455,-10.5129784564,1.5443608751,-3.071131799,1.3761175177,-0.3216124726,-268.5981165948,0.6592562752,-27.2676094426,-25.1569187752,0.1190842184,-289.692951262,-141.7543227425,-0.9714222973,-0.3349027268,-9.0922672,-635.7644405113,1.6563840911,-464.2270316526,0.7471020977,0.3259229348,-0.8484364015,-0.8481582521,-311.7375984146,2.7796223036,-275.5820481141,-348.2082246144,-0.026963668,0.2934121544,-1.605111376,-0.1881392569,0.9610992367,-5.8684645629,-2.7642342605,-42.9560137976,-0.4171617718,-0.5934676527,-0.7891915092,0.4904395774,2.306469542,0.3593724111,-0.0305209328,0.2805312515,0.7080172772,-1.2434255596,-1.1018150142,-0.7940420913,-22.4158122281,-0.5059670903,-192.1884088341,0.2021992637,-99.0325685239,0.0450400028,-0.5242607746,-0.4814481053,0.0795488813,0.5317488103,-0.5289061555,-0.1107983583,0.5515932922,0.1033714943,-120.9286778153,-386.0215988852,-18.5324345547,-0.1518433451,0.2190193166,0.5636589583,0.508942087,0.328348631,-281.1525539991,-149.680001545,0.9912772186,-0.1205365252,-3.9403188636,-6.7824983606,-17.2814389721,0.0255974473,2.5645398083,-0.1438897131,-2.2280319559,0.7989423422,0.9719749762,-0.9274682339,0.8259679479,0.405136885,-0.6924011621,0.5509551525,0.7724816873,0.9045899096,0.0134231296,0.0614272696,-0.7509519284,0.5778949375,-0.5032426605,2.3942290145,-0.4133695791,-9.2966670398,-0.3372242167,-696.694534175,0.5965531784,-0.3674729987,-810.2028472647,0.3548514144,-0.1062737117,0.6687974682,0.4532497342,-0.1211639253,-42.1906916116,-0.1062403922,-10.0567560679,0.6372393387,-12.2175403845,0.0644035163,-23.6575727144,-252.5294369475,-0.266783786,0.3689137876,0.4807853777,0.1906822967,0.9130004749,-0.9890597239,1.2153360129,0.734597883,0.3025060775,-144.0510790728,-0.3245182061,-2.3377642192,-707.2155357587,-3.9448988383,-9.605454444,0.5521798376,0.6721591784,-2.6090688032,-57.4799785603,-0.8219012437,-0.6871889564,-0.4484442491,0.2497420878,-6.7512881415,0.2154068456,0.4230901015,-0.4005438566,-0.7970619988,0.7576319529,0.1662090836,0.7044063608,0.8846384088,0.1056263713,0.1319544946,1.2617577105,0.490740094,0.7392706056,-7.4881198798,-0.6184179022,-0.5259111457,-0.1083482574,0.7245722814,0.8139389285,-0.4777568776,-3.0812428128,0.3244297901,0.6071425877,-0.4947649659,-509.1082650963,-2.2597334784,-0.5041669496,-0.0344891368,-0.3512634195,-0.1638834691,0.454908809,-4.1707686939,0.3541764164,-0.0678516141,-0.6169839049,-6.4324569535,0.7481292152,0.8027019342,-16.7522821078,0.8542063129,-0.4743064715,0.4424378989,0.5942129272,-0.2099728332,-0.1498546262,1.4860708501,0.8859580772,-0.7374857354,-0.1527312332,0.6396788499,0.6710134519,-1.2784364481,0.0822115881,-0.5775010011,-2.1133710562,0.6004589214,-225.4057414289,-605.8093640726,-0.4838270694,-1.0449355945,-464.0747103613,-0.8605998345,0.6022430342,-10.5098280451,-2.803334534,1.1859916273,-68.1008158088,0.4642279001,3.6366766886,0.8825013447,-2.9701165341,-6.3614942768,-6.9984460087,-6.0478878916,-0.2541095496,-0.8405084156,0.1358318028,0.8050733255,-0.7680882532,0.1521895279,-0.7906630738,0.5256247991,-0.4948484222,-0.0780525285,0.3862474996,0.5789560368,-475.7604066017,-0.7204097868,0.3628139561,-231.9656770353,0.0943122027,0.9649388347,0.4934046285,1.5427811646,0.5231511983,-118.2984814713,-0.7673897228,-135.6578235831,-0.5624844553,-0.080951735,-80.3314023828,-0.6403601245,-0.2001297262,-0.8919110651,-0.0919202297,0.1426882719,-0.3722469545,-0.778208385,-0.7751038192,-167.0508554688,1.4829511062,-152.5821397193,-278.2093478007,0.1760904118,-539.0963746157,1.0357000761,0.0908602847,0.4166569285,0.4556968723,1.0881276524,-0.6147871415,-0.7309166658,-0.2772425882,-0.5296445234,-163.182116032,-268.2823700144,-0.0066869187,-0.1543209734,-0.5087635383,-0.6801516182,0.3834861507,-0.0635827547,-2.5101903696,1.5836446474,4.4295937499,-735.6891044261,-62.1555656395,-283.0006104247,-14.4589233215,-44.4830330983,0.9257261818,0.0040577726,0.545131298,0.2481098168,0.4049719029,-3.0405257363,-0.4428285093,-0.6492683699,-0.8793480751,-0.5454128276,1.9918222138,0.0406056345,-0.5318605875,-0.6274408651,0.7962447119,3.5319478285,-2.141914392,-0.6312612518,0.1038341848,0.3753858836,-0.3582065919,-294.2208257172,2.8032013411,0.0990166433,-454.8626247719,-0.8463283107,-0.4199373446,-0.1126172794,-0.0838365907,-552.5700062169,-32.2122229411,-59.7264387917,-156.6524635413,-0.044547473,-87.5240265085,0.1220032786,0.7511712617,-6.137953663,0.1835702788,-14.7819297712,-0.4755199179,-0.1463731909,-0.4005121031,0.3937455543,-5.5163756666,-0.0937023617,-0.2139608983,-1.1830343834,0.7262506073,-258.1864705273,-562.5436266409,-0.0341326315,-0.0261944716,0.5448500828,0.270128462,-360.3140932355,0.8818218444,0.2373123523,-0.6721606898,-426.1078025492,-0.4694509675,-0.1373703555,-560.2209876403,1.0218926986,-136.1821336267,-6.3846049481,0.4232477034,-0.2812328762,-1.1936990741,-10.0007228879,-1.1679436358,0.2376018478,-0.1308536,0.3483096835,-1.6992293931,-40.6834869804,-0.4861880218,-0.7960772154,0.9640926321,-11.5527207733,-0.400344146,1.1752909226,-759.2993434526,0.3869047264,1.0714873108,1.1763389639,-607.9082666959,-0.901554603,0.7443059057,-12.1717600059,2.392308915,-110.8821235454,-0.538601565,-0.1441908368,-208.075144497,0.9785901428,-646.3233619628,-5.3674090774,-102.2463427096,1.2434901799,-40.0055169945,0.1354095641,0.8535252943,-23.4351552774,-0.7232531916,-0.8654567491,-0.63357565,-0.5273232106,0.7028831191,-66.7117568282,0.9672316613,-1.0095940868,-0.075373011,1.8927811926,-0.8106944746,-44.5682602994,0.2481951523,0.6115583568,0.9174342253,-246.1685016304,-0.0081639702,-0.6048687649,-253.591743661,-710.0777408328,0.2067334499,1.1158995285,-15.4571163707,-0.1859522759,0.3712981728,-0.8292788385,-648.9170993826,0.3612543071,0.093921467
