encog,BasicNetwork,java,3.4.0,1,1589837364640
[BASIC]
[BASIC:PARAMS]
[BASIC:NETWORK]
beginTraining=0
connectionLimit=0
contextTargetOffset=0,0,0
contextTargetSize=0,0,0
endTraining=2
hasContext=f
inputCount=300
layerCounts=235,128,301
layerFeedCounts=235,127,300
layerContextCount=0,0,0
layerIndex=0,235,363
output=0.0001097779,0.0001686546,0.0000652244,0.0018322296,0.0000199538,0.0010851142,0.0020898696,0.0392367743,0.0005947186,0.0071020879,0.0016427399,0.0008727008,0.0043241527,0.0001328348,0.0211529484,0.0332330915,0.0000010409,0.0051725136,0.0001665956,0.0000365806,0.0000002605,0.0250352118,0.0056602976,0.000063976,0.0117525686,0.0001577429,0.0000180625,0.0001750451,0.0000002971,0.0004394789,0.0025453943,0.008089741,0.0007577653,0.0000012707,0.0000345056,0.0001623461,0.0000066795,0.0004861197,0.0001134051,0.0009586766,0.0000022186,0.0004179919,0.0102182554,0.0000383579,0.0001739433,0.0002630757,0.0000900176,0.0015570371,0.0000793627,0.000126534,0.0000373147,0.0650643822,0.0000588889,0.0000010264,0.0001742359,0.0367776706,0.0044092671,0.0004156191,0.0000001705,0.0008081732,0.0001921702,0.0066048854,0.0071186734,0.0000012975,0.000160004,0.0000419471,0.0000192147,0.0000090282,0.0015870555,0.0019882175,0.002115514,0.0018641625,0.0000682151,0.0044286681,0.0104959271,0.0029019635,0.0409770696,0.0000383715,0.0084463144,0.0000024526,0.0235683096,0.00011042,0.0015701922,0.008078349,0.0324079981,0.0020539825,0.000056121,0.0005603182,0.0000134588,0.0012052964,0.0003407368,0.005385744,0.0000598188,0.0049967555,0.0001681529,0.000022293,0.0003626103,0.0015506508,0.0003106473,0.0492680579,0.0666933638,0.0121302238,0.0130609032,0.0000088404,0.0003279854,0.0131819019,0.0002415321,0.0120785443,0.0000013741,0.0465874221,0.0020932372,0.0115480999,0.0058401313,0.0001625457,0.000008919,0.0002672451,0.0008335227,0.0000984303,0.0003363881,0.0000000842,0.0000021073,0.000003876,0.0004444382,0.0005140022,0.0003989703,0.0000082765,0.0000678339,0.0000216731,0.0000725584,0.0000114082,0.0057443356,0.0011108737,0.0013224359,0.0000206217,0.0000700031,0.0001927597,0.0000230232,0.0008125189,0.0004352428,0.00020349,0.000878585,0.0000449401,0.0239497497,0.002473005,0.0003383121,0.0000005144,0.0000357424,0.0179136693,0.0026803953,0.0362736827,0.0001157145,0.0001862593,0.0000768192,0.000063034,0.0000132401,0.000247951,0.000048374,0.0003242324,0.0012468259,0.0002511222,0.0000013226,0.0010068877,0.0000032545,0.0000207127,0.0000786398,0.0001752447,0.0000742796,0.0000014881,0.0000050405,0.0203867849,0.0070815392,0.0002285599,0.0000035156,0.0042152719,0.0001597309,0.000563695,0.0000078784,0.000004179,0.0006544764,0.0000077434,0.0000438505,0.0001190389,0.0004577177,0.0000032219,0.0000421698,0.0011420375,0.0002973878,0.0002395938,0.0002764042,0.0001124062,0.0000875664,0.0005192138,0.0000066365,0.0161451629,0.0000000601,0.007739367,0.0001070828,0.0125291547,0.0651013918,0.0041398246,0.0000099172,0.011790157,0.0033889398,0.0007550442,0.0002254105,0.0000017059,0.0003105988,0.000035376,0.002185725,0.0001188399,0.0000005791,0.0004360344,0.0000177004,0.0030181242,0.0000209335,0.0000008782,0.0000022828,0.000058735,0.0000018425,0.000331592,0.0002076915,0.0118087876,0.0000134461,0.0014859425,0.0000065998,0.0001503676,0.0000613969,0.0003783996,0.0019835195,0.0132013821,0.0001821703,0.0008796329,0.0000596781,0.0012195647,0.0003551024,1.268851774,0,0,1.2990571233,0.0574813001,0,0,1.0103970602,1.7692847295,0.9411803582,1.050171848,0,2.0725885196,0,0,1.5162954741,0.8050253364,0,0,0,0,0.49915579,0,0.7231713374,0.276628052,0.232476956,1.2819336157,0,0,0,0,0.5728337342,0,1.127965766,0,0,0,0,0,0,0.3760466621,0,0,1.0472932525,0.1142774594,0.9301792074,0,0.2932801123,0,0.5632970801,0.8317821902,0,1.1040536442,0.1608859475,0,0.270790635,0,0.7373329867,0,0.3775884894,0,0.6140672364,0,0,0,0,0,0.2901712267,0,0,0,0.5060643386,0.7730564276,0.4423625689,0,1.3939760137,1.408372115,0,0,0,0,0,0.8141612402,0,0,0,0.1857040084,0,0,0,0,0,0.0643851233,0,0,0,0,1.6747246776,0.1105598354,0.5756566751,0.2286584376,0,0.3878609277,0.8806225475,0,0,0.0713681402,0.7542696315,1.5610981184,0,0.311728806,0,0.4095340512,0,0,0,0.7352034886,0.244027042,0,0.4320084321,0.811040775,0,0.7699846353,0,0,0.5141295223,0.2447649508,1,0,0,0,0,0,0,0.01,0.078,0.068,0,0,0,0,0.01,0,0,0,0,0,0,0,0,0,0.049,0,0,0,0,0,0,0,0,0,0,0,0,0.049,0,0.097,0.097,0,0,0,0,0.039,0,0,0,0,0,0,0,0,0,0.194,0.029,0,0,0,0.01,0,0,0,0,0,0,0,0.01,0,0,0,0,0,0,0,0.039,0,0,0.019,0,0,0,0,0,0,0.165,0.01,0,0,0,0,0,0,0,0,0,0,0,0,0,0.01,0,0,0,0,0,0,0,0,0,0.068,0,0,0,0,0,0.01,0.99,0,0,0.01,0,0,0,0,0,0,0.068,0,0,0,0,0.068,0,0,0,0.087,0.01,0,0,0,0,0,0,0.01,0,0,0,0,0,0.01,0,0,0,0,0,0,0,0,0,0,0.379,0,0,0,0.01,0,0,0.029,0,0,0,0,0,0,0,0,0.01,1,0,0,0,0,0,0,0,0,0,0,0,0.32,0.058,0.029,0.068,0.078,0,0.019,0.029,0.155,0.117,0.049,0.039,0.049,0.204,0.184,0.01,0,0,0,0,0,0,0,0,0,0,0,0,0,0,0,0,0.068,0,0.019,0,0,0,0,0,0.087,0,0,0,0,0,0,0,0,0,0,0.01,0,0,0.029,0,0,0,0,0,0.029,0.068,0,0,0,0.039,0,0,0,0,0,0.049,0,0,0,0,0,0,0.01,0.019,0,0,0,0,0,0,0,0,0.175,0,0,0,0.039,0,0,0,0,0.155,0,0,0,0,0.039,0,0,0,0.01,0,0,0,1
outputCount=235
weightIndex=0,30080,68307
weights=##0
##double#68307
   0.7305452759,-0.6471945547,0.8495067236,-0.000643155,-0.0643716781,-0.2679919852,-0.5190935607,0.0895164355,0.7949213898,-0.7966443681,0.2770335609,0.1227583244,-0.6375904949,-0.310455539,-0.8766031729,0.5514142888,0.664873608,0.9925627494,0.1584722006,-0.8357660903,-0.2443949442,0.0921479354,-0.8380878951,0.6787959972,-0.556966523,-0.971035525,-0.3679579572,0.9912725151,0.4850657065,0.5905533707,0.5010820447,0.7226526365,0.2071989511,-0.5822769531,-0.0524833608,-0.824170844,-0.7006307023,0.4672107495,0.8996558221,-0.4666585963,-0.0870828852,-0.2959057648,1.0153653132,0.2539658339,0.1549183836,-0.9440274561,-0.0725386755,0.3993064089,-0.8949979833,0.685746699,-0.3876743984,0.4130937761,0.5571088259,-0.8901937786,0.7622194904,0.3356716853,0.1936599254,-0.3628053525,-0.2291438883,-0.7725340775,0.4680444941,-0.9060286216,-0.7989508316,-0.5659608883,-0.3154485418,0.6686563992,-0.60289959,0.7636079483,0.0395898897,-0.8487151221,-0.4574432346,0.6763029877,0.4035245406,0.407621641,0.8651731137,-0.1473935807,-0.306246435,0.006549401,-0.8276167335,0.002396297,-0.2627949026,0.4067718033,-0.5230421909,-0.1435224301,-0.2245977906,-0.843945716,0.4020110124,0.2597619371,0.9636368311,-0.2709143725,0.594041776,0.2597859946,-0.8504768562,0.7805528733,-0.7353589634,0.1808032975,-0.9451885683,-0.6759807519,-0.2226992559,-0.036402432,-0.1902723791,0.8555663147,-0.506593104,-0.2576534176,0.0097413968,0.0877130472,-0.3307526735,0.4961191635,-0.7835949544,0.1808660223,0.1693429681,0.9977684543,-0.447778905,-0.9241761694,-0.047939881,-0.4797787783,0.6551288862,-0.0015793368,-0.3725606835,0.8830802698,0.4700747039,-0.1627875926,0.0754199252,0.9116143964,-0.172361793,-0.0197075829,-0.9434331142,0.0242126782,-0.4561530336,0.0019678686,-0.5116422782,-0.5680837177,-0.5060032987,0.985756756,0.5988498622,0.2534092013,0.2171057284,-0.9498698956,-0.9239103776,-0.7528504744,0.4723558078,0.9860082235,-0.8794796496,0.1878519832,0.7854280964,0.8491551711,0.5333675075,0.7487125967,0.6415465476,0.2587189879,-0.9059375717,-0.9156864138,-0.9327633593,-0.1848692159,-0.2901710908,-0.2496827186,-0.5718762594,0.6842260032,0.8826549847,0.2667077742,-0.8994059248,0.3392448851,-0.1756434228,0.9985932592,-0.7981088631,-0.4277169486,-0.1613288525,-0.6018310531,-0.3167120462,-0.9076590189,-0.2359727107,0.7606162498,-0.1507256389,0.2954272779,0.6920625546,0.6954350246,-0.1059861774,-0.0117324076,-0.4224760929,-0.9974525421,0.167507573,-0.3076288383,0.3209554196,-0.6665188418,0.7153503887,0.4165431853,-0.8953544285,-0.5281049339,-0.3105884557,-0.3924630928,0.0793617982,0.2045867349,-0.3173088284,-0.411311248,0.7924670072,0.2503017447,0.082505299,-0.9469848683,0.0012149355,0.0216916293,-0.9255131431,-0.818351868,0.3400215972,-0.2039774529,-0.0643000592,-0.2157831561,-0.2693255853,0.5390509174,0.6406948334,-0.2398754944,-0.6177322714,0.8359415732,0.5604138128,-0.843813338,-0.7518188548,-0.2419054827,-0.5866347269,0.2086079952,-0.1840405488,0.3013106889,-0.0782597663,-0.3906395658,-0.8004838466,-0.3742814762,0.0955393836,0.8885575019,0.6369879388,0.9531839614,-0.1164421241,0.5298999852,-0.8368745227,0.8056836339,0.6585444833,0.5205708028,0.9603123524,0.73074732,-0.4012328516,-0.7915177018,-0.8783185655,0.8788488614,0.9212447474,-0.5899695029,-0.1101592972,0.9593701075,-0.1706334522,-0.9331983316,-0.1579431271,-0.6029472334,-0.1805261451,0.7106141951,0.6247951775,0.7846994621,0.2959044555,-0.8664696574,0.1705788227,0.2124878288,0.8841852899,-0.3546945204,0.8842425174,-0.9875627744,0.2803595545,-0.4302780314,-0.7379267166,-0.8607670892,-0.1189530305,0.0264442353,0.9300626266,0.4669639543,0.9905205849,-0.5081423095,0.4867653566,0.9449015132,-0.3912034502,-0.7103889148,-0.6323337609,-0.7957849759,-0.5231771757,-0.7779751256,0.166284286,0.322720431,-0.9354914193,0.1757857455,-0.5627660077,0.282355974,0.4688533888,-0.568502289,-0.3181562353,-0.312066196,0.5184948972,0.5060742284,-0.9133983898,0.2636724843,-0.7960281547,0.1309625469,0.2547067831,0.1083282691,-0.3470040761,0.0125261326,-0.6225160413,-0.798003118,0.7669537583,0.3504711532,0.03733614,-0.9441214459,-0.7034103928,0.4630935368,-0.3644448697,0.7355435488,-0.5764477754,0.2177175021,0.0102941116,0.5247791388,-0.3937762137,0.3705606275,0.3894020694,0.1727630342,-0.8513640089,-0.9073618277,0.5192410262,-0.1875850788,0.325429455,-0.6616189982,0.6576143181,-0.5519281776,-0.1624971943,0.341621622,0.0843960035,-0.2217536992,0.8617908256,0.1971457695,0.7298534302,-0.9754421196,-0.8044121503,-0.5449642674,0.8266172802,-0.3861999028,0.4204827531,0.5901030059,0.0874001259,0.9800044925,-0.9568250491,0.9784769134,0.2463032852,-0.8235793892,0.690700117,-0.6963340595,-0.8906755404,0.6021197115,-0.2951885182,-0.4578305502,0.6315203778,-0.4956694491,-0.2727184704,-0.3624307039,0.2636659793,-0.1542892809,-0.3808581886,0.6089034989,0.3405251586,0.6746757934,-0.2894352714,-0.3074050831,0.9667777429,-0.2130455494,-0.1765191608,-0.0385651117,-0.5221893814,-0.5958231817,0.6589761734,0.1543957441,0.9035250683,0.9856573651,0.2147093084,-0.4254865395,-0.24500705,0.4388655195,-0.8021161433,-0.4381130581,0.3524825232,0.9726814637,0.3222664969,0.8090786796,-0.9458516048,-0.1588514959,-0.669313086,0.2014007275,-0.0959915699,0.4131034819,0.3226307436,-0.7990371752,0.7918160475,0.3903558177,-0.2307694405,0.2305309438,-0.6162338918,0.0003508509,0.0083532663,0.7107234822,0.9808216071,-0.1105129183,0.2550971883,0.2489289214,-0.3353007269,0.0541957426,0.4852252477,0.9118296909,0.5612467614,-0.1573245437,-0.8482490843,-0.7562605621,0.9743655249,0.1656538691,-0.7552354459,0.04054711,0.924474751,-0.4513169219,0.4698399009,0.1084794204,0.2672856304,0.6621124325,0.7123965117,0.7124777264,-0.8290229473,-0.0962342629,0.3219071602,0.4785984186,0.0905768688,0.6729893456,-0.693921413,-0.7504539032,0.0415240788,0.5437821009,-0.367422522,0.8599096126,0.5920930235,0.1545094347,-0.6856122363,0.9257131321,-0.5039954196,0.6391877586,0.7106509234,0.4697823386,-0.135492382,-0.8187689507,-0.1718692166,-0.4634799835,0.4701902528,0.3903290362,0.7413644401,-0.8437925899,-0.4124749173,0.2436215328,0.5159926846,0.0180957879,-0.2718724902,0.9846914461,-0.4625237532,0.4874142656,0.9545515074,0.0305218643,0.6341835632,-0.0291478801,0.1301423158,0.2282317478,-0.6940344201,-0.9124544759,-0.7523312253,0.5921736132,-0.9797920307,0.8544987982,-0.9777722054,-0.3645499061,0.3038944154,-0.0679610488,0.009767063,0.6113120127,0.4515467374,-0.5022090533,-0.4543945433,-0.4638328342,-0.4670746413,-0.3134336401,0.5464354342,0.1204712262,0.9459834858,-0.6300804455,-0.6466810518,0.7456999385,0.2086849167,-0.2366207402,0.5077798121,0.8706814229,0.3161323103,-0.3304349786,0.3910980113,-0.8159524316,0.2764051686,0.1427096562,-0.7882649859,0.9895252523,-0.5337664498,0.6798638193,-0.0086167048,-0.992365836,-0.7507032675,-0.9128513366,-0.3626326662,-0.4416454534,0.5413958751,0.8466291471,0.9833283567,-0.5229074021,0.9818871316,0.9695156423,-0.8899195377,0.2433767165,0.3059045326,0.5153915371,-0.9722100563,0.3671744951,-0.304811249,-0.6850705576,-0.183290399,-0.0330686284,-0.4581077783,-0.3838211885,0.5106249726,-0.5048140545,0.6614364086,0.8038053363,0.0783094659,-0.8516262393,-0.4040245292,0.6003330975,0.9919936012,0.0367155407,-0.9745978142,0.9054390057,-0.3201961889,0.1300625199,-0.6606585503,0.1984192091,-0.5866010107,-0.2658851799,-0.6564337656,-0.6815378746,0.4212590217,-0.5712857819,0.7434968369,0.7212729711,-0.9470581835,0.2892901288,-0.6769637848,-0.3644903681,-0.6294962648,-0.8785355282,0.97741704,0.2245925647,0.9397816312,0.9098271264,-0.9220753198,0.601272157,-0.9520581834,-0.0393251832,-0.0189703827,-0.1100636548,0.7516951636,-0.1472114119,0.0497728037,0.522962494,-0.5238475082,-0.3417519679,-0.174664153,-0.732389563,0.2849997194,-0.5074409245,-0.5697733849,0.8380082198,0.2785170525,-0.4104782229,0.9015386737,-0.494432128,0.239700187,0.8499746125,-0.8565358603,0.9201054171,0.7589781765,0.0875281728,0.7750452731,-0.6858245405,0.8395439642,-0.6440571325,-0.3607357529,0.4053337023,-0.117210233,0.621702165,0.3507228717,0.2293808984,-0.8359989999,-0.8550209627,-0.6117803966,0.488750733,0.1980798042,-0.9116876312,-0.7063613424,-0.1712661777,-0.8304605747,0.6799569031,-0.7082896371,0.3793958564,0.2677113939,-0.4962009317,0.6651017729,-0.1872085922,-0.4215199556,0.3433489467,0.3709460301,-0.9900890798,0.8384005178,0.6540905744,-0.4125365436,0.926139634,0.3380217266,-0.9552772752,-0.0184570105,0.9282888957,0.905670128,0.4314260747,-0.7269740625,0.3316539604,0.1840704096,-0.2983151371,0.2172857546,-0.5746682939,0.1260634404,-0.8688354769,-0.5797098178,-0.6050770881,0.4333490823,-0.9519307199,-0.6556939144,-0.748219,-0.6557191533,-0.0252511416,0.4712611997,-0.1674685826,0.4530256662,0.3945799875,-0.0220554585,-0.248689027,0.8511635299,0.121917159,-0.6568336737,0.4533917772,0.8492210376,0.880128369,-0.1614073836,-0.2887528464,0.8648430922,-0.2580134335,0.7847552291,0.7644591335,0.6761113416,0.2036237929,-0.9521904517,-0.8522801763,-0.865080711,0.9765133195,0.6723879656,-0.624841712,0.148168657,-0.777958726,0.0802131559,-0.2059803679,-0.8830375716,-0.4571481187,0.2044911787,-0.1881658793,-0.4561954124,-0.3726081764,-0.8929000424,-0.1776750315,-0.8836527617,0.5646400888,0.8448838832,0.5255260996,0.1016549459,0.7788302608,-0.7364970285,-0.6535360899,0.0737954622,0.1814012374,0.3035799034,0.7358975891,-0.6649146302,0.0139776576,-0.3424271616,0.8179040471,0.8935831156,0.6097674049,-0.2923252066,-0.3399193686,0.1443617588,0.3156052909,-0.2670585946,0.5974572359,0.4332978844,0.073137673,0.6347648365,0.5608854721,-0.3142433996,-0.6845208085,0.8965499563,0.4963702952,0.6961057796,0.5152364769,0.0110192021,-0.0442384267,-0.9281703086,-0.3975801439,0.9903474877,-0.3841889086,-0.2267562108,0.4196930251,0.0811117048,0.9787820244,-0.6536427318,-0.3563626507,-0.4099918659,-0.7519110576,-0.6823794328,0.3242235265,0.9420260928,0.1128059785,-0.9586690698,0.8092323131,0.8165914118,0.3521210989,-0.178539251,-0.006690544,0.0338863086,0.8207984791,0.08859282,0.94507643,0.8928445969,0.0555400036,-0.3828387666,-0.000373855,-0.6568849779,0.3355350593,0.5105620251,0.0188646468,0.0526534967,-0.0524850168,-0.7046255819,0.8795089737,0.339768701,-0.2364718089,0.7088502877,0.540585993,-0.7086076516,-0.470502849,0.6412647036,-0.4650389033,0.3612416596,-0.390156772,-0.0098088988,-0.7400021403,0.4660183678,0.7484602568,-0.7679589923,0.7409501088,0.0048191366,0.3942191036,-0.6564799427,-0.8901984757,-0.3900217065,-0.0899567246,0.0307575504,0.5006295718,-0.8287129433,-0.2292494023,0.255164255,-0.2671731233,-0.1950095637,-0.8665630859,-0.6688196575,0.0467345581,-0.1572378137,0.103295759,0.3223001211,-0.5923508989,0.9487433235,-0.6242490634,-0.6196256393,-0.0099641099,-0.7133719336,-0.3105887591,-0.1031284853,0.0363230406,0.3464866831,0.6729028087,-0.2608595363,-0.4359877711,-0.1829711648,0.3081272624,-0.1941851965,-0.4790317339,0.4406877187,-0.1693172015,0.0989014105,-0.424517592,0.4596438962,0.0919825457,0.577951637,0.0937246265,0.1560948268,0.4737163838,-0.7599771669,-0.2733440206,0.6467087048,0.6695601538,-0.351177895,-0.534121713,-0.4154571441,0.065073577,-0.3287124762,-0.2451018752,-0.7233361814,-0.9066211368,0.6290713813,-0.9509599873,-0.4421280011,-0.2020086793,-0.0244802397,0.5835090202,0.1301824366,-0.3313021858,-0.3395601558,0.6286637918,0.8896035442,-0.2861406817,0.1253927436,0.9783337017,0.4021723745,-0.5389126949,-0.5113708929,0.6808507038,-0.7960058899,-0.2171212295,0.8066358124,-0.0683358922,-0.9360354221,-0.578816328,0.0772520374,0.8857533896,0.66896564,0.0892821852,-0.6544932196,0.7645493086,-0.2228572216,0.1555076876,-0.3800602186,0.7803066326,0.8819670898,0.3691902109,-0.4987163982,0.448437303,0.696302403,-0.1377005281,-0.5788137598,-0.4049120407,-0.4912040187,0.7274870412,-0.500501054,0.268247303,-0.1117402875,0.1081006501,0.1208006109,-0.4469656365,0.4714801628,0.0152456693,0.1792014136,0.2460662696,-0.4060582687,-0.3612798082,-0.1950066526,0.7070068385,0.0047711423,0.6093404315,0.6765378409,-0.2009866942,0.2582951719,0.0418861881,-0.3455214802,0.2568873255,-0.4051898517,0.6194022564,0.6529971774,0.4788114928,-0.1941112999,-0.4734964957,-0.6686924584,-0.1161020602,0.6475827403,0.0223683382,0.3220322857,-0.9766739155,0.8770572853,-0.7558034861,0.6452758407,0.7131326421,0.0618828874,-0.9260728983,0.6670660915,-0.9031910087,0.9030609093,-0.377120515,-0.7119112305,0.4535295394,0.9549328225,0.7898704839,-0.1008223709,-0.944350834,-0.7366499288,-0.2772319385,-0.1782506699,-0.8406669257,0.7699908937,0.8711636689,0.7919312499,0.1374729274,0.610291502,0.0195251104,0.490827693,-0.9136920417,-0.0967120219,0.3383253048,-0.938890598,-0.0869595977,0.5952611232,0.6664532779,-0.5648484802,0.2863622141,0.2829428219,0.5377083647,0.957544569,-0.8249975983,0.3850784229,-0.7829617505,0.0654448047,-0.4163964927,0.743633219,0.4179036649,-0.816073362,0.5232242966,0.7005022044,0.138188326,0.2491419227,0.0524921719,-0.6701455691,0.2613805511,0.5721395894,0.3270080035,0.1991084477,-0.3763161307,-0.3721623181,-0.1471264845,0.7954499835,0.6713619255,0.9228259155,-0.7013777006,-0.1865842901,0.602871679,0.69922595,0.9348306513,-0.5641717526,0.8388530818,-0.5991604967,0.5113451285,0.4996838941,0.2376596258,-0.7033248471,-0.243650411,-0.7354699126,0.1157281356,-0.2393824089,0.188510156,-0.7202865241,-0.3047351164,0.2095667441,-0.2473904206,-0.8573861902,-0.2211231237,-0.1332470146,-0.6532053451,-0.6542241781,-0.5589604033,-0.7204667592,0.4469933196,0.9943006785,-0.4531047618,0.4193737051,-0.74571473,-0.899092141,0.3024205431,-0.6983679932,0.0312665043,0.7311427495,0.0572289564,0.646187801,0.85610522,0.1368564171,0.9694050155,0.5222417319,0.4121776437,0.0541495252,-0.8907372102,0.7745083002,0.9204255063,0.627924731,0.1057556462,-0.1293074537,-0.6844157397,0.4266625218,-0.9263379755,0.3329235731,0.2482684356,-0.9098589458,0.3889507216,-0.3184324604,-0.4441134938,0.8912060561,0.6924568913,-0.7092175147,0.0008522952,-0.0356475698,-0.1015800635,0.2870739446,-0.2610029022,0.9198620661,0.1003581991,0.6581928441,-0.3944421491,0.9740021949,-0.297554754,-0.1682473214,-0.0167594936,-0.8074554993,0.9767116759,-0.064235628,-0.1551695781,-0.1012107609,-0.6537330058,0.39845004,0.5396346325,0.3601371843,-0.4277633175,0.6321917328,0.9816387015,0.728038597,0.3059870207,-0.0204429274,-1.000054748,-0.9686795305,-0.6961154605,0.7235222515,-0.3425359919,0.8471488074,0.3784777447,0.1286980557,-0.5923202131,0.2612447438,0.3729396802,-0.6870234779,-0.6924695539,0.047321381,1.0128958742,0.5390968371,0.8700097143,-0.4241828576,0.8131240463,0.587560744,0.4057851532,-0.7976518955,0.3172755022,-0.9740525087,-0.6597773746,-0.9820611557,0.0632936576,-0.0003573574,-0.0994449837,0.5401854842,-0.1312072294,-0.2278851403,0.4622119078,-0.6303338641,0.9772097839,-0.3930752648,0.1943082846,-0.3080038134,-0.3120990939,-0.697939337,-0.0737787499,-0.1059398435,-0.707838087,0.4774277227,-0.1813522964,0.434521679,0.0977976869,0.2124209206,0.7704910159,0.4901892825,0.8780791042,-0.0889907686,-0.8309708606,-0.2758251298,-0.8700307281,-0.2161782156,0.7224147481,0.240289066,-0.2649289193,-0.2354265574,0.6765444458,-0.0162145732,-0.1036163212,0.8663000302,-0.931238273,-0.971237897,0.7278150141,-0.3477429046,0.215386438,-0.8881338887,0.1014115303,-0.1002085712,0.3077577311,-0.3235579005,-0.4012901132,0.2288805981,-0.403736173,0.2028322477,-0.5441639343,-0.4495675885,-0.6549241396,0.8077193976,-0.7972750085,0.1250412131,-0.8990170954,0.3450998355,0.7011041868,-0.7144288961,-0.7869576244,0.8432867937,0.0367892864,-0.102613116,0.6672320592,-0.8251763841,0.9383218519,0.0511194871,0.3212932998,0.4554017481,-0.364156377,0.5642535093,0.8319424513,-0.8083977658,0.0798699406,-0.7012004982,0.6236608037,0.7460211684,0.4438552254,0.396629897,0.8104338012,0.2771416581,-0.6596035725,0.4997832534,-0.032109472,0.1518823476,0.3424795271,0.8725853039,0.1977035109,0.9216124018,0.4745544453,-0.9178802981,0.2826713605,-0.8334349915,-0.229387463,-0.5010206884,-0.4964005016,0.1837809164,0.3504699207,0.161200295,-0.3387995521,0.9288665729,-0.1809602795,0.1152734547,0.8986624044,0.5458916615,0.6443961164,0.5344870065,-0.691416537,0.3654312789,0.8262475847,-0.9620084685,-0.3781319062,0.5203781687,0.9012323339,0.5301564766,0.8180287158,-0.0947504572,-0.2595220606,-0.2305102958,0.8855988848,0.6635191992,-0.7981977369,0.1333076839,0.3672531474,-0.7412248441,-0.6895742226,0.8583157652,0.0104842376,0.3168865845,-0.9545598415,-0.6804493698,0.3515025146,0.2529108918,-0.3797046484,0.6253678984,-0.7541694201,-0.1880867478,0.1355229024,0.5141465681,0.8950496074,-0.4780965626,-0.5902475917,0.6365210612,-0.5887472556,-0.0459694494,0.400183516,0.1419148327,-0.5801321806,-0.7965239874,-0.7527712408,-0.5452735493,0.6922548197,-0.3859085194,0.3711539912,-0.1403948476,0.7665174569,-0.5846235089,0.0015548365,0.2161164913,0.0781481643,-0.5795366008,0.876330161,-0.9311972325,-0.1305883157,0.5118865924,-0.7989273661,-0.931793854,-0.3487065956,-0.3719354324,-0.3969049342,-0.6396193461,-0.0242422069,-0.9449602521,-0.2009599857,-0.420938336,0.7197941211,0.3463020644,0.506887499,-0.4369594663,-0.9344586168,-0.3369005116,-0.1527189915,0.7179532234,0.2067263262,0.6065428581,0.0904985923,0.7471782545,-0.7274289038,0.046537318,0.5245216056,0.9323017688,0.380996553,0.0521789041,-0.826459007,0.1047221561,0.0952787896,-0.3055374781,-0.9266655132,-0.2460423904,0.654260904,0.1801303978,-0.9498847714,0.411431851,0.3859890123,0.5767590725,0.2288826904,0.3503338755,0.856547298,-0.9623102319,-0.350219059,-0.4309870767,-0.2813348715,-1.0015922977,0.444875803,0.704387627,0.7331646314,-0.1311325923,-0.8487390093,0.8173125881,0.1865584639,0.3524208012,-0.7067240236,0.1437486125,0.8253678584,-0.5384451441,0.5720740102,0.2825599113,-0.8175174396,0.5364250911,0.6926005457,-0.9392216814,0.8141293492,-0.2837351568,-0.1278729514,-0.0838455857,0.0882538013,-0.9048033176,0.4074632888,0.9042424404,0.1666105136,-0.9225728593,0.4928702245,-0.1710665344,0.5788216619,0.8822947032,0.7129008569,0.4085652798,0.6367372094,0.7551133622,0.1313284789,-0.088331749,0.9369030602,0.1281331218,0.6018819174,-0.8844154468,-0.2053197417,-0.9152373631,0.7890384304,-0.0419962185,-0.2265997562,-0.64368903,0.6851133326,-0.5161194792,-0.1069138186,-0.3362716537,-0.424039937,0.2462543493,0.9546246014,-0.1683421062,0.2575629555,0.4163697274,-0.9219562278,-0.4429970934,0.4374376265,0.6631722052,0.6697164382,-0.4678932623,0.3837061872,0.5772889761,0.571561091,-0.8913892208,0.6134090478,0.1776470925,-0.7286409212,0.8122561099,0.2781309977,-0.7781892167,0.2858584762,-0.5226848937,-0.6354071157,-0.5645679169,-0.6253305116,0.0018622838,-0.7217573345,0.432476305,-0.688049698,0.4636065839,0.3948998508,0.76314836,-0.0060134914,0.7763214138,0.5006601731,-0.3615868747,0.4934561601,-0.1763562715,-0.7020579812,0.662490515,0.7647080391,0.7169038447,-0.3132532542,-0.8536161261,0.0670983482,0.9188098142,0.4678204375,0.4359693508,-0.590928384,-0.0555287436,0.9135472668,-0.0678259239,0.7928261798,-0.6969699051,-0.2021650005,-0.0813795474,-0.1266266488,0.4138912109,0.5015743556,-0.6386449248,0.9680396014,-0.4960362653,-0.9706314457,-0.3699079095,-0.517679218,-0.9797774648,-0.089514427,-0.6785938125,0.6317410642,-0.8555044111,0.9275314568,-0.2028275389,0.2783474495,0.5046318915,-0.4865866805,0.5433243695,0.6691707858,-0.0578997951,0.7007176818,0.4369555352,-0.6207162446,-0.2307524154,0.2016968432,0.4062960352,0.3566085736,0.7678103553,0.3386721387,-0.3646226119,0.9019611949,-0.2838120338,-0.2847352187,-0.3993550331,-0.1682292349,-0.3284818061,-0.9334614657,0.1097815065,-0.2841656202,-0.5195856043,-0.4630496929,0.6005148166,-0.5232185233,0.1407799694,-0.6105020184,0.5444937986,0.5379356901,0.4576079377,0.9323863355,0.4215104741,-0.5583369734,0.0415846701,-0.6469411518,0.4375190215,0.8780363437,-0.4242319499,0.7033523174,-0.4892586804,0.4446389457,-0.6106537486,-0.8143303123,0.6150013903,-0.9602970227,-0.7603651833,-0.5010509169,-0.9133815888,-0.1421271548,0.2261434566,0.2342658186,-0.2878647689,-0.0623978801,0.2200691957,-0.9142711052,0.9382076214,-0.3477809222,-0.8709497434,0.1779139789,0.4231459897,-0.0543211331,0.8018845383,-0.8624883885,-0.3144965184,0.7363622572,-0.8647380027,0.9784507015,0.1330910936,0.6968635731,0.3339518905,0.1891440663,-0.9512999606,0.869542296,0.0438218,0.9843069136,-0.4912620513,-0.2568010803,0.8008677431,-0.0579070127,-0.8005025002,0.4483244817,0.1059718906,0.5162649437,0.842116192,-0.6690206936,0.0674486187,0.9431628581,0.5372535409,-0.2329969808,0.2977056777,-0.1155100836,-0.2371442026,-0.4689274028,0.8430633342,-0.6137472075,-0.8074392489,-0.7067124455,-0.5896761239,-0.3694396906,0.9465044793,0.8716704142,-0.9734339356,-0.3070672076,0.436639564,-0.374046787,-0.5530619922,0.4067318136,0.894386691,-0.1882998737,0.4021963254,0.4005743294,-0.9576560541,0.1869548644,-0.8025627624,-0.1217514358,0.6293719861,-0.2395485511,0.109169403,-0.9856664259,-0.3814369058,-0.2920872051,-0.786061949,-0.1264372336,0.2694026274,0.9782644132,0.6951933659,0.8349056316,0.8614495628,0.5156133087,-0.273468417,0.3630133572,0.8572785227,-0.0137190725,-0.6815775802,0.9916868222,0.6893610227,0.5259765534,-0.39926766,-0.1221864585,-0.0043651232,0.6206914511,0.6361887355,-0.2077900296,0.2572563726,0.8200881488,-0.4870203286,0.6809382171,-0.2519048738,-0.0720161025,-0.4741064452,0.1514145748,-0.0475533674,0.1555687902,0.6626058804,0.1543330334,0.3059693902,0.7331957422,-0.8498996371,-0.1976067254,0.877401839,-0.9052295825,-0.4266912022,0.4218746358,0.5780561947,0.7695511638,-0.9011404381,-0.4200271234,-0.2014357449,-0.8216969686,-0.4936726436,0.1184608024,-0.4651724962,0.7152868422,-0.6768475847,0.2538244048,0.5261061759,0.4086295161,0.4948941659,0.1677809107,-0.4898791466,0.0859784311,0.7991063709,0.1790914958,0.2447317051,-0.0353039609,-0.5524045251,0.3005761328,-0.7546010381,0.7895012244,-0.3588196391,0.3664763835,-0.0989774738,-0.2113688898,-0.1024063633,0.2127111069,0.3951529563,0.1714472844,0.7718219384,-0.6803002362,0.4762348015,0.868333771,-0.7720890958,-0.1694292252,-0.1494156171,0.3964438765,0.3440649488,0.5916525216,0.4399543764,-0.5989701574,0.6022606857,-0.0566715158,0.4319134067,0.2525791968,-0.8050028602,-0.1175096192,-0.5687720905,-0.5091605909,-0.6371380904,-0.5024361898,-0.3490297214,-0.4121891426,-0.1803774251,-0.0700987882,0.3294233232,-0.0152059826,0.3875499349,0.3226480269,0.3749982545,0.2240767265,-0.9742084581,0.8648666563,-0.0168119115,-0.9868835095,-0.5844440889,-0.5872284769,0.8630208912,0.6172805238,-0.7189655689,0.0986217101,-0.1352233791,-0.6854590953,-0.4827165294,-0.6684759698,-0.7619465307,-0.186301258,-0.7886877811,-0.4080537789,-0.0439534447,0.1583786286,0.2958968968,0.6992422225,-0.1876117586,0.2420767083,0.957088595,0.3370458505,0.3636279694,0.5324261038,-0.6095312372,-0.334716366,0.3610941349,0.7934620821,-0.2945224993,0.5953838289,0.775845134,0.474133891,0.5503327499,0.0053981426,0.9136867818,-0.9634297328,-0.3696185281,-0.8178351918,-0.9313132792,0.7233055928,-0.4727157522,1.0192415535,-0.7726196356,-0.3623329861,0.7852779532,-0.232620129,-0.0606823321,-0.2096694534,-0.6690598326,0.8544690814,-0.9114719929,-0.3440092242,-0.2011097178,-0.3560986495,-0.3501869541,0.3555069418,0.8754638305,-0.9654416894,0.6755378761,0.3481899632,0.2423437829,0.6388263136,0.8016841144,0.1833336602,-0.3767515305,-0.1894202274,0.8488102767,-0.7962206586,0.4663514709,0.4438926431,0.6554282052,-0.2997377564,0.7573308679,0.7044184632,0.8019841612,0.9363773931,0.4835888119,0.5761894242,0.3105027754,0.9808757884,0.0858980083,-0.9842167965,-0.2476425722,-0.8792017653,0.6741715351,-0.757073946,-0.187672293,0.6539710135,-0.4801028076,-0.261293467,0.1078289665,-0.3430209529,0.1728303786,-0.0681126557,0.4920111424,-0.7743468402,0.2054097702,-0.2867901951,-0.690880594,-0.2000636998,0.9388474734,0.3615053633,0.3862532343,0.5704185873,0.4612203961,0.3237420221,0.8502673817,-0.6840243352,-0.681332413,-0.7527984745,-0.8034230527,0.6396928005,-0.8615967833,-0.9667329811,0.7175965855,0.5424113479,0.6232731822,-0.4357092691,0.4667031486,-0.8428502101,-0.0962015401,-0.6888566897,-0.3244534626,0.9044159197,-0.5740104277,0.5633164585,-0.1822649735,-0.1179502856,0.2550277224,0.6886616269,-0.7182350479,-0.0183653224,0.5755308245,0.9857557767,-0.1851554877,-0.372910493,0.4240528808,0.2805604301,-0.6485531219,0.7165611015,0.471030481,-0.3582460139,0.6720624129,0.9257074125,-0.2858966227,-0.8561755526,0.0640119413,-0.4816832948,0.3529377988,0.6524649726,-0.0527620484,-0.0470148167,0.3172234056,0.3557199134,-0.65232624,-0.8268600602,0.1540590191,0.7626674883,-0.9149184544,0.4923719975,0.624625693,-0.4113623533,-0.2896962967,0.5389167568,0.030137256,-0.3524622784,-0.2542073887,0.7634343891,-0.6817780339,-0.639499142,0.0814140197,-0.5135425158,-0.002053628,0.245063724,0.2079684251,0.4158419551,-0.5055822516,0.0318532677,-0.4291187599,-0.4424509489,0.7766373223,0.9923772473,-0.1768405766,0.6927392507,0.5299459037,-0.6486297417,-0.2730727551,-0.5192805064,-0.0999613477,0.8881211065,-0.8335500699,0.7825300488,-0.8993175773,-0.144222515,-0.3724335606,0.9338966754,0.616462578,-0.0520155985,-0.2835906141,-0.8517097904,-0.3587809585,-0.8591948936,0.0041371956,-0.358111263,-0.2159938719,0.9437976992,0.7845682992,0.3997759433,-0.4007494281,0.8889102214,0.8743944657,0.5753551185,0.6717678302,0.951327489,-0.1730225063,0.6086246725,0.9650158699,0.2049679776,-0.6105587646,-0.04708451,-0.661235056,0.5230814312,0.7219253858,-0.0172743221,-0.7348345561,0.5976584384,0.1246132611,-0.1057222187,-0.021092767,-0.2913009338,-0.7276573981,-0.1922936788,0.458891029,-0.5565210162,-0.9546069937,0.4141639254,-0.2513795969,-0.4207791965,-0.3480927235,-0.4777842642,-0.1883935907,-0.3487252472,-0.8107471636,-0.9068186227,0.2470147231,0.5376116864,-0.7369847408,-0.1435769506,-0.781293636,-0.1630125409,-0.6388773343,0.9884966405,0.4175412706,-0.0341151845,0.6475405652,0.7676329378,0.6785226501,-0.0215614463,0.8609677588,0.3877461595,0.1523148242,0.6661722347,-0.9521253752,-0.2832732922,0.9139629625,-0.2474556316,0.7378017952,0.0201542279,0.4963071683,0.7254491265,0.2153855777,-1.0036644466,0.5843143238,0.6677079695,0.5712674541,0.1102817442,-0.2009464662,0.4259075481,0.5607932799,0.9646720308,-0.5097411442,-0.3775219502,0.5377878013,-0.3019068488,-0.6021243873,0.6317979551,-0.6502273268,0.0232349362,0.1112153251,-0.8082502251,0.7472883718,-0.9420645641,0.2146191447,-0.0158842091,0.4269575003,0.0413862223,0.3401463582,0.4389676603,0.5275086369,0.569025511,-0.1206472471,0.115094738,-0.5734637373,0.5087008716,0.3876429526,0.6989653088,0.6618832027,-0.2421176713,-0.8886307014,0.6469333948,-0.5406862364,0.1491593853,-0.9990157571,-0.9496013029,0.861786999,0.0075312441,-0.2991379452,0.8373874558,-0.1130432563,0.7787763792,-0.0398192707,-0.0568445548,-0.3792898716,-0.1153402196,0.2562626017,-0.8745083823,0.1942702778,0.6973040726,-0.3052077844,-0.7853903398,-0.3690388732,0.4405753095,-0.4034079652,-0.903109223,-0.615302435,0.900617487,0.1407782235,-0.170635805,-0.4566476551,-0.6438693068,-0.0368485104,-0.2446393855,0.1168190438,0.7974266195,-0.9932167244,-0.2086714355,0.0954286689,0.3886278765,0.4433942022,0.0408986822,-0.4567627767,0.2182107961,-0.21897402,-0.7752549583,0.2566612813,-0.208710448,0.0584956175,0.5629904978,0.0797641259,-0.1642082731,-0.1654846673,-0.0930710218,0.5449052171,-0.2160467326,0.1158084916,-0.5980637865,0.358085771,-0.1506961249,-0.9150061392,0.7918877293,0.721222009,-0.2708106942,0.3067397238,0.2046654557,-0.1209815484,-0.7356328032,-0.1211840437,-0.8809930367,-0.4561891642,-0.7433385266
   0.039813598,0.0160500463,0.3977125813,-0.945502613,0.6553456921,0.6761657628,0.6450078284,-0.9528543207,-0.6675953764,0.1170368663,0.0649639693,0.9423059716,0.9072483241,-0.9067458461,0.196326646,-0.5235777663,0.0721952676,0.1101818087,0.0446656985,-0.8969779376,-0.8720701048,-0.912947128,0.2029771281,-0.1552451147,-0.1223548696,-0.938098492,-0.5547067711,0.736852662,-0.2247725704,0.1349167791,0.845766088,0.1364196692,0.3671159284,0.6023948342,-0.0403817988,0.6014346246,0.4729936409,0.034533381,0.8247833969,0.1980622598,-0.3350980759,0.5831138482,-0.1230545352,0.0113642955,-0.8313815751,-0.418086192,0.0425991608,-0.6525744439,-0.5546139971,0.1860855984,0.0179504238,-0.7766607731,-0.3121154937,0.5076937003,-0.0479017973,-0.9200852428,0.4601905938,-0.926377358,0.0917106663,-0.3760090623,-0.1926748676,-0.5804352002,0.8930916485,-0.1033656288,0.3641508007,0.7652694716,0.4360459217,0.2385540085,-0.0132904653,-0.2565647719,-0.1073193758,-0.7259273113,0.4170266534,0.670471691,-0.3520628221,0.2549230611,0.0703385223,0.5832158578,0.9434726005,0.2850888335,0.562769325,-0.3634067139,0.518747882,-0.4977576167,-0.9441252272,0.5620390523,-0.8431717245,-0.2667503407,-0.7739760626,0.3633174134,0.5421528432,0.4268143838,-0.8371481429,-0.5982259601,-0.5631255571,-0.4054029782,-0.0984932017,-0.3499721897,-0.944417658,-0.7791633792,0.3678633078,-0.8042890166,-0.02657209,-0.8313234372,0.8030457174,0.302277466,0.7111305379,-0.578703923,-0.2669742159,0.382617695,0.3341771304,0.3076137186,-0.1522493177,0.2099311197,-0.9053023078,0.358452544,0.7209913227,-0.3950817136,0.1794675079,0.3343896958,-0.7749536628,0.3946904163,0.2358849203,-0.7650356849,0.0056208721,0.2680330509,0.8067429187,0.4482891939,-0.6192470978,-0.2337489233,0.5813080996,0.7639612176,-0.2364751671,-0.643238669,-0.7724541364,0.2886434955,-0.0018462131,0.8173635131,0.8239869496,0.8184532444,-0.2496761721,0.61662296,-0.5975729804,0.6019326347,0.1493635703,-0.942450839,0.4015566215,-0.6439901026,0.6707721318,0.730656794,-0.8042794565,0.8206553665,-0.9687603911,0.3919385345,-0.8625038254,-0.3349543793,-0.4589001994,-0.3950292389,-0.2653888109,-0.32013452,0.5296779154,-0.1316513835,-0.2576574396,-0.6343310281,-0.6950885787,-0.2335850912,0.6225077045,0.2044548436,0.1853429565,-0.8270033658,-0.0011257715,-0.0443599637,-0.613718411,-0.4372440291,0.6105453607,-0.5962427659,0.4984187578,0.0794706562,0.7618215327,-0.4197201507,0.2148615443,0.0031120684,0.1115356085,0.1696125788,-0.9859703288,0.9467746299,-0.5197347595,-0.8949454689,-0.6451632388,0.1978639939,-0.4221269393,0.7286835653,-0.2916965829,-0.0453845485,-0.6686758782,0.2881559911,-0.1730358714,0.5305826343,0.6914319947,0.3066757832,0.3233562638,0.2174340767,-0.5235941483,-0.8953242565,-0.3454769479,-0.7923456958,0.9327584589,0.5485360616,0.7490315326,-0.3824954567,0.018895032,0.1378754533,0.2735953982,-0.7017602535,0.1684056184,0.1653327818,0.9251109588,0.8493797421,0.7650301876,-0.8798540068,-0.4662192697,-0.1272226815,-0.4070319666,-0.6772899263,-0.8771983419,0.6244935622,0.8881164844,0.3221640706,-0.7952954815,-0.3427733001,-0.3487659431,0.9531921873,0.4675215836,-0.1261814872,0.1038034757,-0.135409632,-0.4940616313,-0.2549312208,0.4927158468,0.7063221712,0.6400267249,-0.8474403984,0.4203727527,-0.25946203,-0.7531040347,-0.3073962162,0.4848632476,0.2326976379,0.108507946,-0.8776205992,-0.8000721872,0.4590631286,0.5286693611,-0.1624595935,0.532887727,0.7075087649,0.3946342109,0.3808910825,-0.342807613,0.5553769732,-0.5893838388,0.1499891547,-0.7306098595,-0.8324074699,-0.7270397157,-0.4912156987,-0.3541595603,0.2446040071,-0.1060100948,-0.5137528068,0.4275747932,-0.8936955569,0.2802805717,0.0454710437,-0.8977053114,0.5395830274,0.8528957035,0.0735342531,0.1706141893,0.5725506884,0.4507144325,0.1759540159,-0.5004159288,0.7844419546,-0.9742672765,0.7507248243,0.3037506294,0.4285591455,0.0426283721,-0.6155869901,-0.2911518092,0.2963746078,-0.196483325,0.9765032827,-0.3326201443,0.4600880938,0.0999692933,-0.6718423553,-0.0884075693,-0.0523269523,-0.0624877985,-0.692070561,-0.8011657671,0.4716844203,0.6053645692,0.987860556,-0.9838981667,-0.7784020826,0.1932275973,-0.304115003,-0.3935332743,-0.2341520896,-0.9693259927,-0.7007027981,0.8251010608,-0.061697575,-0.2931474807,0.5347117021,0.2570828192,-0.6249183337,-0.422888288,-0.4066602049,-0.1475950604,-0.9159320466,0.3370887582,0.4179426427,-0.9384101147,-0.9395952939,0.6666551509,-0.3138211148,-0.951333088,0.8362449017,-0.0322152591,-0.1505707662,0.95626898,-0.2100190684,-0.1873236649,-0.7073878934,0.5911060114,-0.6766670136,0.3620081623,-0.4073195163,0.6289696542,0.5721081952,0.568658997,0.3176180241,-0.5993141721,-0.508812902,-0.8352538638,0.6433282802,-0.1303063319,-0.8875058415,-0.1204910684,0.1566665452,-0.4503502149,-0.062889125,-0.3362083703,-0.2566282402,0.6763743514,0.5477046207,0.0672824499,0.4952628159,0.0932895391,0.9443405352,0.1742700965,-0.2407369182,-0.0443293672,-0.3824102947,0.8393527074,-0.640880581,0.9358082628,-0.2866795032,0.2449532132,-0.7721486149,-0.3072712,-0.9354824461,0.1812525718,0.8458854784,-0.5490835452,0.6737694949,0.0574522212,0.4757515074,0.192593681,0.7521263506,0.0510851213,-0.2139108785,0.0654375175,0.3728813006,-0.3374571073,-0.4358235369,-0.0528097248,-0.2305783145,-0.8894767377,-0.2461250973,0.2559561966,-0.9192241051,-0.7502231579,0.8895299175,0.4143641843,0.3378656536,0.2381550023,-0.7194348065,-0.5181266607,-0.2982706456,0.3193286275,0.3893303322,-0.1589283921,-0.5296354906,-0.1358277429,-0.4462776985,-0.8323314379,0.4044931169,0.8238303829,-0.0404956653,0.6918971357,0.2083071553,0.917548568,0.1981077912,0.7887946007,-0.6018165158,-0.5593599089,0.4761316927,0.2723489659,0.8578730397,-0.6634349007,-0.0032141527,-0.6115536087,0.8791575882,-0.3240962283,-0.521678902,-0.5332633202,-0.3152667813,0.6065290174,0.9227758433,-0.4344972232,0.1962161272,-0.1791814842,-0.2695112422,-0.4222206121,0.1386168934,-0.746731397,0.9278291318,0.5721231177,0.1343831644,-0.618368762,0.3534525227,-0.2151369181,-0.5560659302,0.6862043269,-0.4836336568,-0.7314729148,0.2659905491,-0.1742039215,-0.9937973892,-0.4813799903,0.938152751,0.2778335327,0.7474283974,0.6397922191,-0.5624272841,-0.2014043031,0.1397329352,-0.3928496603,-0.3795046125,-0.5898192965,-0.395349309,-0.4550617819,-0.6953042654,0.9605818782,0.6476730111,0.8713937805,0.1309713517,0.8944229297,0.0139253391,-0.9098908335,0.1310543606,-0.2740737664,0.2653494758,-0.0237629414,-0.2401206345,-0.6058476079,-0.4402311162,0.2032784119,-0.5829642724,0.6273546302,-0.3765633618,0.8476779201,-0.4243350744,0.2422401211,0.225068656,0.9973874599,-0.161185086,0.5505387065,0.3245990102,-0.5315674543,-0.3662156676,0.8585740096,-0.4403522378,-0.1723010062,0.9309355392,-0.2202142006,0.383499859,0.8588809205,0.960288374,0.0036761442,0.059245917,0.0824321102,-0.4190219416,-0.180812441,-0.4561862397,0.7733529089,-0.2268723442,-0.4608151186,-0.3099174003,0.2353655709,-0.4136083281,0.4114734296,0.0508876228,0.0214687725,0.6746062218,-0.9310609524,0.4773622852,0.7005527813,-0.9516158304,0.5507954513,-0.6107984006,-0.7871114284,-0.9283149841,0.5848297595,-0.5402878288,-0.2639799008,-0.6067703206,-0.3732152724,-0.0577509372,0.2432044027,0.8848048719,-0.3976549322,-0.0936890485,0.0483924519,0.7344184173,-0.9824060239,0.885779402,0.7341194473,-0.8363606799,0.5815943756,0.418161334,-0.7266829734,-0.1008470464,0.3658654082,0.3739429777,-0.6344394044,0.8854281822,0.3406377389,-0.6522896323,-0.8576919002,-0.2565203914,-0.5356278856,-0.6473846105,-0.4383874449,0.2738611173,0.6182961011,0.9409067736,0.6254361394,-0.9383051528,0.1861680793,0.0717474669,-0.4129487085,0.4399301167,-0.139818085,-0.1625177031,-0.5592078603,-0.5409573987,-0.0878782607,-0.4940499221,0.9951564242,-0.4312293188,-0.0638088002,0.8380730206,0.5565415758,-0.4474496904,0.6318024203,0.6911869995,-0.4675038847,-0.9546392259,-0.6293105973,-0.5734910795,0.0513030403,-0.9630166174,0.0585975222,-0.8660569574,0.36076952,0.9344491961,0.4274360429,0.445087713,-0.9753244402,-0.6892007394,-0.8809357168,0.402705476,0.6771464435,-0.7918692653,-0.4437475605,0.7719821273,0.6953014395,-0.3763802809,0.4482588087,-0.2256184038,0.6035012403,-0.6665799881,-0.6119611756,-0.6946334765,0.404285878,-0.8393802275,-0.9117254025,-0.5212909155,0.022481028,0.339954296,0.3458594867,-0.0886801271,-0.1295577329,0.0534686582,-0.4982003865,0.765226692,-0.0184574711,0.680074626,-0.7413047358,0.7742721633,0.973527477,0.2543290048,0.4817752727,0.300234834,-0.901232441,-0.871945624,-0.5514427719,0.8651791676,-0.2089886924,0.3287727969,0.6181837872,0.632055338,-0.013982172,-0.9874157008,0.5628125133,-0.4664891983,-0.9879753569,-0.2248882701,-0.1494063177,-0.5023502321,-0.4842811875,0.5395116886,0.1540329004,-0.2387012506,0.4063778244,-0.2519268947,0.7190682525,0.8518200558,-0.7558319094,0.862298801,0.0979600084,-0.6564905017,-0.2817250045,-0.5274261898,-0.9939959124,0.2686094918,0.8604451199,0.1902176354,0.6110412467,-0.9648473339,0.6833130534,-0.6538509027,0.4964143797,0.8420160633,0.8999490582,0.5851940453,0.365869948,0.9649690922,0.3728434143,0.8267007241,-0.5917262478,0.5523961456,0.2235536296,0.7076601327,-0.2070257198,0.4073311231,-0.495284509,0.5543009085,-0.3982050037,-0.7950020355,-0.1407329564,0.441512133,-0.9048929985,0.5043822914,0.294354131,0.0245507491,-0.8610157102,0.6865899458,0.0786784082,-0.0320100946,0.1184169691,0.2357470819,-0.5506972745,-0.9054695806,0.1108820538,-0.6537173083,0.5979246858,-0.2169777538,-0.2964100017,-0.1834639251,0.5383285862,-0.3462844877,-0.3324550176,-0.8440312884,-0.5403000563,0.0803287849,0.7639391838,0.6423508497,0.4094651485,-0.5427382601,-0.8691012935,0.7095372719,-0.5861980891,0.6336109009,-0.4868239787,0.7040692859,0.45968483,-0.8692305125,0.7081105299,-0.8358651867,0.1883453557,0.1223333675,0.6885322006,-0.5626947962,0.0242040596,-0.707249023,0.3362879823,0.4033019434,-0.7532582618,-0.6372287223,0.9410138024,0.6192585349,-0.5097455831,0.7351609782,0.9754057753,0.0714040561,-0.723980795,-0.858270752,-0.8211397725,-0.2021092861,0.1440366327,0.1672919838,-0.589131401,-0.6000543808,-0.8332096562,0.6904471001,-0.982064416,0.436098761,0.8696088524,0.0558068721,-0.8196083364,-0.5841178386,0.3312863708,0.232912625,0.4444603921,0.9171530145,-0.0312012644,0.6692481227,0.7440716221,0.2897054092,-0.6249917163,0.4522607844,0.2237217429,-0.7054491348,-0.6279382161,-0.3419455746,0.5563426615,0.7419198636,-0.4477184543,0.0243130864,-0.0721444108,-0.841704518,-0.8622573459,0.629443226,0.9206310221,0.0272200942,0.3601749264,0.8625188979,-0.8031871949,0.5792928111,0.6672931339,-0.1628082616,0.3495252167,0.0751531686,-0.5101820063,0.6366654895,0.0197255576,-0.2185378158,-0.8139463063,-0.0534541587,-0.2991446123,0.8597896995,-0.739191763,-0.3194103798,0.6303097816,0.9623908916,0.0157862719,0.0735701709,-0.2945034749,0.3870399548,0.7422147146,0.2287269098,0.7822830237,0.1629427343,-0.2369392783,-0.585190605,-0.8446883988,-0.7614037722,-0.4657840828,-0.0288724633,0.6475371735,-0.3865513067,-0.4937898085,0.967976118,0.7800013836,-0.1598254756,-0.3869503443,0.258330312,-0.9730784346,0.0841054641,0.1255509117,-0.0562994409,0.0875043885,-0.8330401012,0.7906777276,-0.1829952363,0.7152669892,-0.2402866005,0.9201320738,0.2682445352,0.2283251673,0.7680445731,-0.2337147728,0.7409198423,0.3550872714,-0.0498007807,0.2399927487,0.4062448604,0.2170115006,0.7045390581,0.2765345748,0.8404552829,-0.5653540325,0.1642570567,0.8840658505,-0.9944693079,-0.8967758857,-0.757519346,-0.5546410179,0.6052117077,0.8915919549,0.7078531185,0.5395386192,0.3462687078,0.0695056206,-0.2771749688,0.9099905796,0.4281699654,0.3890710927,0.8958149263,-0.4025721928,0.4471789317,-0.677581399,0.8494051992,-0.287987808,0.2434277165,-0.2879414438,-0.9156722014,-0.9784822438,0.0953145114,-0.1398367343,0.5402486996,0.1482630445,-0.9649980708,-0.1148353548,0.4424454618,0.5155080773,-0.8111490132,-0.4908789932,-1.0072968915,0.0400715144,-0.4679631167,0.8928175349,-0.2972899158,0.1794688507,0.3410248912,0.6423940101,-0.9443300492,-0.8408777501,0.2168767508,0.0999950727,-0.2883557385,-0.3762494511,-0.4496117535,0.2487920443,0.6736277189,-0.6889156182,-0.4905542317,0.6726713817,-0.8627432504,-0.322247416,0.2593678936,-0.0715289999,-0.877361067,0.7949915277,0.2917298777,-0.7236404583,0.7361460013,-0.9940930706,-0.6687161129,0.4071763879,0.8762156656,0.7074362551,-0.0311370778,-0.3736315821,0.7715164322,-0.0264022538,-0.4637526662,-0.130141008,0.2283934915,0.7529736455,0.1121754737,-0.1786292133,-0.0218188527,-0.0080623254,0.3461644573,0.8060146646,-0.6188134541,-0.0485660982,0.9532995514,0.0150646583,0.547550085,0.6131962302,-0.3292926595,0.9130407391,-0.953404126,0.5642832297,0.3559399001,0.1795299223,-0.7644653911,0.925429726,-0.6717870767,-0.3447914583,0.3224920366,0.8643814058,0.9714691593,0.0292137553,0.2832527458,-0.4030574725,0.4727988554,-0.0352162543,-0.9556990424,-0.86538681,-0.5769480762,0.5108390824,0.7787833195,-0.0226669617,-0.986783059,0.1745781615,-0.3377991259,-0.347538069,0.7136043674,0.906628978,-0.945088738,-0.8304078814,-0.1143973989,-0.5315585832,0.4604933018,-0.5603290296,0.7213297489,0.076520719,0.8648459445,0.6490618765,-0.9373551777,-0.0902762986,0.6022574909,0.2446752849,-0.5292062638,-0.5385448221,0.1314451715,-0.8849570165,0.6529699965,-0.3674042143,0.6537304584,-1.0009073563,0.6052755407,-0.7539120634,-0.3920622551,0.731605956,-0.8395514958,0.380583053,0.5488862226,0.1082446501,-0.014338547,0.2627993336,-0.4983443164,0.2311939778,0.5508092383,0.8594465837,-0.9123378057,-0.6814355358,-0.6708018537,-0.769539119,-0.7139365056,0.2212489461,0.7783043319,-0.3950386993,0.4572436272,-0.9683998348,0.9939382095,-0.3315208827,0.8511051256,0.1281063796,-0.6499541261,-0.5064428661,0.7017669767,-0.9343798069,-0.5168911785,0.140680315,-0.4548194689,-0.23908052,0.8170479565,0.2589547385,0.9529501548,-0.6775263408,0.7043257204,0.0777538461,0.2860453022,-0.5967145074,-0.4710259307,-0.0929465329,0.4792989256,-0.303954284,0.044410971,-0.4070668114,0.1794046947,0.0766488295,-0.9167016474,0.4653352391,0.3813746247,-0.6197578729,0.640460666,-0.0821137585,0.8293973976,-0.7219002828,-0.2595938222,0.5477823528,-0.4208430311,-0.0744017981,0.7626935777,-0.0034946283,0.6598309089,0.53916015,-0.411223294,0.6551241926,-0.9332477095,0.5830443374,-0.6734368555,0.8938063948,0.0791960173,-0.606762012,-0.4584842614,0.9435699519,0.4140922805,-0.4062286835,0.6928952784,-0.3847986019,0.7398425546,0.8599205939,0.5942486192,0.2709888124,-0.7270344328,-0.0010126211,-0.3383395836,-0.678354147,-0.0560460529,0.7517039148,-0.0709174065,0.4840119462,-0.6815691804,-0.0140428697,0.6165713329,-0.6868230987,-0.7250914145,-0.3428570799,0.5413122113,-0.6825195938,0.9255494545,-0.5739288517,-0.0066326118,0.505246282,0.406113648,0.7326779703,-1.0000552591,0.2717105065,0.2950789747,-0.8188339632,0.3987910629,0.5351477607,-0.0301939196,0.6048592863,-0.7144885422,-0.3255152292,-0.841090413,0.3829968593,-0.3035077946,0.0532510232,-0.0286589403,-0.4075350498,-0.2232280969,-0.9147917437,0.6538791654,-0.367783735,-0.7935525214,0.9975914052,0.7919102365,0.7090839166,-0.1760202597,-0.6579927282,-0.676841662,0.667162109,0.3671647744,0.768902935,-0.6581866262,-0.1664865772,0.5909866411,-0.7610138255,0.9655359406,-0.8494857297,0.3314993966,-0.0808619226,0.2454364285,-0.7419008233,0.081197234,0.3409175619,-0.5134262985,0.6065628905,-0.9354640298,-0.3541303905,0.0096501245,-0.686365412,0.8399494745,0.4840037794,-0.5200245322,-0.5472710957,0.5125800422,0.5407690358,0.3285666172,-0.6375745157,-0.6539928218,-0.9871139528,0.3168055888,0.5525650072,-0.7110137111,-0.9796501372,0.6647853772,-0.2489025324,0.6149697716,-0.5569109835,-0.3851623128,-0.2160368368,0.6165820511,-0.6282923491,0.4889077943,-0.1099293698,0.040622166,0.7948323781,-0.2466081832,0.987619351,0.8679002947,0.8364435072,0.4435978983,-0.4242312785,-0.2700553202,-0.8971969089,0.2008268276,-0.9394230785,0.1860193205,0.0723224049,0.192080227,0.2134324965,-0.9216555243,0.1361250673,0.0493962118,0.6832716649,-0.3706562036,0.9110770656,-0.0267428637,0.7397486653,-0.2317032228,0.6197065227,-0.111574753,-0.6503903674,-0.8363966646,0.258110964,-0.29983759,-0.6882354866,0.8054778594,-0.6693657705,0.8659561008,-0.5935833704,-0.7425539977,0.7377257741,-0.8647598103,0.8231512728,0.8180315748,-0.9571603024,-0.7329585752,0.3214695105,0.1149743935,0.8491126132,-0.2049525792,-0.8717539725,0.2599504525,-0.3459940712,0.2751926818,-0.6191582832,0.2394446133,0.8772243057,0.2219098805,-0.0489359331,0.780882074,0.7013032335,-0.316934761,0.7555678172,0.2554392102,0.1376869077,-0.3032410158,0.1597157949,-0.3912261002,-0.7514285656,0.2394803015,-0.3878354521,-0.5982728489,0.1151031771,-0.6146634416,-0.8140466395,0.1937199436,-0.6188862651,0.2638563299,-0.6294097474,0.2947979452,0.8394663662,0.5174627475,-0.8184744264,0.3948317818,-0.0751639918,-0.9529521481,-0.4697939745,-0.722665869,0.7230917938,-0.3167749992,-0.3837457498,0.7448193556,0.0424025429,0.48492381,-0.1444291667,-0.9454870009,-0.4733608917,0.3379911546,-0.2517478308,0.8084321898,0.9151801046,-0.1482943667,-0.6491948727,0.2466163662,-0.8158452833,-0.4551504189,0.8710972489,0.4634422312,-0.1910522665,0.6586805572,0.5187578239,-0.633855959,0.0423101502,-0.7627272965,-0.5905433708,0.4496269829,-0.4475214201,-0.0356708743,0.0759335813,0.478053416,0.5461574689,-0.9523042111,0.7178768991,-0.5843891403,-0.7312917888,-0.0347967977,0.8905367196,0.3340269991,0.5016570949,-0.5275260882,0.9106802906,-0.5638727507,-0.4789066402,-0.291151129,0.5323564772,0.6304405676,-0.513947908,-0.1155140301,0.4048754947,-0.8572704316,-0.0393429982,0.7241690989,0.8526188917,0.4246000076,0.368772445,0.9267736323,0.8117358167,0.0168814295,0.3111285466,-0.0524926015,-0.5704866822,-0.4703205172,-0.4342434399,-0.0442965726,-0.234181738,-0.8652462756,0.5871587455,0.9166323955,0.3749450523,0.6648478764,-0.6219418731,-0.1004233888,-0.9322086523,-0.8876874023,-0.6395420576,0.6853449182,-0.7784320538,-0.0688317192,-0.1299072195,0.6412916687,-0.8878152459,0.864852309,0.4910833629,-0.6262820007,0.0578430945,-0.8771513959,0.592714464,0.0759221559,0.3877081098,-0.6441292032,-0.2476247166,0.9285302495,0.5912018554,-0.9293937375,-0.8778916807,0.2486666733,0.1449391585,-0.6426847688,-0.8264809718,-0.425626225,-0.3503437479,0.3393739499,-0.5802921497,-0.5040711696,-0.6883625568,-0.615201368,0.8205928036,0.8150998888,0.3965643994,0.8922904386,-0.5286776345,0.5361117724,-0.018289624,0.7802998263,0.2239473857,-0.7776095343,-0.6046745239,0.11499315,-0.8985027334,0.0773676744,0.1144979332,0.5896196227,-0.6181295192,-0.6767550541,0.5957564258,-0.7598650214,-0.2914884887,0.6499559664,-0.3584626935,-0.9348002346,-0.465234199,0.8324369792,-0.8093704838,-0.9356823024,-0.3148528233,0.64311943,-0.6442513893,0.5617242128,0.8629368188,-0.3257002888,0.5624446993,-0.2214070937,0.1924659408,-0.150112859,0.0709876661,0.6350993731,-0.9670969727,-0.1698910362,0.3477262736,-0.150171043,-0.5607918313,-0.5602884931,0.4082344474,0.4410215802,0.383197357,0.1933240722,-0.2651859556,0.7401307326,0.3623339398,0.4673885111,0.7575158797,0.2256508812,0.2479259354,0.3243963778,-0.0246367893,-0.0157281664,0.2484229155,-0.8591052605,-0.5070933588,-0.4945239141,-0.8080169358,0.6485422806,0.0541167714,-0.3801462225,0.8613786774,0.9609701754,0.4126551638,0.0741440115,0.5068452302,-0.3218416261,0.940368214,-0.6272959028,0.4368968906,0.2581778664,0.3801018083,-0.9375973195,0.5296882713,-0.8074372278,0.2832634455,0.2339401635,0.3696338516,0.4472709163,0.1831545914,0.2038864798,0.7406009526,-0.630768136,-0.4345845682,0.2053301802,0.8813824132,0.3967115854,0.9866687322,0.531472563,0.2944125645,0.0098431657,0.5066680315,-0.5040163909,-0.6144536849,-0.4510195388,0.4881495851,-0.0206432726,0.9034711371,-0.3831526154,0.6421781642,-0.1607516195,0.646300466,-0.1844505897,-0.9638047289,0.7037626717,0.5907205443,-0.8305549783,-0.980176465,0.1436649641,-0.6743370343,-0.379553115,0.5330948117,-0.7945478771,-0.4018022962,0.4050537486,0.9245092322,0.6042994928,0.8930047096,0.9438398114,-0.725456358,0.6672351547,-0.1311859838,0.7551078219,-0.3097208851,-0.6098524269,-0.8415169301,0.8146209604,-0.1251683807,0.4846759454,0.9410142128,0.4402037197,0.452195721,-0.0061955563,-0.1522093586,-0.3829323447,0.0307436738,0.7814603214,-0.1884796332,0.6827917708,-0.891184589,0.3756968657,0.497979,-0.4131934064,-0.7152091835,-0.173439921,-0.5078344457,0.1927854593,-0.9006356138,0.9151561865,0.2288804425,0.8834071875,0.947110487,-0.712377304,-0.1424103595,-0.3413698514,0.7025140573,0.4620298341,-0.0260242044,0.6468803409,0.2064489764,0.8627048137,-0.3981709034,-0.9979312183,0.1700682789,-0.9642459696,-0.8437128741,0.2526281842,0.3558850813,-0.8108909664,0.5614555557,-0.9963663984,-0.8999324863,0.1065566309,0.5523156323,-0.6539695124,-0.7264438433,0.0113312938,-0.064496623,-0.1771997454,-0.6151770652,-0.5081169203,-0.3924709564,0.5044925503,0.6894197482,-0.686549473,-0.6025231037,0.6452852462,0.9597063078,-0.7360033233,-0.1980232507,-0.3064511383,-0.1926309344,-0.3954889654,0.9694761427,0.0455979341,0.5949657614,-0.6678681308,0.0774625078,-0.4989698026,-0.5431994417,-0.3891064046,-0.1383921013,0.5674221699,0.1716667064,0.2137045995,0.97471111,0.5245825158,0.4363744919,-0.5489530536,0.5328994783,-0.1473943539,-0.744949353,0.7853470983,-0.4169320333,0.7122315414,0.4778521629,0.7036261794,-0.6145652774,-0.4938556489,-0.2559857231,0.2128132615,0.7241367227,0.1692035336,0.3330333622,-0.8102848571,0.9595600907,0.4730919136,-0.0039542407,-0.3353590476,0.1672382469,-0.0999068255,0.6690677281,0.3090799565,0.7993596613,0.4792815138,-0.7721408656,-0.8778779509,-0.5472954575,0.8377546074,0.6829367333,-0.2584023546,-0.6747093696,0.7657189791,0.2456298905,-0.8973976998,0.092776548,0.8368661287,-0.8271877153,-0.0924742781,-0.4973311924,-0.9214114376,-0.6100989915,-0.1881086429,-0.0820747193,-0.0446577588,-0.9451320183,-0.3502614483,-0.4747022263,0.8809650544,-0.042294605,-0.1111973348,0.3884170753,-0.669158443,0.1518918043,0.94082583,0.9004087099,-0.4295792764,0.3107121326,0.9216653998,-0.6819013193,-0.3976872717,0.9786293091,0.5138418176,-0.3431594914,0.5565288605,-0.6308086951,-0.8390754769,0.1618874229,0.7333689601,-0.4299860742,0.386241854,-0.5318859339,-0.9281175465,-0.4596315633,-0.035756132,0.0741430409,0.9015506844,0.9466800218,-0.6289344629,0.6799752349,0.6844142775,0.4537719242,-0.4785290076,-0.7825434862,0.5745975336,0.8774240796,-0.9017320123,0.0907403524,-0.0663340371,-0.8959556339,0.7318769147,0.6172302737,-0.6612894335,0.9357129576,0.8263334384,0.1288566118,0.8108952169,0.7133429392,-0.9245725293,0.1710733492,0.7787759758,0.6652399048,0.4096907968,-0.9922334383,-0.1224325648,0.2978922974,0.6671241673,-0.9636464655,0.5469210982,0.6061118339,0.7403699292,-0.1470256464,0.7565231312,0.3081272166,0.0207075869,0.402087145,0.7683624534,0.7163045166,0.1659387891,-0.3931009761,0.846042341,0.4064786088,-0.414444984,0.7293948362,-0.3538748095,-0.9719020303,0.4783685212,-0.7623086621,-0.2908214761,-0.2992137892,0.8651112021,-0.9220190266,-0.9472340785,-0.3784475633,0.9095960474,0.7763370605,-0.8585909756,0.9519232856,0.6184660084,-0.054109128,-0.9761951997,-0.8675645507,0.7204332393,-0.7128742274,-0.2802487308,0.4421857145,0.3586168355,0.9421895999,0.3681805128,0.8074901437,0.8070046228,-0.5319824474,-0.4003631853,-0.8558052319,-0.561313301,-0.7096287827,0.9200424865,0.1527440004,-0.5798266296,0.008748869,-0.0678576653,-0.573251059,-0.5523514554,-0.8121512736,0.3573487732,-0.1500468561,-0.674675031,-0.7490432671,0.7691599949,-0.6150888099,-0.0917438525,-0.1092000024,0.6090387079,0.317739531,-0.3768158492,-0.0360263391,0.020798495,-0.2934830676,-0.9909446794,-0.4778234401,0.4191671111,0.6885158739,0.1254965545,0.0132889065,-0.2242433578,0.1335461161,-0.911089703,0.0734551928,-0.3708722048,0.3685889898,0.4315323271,-0.115090188,-0.950862147,0.7773359163,-0.6309628694,-0.0159238217,0.196014046,-0.1020204464,0.6216776831,0.9347332004,0.0787353171,-0.5254874124,-0.2408647482,0.3301224012,0.0333584026,-0.3032174395,0.1640969312,0.4320208141,-0.200930733,-0.8465966194,-0.3816493571,-0.6989593381,0.1226381625,-0.0692778066,-0.5502871599,-0.4286744405,-0.0381120226,-0.4371097701,0.5826126219,0.514098107,0.3254580328,0.2934239162,-0.2039631936,-0.6322738286,-0.1934787277,0.9399448778,0.9071823376,0.549243092,0.6387284712,0.8329200265,0.1707891177,-0.6504439907,-0.2597611067,-0.3139947917,0.2436818638,0.7394071721,0.8066516568,0.2083534503,0.4703468704,-0.1597240486,-0.8754678547,-0.5353028717,-0.5779323538,-0.3564601556,-0.3522532746,-0.8975115728,0.9473224963,-0.7194213793,-0.4216131804,0.0463383592,0.1391653796,-0.5355358799,-0.3445766011,0.0256426724,0.9819750079,-0.2022035326,-0.4569859902,-0.8519112469,-0.8735240401,0.656665431,0.7688525134,0.173292015,0.0021299749,0.264173209,0.3749107354,-0.3281342059,0.7439411499,-0.0935581503,0.8805180497,0.6389434859,0.9321833026,-0.6354559396,0.48314113,0.039848121,0.8036332896,-0.9167767983,-0.6560092298,-0.918110348,-0.6954960927,0.9312686388,0.8441250822,-0.8338351776,-0.6560963554,-0.0781191636,-0.4848709894,-0.1784237492,-0.3197953612,0.4337669006,-0.9275900254,0.223241237,0.2144908122,-0.7444853248,0.621429467,-0.052373256,-0.6157486804,0.0856131497,-0.0979686765,-0.4391050848,-0.4645738693,-0.5403427518,-0.4084382131,0.8192181756,0.7883763423,-0.9419665341,-0.4216628677,0.2990632529,0.916132785,0.2369689765,-0.0144946508,0.6596215196,0.3994159986,-0.7801187485,-0.4717711699,0.0290530626,-0.5986444526,-0.6443805884,0.7158972578,0.8566680251,-0.8864759821,0.3460557717,0.0238857962,-0.3869384868,-0.3863909188,0.6113907134,-0.3492547014,0.0478761771,-0.2550664187,0.1416022257,-0.2860427756,-0.4038046632,0.9394337184,-0.9618396394,-0.7526037194,0.0433850651,0.7808090458,-0.6467492018,-0.2741744766,-0.5231434176,0.2832432022,-0.4355378301,0.0607416419,-0.0510620402,-0.1583214466,0.1453792148,-0.0025412592,0.023394292,-0.0085036065,-0.8374979023,-0.7029603347,0.3562153326,0.2675547817,0.2615302394,-0.5582599018,-0.4129798294,-0.6335059025,0.5291416039,0.7138136469,0.8006867861,0.3362569662,-0.3546609901,-0.0467053596,-0.6508393455,0.9437057992,0.6330577369,-0.3083894946,0.3718400914,-0.6190678067,0.6860732487,-0.7795859413,-0.3511000572,0.7000581676,0.8580058906,0.491766685,0.180371472,0.0640770381,0.9715545,0.0759904633,0.4239741602,0.1469258405,0.5205473966,0.3344193687,0.0129830358,-0.9820118494,0.7878374691,-0.2565770385,0.2577048044,-0.1822166086,-0.8903607733,-0.7250865817,0.5967726684,-0.8405967168,0.389628079,-0.2858881487,-0.5502474473,0.7448348744,-0.5824961032,0.909264855,-0.4683048591,-0.2883919735,-0.0973834247,-0.5821838211,-0.9275243149,0.8494997613,0.8074610318,-0.7460967052,-0.6217454792,0.5356100722,-0.3105015686,0.810036768,-0.5527744103,0.4172048838,-0.4219096389,0.6959055216,-0.5635122271,0.0346486651,0.3530432524,-0.5242967691,0.6324989001,-0.6731270876,-0.1085652931,0.0118195358,-0.5827332911,0.2158088025,0.1850522427,0.5800262211,0.8305171376,0.3339003836,0.9723392168,-0.5441584456,-0.4405001811,0.3933491334,-0.68483452,0.0805657374,0.2436996533,0.7821391243,-0.1866108199,0.4757535993,0.9152286649,0.5508778185,-0.1540612905,0.6758684241,-0.4916733998,-0.3278572705,-0.4402221142,-0.6514248089,0.1039284038,0.9307925011,0.807202962,-0.9352597699,0.0726182528,0.361332699,-0.1137207606,0.4840808357,0.6177893947,-0.4995536369,0.5398553521,0.091796491,-0.8798010304,-0.5028435735,0.3837474938,0.3987143486,0.0380479706,-0.80560521,-0.1081980369,-0.3749119241,-0.7576658707,0.3469461736
   -0.4215755576,0.969184586,0.4325800992,-0.1719016771,0.4610910201,0.4617958783,-0.4038969666,0.688414431,0.8491360374,-0.1216058818,0.9620576817,-0.1539455234,0.7006088586,0.0773453586,-0.057082163,-0.2892929935,0.9821847776,0.5580330911,-0.0846001323,-0.1370117549,-0.4841451225,0.7987119223,-0.2137651368,-0.6143024768,0.4216072851,-0.0524760775,-0.4016885128,0.8043221264,-0.2033891904,-0.1627161115,0.5192901988,-0.5223080365,0.026235297,0.1385722674,0.2201899249,-0.9420476845,-0.0068783168,-0.5625451426,-0.9533174647,0.6034113696,-0.894131838,0.6409421515,0.4675741207,0.6650619809,-0.1409895576,0.3286353535,-0.0306966666,0.7685701334,0.4858558978,0.1826139118,0.5892975837,-0.4145322667,-0.9737556206,-0.125441368,0.5221720465,0.3507667221,0.5045014771,-0.3110592382,-0.0549721513,-0.3496731274,0.6178761664,-0.0063022151,0.2940734748,0.2882578732,0.7414796504,0.7151915298,0.5965051737,0.3670416011,-0.1224090936,-0.6525368804,0.2205719611,0.6506831443,-0.5511293927,0.6310318302,-0.3831607017,-0.3425422345,-0.8655450739,-0.4233487539,0.3632740628,0.4471493574,-0.3691677917,-0.7020263705,-0.6331610995,-0.1113047741,0.0467337392,-0.5867315712,0.1794562091,-0.6590662724,0.8824922088,0.4772727646,0.2454254404,-0.6510577293,0.2897111602,-0.175936262,0.7762606503,0.1596862387,-0.9090428287,-0.9010584303,0.2439570149,0.07027515,-0.0123551499,0.4543819497,-0.3886405079,-0.9388950356,-0.4403831248,-0.6046307664,0.6046740587,0.1614682067,0.7822373446,0.9836410316,0.2865113981,-0.8298087881,-0.1457841245,0.994466964,-0.6757167343,0.9742044408,-0.2041254424,-0.6378001372,-0.905310762,0.070507328,0.2647354379,-0.2197041045,-0.7322242975,0.145342659,0.8320168312,0.4011593751,0.2688816288,0.3962456885,0.6255933657,0.7601354669,0.1959886347,-0.5131170817,0.9017659026,-0.7009685177,0.5181921368,-0.558853415,-0.5841690982,-0.4747220888,-0.6671459011,0.4370719484,-0.6588897628,0.0153158968,-0.9786783865,-0.9241764532,0.1792006609,0.952634492,0.2850083598,0.6094321698,0.6744848125,0.1877560434,0.1401022175,-0.5847846818,-0.8410932907,0.3922184967,0.6573837917,-0.6767726642,-0.3633112935,-0.4389302201,0.4384659827,-0.7117031393,0.1943866912,-0.2012730038,-0.2442673165,-0.6346518688,-0.5818574355,0.0365137089,-0.8120016352,0.7425418643,-0.76929423,-0.7150554585,0.5862686254,-0.8979308248,0.5189074471,0.5021940276,-0.6217764777,0.1555827734,-0.5199629436,-0.1108404666,-0.3778622457,-0.8637436581,0.878607037,-0.6445309903,-0.1591286786,0.9293832075,0.5345131284,-0.1646513143,-0.2791199517,-0.6663219806,-0.9507449592,-0.4420629783,-0.2545634767,0.6004179254,-0.9825876177,-0.2935549408,-0.8526206358,0.8996419264,0.8036531962,0.4844135697,0.8368563495,0.315428688,-0.4073677843,-0.3477450238,0.9743893178,0.7146259107,0.0850359365,-0.239058512,-0.3786820456,0.1586994534,0.3543499526,-0.1761835666,-0.1243484789,0.6414037075,-0.3189364803,0.9906967152,0.5598703143,-0.4255649999,0.7657204615,0.3527221971,0.2119983161,-0.574517878,-0.3711477535,0.1893139877,-0.792282373,0.2750503414,-0.4556316094,-0.0174592774,-0.9925144794,-0.8932503728,0.7119300187,0.6012366414,0.2781344269,0.2102848715,-0.8254988651,0.6337162558,-0.7935177702,0.934651697,-0.7342224461,-0.4610465127,0.6669526198,-0.8480412027,-0.623127077,0.5137518393,-0.2163299668,-0.9808183557,0.6775284067,0.8564595441,-0.3450756429,0.9421613948,-0.4010775827,0.5229240015,0.27219705,-0.9167830722,-0.8552871675,-0.8853711051,-0.3684665304,-0.2988144515,-0.1775553825,0.216331866,-0.2568931569,0.9578202299,-0.4192433158,-0.6431722404,-0.8589229785,-0.2312025519,0.9641667545,-0.2526795978,-0.90370543,0.7281643952,-0.189924563,-0.0824239766,-0.8727518623,0.727255879,0.007376503,-0.524017536,0.9995657992,0.8609325381,-0.1874793009,0.3608031841,0.8247147554,0.1865508624,0.4159589215,-0.9073728166,-0.5716063084,-0.8267843034,-0.6688122713,-0.018687099,0.9707611793,-0.0366839015,0.6133436066,0.8842670654,0.9239193373,0.9202940299,0.4189023398,0.5052284311,-0.7919154207,-0.961505002,0.3937032136,0.8817134531,-0.728449198,-0.7388857194,0.1651553721,0.7672048947,-0.5191588768,0.118564364,-0.2200752961,0.122919827,-0.3281019322,0.3206275973,0.1137591684,0.1275506996,0.4825317612,-0.8428740916,0.607994794,0.9018775349,-0.4144671725,-0.9193013043,0.5369271201,-0.8799966707,0.4905143196,0.5007340471,-0.6638185232,0.6705137746,0.6651619468,-0.3798456564,-0.1257029457,0.4355250182,0.953959862,-0.438339333,-0.8953934906,-0.1541449589,-0.457043059,0.0974337791,-0.9600918029,0.1826249683,0.1724389103,-0.2969819909,0.4175447043,0.8772842066,0.7017448514,0.2472283986,0.5347647149,-0.0782421643,0.8266858077,-0.7673842955,-0.9176713906,-0.2889131714,-0.4643686982,0.9980089245,-0.6258245349,0.2761452704,0.3438656487,0.3610114957,0.9130858877,-0.7613704643,0.2583082,0.4605900203,0.6841175722,-0.0787955789,-0.2744386679,0.0122023131,-0.0532836161,-0.4589608093,0.2539833859,0.2426998837,-0.870806012,0.8310756728,0.4532380789,0.9530400415,-0.2138971658,-0.2976203875,-0.6947008852,0.3659609649,-0.4006589925,-0.1407340784,-0.0163205238,0.8906934367,-0.8136979618,0.1101367239,-0.0231518343,-0.3770757993,0.3926564116,-0.6230904741,0.3029285056,0.1734873038,0.0845558323,0.4812290595,-0.0013995073,0.1942650419,-0.8180976413,0.4503100909,0.4782835492,0.0992347296,0.5213773466,0.1268969339,0.5608961732,-0.9394217544,0.8820688462,0.7106037427,0.1061564942,0.013341983,-0.2342348918,0.1627463907,-0.8742611544,-0.3704419644,-0.1586828133,-0.5770960143,0.4220930335,-0.646117566,0.3591253218,0.5623430047,0.0390332549,-0.7917571918,-0.7609848696,0.9301202867,-0.0185312797,0.901853332,0.56695235,-0.1227423854,0.2059775514,-0.408737285,-0.060553631,0.7262195973,-0.5398417641,-0.1532613381,-0.5863190507,0.5309893727,-0.9556769756,-0.3632564481,0.3682437121,0.3129151814,0.6364459037,0.9498785266,0.4010167928,-0.1147553421,-0.8850230762,0.0738904635,-0.5652334667,0.078063159,0.7508591036,0.3792005713,0.5472413908,-0.0207929524,-0.0665955192,-0.4466393387,0.7811767285,0.5442800618,-0.7625857249,0.9032371324,0.1716721888,-0.1654996773,-0.192404531,-0.7838781342,-0.3723461688,0.9406073725,-0.405451474,-0.6331706017,-0.732171199,0.8474097245,-0.3349898611,-0.478502278,-0.5299051879,-0.5734842791,-0.8593571247,-0.1135648006,-0.2608666344,-0.33167313,-0.8335830293,0.8673029722,0.7623541132,-0.0954500974,0.6837137448,-0.3136573786,0.0489591164,0.0175215854,-0.8602213262,-0.4192258639,0.8526479293,-0.354362818,0.01642039,-0.8277374695,0.6848068411,-0.1998692779,0.7866575667,-0.3074675139,-0.6076357624,0.3632338587,0.5298880304,-0.244868156,-0.2180523378,0.1994556179,-0.9519434522,-0.6100085563,0.8746272094,-0.0825149467,-0.803411982,0.4466111362,0.3522248172,0.8597885877,-0.4196865274,-0.8751216074,0.7177023674,-0.2169092985,0.3843522247,-0.3461668584,-0.6367393348,0.5218888059,-0.4638779859,0.9187217938,-0.5665287531,-0.3402784345,0.6198274041,-0.0986950683,-0.2458565982,0.0434084307,-0.4023581089,0.2183212151,0.9306487126,0.4002892957,-0.2509934001,-0.2005608335,-0.4743144089,-0.9471497811,0.2308628468,0.4215554612,-0.5728855511,0.9598998395,-0.9170746228,-0.5361760085,-0.4497025076,0.2102342171,-0.078615481,0.5130959239,0.1566421548,0.0816643986,-0.7655083496,0.6285841589,-0.5173601113,-0.682953809,0.4570055158,-0.2249270731,-0.3323489228,-0.641888039,-0.1627553772,-0.4117272743,-0.6676985015,-0.6024244433,-0.9093689134,-0.7703848305,0.04017414,-0.3093274842,0.6103414532,0.391448075,0.408128665,-0.6388988094,0.7649964014,0.1864880248,-0.8356757873,-0.884482174,-0.0914985461,0.6131081273,-0.8252087729,-0.7982553469,-0.8581427568,0.3326599872,0.2866686089,0.1184745286,0.8056510861,0.9616783733,0.6951735204,-0.5186774028,-0.8076451931,0.3084988047,0.8110331779,-0.0077720512,0.2347993047,-0.0351890868,0.2112518796,0.4078031622,-0.3941080624,-0.5479380573,0.4159632767,-0.0578783221,0.7522212387,-0.9695194152,0.3305257088,0.0286052464,-0.8666561035,0.2837084909,0.6814895868,-0.1943077235,-0.278818732,0.3630857672,0.0477226551,-0.7641490777,0.6505008522,-0.6572800657,-0.213696347,0.2481228628,0.5539625147,-0.5089130148,-0.6259837354,0.571829194,0.5200981918,-0.664706082,-0.5722841225,-0.3558569973,-0.4880487839,-0.4677438218,0.5654681406,-0.192863427,-0.8006103842,-0.1706721285,-0.3463227207,-0.3951660967,0.2844217939,-0.4597313818,-0.9202739503,0.8037044644,-0.0252264198,-0.4729674092,0.3461042524,0.9454796098,0.7073762284,-0.1380296664,-0.0279355487,-0.6304210043,-0.4189775483,0.938359254,-0.3084929849,0.6255382407,-0.2338112909,0.0077648236,0.8107740922,-0.1076061571,-0.4786883329,0.7066718497,0.606132416,-0.2175509997,-0.9423002713,0.5446773117,0.6915533364,-0.3278453159,0.3145892008,-0.9910161705,0.436578154,-0.8882609977,-0.9974746917,0.113130481,-0.0244827875,0.5102169454,0.237080289,-0.0961068454,0.0270168398,-0.0879061912,0.8229322783,-0.165288545,-0.165112375,0.4111424423,-0.9788341773,-0.3761428161,-0.9889889365,-0.6529812862,-0.4674145679,0.1138554116,0.3458364492,0.2049610464,0.3058038355,-0.1129543734,0.7581129751,0.1009545043,-0.8198599351,0.0815833662,0.7810601861,-0.539743406,-0.4330834942,0.8647879959,0.3298145876,-0.6468171529,0.1221528276,0.697477427,0.3073244217,-0.5633565317,0.1573691819,-0.1418521494,-0.8510647934,-0.460858512,0.7039334988,0.2496693117,0.1286791201,0.6903897755,-0.7846535012,-0.4153602587,0.6129801111,0.8688992303,0.7453691141,0.1255990669,-0.601463003,0.0863404666,-0.6174642546,0.426585749,-0.6893998708,-0.8871470973,-0.1709453029,-0.6679197531,-0.5918814855,0.2858921905,0.6087285231,0.7640860325,0.6863850534,0.4526554347,0.1767871055,0.4811537071,-0.5075833834,0.8746538475,0.1100376412,0.3831612035,0.0518437186,0.5197823839,-0.2017312788,0.7548428029,0.8723007142,-0.5633967736,0.326786726,0.9368392967,0.1158844662,0.4741677383,0.3619268258,-0.661416104,0.7368948417,-0.5018579308,-0.2270098639,-0.1525427015,0.512193311,0.9228195879,-0.9098648241,0.1135617502,-0.4408495715,-0.627835337,-0.5521677921,0.7273382906,0.3730776029,0.6879658717,0.2521444878,-0.7484375771,0.8916188075,-0.7165947585,0.3687408709,0.1008578548,0.3372867373,-0.1848285508,-0.9246622728,0.1542028748,-0.8949301426,-0.2275068896,-0.7359941761,0.856874952,0.2407377451,-0.4459976251,0.3774975416,0.8436235754,0.4215465413,0.1820028088,-0.0322468324,-0.5268145815,0.0655581311,-0.1085649205,0.7436031767,-0.3192660973,-0.660153328,-0.7723866739,0.3226707651,0.8439895038,0.3422103924,-0.7083702147,0.163846923,-0.4644215845,-0.4869901207,-0.1020018316,-0.8122104892,0.6002195485,-0.6205380611,-0.2331155157,-0.6536913167,-0.6138214838,-0.7495915051,-0.3687440017,-0.8524420941,-0.2254811934,0.8091273884,-0.0069495429,-0.609397253,0.5662018393,0.5545619002,0.0749677005,0.9921096453,-0.3282068143,-0.1414743781,-0.147259053,-0.9107820825,-0.753286714,0.4087996546,-0.222033309,0.3205798106,-0.1118987989,-0.7783524195,-0.2779733463,-0.0312333732,0.4364511733,-0.9119417276,0.7270996475,-0.3832663697,0.1417060805,0.8541346155,0.1848927303,-0.2831711715,-0.0843904785,0.0185645065,0.5162099283,-0.7555144745,-0.8505050258,0.9339036809,-0.7376195925,-0.0171873954,0.9605655121,0.4195108836,0.9137446187,-0.702103659,0.6131181543,0.720431673,0.9870372949,0.4184778575,-0.9303348742,-0.3151029029,-0.0687420398,0.8349865886,-0.4571063445,-0.599749603,-0.5694823465,-0.4945099683,0.7662694486,0.2816177324,-0.9811053739,-0.6650166176,0.9800446448,-0.9333318805,0.43377728,0.1662485545,0.4767950386,0.5457752917,-0.4154943916,-0.3295409873,0.5075284207,0.1994641597,-0.1153895653,-0.2338267382,-0.6802912361,-0.7524542412,0.5527377487,-0.1721603667,-0.096535947,0.8066873537,-0.7985388525,0.7719242287,0.6261614678,-0.1311358718,-0.309377597,0.5168532405,0.6653173012,0.0710469757,-0.8491264523,-0.7781734602,0.7789965942,-0.8010728141,-0.598677129,0.8507705301,-0.1160652142,-0.1186500635,0.4749770745,-0.2650815683,-0.5334485657,-0.9125871834,0.1716909511,-0.3664906279,-0.2083673957,-0.5996364077,0.6506724248,0.3249830047,-0.9991206663,-0.4590375357,0.5701174085,0.9861144436,-0.4528510572,-0.157950581,0.9953230485,0.6865186124,0.3577962032,0.1210213167,0.7316500214,0.1800101495,0.74225865,-0.4991362032,0.1848443171,0.8766324296,-0.6524581578,0.6782228201,-0.2705935034,-0.1781259483,0.3036767265,-0.0448055435,-0.2848654247,-0.9514115293,-0.6243383074,-0.0218624705,0.5795519859,0.8848238277,-0.9412635142,0.0120866877,-0.2926316972,-0.0418900791,-0.7012865869,0.9434203928,-0.6995009894,0.8884390106,0.8412194006,0.0828974097,0.3584041807,0.9218828066,0.2733646351,-0.7588873241,0.9484824274,-0.457243406,0.2801731487,-0.8124369534,-0.9316626527,0.7433716788,0.0523405826,-0.7700053688,-0.4250668029,-0.3087810391,0.3708230318,-0.7944038027,-0.1956466223,-0.3646283581,-0.3082775636,0.8744570005,0.1330925167,0.7223188848,-0.5784895205,-0.2542787476,-0.977308837,-0.7248757074,0.2792019752,-0.6898322795,-0.5280464622,0.4895337841,0.5803232909,-0.9905167613,0.9456631537,-0.8876546853,-0.3562108489,0.2377556564,0.0604182187,-0.5592587369,0.3061434869,-0.4813647326,0.882583889,-0.9470425276,-0.6837603263,0.0451866107,0.4176097261,-0.8374322807,-0.7286777646,0.0213553178,-0.0526443145,-0.493758563,-0.6462440568,-0.6576984657,0.7345168623,0.7265892365,0.9947318638,0.3206379405,-0.1946808702,-0.9379205343,0.4891919153,-0.9213601881,0.1567166134,-0.046018127,-0.076912127,0.4204359571,0.7480457685,-0.4329629621,0.6198494124,-0.4917864965,-0.4687971719,0.1927646298,-0.9872763777,0.6382502313,0.3544917233,-0.6315032093,0.2700332954,0.2339955965,0.5344319242,-0.1518861982,-0.5001334252,0.5729055485,-0.0298604885,0.3506148235,-0.574389592,1.0088041035,-0.9032723252,0.3561353141,0.8407032547,-0.9131656655,-0.5272100274,-0.4082878628,0.5486617376,0.5192124646,0.1342309198,-0.947830629,0.1411855911,0.2287725999,0.6360909537,0.7501171675,-0.224825313,0.5027906674,0.849189845,0.6247712429,-0.7806113238,0.9446729425,0.4175529302,-0.101541425,0.4920411377,0.8169170265,0.7669532957,-0.8871517036,-0.5627256863,-0.6763456474,-0.5682918093,-0.112688123,-0.140864773,0.1182384611,0.9405809586,0.04110329,0.8911082589,-0.6799969059,-0.7708289482,0.9159979905,-0.5258066603,-0.8801092907,0.0746809262,0.5724485431,0.8025406685,-0.5442150308,-0.2116821046,-0.9736746401,-0.56645985,0.0951241966,-0.8962651444,-0.1640768396,0.894035774,-0.7585377873,0.7939442003,-0.4736790471,0.22663907,-0.804099407,0.180986697,0.608865179,-0.8783297602,0.9978944601,-0.4071087766,0.2895667019,0.5290834115,0.6267739959,0.9772192088,-0.3238460725,-0.5742831382,-0.2183053433,-0.1554874536,-0.8809416036,-0.8327247598,-0.2442184162,-0.5063502749,-0.1645010999,-0.8914677407,-0.2958410075,-0.0695225172,-0.1539454061,-0.2046789076,-0.179065398,0.6236310018,0.1468682449,-0.2077005875,0.0252392909,-0.886673048,-0.7621377508,-0.1834249925,-0.4192117931,0.405110264,0.7632873131,0.1469965918,0.8150821778,-0.0018436763,-0.2910813908,0.299586725,0.3103763169,0.9543651904,-0.3263838143,-0.1157732017,-0.1249268683,-0.4045164716,-0.7259561962,-0.4973628357,0.4249968234,-0.9311965547,-0.7779708153,0.4051338999,-0.7134587227,-0.4361843656,0.9972192351,0.1198676867,0.0606417489,0.3815738939,0.6136360873,0.229598469,-0.1510697033,-0.4613429009,-0.0104058703,-0.9458731467,0.6191118154,-0.642033033,0.2999187651,-0.012931224,-0.2711424054,-0.2800257962,0.303150369,0.1353726033,-0.9872984972,-0.3157461664,0.3790018835,0.7174952998,-0.6354032576,-0.5454883489,-0.7914972112,0.8502609587,-0.8571755124,0.972859343,0.419785819,-0.3730108647,-0.6529384559,-0.1013854639,0.9125425209,-0.420892965,-0.8043828264,0.9647035043,0.78508747,-0.9305863484,-0.2063552162,0.1149974633,-0.0640748705,0.566616217,0.7355955041,-0.1464528433,0.0455742449,0.2504310256,-0.8843182523,-0.7128368975,0.5141756803,-0.7223932593,0.3232664465,0.0704779124,0.7476791725,-0.9535850033,0.6759434621,-0.2414275056,0.6157668275,-0.8770221085,0.8997790533,0.692544073,0.4004047739,-0.1123926364,0.1887784347,-0.7069493693,-0.3322613858,-0.2685987443,-0.2076397632,0.5757512743,-0.0823708987,0.2471286639,-0.0031526332,-0.654583375,-0.285594312,0.9703599005,0.4840526394,-0.6633040075,-0.5030387561,0.7734961542,0.8243715046,0.9779451053,-0.7802153257,-0.1338635165,0.3723786833,0.2830906219,0.8717832439,0.0343740495,-0.7855950405,-0.1060755139,0.2752278697,0.8099318406,-0.5823874885,0.4189170847,-0.2547330331,0.1337003327,0.8383729969,0.3254905824,0.574499208,0.4900600817,-0.6445891291,-0.436548146,-0.7323024973,0.38574462,-0.6230250558,-0.2155335212,0.4563278294,0.9983418041,0.0439815883,0.6428569598,-0.7360609331,-0.5662261523,-0.1297725866,0.1745072224,-0.7531805286,-0.1993591246,0.5191739636,0.3767415152,-0.3943964278,0.1932172257,-0.5712089448,0.3446798258,0.4025803061,-0.4993493392,-0.5168122463,-0.4574309978,0.7419798402,-0.2175916076,0.237946242,0.5527048244,0.2334081595,-0.7233513272,0.6360285997,0.333206446,0.5125593587,0.8155732264,-0.8498466164,0.623770932,-0.0189578943,-0.6644330188,0.3218129016,0.2415746251,-0.0756029187,-0.9204206479,0.3066857372,0.4701658131,0.62683707,0.6634129156,-0.7433981241,-0.9667738188,-0.5857503776,-0.6955792602,-0.011669502,0.5604349555,-0.6240700127,-0.6959819933,0.5929521348,-0.3565810396,0.4790635392,-0.4982493047,0.8717684707,-0.010513702,-0.4775408905,-0.2874357115,-0.4748331351,-0.1939339304,-0.1973156117,0.891884871,0.7380690018,0.5316624343,-0.1424557067,0.3604159244,-0.1246656615,0.0531274998,0.2478174049,-0.5107870931,0.1681094508,-0.331110621,-0.0974885328,0.1362058865,0.3488419949,0.0763028026,-0.5730342116,-0.2045432998,-0.7316945169,0.8518226881,0.779091951,0.1715254075,0.6266683394,-0.3045264369,-0.0797375464,0.0086598597,-0.7532726784,0.4447278045,0.4559816538,-0.8998480891,-0.8586156721,0.6715467084,0.581499105,-0.7570815255,-0.9367084943,-0.6091957865,0.5534949472,-0.6890733243,-0.7257605652,0.0307553224,-0.652150589,-0.0844863422,0.5390562953,0.317294539,0.5810836259,0.8366576049,-0.8071718721,0.0557196238,0.1602018413,-0.1595273196,-0.3189296677,0.2661400743,0.3193051092,0.9667660494,-0.621249324,0.2845901023,0.6175571729,-0.9008874453,-0.4980776956,0.9783075974,0.0717048669,-0.2894627386,0.2775094247,0.7927444038,0.2744974632,-0.3918013412,-0.1542875088,-0.6490510156,-0.2751835217,0.265827205,-0.1695842819,0.6008636496,0.0695122103,-0.804156827,-0.9553952797,0.0477714892,-0.0371407571,0.4152256924,0.5730272934,0.1942710116,0.4099090927,0.1845723308,0.2053597855,-0.4658518892,-0.142874622,-0.5196707172,0.2848033768,0.4787752291,-0.8721514401,-0.2498557559,-0.2887223632,0.9780576164,0.6571956921,-0.8463741093,-0.9279282797,-0.3117723728,-0.8012059218,0.662842716,-0.9981771124,0.4154081316,0.103678065,0.5258827982,-0.8539135681,0.1136474923,0.0716504578,-0.1686228018,0.804834464,-0.4625562605,0.9575223147,0.0832472809,-0.4999082535,-0.1674415325,-0.8794901866,-0.1581458936,-0.7004536784,-0.5373519297,-0.9036715125,0.3482328408,0.0288124184,-0.1182438723,0.723798635,0.9716716949,0.9638464633,0.7672853977,0.5109050365,0.0738575211,-0.8555747276,0.9886915268,-0.597977223,-0.200192497,-0.1221110709,-0.6506492351,-0.7088705172,-0.5977306729,-0.5697279263,-0.133793453,0.7056479334,-0.9262702525,0.7998364369,0.5434639506,-0.2321603262,0.2975867819,-0.8872728825,0.5722356897,0.6669133054,0.7498428054,0.873024516,-0.4759288063,0.5332940366,-0.9491779196,0.8499222424,-0.0899978089,0.3262166385,0.5513299285,-0.5961260884,-0.2718198942,-0.2409301467,0.3571164033,0.9433409248,-0.989307608,-0.5012761415,-0.0963960394,0.0312958563,-0.0142421355,-0.930220912,0.7158580757,-0.9212957283,0.4993014246,-0.2116953009,0.6420450513,0.402401635,-0.9622485486,0.9648707094,-0.9826372141,-0.4695698851,0.8642691972,-0.834672685,0.4244286076,0.6850907974,-0.774586433,0.9279702618,0.1855728744,-0.255908258,-0.310324838,0.6162155027,0.2616883727,-0.4410981308,-0.8140528768,0.8620243283,-0.1069801954,-0.5468247947,-0.3138955141,0.0800811831,0.1138483037,0.2873356067,-0.9554818685,0.785852768,-0.4988163097,1.0169311276,-0.417277038,0.2506621288,0.1879435238,0.9009583178,-0.9558220412,-0.4355373127,0.298800072,0.0419939816,-0.4950550273,0.7976715574,-0.0741003057,-0.0031400268,-0.4991964003,-0.3827955303,0.5230210629,-0.6342952648,-0.9119915566,-0.4452194239,0.381728854,-0.2339028008,0.4881241956,-0.1138656107,-0.3204018285,-0.2977710057,0.5665188898,0.1581399624,0.8793999223,-0.1401755542,-0.0134300611,-0.9113682064,0.547907829,-0.5307304536,-0.9583282277,-0.1056964052,0.1286137594,-0.9291449623,-0.1522286762,0.6127167344,-0.1927069134,0.311180771,0.4904001206,-0.5700762313,0.025127864,-0.3545763041,-0.8797672717,0.9164283436,-0.9282534002,0.5206432179,-0.3465811782,-0.6755572684,-0.5823717418,0.4991171772,-0.9381225748,0.4981407424,-0.69100221,0.3949257667,-0.6555880658,-0.3450358042,0.3896873655,-0.9309370489,0.0354566908,-0.3290142631,-0.7273763781,-0.4269168922,-0.5381254532,1.0061827137,0.7981227539,0.1358851372,-0.2118434572,-0.8637398283,-0.059622525,0.7376818619,0.4647918282,0.9603921172,-0.2768152524,0.5054849743,0.1351626869,-0.0865146806,0.2879970393,0.8968737095,-0.5290202989,0.7746284838,0.155435021,0.2844228022,0.070867646,-0.7787088064,0.0137749361,-0.6450639262,-0.4536120983,-0.7776266331,0.4963785349,0.0630169264,0.0405934676,-0.7443340379,-0.8094261729,0.2129753194,-0.5154144406,0.8544149115,0.2964949346,0.1714917704,0.9660823504,0.3420956102,-0.6478829805,-0.9035966756,1.0162409137,-0.9160309249,-0.9404688702,-0.4488726731,-0.1060391336,-0.2285439778,-0.0758326532,0.3273596582,0.8490092918,0.6998387079,-0.3179711745,-0.7669951635,0.9727141255,-0.3837073084,-0.4529358412,-0.777678873,-0.4897212268,0.8115996318,0.4700437629,-0.7364679633,-0.5485486269,0.6606094865,0.6658319819,0.0443556209,-0.126155265,0.3393835556,-0.9186726287,-0.8243548986,-0.4866811993,-0.3573790931,-0.6078911153,0.2167657994,0.7825837175,-0.2735535746,0.3653589585,-0.6720844982,0.2151551919,-0.8356629883,-0.9067134113,0.9759361723,-0.6460512374,-0.1731792942,0.5306575142,-0.20967563,-0.6829871247,0.6691990451,0.3272676224,-0.7292554267,0.2614954311,-0.062729621,0.7744588251,-0.4786032796,0.8574870157,0.5682615874,-0.2602568518,-0.0035197636,0.5875066098,-0.4056541949,0.7577501283,-0.8578370231,0.8073786855,-0.7891316661,0.6933356606,0.8276027427,-0.8331495909,0.9452103381,-0.218507846,-0.2850104657,-0.4841579962,-0.6670137007,0.3654244361,-0.6442214284,-0.796721323,-0.7606610348,0.8126540986,0.9988310899,0.598446746,-0.4270275977,-0.4223674662,-0.6557075621,0.3311774058,0.3670034191,0.6469197058,-0.0390298214,-0.0185676843,-0.6728093006,0.2539480168,0.6523005724,0.3327233675,-0.877514722,-0.5526697876,-0.3552497975,-0.268337904,0.8529234652,-0.5058069804,0.5621575805,0.2605139779,0.6404040776,-0.0214865776,0.4677933832,0.8726960185,0.5117430017,0.3527049544,-0.089054307,-0.2679115721,-0.7268477809,-0.3252291187,0.9109843658,-0.6587955531,-0.0061426247,-0.0693105059,-0.9473914104,-0.2938641233,0.0698584546,0.4006325523,-0.3714032615,0.4910712794,0.7379127621,0.7026852285,-0.2515946636,-0.1905719628,0.6533229959,-0.1750099722,-0.2711434459,0.1772212355,-0.6565691579,-0.2455794543,-0.8481098034,-0.14296775,0.6073650877,0.2194303272,0.2051777034,-0.8003738655,-0.9488798024,-0.2890533444,-0.7597935022,-0.450333102,-0.9937472282,0.222935623,-0.891634162,-0.272718672,-0.1060604017,-0.3175469064,0.6105379016,0.8520858671,-0.9156436911,-0.7089467352,0.053441597,-0.0588678493,0.9434763223,-0.4979997099,-0.9600353819,0.6152518448,-0.3895113564,0.683639141,0.2457241231,-0.6864237155,0.9089815303,-0.6562162113,0.1535724407,0.2663976675,-0.1339179472,0.5309290488,0.6820942413,-0.4706759688,0.260441315,0.7897313018,0.4513855265,-0.2154118763,-0.8715070094,-0.293319137,0.1742071678,-0.6505803001,0.0965795513,-0.3495296497,-0.7755214426,0.9234750855,0.6933904172,0.970436135,-0.058431675,-0.162017666,-0.62111009,-0.5250349379,-0.4841276704,0.7078488302,-0.9854556501,0.312336996,0.2080390734,0.8504345028,-0.6008148385,0.8655500455,-0.4675033642,-0.0933609577,0.5734785311,0.468804014,-0.6078094255,-0.729229179,-0.8053468844,-0.9146601278,-0.0411086123,0.9885378785,0.1311467415,-0.0617076156,0.6079807096,-0.3670504754,0.1534240585,0.1123692286,0.6806707433,-0.5110883337,-0.1811654312,-0.0358932992,-0.2079199955,-0.4592008821,0.1656073947,-0.7958282613,-0.5080068026,-0.3632715033,0.2493850664,-0.0472028906,0.7301402767,0.3474960737,0.1086272514,-0.9914542494,0.6834816181,-0.3389268055,0.1135708855,0.6841424136,-0.4213796485,-0.4433141047,0.376334652,0.2130260257,0.566981174,0.6072126389,-0.6621693185,-0.3999962634,0.8623149857,-0.7069996177,0.5996747598,-0.8894156018,0.1881563292,-0.025298654,-0.8819135454,0.1885065032,0.5714489014,-0.4652129568,-0.7647078921,-0.5566201298,0.0389184708,-0.5416746765,0.15415759,-0.7201318691,-0.6542345855,-0.0549548414,-0.5286305144,0.9811032334,-0.3899511697,0.7797641933,-0.8722611417,0.8544702478,-0.5942863564,0.1324321556,0.1808951518,0.4029187648,0.1931304416,0.0277032315,-0.8597834222,-0.7837777357,-0.8234239283,-0.3230089804,-0.5385629918,0.1796823828,-0.2387612711,-0.2169692479,0.203245262,-0.2983643243,0.1675130229,0.2056129487,-0.5457802221,0.9954704807,-0.9168129313,0.8314409669,0.3161314158,0.0993407465,0.6589181921,-0.1931115184,0.9543846155,-0.1725761675,0.4586274795,-0.3620662093,0.0328000495,-0.1713402632,0.4147811873,-0.2565906734,-0.4881000497,0.3122995388,-0.5683203493,0.1331021416,-0.625382661,-0.7900033359,0.9093525139,-0.1423926412,-0.7123883683,0.0447621156,-0.2709493281,0.3828115984,-0.6871628455,-0.0006905601,0.3535292216,-0.877331897,-0.2781123918,-0.9208671581,0.1750272115,0.1863718106,0.0165624013,0.2052138451,0.9972143374,0.2045302114,0.5750778593,-0.4518438885,0.139887917,0.0027287341,-0.6053353532,0.4459088759,0.272238192,-0.0652057173,-0.6406461336,0.2955811669,0.0367602217,0.5254295301,-0.6283880512,-0.2187471046,0.1326757293,-0.5895817734,-0.0867570674,-0.2034086853,0.3424956834,-0.0391737971,-0.965885816,0.4085871335,-0.8620910838,0.6970943701,0.4734033329,-0.2306100337,-0.7310405337,-0.056451762,0.1482128357,-0.0100104624,0.0796148589,0.2347116048,-0.9244740171,-0.0517578488,-0.0429636416,-0.0166512664,0.449402921,0.994862732,-0.0596519461,0.6254710688,-0.9689137599,0.7090691611,-0.9137131848,0.9681844519,0.0712789819,-0.7285122026,0.4416989384,-0.7804233194,-0.317179226,0.8261164491,-0.2259025529,-0.5200379942,-0.9166985509,-0.1114266496,-0.3944833228,-0.5103024273,0.8683221275,0.5793289305,-0.5323363087,-0.6391850131,-0.0630947547,-0.8009724292,0.1190403299,0.2483450838,-0.5772642295,0.2631494601,-0.5012542719,0.0768250398,0.3421920582,-0.2889084384,0.6956193688,0.226800145,0.1796937968,-0.2969156761,-0.0484676928,0.6138281369,0.1458965465,-0.2909010207,-0.9427005324,0.7106681723,-0.0408118472,-0.2571192512,0.7108632615,0.3844912453,-0.1764939158,-0.8198162685,0.5189240429,-0.7072735373,-0.6093790893,0.7813286139,0.6143609742,-0.240594166,-0.7860248167,-0.0766605198,-0.3542745658,-0.4342004605,-0.9266510752,-0.1284635057,0.1306197336,-0.7528794017,-0.3785002273,0.8725975785,0.9583415809,-0.2150661626,-0.4837835641,-0.4726976598,-0.1352818757,-0.0521658657,-0.0969827686,0.9679725736,-0.1429572616,0.871093297,-0.7464563648,-0.9651191956,-0.9472546934,0.2507024506,0.7893335851,-0.9555799718,-0.3130113806,0.4119358638,0.9594292225,-0.458162502,-0.160767974,0.3168684715,-0.8880658099,-0.1971632419,0.6780394741,0.0343237833,0.8020784844,0.2602503439,0.2964384342,0.697360809,-0.8850133712,0.243258789,-0.0050840233,-0.5699910012,-0.154403877,-0.3658654762,0.3674133006,-0.6050598756,-0.3411491943,-0.3448161116,0.7138456866,-0.0191590835,-0.9717501947,0.0519849327
