encog,BasicNetwork,java,3.4.0,1,1589839158085
[BASIC]
[BASIC:PARAMS]
[BASIC:NETWORK]
beginTraining=0
connectionLimit=0
contextTargetOffset=0,0,0
contextTargetSize=0,0,0
endTraining=2
hasContext=f
inputCount=510
layerCounts=235,128,511
layerFeedCounts=235,127,510
layerContextCount=0,0,0
layerIndex=0,235,363
output=0,0,0,0,0,0,0,0,0,0,0,0,0,0,0,0,0,0,0,0,0,0,0,0,0,0,0,0,0,0,0,0,0,0,0,0,0,0,0,0,0,0,0,0,0,0,0,0,0,0,0,0,0,0,0,0,0,0,0,0,0,0,0,0,0,0,0,0,0,0,0,0,0,0,0,0,0,0,0,0,0,0,0,0,0,0,0,0,0,0,0,0,0,0,0,0,0,0,0,0,0,0,0,0,0,0,0,0,0,0,0,0,0,0,0,0,0,0,0,0,0,0,0,0,0,0,0,0,0,0,0,0,0,0,0,0,0,0,0,0,0,0,0,0,0,0,0,0,0,0,0,0,0,0,0,0,0,0,0,0,0,0,0,0,0,0,0,0,0,0,0,0,0,0,0,0,0,0,0,0,0,0,0,0,0,0,0,0,0,0,0,0,0,0,0,0,0,0,0,0,0,0,0,0,0,0,0,0,0,0,0,0,0,0,0,0,0,0,0,0,0,0,0,0,0,0,0,0,0,0,0,0,0,0,0,0,0,0,0,0,0,0,0,0,0,0,0,0,0,0,0,0,0,0,0,0,0,0,0,0,0,0,0,0,0,0,0,0,0,0,0,0,0,0,0,0,0,0,0,0,0,0,0,0,0,0,0,0,0,0,0,0,0,0,0,0,0,0,0,0,0,0,0,0,0,0,0,0,0,0,0,0,0,0,0,0,0,0,0,0,0,0,0,0,0,0,0,0,0,0,0,0,0,0,0,0,0,0,0,0,0,0,0,0,0,0,0,0,0,0,0,0,0,0,0,0,0,0,0,0,0,0,1,0,0,0,0,0,0,0,0,0,0,0,0,0,0,0,0,0,0,0,0,0,0,0,0,0,0,0,0,0,0,0,0,0,0,0,0,0,0,0,0,0,0,0,0,0,0,0,0,0,0,0,0,0,0,0,0,0,0,0,0,0,0,0,0,0,0,0,0,0,0,0,0,0,0,0,0,0,0,0,0,0,0,0,0,0,0,0,0,0,0,0,0,0,0,0,0,0,0,0,0,0,0,0,0,0,0,0,0,0,0,0,0,0,0,0,0,0,0,0,0,0,0,0,0,0,0,0,0,0,0,0,0,0,0,0,0,0,0,0,0,0,0,0,0,0,0,0,0,0,0,0,0,0,0,0,0,0,0,0,0,0,0,0,0,0,0,0,0,0,0,0,0,0,0,0,0,0,0,0,0,0,0,0,0,0,0,0,0,0,0,0,0,0,0,0,0,0,0,0,0,0,0,0,0,0,0,0,0,0,0,0,0,0,0,0,0,0,0,0,0,0,0,0,0,0,0,0,0,0,0,0,0,0,0,0,0,0,0,0,0,0,0,0,0,0,0,0,0,0,0,0,0,0,0,0,0,0,0,0,0,0,0,0,0,0,0,0,0,0,0,0,0,0,0,0,0,0,0,0,0,0,0,0,0,0,0,0,0,0,0,0,0,0,0,0,0,0,0,0,0,0,0,0,0,0,0,0,0,0,0,0,0,0,0,0,0,0,0,0,0,0,0,0,0,0,0,0,0,0,0,0,0,0,0,0,0,0,0,0,0,0,0,0,0,0,0,0,0,0,0,0,0,0,0,0,0,0,0,0,0,0,0,0,0,0,0,0,0,0,0,0,0,0,0,0,0,0,0,0,0,0,0,0,0,0,0,0,0,0,0,0,0,0,0,0,0,0,0,0,0,0,0,0,0,0,0,0,0,0,0,0,0,0,0,0,0,0,0,0,0,0,0,0,0,0,0,0,0,0,0,0,0,0,0,0,0,0,0,0,0,0,0,0,0,0,0,0,0,0,0,0,0,0,0,0,0,0,0,0,0,0,0,0,0,0,0,0,0,0,0,0,0,0,0,0,0,0,0,0,0,0,0,0,0,0,0,0,0,0,0,0,0,0,0,0,0,0,0,0,0,0,0,0,0,0,0,0,0,0,0,1
outputCount=235
weightIndex=0,30080,94977
weights=##0
##double#94977
   -2.389207193,0.0847991464,-0.7189384089,-2.6049933473,-27.0303777752,-2.1690635608,0.1165140489,-1.0258631677,-24.5008224458,0.0548942211,-7.7965925178,0.6774032343,0.3469715421,1.0528129052,-0.6000389215,-0.0909538818,1.659499288,0.98633982,0.6588998635,0.8833854854,-0.3695212185,-9.2281227674,-9.7558941808,-3.3614079362,-2.4737031936,-3.3968575486,-12.4273367746,-0.4663923732,1.219272413,-0.4476628977,-1.1090778403,-2.1098199833,-2.3886285635,1.1897613252,0.2216254213,-0.1464853025,-0.9888293115,-0.0302793493,-1.5025698313,-1.4502545395,-1.2973285299,-12.9446490098,0.5848260236,-26.3701532837,-5.8358687115,0.6770706251,-0.2678572324,0.7176886235,-7.1337804072,0.6695231254,-1.0390117854,0.6056140767,-0.479777592,-8.7840341535,-10.2112367669,-10.4400186435,-2.9937651956,-0.9551019907,0.6795713606,-1.6318565633,0.8429696415,-9.8545357046,-0.0131728974,0.2573356326,-9.4248672853,-6.1805763781,0.0010105095,-0.2855664383,1.5674014443,-0.6261163275,-3.4923466446,-0.8191410645,-3.3946086181,0.7320672867,-9.6741814667,-2.3984376513,0.5701910971,0.0793513539,-0.5138395228,1.453979703,0.0098658018,-9.1461321529,1.0154663497,0.7165013137,0.1700405107,-1.4971175773,-0.3101234919,0.0769545298,-9.3840116633,0.3337148152,0.3780850982,-9.1500462717,-1.0599316166,0.6686645976,0.4452597802,-2.7683720243,4.0776962335,-3.1268170089,-2.9468778812,-26.9468055285,-9.4319272934,0.5841671295,-0.1047564498,0.5806245141,0.8035715357,-0.1198252974,-2.248478266,-2.43988765,0.6310747741,-0.7512464063,0.7915650014,-3.3047211363,0.3226189205,1.9180483193,0.1284351291,-0.2518171417,-8.7670707763,0.9381526098,1.7263686893,-4.6362841687,0.5612744165,0.2372556691,0.3273140672,-6.2741910182,-1.0728505073,0.0409985601,0.8433026577,1.1473534043,1.3172519791,1.0094141984,0.0177611273,2.2377878623,-9.5896701961,-3.6573679715,0.3532607711,0.9478046243,-3.3473089915,0.3253813895,-9.2989225845,-0.3810538897,-3.1888853922,-0.4699818078,-1.6702828133,0.2382892617,-0.3258047709,0.9357001477,0.0298265737,-0.5386889374,-1.5942706217,1.0041638129,-9.5247654293,-10.1478985609,-3.8492404824,0.9309256727,-6.3098933175,-3.3663633737,-0.3422771772,2.9979037904,-0.408263817,-0.3032646212,-3.147462278,-1.1840682705,-1.9567935022,0.4097034967,-1.2555209268,0.6296778132,-0.8492573159,0.3668946422,-0.1822775129,-4.7692576369,0.9952933571,-3.4296646283,-9.2449597118,-0.3963176151,0.4759048353,-0.143549401,-3.9028535239,-1.1020914571,-0.762183754,0.0961463384,0.2616730237,-9.7216641653,-4.2355503386,0.461165461,-0.1301864443,-0.0255742181,1.3682064776,-1.1661306277,0.1425469769,-3.6268379123,-0.9904572817,1.5515031344,-8.762168976,-1.3911613558,0.1931892908,0.7545289914,1.7541932479,-9.7971630641,-3.525618355,-1.2886355444,0.5761314738,0.7075035459,-9.8513277384,-2.4694971586,-2.7835186527,0.2949596229,-0.7636286549,-1.5777810719,0.4786129913,-0.5166772157,0.6448336449,-0.012751448,0.6776656625,-3.8578449576,0.702099226,-9.1934187854,-8.6996032458,-0.6637276442,1.251432601,-0.240545863,1.2226926758,0.4843134125,0.993010031,0.5294291184,-2.2138808119,0.0036053463,-3.7192703046,-9.5287502203,-9.6697346649,0.7324328999,-9.3570049962,-2.6919152344,0.4529482836,-0.54936504,0.0643687506,-0.2463828637,0.0946793686,0.8182246504,-1.0835184391,-0.666010143,-1.4066999213,0.8119700603,1.7272707986,1.1081444485,-2.5048602825,0.7772347412,0.879808771,-1.389349515,-1.7919645722,0.1439749607,-0.8902140101,-3.1780503813,0.1284921163,0.9875801471,0.9812201379,0.3176032419,0.0730613897,-0.6031614834,1.6959758781,-0.478675789,-9.056675092,-5.7293915154,0.7701340234,-0.7347414562,-10.2392611336,-0.5138185674,-2.5016451344,1.4241513213,0.8935773623,1.0440882916,-0.1146955624,1.8662408293,-0.8070698634,0.3897114717,-0.3885028148,1.0936882049,0.4518236162,-9.2663081291,-9.9713073587,0.313276682,-3.4767195323,0.6239433481,-13.7035571573,-3.3013380069,-1.7801759313,0.8580984201,-0.5108535496,-0.3119950498,-9.0312540373,0.0109604248,-0.1993075136,-1.3161350037,-1.6728056171,0.9822381146,-0.0996947713,-4.0670592991,0.8687360254,-4.919032682,1.7111634997,-0.9853602593,-3.7037516914,-0.1457783795,1.3393538726,0.0540893512,-18.1888892049,0.4693720828,-0.3134264951,1.3918361521,0.0859883111,-8.5968076724,0.114844336,-10.2243886773,-0.9854630851,0.6370415278,0.1480439876,-1.1321873999,0.0847062889,-3.0437195314,-0.6257751774,0.5134952456,-6.9060638288,-2.1155659133,0.8058342108,0.7646408031,-8.4789683457,-2.8536772478,-2.8464572927,-0.124956944,-1.1471558415,1.3547441911,-9.4423846662,-0.610843203,-1.5273509779,-1.5675112375,0.1367949545,-0.4445725488,-0.1275945358,0.8205595522,0.437682002,-0.58081004,-0.8560952619,-1.8062026597,-1.4285442073,-0.1713484229,-9.5995727502,-0.8206519414,1.1721195541,-0.2525824874,0.4817802574,-0.9055492895,0.6465703072,0.0871953044,-2.8732650009,-8.1954721235,-3.3778780223,-10.298619964,-10.3089461436,-4.6603747716,0.0656043539,0.135250696,0.0374418808,-0.4366753005,-2.8180915425,-0.0303363931,-0.6480186733,0.9224557829,0.94861184,-2.1247550802,2.0766299029,0.295895913,-0.8208423382,-0.199149297,-1.6114035753,0.4734247129,1.7762679949,-1.7331440517,-1.009833955,0.4736480376,-0.3566968563,1.1074963763,-0.1623733992,-0.1839337049,-0.7274559922,0.0037301668,0.7007108642,-0.3261697997,0.5224638281,-1.9281827059,-5.3385084049,-2.7141659821,0.5445896715,1.3598979231,-8.7435379027,0.1623454142,-7.972384757,0.7566704623,0.928782617,0.9565447418,0.0516566214,0.3999629471,-0.2682688859,-0.0478332076,0.9368410353,0.6621806819,1.0172973596,0.6330691,-10.2502780332,-3.4216450555,-2.4225425393,-0.1728181465,-4.8101908573,-2.2327567998,0.0661668178,-1.0749416961,-0.2344506491,-2.4066693757,-0.2772954406,0.6184987881,-0.7336907035,-1.3283919511,-1.0930749681,2.1841905653,0.7832559278,-0.0280417064,-4.7792669571,-4.9910373527,1.1566784967,-0.3059393881,-7.803483348,-0.0771473785,-0.3832843672,-0.3583265474,0.0401984686,0.4821486112,0.7759117536,0.383501434,0.3258102695,-9.1974908359,0.0270135901,-0.895401299,-1.1577495067,0.4805811039,-0.251478163,1.3633963098,1.0435479447,-3.4670129349,-0.4562313546,0.1527173135,-10.0350954936,-2.0383362341,1.2149762932,0.2257788355,-0.413042059,-1.5049158386,-3.9210025922,0.1795579608,-1.059798167,1.2527370204,-9.1400410038,-2.8105618528,0.0290084786,0.0100713478,-0.249238797,0.0476479314,0.3024738367,-0.5856936169,0.5293518444,0.2728329325,0.6255550137,-0.0828020582,2.113299214,-8.7639007136,-2.7980144603,0.2180226586,-2.6046219977,-2.4340797601,0.0693440051,1.0768910091,-0.3399562214,-0.5710350359,1.2891822215,0.4485335705,-2.2774782624,-9.2171302447,-8.556978656,-0.6432382799,-0.7655603357,-0.8583433432,0.5173044413,0.3130281788,0.1162019154,-1.9368394277,-0.4631401781,0.3531818222,1.0573573834,-1.1287905662,-0.066793433,-0.0795797092,1.2456381951,0.4908111929,-2.5548303415,-0.5452496393,0.0301899717,-8.5552716175,-4.4884925915,-0.2657270324,-0.3350399738,-2.43913749,-0.5941599143,1.1897424554,-0.6339834177,1.1940417877,2.2955005044,-3.0542605592,1.9747242732,0.9608814375,-8.5485364288,-3.379986296,-0.2300277495,0.9491735042,-2.757213561,0.2773952513,-5.9291582924,-1.1877590835,0.446998239,0.6129095936,-0.3663302052,-1.033120167,-1.7962207076,0.3147964052,-3.5929202603,0.8160352585,-0.0829815459,-0.6885419162,-2.4005019692,-10.2922711114,-2.4447384056,-5.385618496,-13.7726446874,-27.8006403487,-1.7153084841,-3.0944078715,-0.1397208686,-3.5729275458,-7.9915227709,-2.7857735293,0.2409297114,0.4202659569,-3.6559160326,-7.9756184682,-6.4596655937,1.3242667948,-10.1800627328,-4.9365080855,-1.9066297846,-3.7805246483,-4.8390607614,0.4459270764,3.1618946765,-0.0049317884,-2.666763308,0.23608386,-27.7276136849,-1.6584998635,2.2303730229,-8.8498667473,-3.2173662152,-26.1347217944,0.2106613976,0.4277325997,0.6691765291,-3.3369100655,0.5503195755,-7.547011226,-0.2814305376,-0.4417135983,-3.0983117173,-1.5331598965,0.8784637693,2.2263227023,-26.4940858827,-8.9678919794,-8.3010821807,-1.0784087095,1.0116893529,0.4985031063,-6.3618084551,-2.554123079,-9.5852814932,-1.1336328791,0.4172160109,2.8003445315,-1.5211015494,-4.9632441565,-0.3189270354,-9.6958559969,-9.0420780968,-0.48133801,-8.6584222833,0.6503930282,-22.410594772,0.4876733559,-5.0228438269,-4.1001889245,-3.1207368482,-8.826656119,0.8070364841,-0.2848971748,-8.3385341802,-0.9892364537,-0.9437769851,-9.4867916134,-8.6393913204,-27.2695026901,-1.1435734381,1.4169966227,1.149013972,-1.1741939246,-9.3036271965,-7.3170840932,-0.0640880201,0.3005038435,-3.4988617794,-5.5121218063,-9.0270318465,0.7199973356,-0.6848414965,-2.3399082664,-4.0875726998,-0.612488485,-3.8046940877,-5.4293088016,-9.9209707921,0.2412238322,-26.5553315194,-21.0577547397,0.6238641678,0.9988815702,0.1260725424,0.8473572051,1.2610345872,1.2224904122,1.1022522106,-3.793002566,-0.8157622469,-10.8470231309,-24.8175654717,-0.7570220373,-9.6791917045,-1.0774217158,-19.0750280999,-9.1351838575,-1.3314737329,-0.5674741413,-0.9155992876,-7.6453215538,1.0031364073,-0.0171619152,-4.1539403765,-1.2458491655,0.3406189334,-2.8632313548,-8.6722772222,-9.7061475482,-1.7683808268,-2.4341362934,-12.9438586246,0.0534890525,-12.4547346089,3.0397574721,-0.0859152841,0.8079269716,-7.9322380611,0.6651213525,-22.4900747464,0.1804945834,-0.2861776715,-0.4156978073,-0.2127380378,-9.8180836088,-6.5044432688,-13.6223632365,-0.2746787096,-27.8466534884,-5.1740627878,0.0318539325,-1.0299335683,-0.4191621612,0.4753983724,-8.9193590817,-26.3472590131,-0.281872436,0.8493500025,0.2584054444,-27.9029043985,-3.823059024,1.465227732,-0.2151207474,1.1320940792,-6.0872859903,0.1567285859,-2.499948215,-0.5423058498,-0.0496601006,-1.753501784,-1.8311851652,0.5313954237,-27.1258039511,-23.1188077319,1.0183980703,2.0025650851,-8.9031122944,1.9279875958,0.1341367213,-4.3156561746,-1.2627342433,-1.5080144315,-2.2873615019,-19.1719313844,1.053647015,-0.6406332311,-8.7597981042,0.4221775031,-9.5038675171,-19.9365588932,-2.0748047687,-0.6776751,-27.514481624,-8.5300166319,-0.3194575257,-4.1259013678,-27.1397945944,-19.0648905685,-0.0111733966,0.7725778739,1.2710448011,-8.2370213326,-26.7209855027,-0.757868942,1.7309928546,1.4712374302,-26.564572359,-0.2573932936,-1.2991870744,0.4806240314,0.0519753533,-12.9952659173,-13.3246423928,-9.095710634,-0.7771877462,1.1570427833,0.9871771919,-28.0353553643,-8.9194472808,-9.2418876821,-17.9630763354,-3.4903667508,-2.6201469121,-10.3356902496,-10.9959271581,-9.4455886764,-0.0789118273,-26.6376764077,-4.9382048216,0.8195969388,0.9676526332,-0.5569370871,0.2688377824,0.4499575037,-0.354772596,0.6793973686,-1.0091330592,-9.5397356771,-3.3135621534,0.9669469128,0.6974053352,-8.9644551568,0.3116731168,-9.7674314066,1.5140893985,0.8349523562,0.1609759943,0.5434900044,1.1141496742,-0.7029276607,0.4987814422,-0.5193025443,0.0453495008,0.2866107534,-0.2790058919,-2.7110232488,-8.6405356754,-3.6127018346,0.5086436445,-5.393048633,-1.5966975041,-1.6533712587,-0.5044579275,-0.0492717433,-2.3322364437,-1.5890851773,1.1313938136,0.2664295282,-1.2346920778,-0.3734236632,1.5982379214,-1.0085631132,-8.5313690867,-1.9474574324,-4.7163575294,1.0745969167,-1.2803624778,-2.8702838473,0.2244538287,0.1154641859,-0.7125372796,-1.7680158896,0.6223295212,0.7826428404,0.9680864212,-1.2216859634,-3.7694537272,1.02711846,0.0381585931,1.8516330287,0.3771897862,0.4904805246,-0.7011809355,-0.0446895595,-2.8692559083,-0.8234418878,0.5219695369,-9.4774650181,-6.2291107496,1.5613640581,0.8135335651,0.7527375375,-2.7684628762,-3.7023943195,2.6255131026,0.4788661101,0.2783957907,-3.4998648341,-0.2875806532,-1.6818958208,-1.2723639887,0.1626196392,0.2573108258,-0.3601530088,-3.6093744003,0.3497287789,0.5318161607,0.6675414562,-1.4198163094,-0.9206428997,-1.0235048559,-2.9814814499,-0.931623365,0.1938306337,-2.8716726522,0.7781826613,1.2302360843,0.3529847304,0.37490184,-2.4693147913,-1.5163566346,-3.2006107897,-8.4542465156,-9.0994221848,-0.0130121584,-0.8292229716,-0.0979033028,1.0752036641,0.104002466,-26.832771487,0.4684235988,-0.6669840431,0.4349526233,0.4848058616,0.7492567723,-0.1254380007,0.6131101105,0.614036588,1.0351177562,-9.4773882526,1.3882603308,0.8972801544,-3.0521998946,0.3314975211,0.5263535869,1.2643766283,-0.0996467719,-0.5468034079,0.1801674983,0.0108386476,0.1157423322,1.5574463885,-0.3942904401,-0.3277708378,-4.5927131486,-9.0542583492,-9.7739243729,1.5087321677,-1.2601435313,-9.0022399978,-0.9598835505,-2.7420258773,-2.0150193958,-0.030518014,0.7746285331,-2.2305844064,1.0146692775,-1.2472855639,-3.3233408711,-2.4180795115,-1.8507015909,0.3309098484,-1.6877491345,-20.0855128505,0.7893422214,-3.5944626359,-2.2624888704,-14.0199295874,-1.1798549002,-12.2352414938,-3.2205211187,-0.9259912287,0.3633545008,-2.4620438592,-2.1945283053,-9.4124302467,3.5071434571,-2.8766254985,3.9518966468,1.0036135057,2.5682020871,-0.3034539365,-5.5087101093,-2.8608684302,-3.1706965983,-1.0943266919,-0.8166342568,-26.9261362355,-0.4651941427,0.068044162,0.789450499,-7.9668575121,0.1586566313,0.3768447143,-27.0455704517,-1.0951099136,-0.0611404898,-1.8474472674,0.0399919167,0.7140885625,-7.7761118818,-18.1927408674,-2.8161559119,0.2839774016,0.101613237,3.2259428753,0.1569747451,-3.9748689327,-0.0059475864,-1.270708113,-0.4157761067,-27.1784704917,-0.1227676277,0.9152628734,0.6454869592,-0.1061259859,-3.9057120118,-2.7515925744,-0.2706709853,0.1433521177,1.8095679536,-0.2046205533,0.7681561588,0.8333843232,0.1848077721,-7.0978985603,0.2346227908,2.0542136601,-8.5440222972,-8.3634784952,-0.7570244485,0.3576947329,-27.3774402737,-0.7771981104,-9.6198593636,-10.2045968043,0.7983661218,-2.6653942118,-0.7534376995,-1.582934192,0.4125601014,1.1285046604,0.0918800828,2.0106097561,-1.4371074838,0.2601837749,-9.9876951054,1.4266356734,-1.2741820029,0.2436889328,0.4657100664,1.0299724102,-19.7811560062,-0.093952122,0.3476452635,1.2536346279,-12.2241056175,-2.6024229929,-1.2233868816,0.9583202071,-2.3482700723,-26.5647124269,0.9362896914,0.1721837619,-22.7287722591,0.0471623234,-1.1516060721,-0.6796144154,1.4849620114,-1.1958442203,-1.3628132979,-0.2619239991,-0.0674206211,-9.7513733548,1.5336697659,-0.3666330942,-0.0416168169,-9.2904258396,0.7393700182,-9.130618841,0.6633311872,0.0409941476,0.6507576331,0.6967466427,0.7390358773,0.5866828691,0.9138710341,0.2450089535,-0.1661080389,0.2260955557,-2.7217112723,-8.5618059509,-1.5993312725,-3.1531507234,1.3373489719,-13.7009831004,-8.9585771426,0.0671301348,0.6776340472,0.3693287778,-5.0050402459,0.0787800226,-1.1249794282,0.250984292,0.4581744809,-0.667923383,1.3645715102,0.5754511712,-1.4138213289,-1.1208812922,-4.4211147589,1.308483961,0.1722838428,-3.4379037163,-0.284483428,0.8279695506,0.6430892085,-0.2987107322,0.4394793111,-0.1871659137,-0.2475069658,-1.5597198607,-8.5965210311,3.263697709,0.4117549568,0.3647600198,-0.1459148029,0.6167332909,0.4509836715,-0.4054611563,-3.7856317938,-0.3922882293,0.6696826174,-9.9789595498,-4.9135491793,-0.4118921368,-0.1776411602,-0.0736631682,-0.1842692299,-1.2751308404,-2.672536792,0.3152296854,1.120764135,-9.6776838176,-1.5783284989,3.8029333611,-0.5913263482,-0.4476852726,1.3980670267,0.4995212072,2.5529060327,1.295992937,0.2242355793,0.8432731967,-4.0074648022,0.1968491031,0.7267615645,0.2750266671,-0.57531714,-0.8217541851,0.2461398439,-0.1235519627,2.2787723929,-0.9230624007,-0.6416920918,-1.0429301098,-0.0458397471,-3.3443553311,-9.7248306682,-9.9009229067,0.7007103657,0.2651201215,-0.4188694462,0.8643656935,0.8431017493,-1.0044050193,-6.2743309905,-0.386136734,0.8877835779,1.1338889694,-0.6903489973,-0.4103772792,0.8872495427,1.2687963675,0.915674276,0.6675463447,1.4393846357,1.277451968,-2.7973497693,1.8879697225,-0.6424436098,0.9843908479,-1.8933551891,0.35822887,1.8764590662,0.4763857824,0.4444600863,1.2102294317,0.2039771165,0.8140348456,-1.8312858372,-10.0284054128,-1.7076475107,1.3905850119,1.2756609198,-8.2610964473,0.8069527689,-9.1223242968,1.4800737857,1.6058581295,0.3561092703,0.0760717883,0.5806338916,0.9165828086,1.3071959919,1.2185436546,0.9279634308,-0.8426124064,-8.6913813654,-3.7406577385,0.5995287342,-2.568950429,0.5936226389,-12.314161929,-0.1143163311,-0.6322875255,2.327306463,0.6050806775,-1.0605192284,0.3912304826,-0.3917949175,2.0745233439,-0.0010901626,-0.7072978512,2.3138655744,1.02035582,-1.7774934527,-1.1285248686,-4.4892655186,-0.241854773,-3.7286166561,-6.0170810962,-0.7647453916,0.9092361926,0.1221322323,-7.3593349063,0.6081098475,-1.0321661305,0.7104298859,-3.9758547701,-9.8273324064,2.2167110192,-0.03731469,-0.8718782571,-0.458745422,0.180492253,0.7156500603,-0.0389687477,-0.4257315983,-0.2411312353,0.339419207,-8.7126856673,-6.2765659185,1.8356786636,0.6889712755,0.6517056171,-0.3721239843,-2.4694206398,3.6326980318,0.9598844658,0.5320193158,-1.7731756306,-2.9826803244,0.3999237082,-0.8265160196,-0.4443467623,-0.5444113445,1.1221116993,-8.365580817,1.1406246687,0.6069407714,1.5914561141,-0.8486113633,2.2209971077,-1.0368403585,0.9189963693,-0.1060994333,-0.0943733271,-10.2424078932,0.6937779396,2.0101920785,0.3799683554,-0.8094349311,1.0764520866,1.5171242598,-3.1696814884,-9.0132624597,-9.585001417,-0.6297952053,-0.0600026979,1.1358360782,-0.2829824421,-0.9239529456,-6.5436446547,-1.2735316058,3.2020187084,-0.4716702278,1.0014171077,-0.9180856061,0.0409991069,1.1660387438,1.1520829319,-0.830251361,-9.0532867054,0.0467123684,1.1945268371,-2.2007847665,0.2658932209,0.5229874675,0.082695684,1.4012231224,0.0442244202,-0.4613975812,-0.1971117245,0.8013652876,-1.781270644,-23.5220830597,-2.6272121948,-2.652292711,-9.0078676249,-1.1334826375,-8.205657605,-0.3007248396,-0.8952894449,-0.4281109101,-2.9163543871,-3.2652277248,-27.8243677296,-18.7849118393,-0.4468758952,-25.5575245406,-1.1830945876,1.5197077971,-27.9015649532,-9.049797216,-0.8899769697,-25.9545089434,0.942086659,-27.5347658374,-1.3234043448,-2.3045166731,-4.0928184991,-8.3884680414,-9.1718555578,-2.3101023808,-0.0765725465,-3.6925568835,1.2836230125,-26.3205870257,-27.158157539,-0.6455714235,-1.1970702414,-6.8991307232,-10.6774946008,0.7706251422,-0.1681604755,-12.461917814,-1.6798499292,-7.9656211806,-0.6683825743,-1.1931414531,-3.7288829825,-3.0764010591,-5.0754359894,-27.0092921256,-27.0966927257,0.5506490241,-0.3812799084,-8.0798054695,-26.9989719979,0.7357186627,-27.759637109,0.3660228397,4.2079447417,0.8324091671,-14.1195963808,-8.4345850937,0.2446338417,-2.0472949778,-1.6461872393,-0.5644869962,0.9821146096,0.2801100821,-20.2758753593,-15.6437960677,-19.8958334156,-13.6272174027,-1.1227787979,-1.0168673048,-2.106084819,-1.2813536793,-1.0068478483,0.2125731487,-17.1138205334,1.2849768577,-5.4891502674,-3.2147862685,-27.0934028277,0.2998689786,-11.3223039393,-1.7185036034,0.6820527067,1.0262209574,-3.4197309799,-0.673017093,-9.8977977702,-27.0094619847,-17.9600091885,0.9931431749,0.3189086982,1.7259484197,0.9698121974,-25.4035676894,-5.3014809904,0.5192795699,0.1413864719,-26.0523756392,-2.2024482231,-2.3372601053,1.1846453112,-26.8835635467,-11.8734920539,-0.1894662469,0.2945631323,-0.7980436309,-3.5499302135,-19.0613225533,1.3440087617,0.2163925288,0.5431411001,-17.8989665172,0.2177165568,-1.1879175758,-27.4977999143,-10.4508703874,-18.4827295889,-1.1634439007,-26.6236169625,-4.5453088649,-0.2305616901,-0.470868623,-0.945321763,0.2173190501,0.1424953648,0.2540320009,-1.4658799882,-0.6842863479,-9.9619710552,-3.1589516228,-0.3206971361,-0.7764557287,-10.0404600702,0.245325183,-9.5427016677,0.8650631831,-0.3684813895,-0.8561633255,0.9757834235,1.2459000263,-1.0909639287,-0.0243309654,0.4690449899,0.3255135363,-1.2518725974,-8.6142910477,-8.9271480224,-8.6951532704,-3.6045897594,-8.5977747212,-4.6139548224,-3.1410354904,-0.2424274986,-1.3258342323,0.347396045,-4.1544713779,-2.1551198889,0.7264222037,3.3216167572,-0.7828742371,0.3522899473,2.0455137264,-0.0478712243,-0.7811888532,-3.4807172065,-3.5000870845,-0.9212225818,-3.3470575721,-6.229463139,-0.7702155536,-0.1795264207,0.4003127424,-5.7619041378,1.9652287462,0.2322108297,0.9323005174,-1.5848487695,-2.7171452369,-8.9749792739,-0.2821828363,0.1073524638,-0.3004685713,0.796569219,-1.0898604127,-0.0938910195,-7.7349882717,0.0011995798,1.0590990817,-5.6338297237,-5.5417065148,1.5482202308,0.5475989371,-0.976233812,-3.4103515464,-2.9560212898,-2.8028109255,1.05292988,1.6233762562,-0.9714938895,-9.7241713636,0.0141799774,0.4438624244,-0.0298480605,-8.3496549828,0.7064487471,-2.8414963623,1.2925381217,-0.4361432905,1.7065117406,-0.0092686431,0.1417155846,-0.4749537216,-9.7516041333,-0.0536495443,-0.9222619048,-9.1591088234,1.716072653,1.4300453049,-0.1427473585,-0.6798174659,-3.1178112603,-0.382306557,-2.4370055455,-9.9318658178,-9.1416212711,-0.1579589394,-8.3530669799,0.1855634716,0.8274430024,-1.403314234,-3.8568261005,-1.8963072211,-0.5561767407,-0.6570523193,0.2081209541,-0.5378066,-1.7766635452,1.1948498757,-1.2307314354,-0.715778604,-2.3219239351,-2.0755422342,1.5875468297,-6.0131731624,-6.6116246001,0.1576921514,1.4139256385,-0.9213628146,0.6890848469,-0.7728763849,0.6114310386,0.3362519183,1.0020438408,-2.970682324,-0.0107860908,-2.5809800242,-1.2366843566,-0.4644240547,-0.3827496494,-0.7804445683,0.0249317494,-0.205684779,-8.2325981921,-0.5516513176,0.829984864,-1.694984105,-2.9142139994,0.4866207301,0.2819185625,0.6200320196,0.4455287237,-1.0546086057,-0.15205311,-1.4906755212,-10.0704273632,0.5541074205,-2.9812448963,2.537910248,-4.9496487878,-4.0918754121,-0.2930383896,-1.0348416727,0.2472979961,2.3951221785,-3.6734226066,0.4436745869,-0.0346190207,0.1018022006,-0.5972519601,-0.1004109693,-0.7748152262,-0.4287100132,-2.9097817903,-6.0677842809,1.1392411684,0.5370129225,-6.7186749108,0.0889000602,-1.1936626921,0.3909974084,-0.1914480594,0.0603352726,-28.0024536597,1.0645798486,0.2931147026,-8.9240558785,4.6071053875,-10.011281658,-0.7991794337,0.7047424354,0.9868054319,-0.6047627984,0.6276232538,0.2506642318,-0.1164123368,0.7108314966,-7.0053225771,-2.0205017341,0.9028210571,-1.2806776912,-1.1982364842,-0.7380007175,-0.3711464691,-1.0844360794,-0.8412046946,1.2633524643,-26.5795577989,-2.2159957523,0.4333632879,-0.3130174586,-1.8613008904,0.3365560047,0.3868021436,-1.9588734025,-0.3793086709,-0.1404610577,0.5773436165,-3.3495305277,-0.4959046833,-0.0112467689,2.1834284665,-0.4467097093,-0.8746489721,-0.5218193024,-0.9644232752,0.1508648897,0.0730430061,0.2308732549,-3.2149965898,-10.0014901019,-6.7859070752,2.3583954174,3.1422613034,-0.7145712515,-3.0296643185,-3.1112996846,1.3199485897,0.3893663443,-7.1517824291,-6.6294003664,0.4915663561,-0.6390247204,-0.8325021546,0.0002488404,1.4433144011,-2.8117629402,0.349582376,1.109143609,-2.4222905758,2.158001803,-0.1220928388,-0.066273568,-8.4578390763,-0.4681052047,0.4781951392,0.1149650347,-0.2556080566,1.7477535781,0.4331696513,0.1411639657,-0.0395237429,-2.9595061812,0.2458858381,-1.6524193976,-9.8838880219,-9.5075582526,0.6545404951,0.7689316644,-2.2865448842,0.7116200807,-2.0960696594,-0.8618791238,-0.5121257161,0.9198770405,-0.3430712269,0.8604110074,0.8625813923,-0.8603772894,-0.4965163125,-1.9839023682,0.2415919312,-4.0617530475,-3.0115219729,0.4639627673,0.8819716342,-0.6730260164,2.3919923453,-9.9088368241,0.1630281788,-0.52729163,0.2011176258,-1.7917660414,-3.6793980692,-0.5970953126,-0.3522007073,-0.6002273822,-0.8135878779,0.9201102156,1.6656434603,0.1363013725,-1.067828872,-4.5599093711,-0.9916251754,-3.2183061277,-3.2968475914,0.186405601,-0.3179730693,0.7776187623,-6.73353809,0.4508423446,-1.9301360239,1.0871806041,0.3527733478,-3.7623878111,2.7564918182,0.1598060947,1.8443994832,-0.3130711285,-0.6414449091,-3.2759082785,-1.4143511896,-2.3728721263,0.592813743,1.1487799639,-8.7249021396,-1.4494418198,0.6897542974,-0.7361673795,1.0432920346,-1.0372544384,-2.9205211478,-2.5803575697,0.7182669448,1.1388721514,-10.2906072885,-3.8622208927,-2.4561036552,0.2318506578,-0.1448797448,0.4706382128,0.314471471,-1.15878274,0.4643404159,0.7584620231,-1.4858198487,-1.5266140806,0.1793711188,-2.4409394923,0.1160900296,0.6445982351,-1.1398039078,-1.6350757564,0.2815658295,0.7720760426,-3.9323890714,0.4239421115,0.6787031341,1.7387389094,-3.0566291324,-10.2294374815,-10.1516870945,0.0736225602,-1.6213108638,-0.1316989083,0.8252922179,1.3358306169,-27.3555486846,-2.9678791867,1.6471053456,-0.70702895,1.036382984,-0.2199204745,-1.6393282548,0.3035006599,-0.5947247386,-0.731589214,-2.7701390622,1.550770961,0.921754597,-1.8183897347,0.8101727432,-0.0095598463,-0.1818629884,-3.9868714353,0.3209215418,-0.6922266365,0.0239658046,-0.1080924838,2.4230247188,-8.2784700028,0.5340244935,-1.7873723889,-9.8544562791,-2.2710399387,0.3377374838,-1.0038658255,-22.6585383188,-0.6399682277,3.7501584229,-0.2526001311,-0.6562257482,1.0667846929,0.3157034733,0.0585852706,1.5911688005,0.8010174375,0.2896439762,1.4490327293,0.6732084469,0.8574348722,-3.3680668631,-4.0179037106,-2.5134507708,0.2955599999,-13.5149742099,-3.5168869295,0.5654016423,-1.7587488532,0.6140177071,-4.9273603883,1.7349055629,-1.4098219727,-3.7411368503,-1.6439899984,-1.0499477184,-3.495435841,0.623797629,1.7099224199,0.223630927,-4.9957837881,1.395175003,-2.7347173362,-2.7028875739,0.4068440932,-27.7519573889,-0.6953699259,-2.4216430584,0.910262301,-26.5714950923,0.866829982,-7.0576901946,-9.1972648091,-9.7235584287,-0.404240368,-10.2651807236,-0.2213477019,0.0521292702,0.1119394139,-0.2961852939,-7.5169519343,0.1093549366,0.0540435867,-6.3650505039,-3.033287176,0.6907895958,-1.826085362,-1.8816698179,-6.1734158138,-10.2253070602,-0.492873247,-0.7471541391,1.5331151982,-8.5698957404,-2.6617008098,-0.1583672428,0.0804471801,-0.2199427963,1.7102756797,-0.4107070655,-1.1647554169,0.1500217041,-2.3999383514,0.8517529316,1.4109944733,1.1641852705,-1.6332052162,-9.5145374091,0.6102772027,-5.2449432938,0.2758247108,2.9160971947,1.0962059039,-26.36099789,0.9147316522,1.848052703,-0.7864754185,-3.7992157589,-8.9799505671,-8.5868595852,-0.1157979606,-0.4719966874,0.0468108316,-1.0241694538,1.8220680071,-27.7862112016,-5.7729404895,-0.5603817922,-0.0902339187,0.9678019718,-0.0368468496,1.1873054946,-1.2418345683,-27.8220980152,-3.0700114868,-3.0788386381,2.120818203,3.0184362483,-2.919600886,-9.8881994801,0.3074715161,-1.5035984082,-7.6607791504,-0.1998586536,0.8468556381,-0.6047613564,0.4850430346,-3.0561092198,-0.8262797259,0.5811825014,-1.7162842197,-5.5888710974,-2.9284017298,1.6089755413,-0.0353414408,-9.9211044658,-0.8071428208,-9.1087083767,0.6231903264,0.034149174,0.1976227479,-2.2772762165,-0.2193514307,0.2093814373,-0.6662145187,0.4770288261,-8.2317855968,-0.3490297768,0.050863158,-3.5269501927,-8.5258329265,-0.1444884742,3.225193917,-5.0013367647,-0.5500056762,0.8469414921,0.8729271971,-1.22038348,0.2458066347,-0.2576523342,0.8600556461,-2.4770386628,0.2491227393,-1.6853531291,-0.8258945957,0.8310022251,0.4198958365,-0.5116055046,-4.2613610008,-0.753769444,-3.7755618155,-3.1698644603,-0.8720126607,0.8048413436,1.1958611154,0.3329073149,1.0704599268,-9.9745877541,0.0595359717,-0.4803800198,-0.2013041452,-8.818271198,-0.347852728,0.7116930746,0.7560888765,1.5963289373,-1.1157536156,-0.2565536168,-9.9437582434,0.5514890702,0.0238223073,-7.2063538594,-2.8664054546,-0.5140935538,-0.6492130314,2.4658766,-0.6885524644,3.810180387,0.3651868646,-0.7600251768,1.0758839878,-8.4926799042,-4.3479345916,-1.259401152,-0.1920476322,-0.4007866204,1.3560521074,0.1222125091,1.0543110185,1.2923204965,-0.2324634407,-0.7477655486,0.0743508639,0.0239780457,-9.2896534876,-8.4604177366,-0.4506959795,-0.7717411908,0.9330424704,2.1299941785,-0.2775369157,0.7512693887,-1.1750769117,0.3755736393,-0.7180923812,-3.6555585301,-8.4564970358,-0.2554890645,1.1568934954,1.4177034435,0.4970116877,1.521561578,-0.5872889731,-2.2099241144,-6.3196248038,1.1166812042,-0.009611771,0.8270068014,-0.3891881891,0.1186536995,0.0172247383,0.462164917,0.4488908415,-9.2932122456,1.3769519472,-0.7221680754,-1.7788713704,-0.5645514055,-0.092163914,0.3787892883,-10.0055872293,-0.8243244741,0.3484020902,-0.3715636496,-0.2376330855
   -0.6310655278,-0.9806825472,0.9335770626,-5.7110880959,-9.9534418543,-1.2655501598,2.0788340943,-0.8813652759,-3.7402165709,0.3391381161,-0.3027790196,1.1970664086,0.370126512,0.4039613745,0.7048925766,0.462122341,1.057435983,0.3058083407,1.1446208366,0.1798367809,-0.137035596,-2.5308051758,-9.083276983,-1.3792961692,-3.1694428858,0.0763258747,1.7252347829,0.876542931,-0.4451129235,-1.9447382348,0.3568688796,-1.2065159246,-0.9385210862,0.7329080432,-1.0287826283,-0.9679425363,-0.3744577428,-0.512108265,0.7420469402,-0.5684207119,-0.1769938434,-5.2831795489,0.6436673861,-1.0420406163,-1.0091746112,-0.4718182643,1.5468083372,-0.9248445543,-3.0319331965,0.6211450535,-26.2914754675,0.5905575006,-0.326267712,-2.0889454589,-0.7853021389,0.0378036899,0.9022216828,0.8073103779,1.0270130967,-1.7384971637,-0.7031404574,-4.2183276234,0.6374226667,0.9391977865,-3.9590801694,0.4383559413,-0.5128303535,0.9871451027,1.7637572767,-0.5429469902,-2.7219346871,-0.5257075757,-1.1974953402,0.3827497288,-10.2832014119,-2.3516741457,-0.6365681666,0.7531556872,0.8711224215,1.5485429888,0.3673647436,-0.408544486,1.1037660166,0.3762093853,-0.5003058852,-1.6218635984,1.0664745319,0.3347357256,-10.0806059085,0.2656052801,0.9347630311,0.8103951658,1.5271194285,-0.3248703202,1.1438441218,-0.2112784333,-0.2346461588,-0.1339318531,-6.7583277206,-9.0790664776,-9.0886718747,1.0580252046,-0.4219484857,0.1160289748,1.0356319302,0.4055942925,-28.0080682023,-7.3565437499,-0.8591722439,-0.2343307487,0.8352703772,0.0951377613,-0.9810852164,0.8245197075,0.6403350048,0.3523625063,-0.5198716621,0.600629247,0.738699818,-0.5273211801,0.0992452733,-0.5702658885,0.3340237822,-2.1279910622,-1.4000827559,0.5880472542,0.395711858,0.2787888032,1.2969853099,-8.1808184935,-0.5195785272,-1.9423945556,-8.7721122399,-2.508193268,-20.3424464671,0.8113081462,-3.0363974875,0.6770122011,-4.3825730731,-26.3577593362,-27.5721295665,-27.4591191359,-0.9875991447,-1.5975483651,1.4589923869,-0.2285319828,-1.4211842462,-0.3669392379,-2.3436739821,-8.9930309916,-7.6164035257,1.412280123,-1.5187229161,-2.0036353118,-4.6141041693,-18.4919857326,-13.4784327315,-1.4624731818,-0.7046158882,1.3385622388,-1.2484577379,1.1479508195,1.7513608417,0.0135848838,-1.1239211361,-8.5743305002,-1.312348119,-2.4178214429,-2.3806645473,-4.0379718392,-1.5205970066,3.1648339962,-0.7935330634,-0.7839147442,-1.1346985411,-1.9346463513,-7.1913463289,-0.2662556025,-2.8670736601,-0.2962244661,0.6571947557,-24.5362427317,-1.7126803069,-9.010039148,-1.769953096,0.7373783386,0.3453361731,0.6461337626,-6.6328846566,-3.213968837,-0.0709311979,1.693836967,-1.7621071542,-2.6461018786,-0.1327158498,-8.5607101945,-19.8437828129,-3.4075150769,-27.3193546406,-25.1995536491,-27.1490458507,-0.3671156321,-11.6846580707,2.2978307319,0.3156870433,-1.6312630103,-16.2763926168,-0.2580012795,0.0904204272,-0.1884607882,-26.5788878373,1.0817133325,-1.3139335746,-4.5972246631,-1.8087955158,0.9163305534,-9.4246197241,-0.0585293056,-11.9600681022,0.3258184003,-3.0558524241,-0.3393511905,1.1178423915,1.3213097751,-1.2283740912,-27.3641251763,-1.5764965012,-0.140871553,-9.3204860047,-26.0055132768,-2.0315216877,-2.2086550789,0.9624835327,-0.2178707728,-11.8723145723,-6.7380948361,0.6838406938,-0.4746427505,-0.0756914501,-18.5573665211,-0.2934931773,-10.1113939994,-1.2031919239,-18.4841597818,-21.1674372421,-2.4186275643,-1.2089200783,0.1465979543,-22.8197427254,0.4771967137,-0.2696405451,-5.0748201981,-0.5612983798,-25.939971182,0.0125688851,0.355714021,-3.3376167496,-4.4128242726,0.3459868679,-2.6397193556,-10.0203731583,-7.9555277039,0.54383271,-0.2030638053,-2.8174324224,-0.242758451,-2.6686490679,0.1704605679,-0.0894033588,-0.0250944399,-3.3129709344,-0.355166248,0.7479430629,-0.5434891056,0.2806610029,-0.7007299355,-0.2256155171,0.4476429378,-2.9389499937,-3.1588592014,-2.7783518399,2.8837685566,-0.5137706297,-3.1791047508,-0.0836503276,-1.1259973258,0.1488061095,1.202725403,-0.858117052,-1.9900598497,-1.4138179978,-0.9815929584,-0.1181891982,-2.558780907,1.1686682521,-3.4067323905,0.3023409893,-3.8521244732,0.5026895982,-3.5250167636,-9.0340218764,0.4139340978,-0.4293196296,0.0126535704,0.0876433164,-1.4416346833,-0.07621802,0.129563816,0.0307336697,-8.4434039852,-9.2342763522,0.9850633326,0.4450576826,0.7421403025,0.1759015571,-2.0788851404,0.5080731744,-2.7933115507,0.836406283,1.7534082996,-6.521427713,-6.3303800368,0.4365823262,0.7952295046,-0.9860588412,-8.2633802694,-2.8980157994,-3.8477869296,-0.2310149108,0.3218858328,-7.9281380281,-1.5080875931,-9.4806988303,-1.2575982002,0.2556094259,1.1646832194,0.9604972267,-2.3954318043,-0.5589245546,0.3967918816,-2.5551817266,-3.6678237829,-1.0185041152,-8.3567722226,-3.2825912416,-0.767368662,0.5358746616,-0.3863908739,0.5634738809,0.7430917641,0.9949616202,-0.3621184433,-2.7893610125,-9.9401042677,-0.2677453372,-9.8553253276,-10.2757206609,0.9462087419,-1.6207937073,-1.4279093309,0.9943197384,-1.5670460034,-26.1880059168,-6.3730954958,-0.0266277127,0.0154490293,-0.4827235501,-1.0548874018,-9.6666224677,0.4950621025,1.3050252317,0.0254383878,-1.2276418921,-2.2179425209,0.1559831344,0.5266378505,-5.2926140583,0.5810901556,0.4132286033,1.8095672058,-0.2417750251,1.7835593933,-0.9219307745,1.2378007565,1.3453550232,1.4068376078,0.1047662156,-0.9085714132,-10.2016042124,-0.2479717572,-0.0255607734,-0.2106467048,-3.1094439071,0.3946698672,-2.2591935985,0.4490565368,1.1164916534,-0.2679128729,-0.5717362645,0.2062624105,1.0352704883,0.4727406329,-0.1024877351,-3.1828192469,-0.2641334135,0.2352954773,-8.4326563372,-4.126594917,-4.0582083194,-1.3977436167,-4.8611461357,-4.1170934029,-1.1927256189,-3.5916553991,-0.5298869947,-1.073968742,-2.7443246314,0.8020023326,-0.3984018993,0.103592407,0.3422239515,2.9514480542,0.4914490138,0.9501267048,-2.3664182286,-4.9870488318,-0.3973863656,-2.4164184048,-3.0461475581,0.8131774293,0.3354981408,-0.5452189619,-8.6448357588,1.6330646361,0.6728063732,1.2183661258,0.1764200268,-3.0282360961,0.9861415368,-0.3111543264,1.0782353527,-0.4918958585,0.178099329,-1.2175882744,1.0097221334,-3.1589523954,0.0692321325,0.3703292704,-2.2357075302,-2.9474653844,0.5874591275,0.6293809681,0.2599450085,-0.1161741794,-3.998584443,-1.9616990049,-0.1903606616,0.3298443637,-9.6553045606,-3.0073516185,0.6685303209,0.6160354073,0.5782235317,0.318236652,-0.7425438824,-0.8873360586,0.469559674,-0.5215263354,1.4803660846,-0.8902887984,1.4104099139,-2.4626713094,-8.8741069951,-0.0651007707,-1.6128518785,-0.0921824587,-0.9975348483,1.1317777927,0.6487470434,0.2285799515,0.2976029921,0.5213883317,-1.7097120175,-8.8193775209,-8.3578330854,1.3273568319,0.2596054875,2.6712628728,0.735296828,-0.9482350155,0.0319569243,-0.8497032577,1.2217981988,-0.9143477794,1.2838386369,0.6111806639,-0.2478826568,0.5398990627,1.7180880052,1.1535156945,-3.538328133,0.2102431255,1.0038167881,-1.6289198097,-4.1038913365,0.1080284392,0.3250108518,-2.7494202204,-0.2397869978,0.7143647261,-0.1877691479,0.4453072414,-0.2269941948,-2.936944882,-3.4553390759,-5.4246004228,-8.5105375453,-0.3952510031,-3.512145143,-0.7929267922,2.3717336728,-0.3273476343,-2.6821628719,-8.568398089,-0.2015576164,-6.4327606018,-2.4871090055,0.5975844588,2.8918726534,1.1980653875,1.4820688255,-1.441379919,0.0088908771,2.198008028,-24.3217551154,0.6383282824,-7.8112864387,-1.5765734408,-3.5181601948,-26.3058585429,-11.5678166053,-3.7669621661,-0.0830095807,-0.8728841115,-2.4226786354,0.6387463908,-2.9267976449,-0.8840150774,-3.5735520811,-0.77334347,0.2681322025,0.8913855885,-0.686621366,-3.7484018506,0.8027895457,3.1458306216,-3.2011834022,0.3743145849,-1.0220644283,-2.0655246834,-3.0522782215,0.3456309544,-19.0107041429,0.586142488,0.3828814972,-16.6813064636,-1.0300253762,-26.7201456011,-1.6896773271,0.0975108472,0.8595913508,-0.4419411629,-0.565819011,-0.5561196579,0.0341376134,1.2207967868,-5.3815638284,-1.9813140454,0.8064145333,-9.4523651962,-9.6403655653,-0.3924156742,-8.9005131105,-2.1294566911,0.5112323612,0.7953068405,-27.7782137279,-2.4104004498,-0.524987248,-1.1462311527,-0.1292709324,2.0042152725,-1.0201711466,-2.2537649879,-1.792371355,1.1305126917,-0.6947537789,-3.6291461819,-0.1234622954,-2.4126590425,0.2618134212,-0.6925655194,-4.0931706478,0.0647997944,-0.094885225,-3.3204453104,-0.2355106012,0.0633367436,-0.3405139799,-9.404984023,-1.7017477917,0.59557193,-0.7802166638,0.4041126634,-0.1084282609,-3.2837557775,0.1759051239,-0.3082502362,-26.5131167065,-17.3911078034,-2.2578941935,-1.0022583764,0.2086844614,0.6498510969,-0.1328616464,0.2711950976,1.0174658889,1.240705455,-2.3881183063,-1.823289231,-1.2144507021,-0.9302971256,-8.5971969154,0.4030746438,-0.8791607657,-10.4730892439,-0.2277722567,2.0343139876,-0.6026988225,0.9743031881,-0.3116590008,-1.8686347934,0.0280303024,-3.5284476745,-7.0201728215,-1.5402923919,-18.7945436949,-0.8782544723,4.0289184837,-1.0123675007,-13.0951467569,-8.9586937565,-26.9588628428,-18.7613507166,-0.6232344173,0.7970922858,0.8131798726,0.4576336591,-3.8479826793,0.2126017694,-1.042233213,-10.6087435214,-13.3397412327,0.6539811429,-2.8108459572,-0.8195408229,-6.6328091658,-19.8129462481,-9.2371486604,-2.9080755405,-0.4563567318,1.0828514299,-2.4443548662,0.7162025272,-2.3023034864,0.7497954732,-1.6931111747,-8.2391980405,-3.0323090902,-0.1764617657,-7.5231169744,-10.7687837718,-1.8885328372,4.1275568335,0.6552439509,-1.2876860594,-3.4476197008,-1.1493293897,-16.3547671598,-0.5379769597,-27.9418102963,-3.8284314203,1.0987286183,-13.4327061187,-10.3762337517,-27.4896107881,-1.0396147613,-1.1013645179,0.5308984766,-0.7481162439,-0.4890135055,0.7845234016,0.8105121098,1.336734556,-1.4494736788,-2.2920335434,-0.25206626,-10.0158340649,-16.0790012779,-3.1041650994,-9.2642357288,-21.2879219877,-24.1688851345,0.5932063867,-13.1516977865,-3.8246202218,0.4936900864,-0.6016773218,-13.672454486,-1.1259603341,-1.1841799705,-1.7234505426,-26.1050806173,0.7224839912,-15.1466754212,-3.6756741201,-0.4743283613,-2.8167849615,0.0365595209,-0.2847108138,-10.9503756301,-0.0141224831,-5.0158193196,-0.3956426299,-2.6604474422,1.5390944604,-5.3946656662,-26.20868303,-2.1318172215,0.7987501681,-0.4078793009,-12.7551957222,-2.1643773937,-2.2821360464,0.02003322,0.4054540785,-11.4564218416,-5.0415415104,-2.28345034,0.3591583838,-1.0817920569,-12.7119878087,-0.7183820563,-25.8041249931,0.0573348235,-18.3695316466,-6.8679981403,-1.2391157412,-2.4999239387,-0.3317538078,-10.7266117334,0.5643618771,-2.0759143994,-4.5034918735,-0.6721943781,-24.4319525383,0.069695464,0.7842328178,0.5452895072,-9.7333894028,-0.2562195533,-4.7641037569,-9.1400980826,-1.3536852193,-1.0357705925,-1.3478601477,0.3559038593,0.5241333345,-2.1909342927,0.273165732,-1.7664261336,-18.9049910026,-1.5915758723,-27.6342749899,-0.0359699129,-0.3495476743,-1.3113203982,-1.3101206145,-2.2462908326,-27.2547974463,-0.2542875948,-26.6685701037,-1.2407092526,-2.7731810092,-0.309202019,-10.3018972849,-2.9637048772,-0.2491756066,-0.2085352262,-2.4990670027,1.0362716675,2.9492021152,-1.3492494909,-0.4606761922,-0.9491958931,-3.5454571993,-0.860295577,1.2794097925,-0.3159918988,-4.913163377,-0.4221576895,-3.7764642968,-0.3846973945,0.4820051587,-0.3705706596,0.3023641006,-3.2659558609,-0.6353176182,-18.0723090831,1.0342595821,0.8613315894,-23.3518641386,-28.01918614,0.7288565348,2.1942910124,-0.9256436566,0.4858950879,-0.4255507236,-17.9098581641,-10.0423366056,-0.3811791986,-0.4986149537,-5.162022,-1.3270053748,0.7763984388,0.9746566255,-10.1680289032,-8.2556317154,-10.2555224938,-2.4259029778,-0.1282949271,0.9448204617,-1.0279511861,-3.2771307831,0.1608768789,-0.1618363804,-18.2501986965,0.8253658191,-1.5691873768,-1.9207630654,-2.6270594928,0.1591732263,-0.2496540373,-2.6315541342,0.8799321109,0.0154616885,0.0299077495,-0.5198610436,0.9938506392,-26.536973314,-3.5591432725,-0.2547572105,0.3487748101,0.8201369426,-0.4615740007,-7.3678675259,-1.5745891296,0.4774166668,1.3630453356,1.0410686556,0.0167356609,-2.5964640746,1.2986032211,-3.9723824919,-16.7866658268,0.0097860868,-1.0255961026,-0.592814388,-3.0951918392,-6.8648439509,0.54381179,1.0531111889,0.4240193923,0.526787527,0.9914582381,-2.7466853633,-1.1364208003,-5.8617007325,-22.253704201,-0.6683669985,-3.4847817423,-12.4218565248,-0.345457499,-0.0603204088,0.631474994,-0.5405664501,0.1702254841,-18.6769204588,-2.441140462,-1.6388037088,0.9587053516,-19.0485444812,-1.626962663,-1.4107440065,-0.062253374,-0.5630061671,-9.8497645742,-0.1391520617,-1.9512074215,-22.6643883859,-0.7242873043,-17.15896163,1.4494864002,1.2983331999,0.0231354772,0.3707905715,-1.8032014135,-14.7249309985,-22.0676023911,-24.3522518821,-1.1248676652,-2.1822203563,-7.1105941238,0.0642978158,-7.8665596653,-1.447245111,-1.3592711274,-0.4287816957,-0.9754747536,-28.0259397579,-14.5995547313,0.3865200881,-0.5525722642,-3.1510775966,-3.7366551101,-0.7777012599,-1.493261159,0.6489471535,-1.6447512973,-2.1801643819,-1.1963230528,-0.7600136412,-3.2047867501,-1.5767291721,-3.671363594,-18.1737323659,-28.0172146844,0.5405610431,-26.1519749394,-2.8562732629,-18.7967141221,-0.13393446,-1.8848050985,0.5359658763,0.9129086193,-1.3360492792,-16.1676293357,-2.9179233714,0.3223957963,0.3987147063,-5.6338061811,-0.3432181128,-1.8381237082,-0.0641566385,-1.4615126071,-10.1886203223,-12.6223752047,-23.4221352862,-2.4634805152,-0.5231226009,-10.7747505906,-3.0308933464,-2.5857965047,-1.6254424129,-16.5915399881,-2.4432557862,-3.7866192757,-1.9539359468,-6.6314691404,-23.4263810663,-5.028648765,-2.7653995292,0.3771135256,-3.074641744,-1.4961892025,-0.2678343286,-3.4999794592,1.968053843,-14.4849135734,0.4171949763,0.1787097922,1.3517567125,0.9127864645,-9.8527387027,-1.1987648032,-2.2020581221,1.4261614483,-23.552566557,-23.6170411619,-1.65495693,-3.273742921,-0.2757294023,-12.109393283,-7.1364235552,-0.2435475836,-0.5069086624,0.3831937625,-0.9036795079,-9.551624475,-23.5497524428,1.0953061726,-19.6902813208,1.5068948706,-22.8763222319,0.2635437088,-3.101635076,-20.0569648544,-0.5679931613,-25.1696131925,-3.2934499487,-1.0262532569,2.1421773155,-0.5655978959,0.5918583383,1.4200944771,-24.3830940261,-7.0310201225,-4.4282741226,-9.7648771814,-8.7017211108,-3.6468540541,0.9634042564,-0.41916108,-0.7539005484,-9.0683979958,-2.6019799217,-25.7025295644,-19.3770419868,-0.5079331806,-8.6012046929,-0.1900522044,0.7266510465,-27.4847038246,-7.9014812963,-2.9282228115,-27.7318297319,-2.0415735765,-27.3365947543,-1.8441563,-9.0006658915,8.1618004562,-3.5629593133,-10.0627355256,-0.1898443251,-0.1135302647,-0.3705050991,0.1503091327,-26.5803421975,-8.7928136105,0.15323194,-0.8187388355,-6.3278308922,-12.7724573309,1.1878580771,-0.920000782,-11.9002111185,-2.9359640753,-4.2883312849,-0.2758286052,-0.7397528664,0.8249793314,-1.5510464459,-7.2221153543,-27.7026401087,-27.2682321583,0.63712027,0.1068567418,-9.4874360085,-26.3537152711,-0.0725680395,-27.9289557278,0.0031761654,0.4728100558,0.1695135666,-19.7476305376,-3.018933927,-0.5827313178,-2.1327470888,-3.1332148728,-0.8458563652,1.1071241611,0.3828836122,-20.9324004696,-17.4794982281,-19.4650235758,-18.6930408934,-0.3190832962,-1.026914626,0.3500008354,-1.921499938,-3.3416949317,-0.5227373376,-16.9999893583,0.9922295342,-4.5622130604,-3.6435699246,-28.019575527,-0.3628885999,-2.2183161428,-2.168273294,1.4404172654,0.2246276475,-2.7833663964,0.975858268,-9.2135404521,-9.3313800175,-16.7906279317,0.6901074987,1.0620884623,0.7205353329,0.5910038629,-8.3506440167,-1.9482392929,-0.5433581475,0.29570339,-27.6280729294,-3.7085132237,-5.4396684179,0.7942565726,-9.701156738,-7.8594293215,0.1617123263,-0.3831024691,-0.1974306868,-4.0634497464,-6.8548389263,0.499939452,1.9250683777,1.1411036491,-18.6338493391,0.2897644376,-2.6913128644,-9.1570270907,-14.0490260769,-24.1096213483,0.6373610758,-26.6030428756,-6.1679190674,0.2313188687,-0.0843702438,-0.5421640334,1.73995193,1.1080232382,-2.9684114211,0.3238854267,-0.1271267908,-10.0667450103,-2.016123334,1.9923951606,-0.2717661162,-9.850768087,0.2939688407,-8.9582271326,-0.1718342583,0.3690035241,0.4894177237,-1.999609168,0.2807846019,0.2503384035,0.9997680076,0.2018899176,0.9419973363,-0.7179824688,-0.6767373914,-10.2276330359,-8.9457700167,-2.7689643823,-0.1422997551,-13.5897890243,-3.9885687205,-0.6979483896,-1.807728261,-0.703821192,0.6050994693,-1.2417042836,0.887565372,-0.0369736399,-0.4575935328,-0.962603078,1.4708648174,0.0817113192,-2.291222764,-5.0752160441,-4.2722581992,0.3145163609,-2.1620883902,-9.3136829198,-0.5082832986,0.098823008,-0.1912777136,-0.1103977448,-0.473628027,0.7021373094,-0.5004034694,0.4375067336,-9.0989837218,-3.3859125251,-0.1573011944,0.2778386702,-0.2825913227,-0.5098764402,-0.6146586381,-1.3207164413,-7.9185794406,-0.7321785756,1.1683876365,-9.0828462012,-1.5693059022,1.4465740667,1.9491279919,0.6272181395,-0.8809963003,-2.4886578506,-0.7372446161,-0.0340794444,1.0980434514,-9.5386458603,-1.9498024078,-0.2325165158,-0.7911797907,0.4527684087,-0.6972029803,-0.0692938231,-2.116313906,1.4968523933,-0.6569199705,-0.1072885102,-2.2987165349,0.859214136,-9.2581113391,-10.1461111636,0.6781968355,-1.4087938354,-0.1174018559,-0.6149568168,-0.3771592994,-1.1986943825,0.0266582187,-2.5247986114,-0.7924120904,-3.6439176844,-9.6479221877,-9.7161392945,-0.2251416847,-4.160760666,-0.7495840153,0.8235982213,-0.0923289224,-1.9372472104,-1.2838144861,-0.2654487773,-0.5676903984,-0.9382026362,-7.2316219282,1.0601813469,-3.7507150287,1.2204177325,0.1014753295,-3.6642208869,-3.4162548835,-0.7220361019,-3.3393122131,-2.1859536297,0.2234132465,-0.756011488,-0.6530334971,-0.8470132678,1.4539375547,-0.7338302592,0.3815310021,-3.5686036106,-8.8480913713,0.4902275839,-2.5957005212,-2.2870910974,-8.859741774,-0.5677365141,-0.4755729918,-2.5451787241,1.0094748421,-9.7054088994,1.3934883907,-1.2955705547,-1.9781171059,-2.9375048278,0.6286799953,1.6796218771,0.5062617344,-0.8164310028,-1.0924279563,-0.9175169926,0.871120312,-10.124557066,-4.2354855257,-2.9909550364,0.9519895895,-12.5334610012,-2.2982993725,-2.5675436138,-0.6190874397,-0.4393401941,-5.2649569428,0.6320022374,0.8272060024,-0.8599785406,-0.2095300132,-1.5477200943,-9.2022081073,-0.5422098898,-3.9159428245,-0.1933983074,-5.1532758621,-0.2113737428,-3.4802360444,-7.6811774651,-0.3444163796,0.7128702735,0.0428486846,-0.9183419545,1.3252759125,0.6632322,1.623847627,-0.4510526071,-8.8716307411,-8.3639376373,-1.1202902041,1.6072795117,0.2030537236,1.7385339065,-2.3797328014,-0.7725054438,-2.2554033628,-0.4375394555,1.1530064097,-8.5476345685,-6.0389280199,0.2686959329,0.7789436539,-0.4947218705,-2.2746984448,-2.9508955984,-2.6251103698,0.5527581584,1.0181675069,-9.776321434,-3.3602335776,-1.8424941847,0.2045709477,0.4322524443,1.1767118418,0.5495031054,1.0693022806,0.3621989946,-0.443307988,-2.2394078394,-2.1842741575,-0.1645642983,-8.6553977688,-3.8763010169,-0.613499294,-1.6308763754,0.9371099218,-0.8368802381,0.0646312074,-2.1737950159,-2.2804880756,-1.1980450916,-0.8954591497,-1.8795028148,-8.7703200758,-9.1448232575,0.4902494187,-0.9057651652,-8.0920698538,0.7613056741,-0.166196714,-2.4398894515,-6.2903866463,-0.246399938,0.6087914348,0.4955014372,0.0457756351,-1.3985697445,-0.117049098,-0.4256589287,0.1723211558,-1.8638019715,1.6875727932,-3.0145044529,-0.1992550373,-0.2832758147,0.3046650554,1.3879456616,-7.1884751794,1.065260779,-0.8059537135,-0.6132250772,0.3684634314,1.2564708803,0.6865911572,0.7111080994,-2.0721814275,-9.7025099397,-0.2994528395,0.4003043149,-0.6490650562,-9.9026619365,-0.0652464109,-0.8954835062,0.6015581066,-0.2440230438,0.6460902307,0.9138026366,-9.8873008781,-3.8398252336,-0.2597682902,-0.2583413012,-1.0336705688,0.6692290754,0.0620684878,-9.904162718,-9.6649784818,-1.1640208651,0.6752427528,-5.896184792,-0.8468293571,-0.0088866471,-0.3336413175,0.6410030043,-2.263253353,-2.21335633,-3.2948881593,-0.558495791,-0.8783413523,-0.2201232038,2.398121232,-1.4610273577,-0.0825580007,-1.6770887252,-4.668979429,-0.2857059382,-1.8006347222,-3.4197159045,1.1368550895,-0.1506244535,-0.6348807611,-2.5817327076,-0.2143903282,-0.5759130436,0.7262582888,0.8368901705,-10.3274643387,-4.2247591607,0.4898268926,0.5793275044,0.7127694556,1.1108085245,-0.7463311683,-0.747152562,-2.5188373794,0.721269312,1.0264524244,-9.6910807047,-1.8580722563,1.1831215057,0.4573669276,1.2512420332,-3.1616856384,-3.6772920923,-1.9234531404,-0.0309054019,1.1453253798,-8.492607188,-0.3013206297,1.4272020146,0.1914892634,0.1053996188,1.2688979305,-0.9200434546,-0.1577601115,0.5336085882,-0.3424925282,0.1370993279,-3.5982127726,-0.9674631507,-2.4108735846,-8.9130989528,-0.2949552887,-0.3483899915,-1.3339611509,0.3570901671,-0.6040389156,0.8879807123,1.2218519986,-2.3918074039,-2.834081686,-3.105929125,-9.792124749,-9.7905769185,0.646808678,-1.4658675832,-0.5211145771,0.8347738436,-0.7320752441,-6.2563554472,-7.1382514,1.3775049338,-0.6265564054,0.2593083346,-0.7669137248,0.7877034191,1.2703474719,0.0948356104,0.9815163044,-1.0238080963,1.1564481014,0.6188622327,-3.1098695371,-3.6733543441,0.8135484539,0.5817208055,1.2937958198,-0.2766577962,1.0840986645,0.3165227588,0.6506683194,0.0759093153,-2.7984096329,0.1579108915,-5.0829497941,-9.5047566501,-1.9261871776,-1.7808097161,0.6430367,2.3817691525,0.7061812355,-12.9538149052,-25.4645675995,-27.4189547614,-18.2022777647,-1.2109233043,0.433117204,0.1333920691,1.1805860918,-0.5561981549,-1.5172810824,0.1085450269,-8.590949194,-12.8509208615,0.0465661611,-0.8530658072,-3.5162407292,-0.8235451467,-18.5642374125,-11.0616393351,-3.3256942714,-0.5772643703,-1.0825404034,-2.9027533263,-0.6374533479,-0.3065482779,-1.069788576,0.0270347856,-18.4973452962,-3.8080748841,-2.9019650636,-6.4199290238,-3.7801248015,-1.4872637658,0.3766429056,-4.702145182,-1.3881710407,0.6221402304,-1.540611133,-19.0694368976,-9.4395723114,-27.2442573257,-1.6581880527,0.2483285078,-19.5908705165,3.5837557408,-9.9572451971,-2.5920248639,0.6613643784,-1.835135643,-0.2871174865,-0.8276444735,-0.7398879394,-0.0749734825,-0.4571770447,-2.3992834707,-4.3626239498,-2.452791768,-27.0578575613,-2.6044974776,-0.0623439073,10.9173778553,-19.0319116905,-26.3972476443,-0.0847683659,-17.2113614589,1.3541245398,0.4057895993,-2.8213948578,0.2468910349,-9.5803008878,-1.4415915259,-1.7611392679,-26.2499367428,0.7027248652,-15.8497194274,-4.8462888038,-0.2604041947,1.2532063394,0.9980511143,0.9420947205,-13.0017695864,2.0974898747,-9.6202629899,-2.6017037926,-3.8107018339,1.4094212535,-16.4003835563,-24.7100647114,-1.0969012017,1.0115228426,-2.7220658958,-26.0057998817,-2.1874836755,-4.7819600368,0.9747071688,0.7118718258,-15.3570156167,-6.349464074,0.3800925971,-0.2550223775,0.3677618815,-17.0979109799,-0.3994842035,-27.672029563,-0.4647391249,-7.0544445763,-3.3900677583,-10.1024675255,3.1011197124,-8.9982437029,-23.858497117,0.0955693382,-3.8123314686,-2.7446348637,-1.1423617667,-25.6864661683,-0.6326686393,0.8022298844,-1.9743191619,-2.0579635716,-6.6266418537,-1.4285251674,-11.6919880795,-7.0136003079,-1.715933277,1.3211661965,-4.631426489,-0.2230379959,-5.8963682759,-23.3875533744,-3.4131630162,-14.3314206221,0.661453212,-0.6409024425,-18.3545424836,-0.6398731224,-3.3097888101,-6.7837367075,-1.0066211624,-3.0707893954,5.0277383725,0.9084011543,-1.3519964683,0.4230399699,-1.7295845039,-1.3905624174,-7.0379717957,0.8338879043,-0.9338633923,0.4520417418,-0.8621361227,-1.7962815762,1.4537165578,-0.9977899676,-1.1406076542,-12.7158841587,-4.7714327381,-25.7018657974,-0.0548975924,-3.5198922693,-0.9095699748,3.9728134652,-0.242160647,-0.3671751786,0.7539229826,-1.7352533939,-14.1251186104,-2.1545765105,-8.3108441875,-27.306969724,-28.0944600817,-15.3121888873,-16.0642416736,0.4722525101,1.4376106321,-0.922641352,-0.060569971,1.0701222615,-15.3806198781,-3.8160639736,-0.0690482149,-0.4231958934,9.8107799501,0.1254623833,0.4989850807,-3.9902622121,-14.2049701509,-0.5211987314,-9.4855007008,-0.6878910105,-20.8022585806,-0.2878635823,-2.2657192502,-5.2024158427,-8.7971706435,-0.9492579267,-4.6592377388,1.3130901008,0.4885267921,-1.8934096481,0.1475764746,0.5077658638,-10.1259572399,-1.7516109158,-1.1589331382,-6.370151929,-10.4842885361,-0.1643125651,-6.6206394592,-20.6608334406,1.4558086732,-0.0897572921,0.6207791646,-2.9242731677,2.6696174295,-9.3923354211,-2.8072041062,4.6595538897,-0.6041914223,-24.2508714431,-0.9065638392,2.1221481169,-1.2918578847,-8.2048163281,-0.3529887553,2.6141031621,0.3923939024,0.2106700769,-20.926053983,0.8469094289,0.0848440886,-0.1458474168,-5.7454784297,-13.7853962201,1.1175615683,-1.2915111023,-9.042870228,-8.1137171508,-10.7543883137,-0.1203003547,-25.1394118926,-3.0058171866,-0.2603146445,0.7846335123,-0.4166321472,-0.7156261737,0.9310770655,-2.2333361737,-0.2982833178,-6.4382061322,-9.2010968083,-2.2170507426,0.636144872,-0.6251706523,3.3019920717,-1.018419345,-1.4215267339,-3.7221314078,-3.7125686604,0.2212778355,0.9420126559,-0.2935386074,1.6401249958,0.8593608599,-1.3320154688,-0.7057949566,0.411422396,-1.6254019619,-9.1763907438,1.1892919603,-2.5636151382,0.3294556697,-2.420242133,-1.5174613755,0.2196927639,-1.3722335956,-0.6395773601,-1.6200621354,-2.9845772762,1.0282537299,-1.7703930898,0.5889864829,-0.0812974338,0.3701284605,-1.4784143937,0.551744399,-11.6910095238,-5.1157463976,-0.2118497007,-1.699720102,-2.782987444,0.1822532587,-0.9792662554,0.2544453535,0.1085980079,1.8530360077,-2.870442885,0.701789393,0.2046377749,-9.4528782783,0.3294335175,-3.4153640048,2.6045441146,-0.9986590824,1.6257581118,0.0055087733,1.0095136814,0.1921083783,0.24476392,0.2667222936,-7.6779292013,-0.2512717551,-0.3169180392,-0.8185789381,-0.1994239685,-5.4223001587,-0.9807795436,-1.4839700846,-26.5152776661,0.8214015657,-10.1121332115,-2.1526275683,-0.1418505695,0.7657310892,0.4327944771,-0.597538053,-1.0331148852,-1.8423894816,-0.0195446758,-0.2741388136,0.1625643459,-4.2740653731,-0.7061696272,1.9216796866,-3.7246820635,0.4598206386,-0.9300093097,0.2985814747,0.0890247175,0.6480550391,-1.196988994,1.7740304201,-1.5163394301,-9.6311915645,-2.6714987861,1.4217215171,0.9855438971,-1.8116931867,0.3223288434,-2.0426362878,1.6070750613,1.0700140774,-26.5265089956,-6.1490196832,0.6275522381,-0.3952922413,-0.1118252263,-0.3067038653,-0.22063728,-4.1272260401,2.9913462883,-0.7152013773,-3.2149619523,-0.4358137001,1.4226695633,-3.5450433434,-9.8851222555,0.5935676644,-0.1458830833,-4.8110383839,0.7200445511,1.7187269942,-0.8472261428,0.2420956858,1.5919018522,-0.745144897,0.2203631044,-6.3008370108,-10.0436084263,-0.919978533,0.2372360771,0.4754651319,-8.6445087124,-0.5295341901,-2.4067684528,-0.5679121369,0.1233293606,0.6624286997,-0.6122665723,-3.6593224491,0.6093815609,0.5526770511,-0.0260510192,-6.3049591906,-0.5695065111,-9.1384368687,-2.0617134059,-2.4005192141,-2.7657452257,-0.1099035893,-12.2030056276,-2.606251802,-4.1276536395,-0.6234259934,-0.7419809021,-4.4665782778,-0.3333771763,0.5521305497,0.424033533,-0.9041705401,-0.9342259155,1.6650366977,-0.7691537564,-3.7080663614,-13.101691929,-4.1073917424,-0.0144074669,0.7732312303,-8.1876588716,-0.1689519514,1.7716825787,0.7318458961,0.480926538,0.6102740811,-10.2510668354,1.3363875418,-0.2023973503,-8.3721920056,-26.7335003966,-0.3501452654,1.6121834978,-0.2057325909,-0.8634500169,-1.7049420638,-1.0220830918,-10.5194057143,-0.9421270928,0.6014400668,-9.8436395419,-1.1286558652,-0.195380753,0.9123359597,-3.4533705574,-3.1138971467,-2.5820195472,-3.2075570964,-5.3999091371,1.0668120164,-8.7623267198,-2.2152596789,-8.363057427,-0.1339561924,-0.9657169444,1.8057941762,-0.0331724614,-2.0141779829,-0.7112225507,-0.1165908002,-1.6711480091,-2.3617897355,0.6714091266,-8.429357511,-10.1055928974,-0.2135933729,-1.7008805495,-0.3036629576,-1.9559012111,0.6326000979,-0.2141749446,0.3922931653,-2.3768989077,-27.0173262549,-3.4539491587,-9.1794835666,-8.9319428117,0.8961899655,-0.4470779539,0.2760362242,0.548767154,-3.4320181005,-6.798493267,-6.287154936,-1.6042269131,0.5304045921,0.1249143272,0.0218866153,0.2970841872,0.0734159549,2.8074506293,-2.4727532873,-3.1388912146,0.9767779538,-2.6481433426,-6.4445413696,-0.9520107406,-0.9926070494,0.6348192108,-9.6254655065,-0.4340559058,1.2675018561,-1.0159070987,0.7516659479
   0.9256947772,-0.63905854,-0.132397605,-1.5011390227,-4.899752712,-0.7822644136,1.6243147096,-0.7885084262,-2.7637127589,0.3957547958,-2.4315961948,0.5138409139,0.5423874375,-0.3863338029,-2.697348957,0.7838544054,-2.7928009629,0.3004609772,-0.5095728589,0.1691994892,0.1467528477,0.0395873775,-9.0281409321,-9.3261328545,-1.6179747293,0.214423781,0.4324004826,-0.9555864425,0.0499625771,-0.2834001209,0.4681705046,-0.968309496,0.1678442402,0.6499000468,0.2573204015,-0.6866586976,-1.4895048719,1.3190583236,-1.3077199855,-0.5159969723,-1.428630267,-3.9775603867,-0.0418058098,-3.1180017734,-3.429041735,-0.5630784616,0.3511362202,-0.5641859225,-1.6796703565,1.5741592672,-0.1934718798,0.2744351565,-0.2884148173,-0.8071302223,0.2988585459,-0.4451657619,-2.2692740956,0.3337692312,0.3688220058,-0.9695689465,-1.3658335553,-8.5850958858,0.843405514,0.4178813516,-2.3587526696,-2.4367318491,0.8814771176,0.5162148035,0.3067548568,-0.9322745476,-3.9489538548,-1.4759548259,0.9877178634,1.3015555974,-1.0204493765,-3.8407214579,0.1589960333,-1.1079089787,1.1883053161,-1.1859311881,0.8194010972,-0.7908615457,0.699968756,0.7152182254,1.1847060877,0.3701247204,-3.0193158848,-0.7135829628,-3.3436286262,0.0348860862,-0.492729359,-0.4679447943,1.7494303257,0.120571766,0.5479105868,-0.5919070991,-1.688345222,0.2372506189,-1.6081201163,-9.214895027,-8.3083552597,-0.8584835194,-0.8861625328,2.9816829603,0.6290911231,0.1866157593,-2.9210253568,-0.9468207614,-2.7243921184,0.3790875469,0.2468492486,-0.8920557194,0.075860367,0.9469988035,1.0795130657,0.8792393826,-2.455514844,-0.3946250807,-0.1241011371,0.5641112019,0.4741503299,0.6220106147,1.0408927193,0.3415161143,1.0062792722,0.1576104903,-0.0333732925,1.3015376762,1.061187741,2.0006929601,0.3141595341,-2.820293128,-27.6213539003,-3.2325728797,1.6432692086,-0.540303668,-2.5238122375,-0.5910917661,-3.382635894,-0.4156550382,0.0559545283,0.554361815,0.769730904,-0.4980001382,0.6641762085,0.9390864809,-1.2270465922,-0.8331852223,-0.6600966925,-8.3880237777,-8.4367429802,-8.4573767928,-3.0274184485,-3.745653579,1.5155725693,1.5451626877,-0.5552787846,0.0177918971,-0.3209035909,-2.1774328408,-3.8832918125,0.2222667235,-1.2916216193,-0.634458469,-0.5382505097,-3.5383324917,0.3632183022,-10.0232831818,-1.3316440284,-3.747378202,-0.6602259672,-2.0431365473,-0.1869817171,0.6515624438,-1.3315059254,-0.3536177303,-6.3478747582,1.015715026,-26.3718136691,1.4789735443,0.9578643496,0.3780318325,0.1152346354,-0.1878483866,1.6798229941,-0.6773327001,0.9861778171,-0.7795545095,-0.029068161,-10.3509436546,-0.0426678612,0.3454518904,3.5679260193,-6.4946020395,-0.2281449197,0.7696581485,0.661561841,-2.4388344844,-0.5497278463,4.3585266841,0.4478972857,-0.8653022579,-9.6503518285,-3.897665503,-1.1487169055,-0.5264023332,0.8243478632,1.3457751435,0.2973510611,3.399420739,0.8736926025,-0.1614188054,0.957287215,-0.2396706909,-2.4153751189,-3.1453846116,-9.5954613426,-0.3038489995,0.4768317574,0.738868181,1.8170204282,0.8030598456,0.6512577432,-0.2517118761,-2.7275844485,-1.9320401688,-1.9463450769,-8.2651454245,-9.9330106978,1.2065183517,-0.4941476045,-0.8723273099,0.2452035462,1.6054270901,-26.9821472739,-7.1608125374,-0.079908613,0.062116604,0.3436842869,-3.0702333707,-9.931280554,0.2370288825,-2.5334513188,0.3436106301,0.4958646935,2.0229832921,0.9719960447,-1.1194391513,-3.4294983979,-0.7232498623,1.1673547779,-6.2541262602,0.284905645,1.2385875866,-0.495222763,0.3724487129,-0.7296334774,-0.9901254404,-0.5610411987,-10.6486984614,-26.3655296862,-1.1064989873,1.3917191721,-0.1025552938,-3.8840133312,-0.8452606798,-8.3142992053,-0.5045417461,0.0446417739,0.130652581,-1.1016506863,-0.0553735361,-0.1916977574,0.5554538157,0.1083092659,0.9032151064,0.319998384,-26.2028875543,-26.664777678,-9.036610083,-0.856025241,-1.3179501209,-4.7402856456,0.5667494019,-0.7710239803,-2.6481716019,-0.541164711,-1.6248857224,-0.2190649214,0.9542952913,-1.5850667903,0.043118679,-1.2262792874,1.0725272333,0.6742382658,0.189473095,-1.1093680848,-4.4415087131,1.0763087656,-0.4421584925,-2.9077291053,-0.3270730646,-2.3203063965,0.5008933075,-18.2069989658,0.8952582279,-27.2372532844,0.758367302,0.3881285757,-0.8174107152,-0.3844928781,-1.5677710938,0.6710887909,0.2660085696,1.9083409251,-0.4702104543,-1.8559638611,-4.0923668334,-0.9297989992,0.8468765479,-2.5990262616,2.9678445314,0.0133157909,0.068981374,1.3923627356,-3.1504073086,-3.599807333,3.0980516796,0.4630964131,0.5786079535,-27.6494482767,1.5340081359,-0.4029267051,-0.032932773,0.9377258683,0.3329147595,-0.0225351203,0.8680004038,1.7328048437,-1.5938432793,0.2862204025,-2.4174567829,-0.7559618785,-2.6059283494,-24.2313479678,0.0594988704,0.1904491112,-0.2622767558,0.2448495714,-0.1440235727,0.6621175984,-1.1251341975,-2.7973822941,0.6689484518,-1.8512853073,-8.5545325052,-9.6768078706,0.9286241179,0.9081249633,-0.9793476517,1.108288151,-0.3882800037,-27.0758079259,-5.7606227997,0.7699282911,0.6421129609,-1.4026727905,0.5488924992,0.6271203967,-0.1558199001,0.837587067,0.5939247752,-2.3047129474,1.4464975807,2.5762038889,0.1589844761,-1.2471724052,-0.0888949972,0.8020682216,-7.4472136813,0.7190175166,1.0499182283,-0.6320816849,-0.4419988491,2.288774196,-3.1202423317,-3.4107352481,-1.3414872021,-8.795443995,-8.8394612039,-0.797555143,1.2760101981,-9.6667605945,0.1073177349,-2.5217649026,-0.0285123734,1.2998052766,-0.326896865,-0.8366810947,-0.9338662481,0.1491187082,-0.372860742,-1.0723285554,-7.2021757851,-1.1089462583,-1.752338502,-9.7510436543,1.1902336356,-3.1830686182,-8.5196615022,-12.1341841538,-10.1820658098,-1.5660627193,-1.901127692,0.6355557821,-0.9285343314,2.9281895959,1.2613118045,-0.5712209789,-1.0921427799,-1.5520453344,0.0660961302,-1.9278789988,0.3257356846,-3.7768117965,-3.4873651999,-0.5708258296,0.6415261308,-8.4524703837,0.8626507479,1.2179489769,0.2210878328,-1.5713764045,1.499064044,-0.1666336524,0.430643421,-0.7910013775,-8.4235699577,-1.7868207884,-27.7539520419,0.0060163073,-0.3572678613,1.2073814693,-0.3862215369,-0.812977656,-10.8161902136,-0.5160379331,1.3668164986,-7.243681547,-5.4468212471,0.8122079311,-0.488596178,-0.1753374982,-1.1191189225,-3.9860203596,0.1552860746,-0.6069752772,0.3236145892,-8.6121642799,-0.5937128004,1.5320881692,-0.6183412019,-3.7254699857,-0.7527343607,-1.1709071457,-0.6328933751,0.9144281755,0.5096699341,0.5697337988,-3.9216819206,-3.0992520559,2.3733456269,-0.1650738657,0.7687649951,1.0420389994,-0.2158453667,-3.2870145138,2.3116491749,-0.4962074419,-2.0731022931,-2.9424991966,-2.4450746401,-1.8856655769,-8.7868154378,-10.0224039423,-0.678980413,-3.2292377319,-1.4676566673,0.7135375446,1.6409466823,-23.2404362941,-7.1141939412,-0.9035976203,0.3422280178,1.208568688,-1.5988804867,-9.2916886068,-0.5905265333,0.3985845018,-0.0299100729,-8.4793976292,0.3872786133,-1.3910311611,-8.1974141451,-9.0709683349,-0.6800091642,0.0857104619,-6.982020828,0.3673956902,2.0491638494,-0.2588114012,1.5482590685,-1.8355620267,1.116630498,1.7290687727,-1.0166998583,-2.780858419,-19.407669819,-26.3455146662,-0.3543657091,-24.951120822,0.2811825359,-5.1962400748,-3.0238716418,0.0861182602,1.4992521989,-1.3207383826,-26.4975390976,-0.3077356516,1.5667917643,0.7216088794,-1.3353198593,0.3360256243,-26.2558194207,-27.141326946,-9.2600174458,-2.894102036,-3.3538243946,-13.9080476559,-2.5708498904,-11.5779306053,0.714929026,-1.0884719086,-0.6565067105,-7.6668634753,1.1440176264,-21.6631150805,0.164033275,-0.6297190174,-1.1561419837,-6.4768572403,-9.6171245771,-1.0707056397,-12.1171011485,1.0590866242,-3.8539208875,-0.4551814359,-1.0199706687,-2.0630673273,0.1685946206,-1.8173041475,-0.3659618303,-26.9816741539,-0.7139708644,-10.0035357818,-0.7850108928,-27.2731792118,-27.1029560574,0.4964832201,0.3893893524,2.2462660672,-5.9596961585,-6.7822789196,-8.6572431418,-0.5179286658,0.6820269867,-3.1646633387,-0.6591495233,0.8820821018,0.6418476763,-26.7018452558,0.4356393562,-8.6109700708,-0.9314861839,0.9293203479,0.785412227,-16.2526685808,-2.77703518,1.0500233441,-1.6588144298,-18.2519213649,0.3589974045,-1.426384893,-1.3123094124,1.3334734004,2.1249620688,-2.2246885212,-1.3568789668,1.2664165542,-25.9772525916,-19.09843278,-0.1513011745,-1.5608902054,-27.250162684,-2.8092678655,-4.0505556626,1.5101756433,-0.1740716995,-3.5211280778,-9.0179454126,-1.0480186695,-8.4952298029,-10.2729224763,-26.4629726431,0.4151174674,-2.3367398861,0.9755482777,0.1834752425,-26.116997172,-17.2137502011,-1.024461111,0.3495846181,-2.4212627912,-18.3356255122,-26.1065488636,-8.8638294407,-4.0560685348,-18.640740591,1.0061584822,-3.0296665617,-8.3901652664,-14.5958027712,-6.8296488317,0.6335398566,-26.8052518913,-9.7195502754,0.7464684633,-0.7007110347,-0.272868055,1.1645815896,1.1713199033,0.1085138418,0.6994934325,-2.0965592792,-8.9000387055,-0.1572724699,0.6282714436,1.1066983527,-8.6563673884,1.0610272635,-9.0906152011,0.383261534,0.4996564263,-0.8372909832,1.3856398681,0.7201605981,-0.22769801,-0.2818200455,-0.300645331,-1.4380853916,-0.4117712323,-3.7402777989,-10.1731492677,-8.6298595687,-1.4010517809,-3.0401122274,-4.5370459869,0.466576093,-0.0483254438,-1.6512926561,0.0490729786,-2.1496933492,0.7030257017,1.1285718348,1.2831622336,0.1843085481,-0.5790937497,-1.0019669648,0.4579928684,-0.2216315589,-2.2110320333,-4.1669258736,0.1761567864,-0.7893882536,-2.1078175809,0.4300433242,-0.7581044677,0.5490071354,-0.2502347596,1.0600737975,0.8321286504,0.8994803315,-0.4690469888,-0.4485679351,-3.2601516379,-0.4355697473,0.247969004,0.6372421578,0.3976093837,-0.4962419242,0.5346564404,-10.8014336805,0.080888726,1.1310779058,-3.0200663402,-2.4548361811,2.0212993459,0.2519442587,-0.3690838418,-9.067527425,-2.2204904887,2.6911723324,0.3988249032,0.9304244899,-4.2839307504,-1.1655424114,-0.5727868311,0.7079221769,-0.1547320066,-0.4352309001,-0.3697338656,-1.2993329437,0.246042406,-0.6086591992,0.5419370668,0.5409376834,-2.9131874961,-0.883889053,-9.9806657319,0.1635026929,0.4843657661,-1.0617537669,2.1185510446,1.102047196,0.4080514393,0.7681215104,-2.9896993517,-0.2760627263,-2.3999964747,-9.1187934868,-9.5438999675,0.4891154505,-0.7302352197,2.3580192416,0.0585185282,-0.3089429925,-22.6036983274,-0.9696934079,0.316691037,0.6505818033,-0.2586592555,0.4550734356,-1.9132839661,0.2578557596,0.4975738319,0.2658317296,-2.390587012,0.3351849413,2.0788588446,-1.832245919,-3.0511100987,0.0417689962,1.3248416869,-2.3949055881,0.5865971191,1.5556958553,0.890812407,2.1787892562,0.4215240841,-1.9499612459,-0.1631742681,-3.853711486,-5.7282025955,-4.0837265894,-21.1100357907,0.7981141645,0.1893850512,-0.7683805612,-13.2853608028,-25.5933520965,-26.2706861382,-17.9871955969,-1.194463242,-1.6004965787,0.3431551159,0.5342870338,-1.4204725824,-0.3298802722,-0.4085369319,-9.0330834602,-11.0157150793,0.498602699,-0.1720348209,4.1046130777,-6.1273649168,-16.1952395183,-12.0909678858,-0.1318135932,-1.5887681259,-2.7949344021,-2.1641290625,1.0795652433,-1.1339784862,0.0579489066,-0.8760246849,-7.2236750383,-4.269134084,-1.0177208641,-5.864565931,-2.633708316,0.076654225,-0.7539849049,-0.5889137168,0.0383952578,-0.302691691,-2.0519523126,-9.6277273081,-10.2909949118,-10.1472923442,-3.7272838631,0.011072871,-14.3324639653,-0.3511977669,-26.6859898684,-9.3437192065,-0.2154487996,0.4232296101,-0.1851335748,-2.0724318017,-1.1259207176,0.8034084106,-1.5418858608,-1.1318264162,-2.3576429489,3.3878644434,-27.1378691091,-16.9034859657,-1.6397987394,0.0161264585,-15.4211739986,-26.8092947686,1.8570742533,-15.7052991591,-9.4021292714,1.6405466555,-0.9889760595,-18.5029585423,-27.0228354547,-1.8083030555,-0.4492211912,-25.1590907815,0.9889556514,-14.5282212753,-4.9426472623,-0.1400865176,0.1331912606,-3.8134609576,0.5116524803,-11.2846881618,1.238642066,-12.3945081401,-0.7329083369,-0.7739367221,1.5375324077,-18.8553282421,-27.2223091304,-2.0259277988,1.5424802911,0.0028123338,-26.2680179326,-2.8951612281,-3.1496199575,0.0408735683,-0.2580403419,-15.0016192573,-7.4228469152,1.1641717779,0.0499092844,1.1438504393,-17.6363889946,1.8359232163,-27.20868953,-2.2984730996,-7.5109750926,-15.3745704294,-3.9852720866,-2.5044818566,-0.6347994573,-25.3894967128,-1.346250942,-3.5338536806,-4.0164477357,0.1461764719,-24.999638913,-0.282298422,0.8929086297,-2.2611909394,-1.8390338028,-2.4040810134,-1.982225909,-4.3176958813,-7.3323369447,-9.4022849688,-0.2391203089,-0.2897098249,0.7694540739,1.7109055257,-1.0884046545,-23.1188161522,-0.404062941,-12.5855030557,-7.368185978,0.2669196153,0.6201255095,-21.1028086297,-7.5902268726,-2.1561602938,3.9015952494,0.9181834164,-0.3766227703,-1.2429504199,-2.6980438865,-1.7073554666,-13.1892560854,-5.5264314131,-12.9248384888,-1.5303639996,11.5693028277,-3.7209319244,-22.5431893393,-0.1205438792,-1.1491899767,-2.0510486636,-16.8818297335,-8.805942626,-15.7066431263,-4.4434117746,-4.1284873431,-1.0113000891,0.0344601954,-0.4393572646,0.6717732942,0.8422329128,0.7007529557,-1.4302139349,1.4390403434,-20.9163286033,-3.642163959,-22.2344021355,-3.3985910543,4.6103350799,-25.6283402888,5.3247710708,-0.8679274167,0.9568305117,-0.7863189994,-5.3257271763,-3.6175372116,-0.1014918592,-9.7878525249,-5.2728371484,1.1753708434,-25.9687654727,-20.9949851073,-0.8011561705,-3.4962012035,-1.9138012087,-13.8826851321,0.2634194878,-4.1237500188,-5.6817133309,-1.0607489386,-0.2714547366,-2.1745558954,-12.2198469012,-2.4110217196,-0.2440780428,-5.5821560031,-9.298968924,-3.986540913,-0.8541348018,-1.939554129,-3.9015009432,-6.5284598577,-0.8898433594,-0.5367946555,-0.5274108786,-5.6739404542,-0.6945266944,1.4052097792,-3.4483328057,-22.5054093216,-12.6607055868,-23.5106208552,0.3306211664,-17.218142957,-2.5638961064,-1.4414793103,4.3971258595,-0.4651103352,1.2115394834,0.1574294937,1.4179810124,-2.8464209438,-15.1128201655,-0.116621495,0.6534098404,-17.6627112685,-10.2863436416,-3.8789441519,-17.7347326981,-17.4340606271,-18.529492388,-1.1815585841,-8.7046811539,-5.2570365518,-21.8619696333,-1.2825491277,-25.8924117914,-2.3180388317,-0.3970364508,-1.7158180332,-1.2542626097,1.8999901679,-0.7227074636,-2.8963006395,-0.3750138694,-1.1839868198,-26.4027649436,-1.6457169128,-8.3352083142,0.6162726612,-0.219186341,0.6428020803,-5.3054765569,-0.9904769136,0.8126897494,-18.5611135705,-1.1179497563,-0.8767177527,1.4912329077,1.9235928312,0.3381565687,-0.0232580981,-0.6997180739,2.5114577271,-22.8417486668,-0.2292438407,-6.9199359455,-2.2444808592,-13.0951857687,-24.6439320891,-9.9487857843,-1.9217745435,-0.2310595573,-0.0990109645,-1.1434592673,-0.1305784252,-0.7862521908,0.0020480698,-2.9904507945,-0.2311516629,-1.41827064,-2.5855270638,-9.5595764248,-12.6875605358,-0.9877497481,0.8337863434,-2.203682652,-0.998158028,-2.1418399426,-1.3324523731,-6.3517852576,1.1992752832,-3.0122159122,-2.0508266523,1.1602796928,-25.5284694446,0.3263341921,-27.6284041096,-0.827176048,-0.3260045627,-2.0138946507,-0.5730080621,0.8365081025,0.9720266557,-0.7294287675,0.0038863788,-3.0246027983,-0.3056341242,3.2727557461,0.6328361594,-26.7149378947,-1.8271016336,-1.0922379478,-1.5153223578,-28.0375778658,1.5177919508,-27.1998382335,-2.8202294378,3.7086202061,0.3982814417,0.6625855111,-1.8361705276,0.1172666735,-0.4981239783,2.5275053461,0.3604128008,4.4417371168,-4.5063868923,-0.4012771546,-2.2808061263,0.2760414399,-0.2771536157,-12.0692367179,0.4126870686,-2.1424756783,-3.0639574237,-0.5821271624,1.6631041762,-1.1586016179,-9.5299808425,-3.035786271,-0.2756432291,-8.3634523449,-27.5034308102,-0.1002351761,-1.7609462365,0.5769548878,0.4247278235,-24.858347375,-1.1322946108,-0.4692185892,0.4060434377,-2.1174584938,-6.5740567508,-1.0962064604,1.8172386695,1.1555586102,-19.7877775241,-8.9367232742,-2.213972402,-1.7623487997,-2.3780889573,-25.4567131792,0.3937224051,2.0775651945,-16.5193752765,0.6529146374,-0.1567472162,-0.0504403931,1.896769677,0.8338453389,-0.8153459552,0.4884271575,-1.2463414401,-9.0208169344,-0.1493083852,0.2519835966,-0.3695434124,-3.8262517438,0.0080987515,-9.3822043181,0.4818379714,0.6776012726,-0.1418241405,0.7186919539,0.3953042357,1.4671950479,0.4430931593,1.3767213148,2.1796596326,-0.3353301622,-0.6762957833,-3.0712041178,-4.1579470573,-2.884962708,2.0839645975,-12.821743357,-0.8425903699,-0.288437061,0.251844422,-0.5175678751,-2.1450204843,-0.2801284483,0.0713223202,-0.7395284446,-1.0612494345,-0.9220523534,1.3701885802,0.6725882766,-0.5383110771,-0.9235700105,-4.4271404225,-0.2329126729,-0.2999332259,-8.1853601632,-0.0868276942,0.9600172897,0.8158304779,-0.9798541408,0.3632117301,0.6924031902,0.3530654422,-0.154188716,-6.6186159872,2.2555497602,0.1141804868,1.6649428955,-0.8015708384,1.5731676984,-0.1404723414,-0.1493387243,-9.6887815444,0.4473709421,0.5094473918,-7.329385286,-0.7830330663,1.1585933622,-0.3245164697,-0.6174380068,-0.3565807019,-2.5487431466,-0.1766975797,-1.02944418,1.1760380266,-6.2658675407,-3.4444199586,2.2025852028,-0.8916172057,-0.5142472217,-0.2549844097,0.6352828772,2.4494031735,-0.0132791376,-0.3546277804,1.2553078213,-0.0168677128,0.085789909,-8.8844064494,-9.9920905927,0.8218132365,-0.1090826788,-0.6399475911,-0.4800121206,1.1249358511,0.1426653552,0.8936427214,-0.8403887792,0.615106165,-2.0834323103,-9.2746427422,-9.3869357987,0.8570962303,0.1894223811,-1.8997243922,0.2091140943,-0.043590038,-0.5869432267,-6.7293930205,-0.095238136,-0.6276601619,1.3092043929,1.602902432,-4.9687887606,0.1117068483,0.9804184056,0.9959302446,-8.6542132924,1.333035502,-0.1170674363,-0.7880189383,-0.2849483423,-0.7769106553,1.4778076049,-1.9149910174,0.101517815,0.8343403807,0.7898448773,1.2871364263,-0.9868750589,-1.3862617298,-0.5543626227,-1.2380023911,-9.7739883596,1.1978999279,-0.0430360359,0.5194822528,-2.5195968174,0.1573380584,-2.3426839503,0.0821106257,0.7712735313,0.9370246237,-0.4142181743,-1.7434699211,-0.2710799055,-0.1984064247,2.0670497294,1.0582941331,-0.2535954237,0.3105708141,-2.9615007454,-9.6808297097,-3.9533272856,-3.1813080051,-6.231532672,-1.1282107156,0.44852153,-0.3880031825,-0.0788584168,-1.9063302939,1.8305808094,0.5618942406,-1.1397364063,-0.9563393328,-2.20947827,0.7981233688,-0.2065903509,-0.3102640664,-1.5467079196,-3.8759802881,1.4291661868,-3.891558163,-7.9133168458,-0.9399507286,-0.6360441568,-0.5376312445,-6.1350758794,0.5570261954,-0.6527856941,0.291419697,-0.8766698759,-0.0984933682,-10.2292963585,-0.3391157925,0.0641391979,0.1003774488,1.3015361095,-1.0373916644,0.371484682,-3.8963920763,-0.8650066837,1.4412195487,-8.2010923712,-2.5491103498,1.4297069499,1.660466141,1.6610243026,-2.9466205046,-2.555926816,3.2453565697,0.0180004823,-0.1152698021,-9.7471258556,0.1347770933,0.0015988908,-0.1213471077,0.4113268493,0.1633026467,1.4586467874,2.9874030445,1.2100620483,-0.0483923295,1.9938075158,-1.3848628041,-0.4948760698,-8.4160702942,-2.3366635433,-0.7790416287,0.8863556406,0.5311685073,0.4521223211,0.4692074018,-1.9317412105,0.6845037218,-3.305670388,0.1077269071,-2.3869962684,-9.6444581126,-9.9825751476,-0.411595565,-1.9233299383,-1.0107760155,1.1861533454,-0.647491579,-1.4679091039,0.5774594016,-0.4727380203,0.3927722592,0.1684276935,-0.0443253867,0.5654997027,-0.8523567602,0.7789528304,0.4701053984,-8.6026158143,-0.0927489601,0.9878281237,-1.9023227244,-0.3957296156,-0.8004222877,0.0911350605,-10.0382325498,0.620290788,0.4934990386,0.1988918081,0.8546945833,-1.0289966058,-1.6929746313,-1.3093305473,-0.6664062684,-26.7666382628,0.2057612856,-1.0430860782,-0.0346151612,-5.793530327,0.6177529108,-0.4878101111,0.8340459589,-0.5409332798,0.6548137504,-2.7680517896,0.0755935004,-0.815351879,1.0343729236,0.8555766733,2.0280712328,-0.034592966,1.5518921306,-24.1619806581,-10.3175191324,-2.2094597974,-2.6287908992,-4.5736258671,-0.5044844596,-3.6160842789,0.6268475015,-0.1116664989,-0.5535609691,-3.0927616352,0.9777370089,0.9005069993,0.2801385664,-1.1559214093,-0.5538796075,-0.7569526014,-0.1494517528,-1.6368843022,-13.8259347182,0.4420989026,-2.2591351303,-3.615420307,0.1311976914,0.7098054377,0.8605834363,-2.816939047,1.0676274672,-2.2759390075,0.9708957314,-27.7555390097,-26.6442718957,-26.1295643171,-15.1649933218,0.0949687115,-0.5798099497,-0.4260955617,-1.1313304802,-0.3660950699,-5.3371863116,0.2955564854,0.3467645727,-2.8264750146,-2.0573879926,2.256943,-0.5885499686,-0.4317496969,-2.9619584615,-4.121783052,-3.2384777341,0.8783391694,0.6852842579,-9.4376919792,-3.3700789325,0.9718601815,-0.8490748121,0.1659561428,1.0208545728,-0.0008772377,1.0604618634,0.9393941333,0.7550351396,-0.1002249866,-0.4781299079,-1.4372061875,-2.1945183796,-4.1030934028,0.2500805568,0.6674013528,0.5411367518,3.0580507197,0.8950297528,0.1037968994,-8.8325094509,-2.1720211191,-0.4548637495,-1.9787481155,-21.7538002031,-7.8628200124,1.6857989061,-0.5608188955,0.1279846871,0.8331787165,1.9601751228,-2.9490682686,-6.0319159964,-0.895720063,0.9272256374,0.246421857,-0.5888471213,0.6175025566,0.9636843153,1.2302752795,0.0696324435,-0.9737403406,-0.3416646182,0.0717957362,-7.6863557454,0.5809473978,0.1214830039,0.9482574889,-0.0242097973,0.3427402533,0.7571205439,0.1327134962,0.2088887024,-0.2614564904,-8.9592219181,4.1761015113,-1.9437470638,-6.8006569074,-8.4292645727,0.4028902182,-0.5626817719,-0.7722681313,0.4012300703,-0.655342746,0.4243664728,0.9737625234,-0.5751030549,0.0917907216,1.8296369548,0.3981583835,0.2349703573,-0.2945925764,-0.796592168,0.616486318,2.724109356,-8.7113316941,-3.7489192181,-3.0265117373,1.7733101885,3.9334499238,-9.2150675606,-4.5074571729,-0.7314681248,-0.2409007721,-1.0140013281,-2.9632998952,-0.8361410495,0.9363534694,0.092753991,-1.064563178,-3.8423822275,-0.7703011414,1.082963743,-1.1695900855,-4.3230020647,-0.0878644623,0.3325531872,-8.8015250182,0.0074136595,-2.6901467787,-1.0352835987,0.0308621878,0.4876505708,0.5164396169,0.4475912855,0.5332421298,-10.1956975261,-9.5472901104,-0.5657259469,0.7577959046,-0.3832131436,0.2595090892,0.1623644369,-0.1235365555,-2.8403806867,-0.0322711722,-0.5171119125,-8.0117332268,-1.9165178418,1.8218558249,-0.9005723581,1.0863701586,-2.2403318918,-3.7774576891,0.2070362165,0.3135203862,1.8439158605,-9.5455768974,-9.5014565921,-3.0278171904,0.1150953544,-6.8150158419,-4.4004092398,-0.4117347045,-7.7833101749,0.1221772857,0.4260536716,-1.6273551381,0.7897124731,0.0213735523,3.9664157409,-8.8138898615,-0.5450948683,-5.3517777829,1.0128246401,2.0136175166,-0.4732110163,-0.3423713071,0.9590204828,-1.2853031887,0.6236712996,-2.6484851611,-8.4635475389,-2.758134927,-0.568547245,-0.3160394214,2.0624598403,-0.376826877,1.725522301,-3.6002666334,-6.6741884031,0.6227880752,-0.9832708777,0.6158356274,-0.4855153805,0.3047247516,0.9059717257,-0.6531870104,0.9024549142,-2.4314895273,1.1259719129,1.5475941826,0.2411591574,-10.1538725918,-0.0060990613,-0.0198806338,-26.8487286851,-0.5098128582,0.7359828868,-0.5440861769,1.9987763238,0.0066566908,-3.2138064736,0.9213155031,1.0319529473,-2.7038774631,-9.6590416504,0.6268246797,-0.8273009757,-3.0897097634,0.0820750807,0.5056810661,0.9616785672,-0.0730335038,0.1282519104,-1.6524165912,-0.1121125677,-0.0759216727,-0.5547365917,0.2012483595,-0.947374263,-0.5097114447,0.8335827268,-8.6644038234,-9.7345378575,-3.188705187,0.7510609585,-5.0655259055,-3.8126088704,-2.4776450106,-0.2297111238,-1.1168418254,-5.127685324,0.220973947,1.5619136448,0.4742539758,-0.7352406177,-2.3269159762,-2.0973888859,-0.3885227357,-0.5608494403,-1.0129415756,-4.4031993631,-1.1520816573,-9.2068496262,-9.5573634491,-0.6102745079,1.8212540298,0.1814309893,0.0036538602,1.3706311789,0.3434565538,1.298858559,0.1418809762,-6.6855267023,-0.2175577187,-0.9503351505,2.0745229905,-0.3691849917,1.7242923967,-0.4906514658,-0.1555352316,-2.3142972042,-0.3277883596,1.1373540482,-9.1488575718,-1.1790180342,1.3949346973,1.0716995948,1.1777337838,-3.8330538626,-3.3739517961,0.2601576395,0.5999054767,1.0613999476,-10.2202397336,-4.1258697645,-0.1613115224,0.3873893368,0.0606112706,-0.0262266497,-0.5642281037,-0.2711226504,0.0418894681,-0.738033346,-2.7222365117,-3.9662429379,-0.6467080836,-8.0739454576,-9.2873092914,0.0212761711,-1.3010778493,0.9897911836,-1.1617333767,-1.0526083189,-1.6790137036,-0.2851233467,-2.3920032395,-0.4198735019,-0.3916555902,-9.3610919254,-9.1184508181,1.0250123645,-0.4588721009,-2.3480658958,0.0287158802,0.8959575048,-2.5540380546,-6.6904584085,-0.7347909107,-1.0495789651,-0.6790465135,0.2691595371,-0.4306078737,-1.1461349035,-0.7087450308,0.8439427696,-2.8619881562,1.7193510832,0.4329721039,-0.2080951584,0.5095775571,0.6720015815,0.9956737,-9.5671444881,0.5272701531,0.3256596364,0.2487566056,-0.1205207448,0.7320759568,-4.0320373537,1.3062775546,-7.4332373506,-9.3914150809,-3.9220550548,1.0040737019,-0.3546216968,-8.7556160829,-0.3525175166,-8.5579303459,0.7733702009,0.7200732079,0.5173021547,-2.8914589906,0.0235690293,-0.1521648592,1.676174025,0.763669432,1.1372113578,-1.0506191967,0.4471067295,-10.0065662553,-9.3428984112,-3.2576686286,-7.9319145105,-5.9542760982,-3.5925457139,-1.5377344653,-2.4165372416,-0.0498474256,-4.4151971997,-8.6102710046,1.8219514983,-0.1851046374,-0.8242081011,-2.1880997215,-1.5502281581,1.0361649943,-3.1074514299,-0.088041247,-5.3675643812,-0.5098127406,-3.9935884907,-8.0164019106,0.0657469775,0.5736616403,-1.108528564,-2.9856813397,1.6925530703,-0.3734270456,0.2392937315,-9.6326319093,-9.1032259886,2.7609137287,-0.4737599956,0.3007996862,-0.6807531287,1.9588680363,-1.6332551496,0.0090821342,-3.6654218717,0.7936023839,0.7092002327,-26.5880356334,-4.613323058,0.2993437735,-0.4988693118,-0.6434835846,-2.3310377417,-3.8643964547,-3.4621505298,-0.8009774139,1.2258426825,-9.8326174112,-3.1495490334,1.6846735914,-0.2327799919,-1.4662821983,-0.5467948082,0.1983679256,-0.3120419979,-0.2791911182,-0.5145502709,-2.3228094773,-0.7516093246,-0.4225434743,-2.0010033978,-3.8865001036,0.5616736507,0.1970281948,-0.6634918304,-0.6486927137,-0.2000760411,0.7361290476,-1.0763849417,-8.0223567384,0.2116800924,-3.5920369421,-10.1358919602,-8.7183452103,0.5500512835,2.0639348346,-3.1355146654,0.7331027046,-0.2779996627,-1.639308155,-0.4119800947,-1.0526174177,-0.8952843136,1.1513172712,0.4701755197,0.9071753929,-2.7809749517,3.5036169852,-1.3254969095,-3.2525902378,2.3004133542,0.5589484676,-2.4423128593,-1.8593530251,-0.1477191197,1.1593126393,-7.3255408163,0.5642559238,-0.6522229309,-0.2347244322,1.4700808803,1.6250795674,-0.0837838119,1.2758446033,-1.3455588825,-9.5868916049,-0.3921896159,0.4944352506,-0.9255287002,-9.3352938215,-0.6360056224,-3.0244136491,-0.7658525509,-0.4617883044,0.6861658128,-1.7480451521,1.0121351432,-1.9999017519,1.0362867435,0.5157778583,-0.0233604156,0.7887184911,-1.302623807,-27.4323064956,-4.0388925052,-3.3242371318,-3.6245606304,-12.1042830088,-3.5401135489,-10.2004691641,-1.8555792461,-1.5949677723,-1.8159618648,-2.442753994,0.8682229781,-0.4165353743,-1.2108491469,-2.0266445295,1.3575054325,1.0509045277,-0.1799052296,-4.2265836209,-4.4397424986,0.4034120755,-2.1837595086,-2.8035329602,0.5835146596,0.9877846582,-0.2720572678,-0.1576021366,0.8161569482,-0.2803335189,-0.2981263231,-0.3921060681,-26.6554559099,-27.6382932481,-0.8115606582,1.0960281099,-1.3940445651,0.0156750028,-0.9777669278,-1.4475940574,-9.4393092197,0.7815499297,0.4707787556,-3.9039214057,-1.6304512866,1.4440349311,2.6467833505,0.0009921842,-0.2743938809,-3.9518355149,-3.7184526643,-0.2203369125,1.3132126497,-3.3135643132,-3.4629268979,-2.2711005681,0.5449074379,-0.5980259446,-1.196463636,0.9590925367,-0.3185423945,0.9326687022,-0.8043171773,2.0468859788,-2.1666908077,1.0035788717,-2.517001264,-26.4659236786,-0.6588651395,-0.1837907214,-3.9465587596,2.7673490127,-1.7118920838,0.290051748,0.0473626727,-3.5530978736,-0.424901808,-1.4788966762,-26.2661366119,-8.547996674,-0.3561239972,-2.5824650531,-2.7385382247,1.2804079046,-0.9059741518,-5.8227787334,0.3047378206,-2.3913469753,-0.872201087,-0.7614800662,-0.1461879608,0.4530632427,0.6801669756,0.6846995737,1.2425719643,-2.8081992676,-0.1153685087,-0.3246352331,-0.0062300081,-2.2782340614,-0.3449996352,-0.1579944131,-0.1247640823,-0.6744473603,1.0099494827,-0.7747205516,1.2650945493
