encog,BasicNetwork,java,3.4.0,1,1590072711231
[BASIC]
[BASIC:PARAMS]
[BASIC:NETWORK]
beginTraining=0
connectionLimit=0
contextTargetOffset=0,0,0
contextTargetSize=0,0,0
endTraining=2
hasContext=f
inputCount=1200
layerCounts=235,38,1200
layerFeedCounts=235,37,1200
layerContextCount=0,0,0
layerIndex=0,235,273
output=0,0,0,0,0,0,0,0,0,0,0,0,0,0,0,0,0,0,0,0,0,0,0,0,0,0,0,0,0,0,0,0,0,0,0,0,0,0,0,0,0,0,0,0,0,0,0,0,0,0,0,0,0,0,0,0,0,0,0,0,0,0,0,0,0,0,0,0,0,0,0,0,0,0,0,0,0,0,0,0,0,0,0,0,0,0,0,0,0,0,0,0,0,0,0,0,0,0,0,0,0,0,0,0,0,0,0,0,0,0,0,0,0,0,0,0,0,0,0,0,0,0,0,0,0,0,0,0,0,0,0,0,0,0,0,0,0,0,0,0,0,0,0,0,0,0,0,0,0,0,0,0,0,0,0,0,0,0,0,0,0,0,0,0,0,0,0,0,0,0,0,0,0,0,0,0,0,0,0,0,0,0,0,0,0,0,0,0,0,0,0,0,0,0,0,0,0,0,0,0,0,0,0,0,0,0,0,0,0,0,0,0,0,0,0,0,0,0,0,0,0,0,0,0,0,0,0,0,0,0,0,0,0,0,0,0,0,0,0,0,0,0,0,0,0,0,0,0,0,0,0,0,0,0,0,0,0,0,0,0,0,0,0,0,0,0,0,0,0,0,0,0,1,0,0,0,0,0,0,0,0,0,0,0,0,0,0,0,0,0,0,0,0,0,0,0,0,0,0,0,0,0,0,0,0,0,0,0,0,0,0,0,0,0,0,0,0,0,0,0,0,0,0,0,0,0,0,0,0,0,0,0,0,0,0,0,0,0,0,0,0,0,0,0,0,0,0,0,0,0,0,0,0,0,0,0,0,0,0,0,0,0,0,0,0,0,0,0,0,0,0,0,0,0,0,0,0,0,0,0,0,0,0,0,0,0,0,0,0,0,0,0,0,0,0,0,0,0,0,0,0,0,0,0,0,0,0,0,0,0,0,0,0,0,0,0,0,0,0,0,0,0,0,0,0,0,0,0,0,0,0,0,0,0,0,0,0,0,0,0,0,0,0,0,0,0,0,0,0,0,0,0,0,0,0,0,0,0,0,0,0,0,0,0,0,0,0,0,0,0,0,0,0,0,0,0,0,0,0,0,0,0,0,0,0,0,0,0,0,0,0,0,0,0,0,0,0,0,0,0,0,0,0,0,0,0,0,0,0,0,0,0,0,0,0,0,0,0,0,0,0,0,0,0,0,0,0,0,0,0,0,0,0,0,0,0,0,0,0,0,0,0,0,0,0,0,0,0,0,0,0,0,0,0,0,0,0,0,0,0,0,0,0,0,0,0,0,0,0,0,0,0,0,0,0,0,0,0,0,0,0,0,0,0,0,0,0,0,0,0,0,0,0,0,0,0,0,0,0,0,0,0,0,0,0,0,0,0,0,0,0,0,0,0,0,0,0,0,0,0,0,0,0,0,0,0,0,0,0,0,0,0,0,0,0,0,0,0,0,0,0,0,0,0,0,0,0,0,0,0,0,0,0,0,0,0,0,0,0,0,0,0,0,0,0,0,0,0,0,0,0,0,0,0,0,0,0,0,0,0,0,0,0,0,0,0,0,0,0,0,0,0,0,0,0,0,0,0,0,0,0,0,0,0,0,0,0,0,0,0,0,0,0,0,0,0,0,0,0,0,0,0,0,0,0,0,0,0,0,0,0,0,0,0,0,0,0,0,0,0,0,0,0,0,0,0,0,0,0,0,0,0,0,0,0,0,0,0,0,0,0,0,0,0,0,0,0,0,0,0,0,0,0,0,0,0,0,0,0,0,0,0,0,0,0,0,0,0,0,0,0,0,0,0,0,0,0,0,0,0,0,0,0,0,0,0,0,0,0,0,0,0,0,0,0,0,0,0,0,0,0,0,0,0,0,0,0,0,0,0,0,0,0,0,0,0,0,0,0,0,0,0,0,0,0,0,0,0,0,0,0,0,0,0,0,0,0,0,0,0,0,0,0,0,0,0,0,0,0,0,0,0,0,0,0,0,0,0,0,0,0,0,0,0,0,0,0,0,0,0,0,0,0,0,0,0,0,0,0,0,0,0,0,0,0,0,0,0,0,0,0,0,0,0,0,0,0,0,0,0,0,0,0,0,0,0,0,0,0,0,0,0,0,0,0,0,0,0,0,0,0,0,0,0,0,0,0,0,0,0,0,0,0,0,0,0,0,0,0,0,0,0,0,0,0,0,0,0,0,0,0,0,0,0,0,0,0,0,0,0,0,0,0,0,0,0,0,0,0,0,0,0,0,0,0,0,0,0,0,0,0,0,0,0,0,0,0,0,0,0,0,0,0,0,0,0,0,0,0,0,0,0,0,0,0,0,0,0,0,0,0,0,0,0,0,0,0,0,0,0,0,0,0,0,0,0,0,0,0,0,0,0,0,0,0,0,0,0,0,0,0,0,0,0,0,0,0,0,0,0,0,0,0,0,0,0,0,0,0,0,0,0,0,0,0,0,0,0,0,0,0,0,0,0,0,0,0,0,0,0,0,0,0,0,0,0,0,0,0,0,0,0,0,0,0,0,0,0,0,0,0,0,0,0,0,0,0,0,0,0,0,0,0,0,0,0,0,0,0,0,0,0,0,0,0,0,0,0,0,0,0,0,0,0,0,0,0,0,0,0,0,0,0,0,0,0,0,0,0,0,0,0,0,0,0,0,0,0,0,0,0,0,0,0,0,0,0,0,0,0,0,0,0,0,0,0,0,0,0,0,0,0,0,0,0,0,0,0,0,0,0,0,0,0,0,0,0,0,0,0,0,0,0,0,0,0,0,0,0,0,0,0,0,0,0,0,0,0,0,0,0,0,0,0,0,0,0,0,0,0,0,0,0,0,0,0,0,0,0,0,0,0,0,0,0,0,0,0,0,0,0,0,0,0,0,0,0,0,0,0,0,0,0,0,0,0,0,0,0,0,0,0,0,0,0,0,0,0,0,0,0,0,0,0,0,0,0,0,0,0,0,0,0,0,0,0,0,0,0,0,0,0,0,0,0,0,0,0,0,0,0,0,0,0,0,0,0,0,0,0,0,0,0,0,0,0,0,0,0,0,0,0,0,0,0,0,0,0,0,0,0,0,0,0,0,0,0,0,0,0,0,0,0,0,0,0,0,0,0,0,0,0,0,0,0,0,0,0,0,0,0,0,0,0,0,0,0,0,0,0,0,0,0,0,0,0,0,0,0,0,0,0,0,0,0,0,0,0,0,0,0,0,0,0,0,0,0,0,0,0,0,0,0,0,0,0,0,0,0,0,0,0,0,0,0,0,0,0,0,0,0,0,0,0,0,0,0,0,0,0,0,0,0,0,0,0,0,0,0,0,0,0,0
outputCount=235
weightIndex=0,8930,53330
weights=##0
##double#53330
   0.80965734,0.0453937079,1.07219497,0.7451590556,-0.2878317696,-0.5205584159,0.7362863581,1.372844558,-0.0189573809,0.0852100355,0.6313510687,-1.1769258036,-0.6103130165,-0.1232809178,-0.453632087,1.2852466617,0.9819271149,0.6648098488,0.0175089719,-1.1027022187,0.2872402261,-0.2793974446,0.4164391029,-0.5222799818,0.4031986885,0.2354974371,0.6978997806,-1.0755905959,-0.4620254662,-0.9154360796,-0.0898903689,0.6814263994,-0.0299543803,0.1927390817,-1.0032743126,1.758802376,-0.9348646965,0.8569119579,-0.4365910679,-0.5308990931,-0.2818152823,-0.6549784887,-0.7390740858,-0.1452747909,-0.7320017781,-0.0006051981,-0.6398442288,-0.1235286011,1.1397492027,-1.1748798739,0.8384285087,0.3869789404,-0.1045440997,-0.503924757,0.8413531147,-1.1043008195,-0.0851893174,0.7790319804,-0.5920095942,-0.5514587583,0.5717881218,-0.2886025135,-0.7982862329,0.8906985214,-0.2377926985,0.3896727139,0.6480948035,-0.3878262734,-0.6899739126,0.4880076034,-0.0851014273,-1.5261048438,-1.4436928555,-0.6577119026,0.5047591379,-0.3325501428,0.7035193779,-0.6452510285,-0.8514516928,0.4401513452,0.1618101345,0.3358156448,-0.0083399963,0.5318788939,-0.1295892901,-1.2531705379,-0.4991843235,-0.1056719909,0.9274934085,-1.0537939678,-0.0413080798,0.2449034718,-0.0056668,-1.1386896102,0.9841510003,-1.4105281181,0.2591744409,-0.0238791787,-0.336046738,-0.4551179906,0.5340961747,0.1756379685,-0.6203379426,-0.8603347827,-1.0692176031,0.007164098,0.1026109609,-0.3275433882,-1.4872689106,1.1612447828,-0.6951181706,1.4085239128,-0.7581073459,0.2566694939,-0.6645477711,-0.80860477,-0.6701712622,0.4016729075,0.0936831127,-0.1411091313,0.3643338002,0.6463931419,-0.9888496769,-0.0928562751,-0.0797677526,-0.2501691894,-0.6324559154,-0.7661786935,-0.6032340307,-0.4323561623,0.0635201588,-0.3127611979,-0.1726495126,-0.6979366035,0.3448287361,-0.6452611335,0.20318415,0.8382301375,-0.2141441838,-0.9534547189,0.1085456785,-0.7468071285,-2.143265537,-1.318647659,0.3175110623,0.6306066361,-0.1504782463,-0.1915897633,-0.7988476891,-0.986682587,0.3153578226,1.1076990206,-0.8877152104,-0.8691645439,0.9592485051,0.4611893358,0.2392347842,-1.1456514925,1.5307386167,-0.7474499769,0.2861591829,0.0823186488,0.2047937625,0.4395408952,-0.3221628023,0.2135000531,-0.3513440339,0.3092070991,-0.1907108026,0.3840932319,-0.3009480983,0.1966006188,0.9834466104,0.1402865598,-0.4774620527,1.0873127857,0.5573824593,-0.6580501852,-0.6661676107,-0.414447489,-0.6273744849,-0.2226004652,1.1449941323,-0.31220718,-0.8441364636,-0.8365134558,0.3576774575,0.1349063776,-0.7475268062,-0.849580967,-0.3529936957,0.6297257986,-0.6864437881,-0.4827305586,-0.8583305924,-1.0351410022,0.4124696138,-0.6402494772,-0.0637401239,-0.6731331532,-0.695987509,-0.5768442222,-0.8074586371,-0.4292096692,-0.3764396247,0.9934479886,-1.1963037434,-0.8506301801,0.837894674,-0.8790540815,0.7601085654,1.3632154636,0.4054144641,-0.7773526299,0.6508217217,0.0574718498,0.7189412801,-0.5236969941,-0.9445483299,1.0090562444,0.1635754499,-0.5654487399,0.2720943569,0.3155376759,-0.5733307725,0.8421818769,0.371992472,0.8304453251,0.8593102236,-0.1769111691,0.0820213382,0.7131280291,0.4776722747,0.2251041687,-0.377878912,0.2053925129,-1.0898420723,-0.2912570796,-0.6096077548,-0.3062270527,-0.2034077125,-0.6490849598,1.1697371206,0.0939922457,0.4474021378,-0.0939722988,0.1499644651,0.5350050319,-0.2200866312,0.2974490583,-0.765854568,0.1863926778,-1.6239783697,-0.3129335721,-0.6944710957,-0.5826464804,-0.1498198465,-0.4024403689,-0.4968250157,1.2744320627,-0.0316750669,0.1590265583,0.3918969676,-0.8310525373,0.614304002,0.4460932521,-0.5959891383,-0.0711519193,0.5202067991,0.4491491595,0.2985992809,-0.3300356172,0.7422717956,0.0040800009,-0.20999923,0.1577347801,0.2499256752,0.070870441,0.2027394376,0.1436601664,0.3077377014,-0.5410245995,-1.2860782101,-1.1507669214,0.4190285596,-0.0917794775,-0.9218142437,-0.4504611733,-0.9613987543,1.1902988195,-0.2755907977,-0.3937841545,0.0773653906,-0.0916220902,-1.4042137495,-0.3038872493,0.9028169423,0.2170909787,0.2077612784,0.3047479802,0.9117946833,0.4952650023,-0.941240008,0.1269361954,-0.376388929,0.5214249949,0.9118400203,-0.1524382125,0.3216761377,0.2631658235,-0.7741405061,0.642880213,-0.6632768253,0.5743993115,0.1270343335,-1.2571802817,1.2026667464,0.2461386577,-0.0759469915,0.8201486313,-0.7723868632,-0.1747171889,-0.1870460616,-0.5211772922,0.0823340228,-0.8978561771,0.4506618037,0.4881576538,-0.8806081889,-0.9730283451,-1.3219663957,-1.0071819212,0.085997536,0.5837011029,0.4474474586,0.0397176432,0.7896062355,0.4948459424,-0.5563425246,-0.7007242208,-0.0701901684,1.1209108288,0.1800752109,-0.1662446172,0.1604189441,-0.9784300149,0.0294588582,1.1672593516,-0.1842793722,0.4711211714,0.0183760835,-0.147300577,-0.0355588115,0.4439728073,0.009976878,-1.0040972436,0.6639453717,-0.0394635517,0.2216220121,-0.6178536642,0.128684473,-1.0541593439,0.266374615,-0.2694352494,-0.5764329837,-0.3042921168,-1.5184828567,0.2891910239,0.5584177785,-1.5598615991,-0.6147274758,-0.2497723787,0.3934224892,0.708286584,0.3426982659,0.8310030728,0.696057167,-1.5939415081,-1.0020143394,0.0493536325,0.3614355006,0.5872514807,0.1395062928,-0.0015960605,0.0399307394,-0.1843418797,-0.1990900048,0.2867751015,-0.2895164326,1.6664638611,-1.1469536826,0.4874928933,-0.4662672926,0.2245851904,-0.3027471712,-0.7679776706,-0.3119499386,0.5460020474,-0.7220228337,-0.8853772482,-0.0749331019,-0.9335504916,1.261493635,0.6490200634,0.3358214785,0.2699260163,0.5939479496,-0.0147817019,-0.0509880537,-0.9172615293,0.1171810839,0.0324015236,-0.4765449512,-0.945449954,-0.927563449,-1.1100501093,1.142574466,-0.3426149733,-0.5899553433,0.5518825578,0.375965522,-0.4405453408,-0.6674061915,-0.0600444439,-0.3246453051,0.3914989967,0.1149605451,0.1022788507,-0.8963228264,-0.0443400441,0.5393744109,-0.6502054147,0.1410286113,0.2988502635,-0.2097220646,-0.8574883531,0.2153901451,-1.3570733469,0.9277462217,0.3941209477,0.4454426343,-0.7445964952,-1.7636421948,0.5341385606,-0.0754545626,-0.8505430766,-0.6541926585,0.3750474449,-0.4511008755,0.6962994722,-0.7777135939,1.219008737,0.5282555471,-1.0160370192,1.4685648747,-0.0367927304,-1.207461917,0.0717148545,-0.1784602921,-0.4444484925,0.7884393349,0.1974851124,-0.4290831472,0.065508922,-0.9476280964,0.5589126077,0.1215156241,0.1283045346,0.2627133056,0.5325930778,0.5145537806,0.4014284756,0.3600670586,1.4608455955,0.012518145,0.7068845769,0.5257162914,0.7876484739,0.5048758677,1.0668488434,-0.179844036,-0.9192589502,-0.6487198214,0.4766733758,-0.9071279336,-0.2164593707,-0.8869796751,-1.2092018915,0.8713290391,0.1847460664,0.0244907346,0.733948212,0.4931360644,1.1540657199,-0.90029937,-0.6194645752,-0.040608213,0.6890466704,-0.0483006066,-0.7945353586,-0.163774766,1.4404629395,0.0099395548,0.1929614258,1.0409722003,-1.0945791417,-0.4234361769,0.6879660889,1.2456301204,0.1827759999,0.0800642152,0.403651163,-0.8280607394,-0.0084166889,-0.1697298936,-0.2000624937,-0.2289160675,-0.355232556,-0.674012382,-0.126482761,0.0284470603,1.183267244,-0.7879489719,0.3841725818,0.6456767422,-0.8187666026,0.5295371817,1.3631673813,0.3898420534,0.0550635933,1.0789958906,0.7353490773,-0.1594824797,-0.0043157479,-0.6703699356,-0.163197323,0.1097793718,0.9752473965,-0.5219952616,-1.3953152128,0.5806715347,-0.7502087709,-0.0401624447,0.1501896599,0.2179274641,0.7801661727,0.9356324398,-0.2935828372,-0.112644854,-1.3814378898,0.2363652569,0.2059485075,-0.4326012381,-0.030453198,-0.2584175999,-0.331514904,-0.6544058699,0.2658598671,1.1083042692,0.1074179809,-1.0369994447,0.2292542916,0.6449689879,0.8590069676,-0.8810459674,0.6575068409,0.9088053104,1.0087204766,0.0705288076,0.4238884595,-1.5195697069,-0.2923069281,0.5787951296,0.3119251412,-1.1450496333,0.399449799,-0.5227385448,0.1064543567,-0.2611046444,0.9053666765,-0.122249603,0.2929081735,0.2101977711,-0.4864201838,0.858733206,0.8916934775,-0.3957181676,-0.3259009952,-0.3576268024,-0.6653179642,0.3270211297,-0.6749143417,0.2962396683,0.2920398317,-0.0527590719,-0.1806298812,0.4756158408,-0.0276897924,-0.3697357091,0.3856994915,-0.1740874047,0.8304878164,-0.4932684224,0.7402330523,-1.2069503644,0.3918119575,1.9483592503,0.2959690735,-2.1355372273,0.6227740717,0.6425603346,-0.5805103742,-0.8423834504,0.6832572725,-0.0229142568,0.6334225239,0.7640881021,0.1149568796,0.5213920795,-0.8166542199,-0.4090972851,-0.5863837078,0.7410300136,0.8639667903,0.2689037162,0.0349795328,0.0206758585,0.3705300412,-0.3345166693,0.8182835601,0.3530313402,-0.3510879139,-0.9443711744,0.0983072872,0.6091261752,0.6930808144,0.6906378196,0.4725702264,-0.2814628098,-0.04345051,0.330494737,0.0234579154,-0.0067472058,0.5380678681,0.9667154993,0.5461788354,1.1078496864,-0.3102047073,-0.7107569346,-0.6834038539,-0.3568885749,-1.2677868365,-0.0124626934,-0.1272708053,-0.6950679418,0.8580614246,-0.6337412526,0.4988279806,1.1774504914,0.0472140956,-0.9137549016,-0.1033340941,0.5474135295,-0.2213522298,-0.4443391183,0.8446348499,1.0650163971,1.1068561159,-0.089939929,2.8866660861,0.0753606803,-0.1125681703,0.0225210454,-0.3188900162,-1.196886934,2.2664405198,-0.0669600207,0.2991577689,0.7877361727,-0.420284237,-1.8635356062,-0.0705160965,1.1254034294,0.7399108369,-0.7997809224,-0.0607451918,0.4433709222,-0.3351380273,0.219911357,-0.0064918893,-0.3407272252,-0.0021963641,-0.244366473,-0.8913102366,0.8058781871,0.4339262339,-0.041588367,-0.7843034918,0.6067366774,-0.4313446827,0.038676013,-0.3682431266,-0.6640171196,-0.2772092108,-0.5583037879,-0.7407393987,-0.8697986636,-0.3404847948,-0.7531860309,-0.3093341806,-0.0721858682,-0.6485584774,-1.0692288146,0.190465968,-0.7488413197,-0.1114176094,-0.2905751617,0.221757717,0.4053500819,-0.077037097,1.0413307922,1.4942419912,-1.2013021064,-0.3323728199,-0.6519854143,0.3191241103,0.3047371257,-0.0954516562,-0.8470842377,0.6502311254,-0.0666819177,0.8349564936,-0.9919486356,-0.8088525533,-0.4143725147,-0.7496231004,-0.4730256396,0.7636621276,0.9336436929,-0.0744706011,-0.5530592375,0.6065360699,0.3315616194,0.6954882045,0.5374744974,0.3170761719,-1.0104893365,0.3691392845,-0.1537124055,-0.7857470704,-0.0126134385,-1.1027846948,-0.2245202442,0.9642166947,-0.6598984889,0.1610351336,-0.3967748049,-0.7328259264,2.0824366142,0.3417172101,0.6417294279,-1.0582906213,0.2090792741,-0.4161096801,1.2755219324,-0.4267725702,0.7406560102,-0.125359162,-0.1095293299,-0.0778545223,-1.3095051769,0.8658391001,-0.6616630314,-0.4400773372,-0.7266806541,0.696415574,0.3496317325,-0.2756499687,-0.197613675,-0.2114371312,-0.5078553297,1.5638078877,0.1645476737,0.7958211997,0.7303213006,0.2100136226,-0.3056366516,0.1549538544,0.2050823932,-0.4130014709,-0.0002923273,-0.7650454035,0.5930635269,-0.6569774254,-0.3788306907,-0.3996395578,0.3880642414,1.4527866517,0.9543071561,-1.8117848701,0.2454916253,-0.7797565284,0.6770587523,0.0092302025,0.7275771035,-0.4933139665,-0.9981569429,0.3803942346,-0.5742278969,0.744071983,-0.3750531783,0.4831516453,-0.4640051497,0.2913649726,-0.3822656833,0.5275226538,0.104980049,0.7447024924,-0.0007939523,0.3699819884,0.1742345692,0.9413881036,0.4581383085,-0.7594830807,0.2276284721,0.827865896,0.4975811728,-1.3224934108,-0.6554904263,-1.2442092972,0.4454563087,0.2545558643,-0.3193889595,-0.3826612188,-0.4417318739,0.7254215513,0.6594383321,-0.7093067307,-0.0767259382,-0.9651257864,0.3664089864,0.8501692161,0.272340597,-0.0107352327,0.1734767353,1.2021557429,0.4316367584,0.7539384505,-0.7539644397,-0.4942761789,-0.8410602619,-0.2536989843,-0.7117605569,0.3695952718,-1.4590748595,-0.3456658304,-0.8297944792,0.0211488581,1.1835009794,-0.1966189676,0.0053244274,0.546287069,-0.690916058,-0.3570543264,0.4744328764,-0.6099318707,0.5067897541,-0.5709512367,-1.2805669417,-0.944095631,-0.73531178,-0.4803735792,0.5605890216,0.6596452876,0.2615591071,1.3283013484,0.9471553492,-0.8186180651,0.3270186324,-0.9979890293,-0.6690074388,1.6585172743,-0.796854556,0.5528458175,0.5070661967,0.4942819841,0.2442912896,-0.5611384806,-0.1458801114,0.1542340531,-0.2156654746,-0.755419978,-0.1585084247,0.2995939204,-0.3352941926,0.1618911592,-1.0266852489,0.2403425083,1.0352708367,1.124744771,0.8272300512,0.9280539765,1.0039663094,-0.7675238569,1.024741668,-0.5109080295,0.2999403413,-0.9257416024,-0.8158654041,0.8423172293,-1.1203476134,-0.0622202292,-0.5038761845,0.7683164754,-0.946050578,-0.1875689395,0.8079084013,0.4242686188,-1.0003276106,-0.0583130439,0.0830503228,0.4058432464,-0.7005593266,0.7712735615,-0.2191321306,0.6835167436,-1.1945530832,-0.582021905,0.5541346803,0.9602626023,-1.0369853339,0.7580690717,-0.6138468176,-0.9825997385,0.8799506505,-0.0602174423,0.5964226056,0.9913389541,-0.3500458018,0.7404375024,0.5365576262,0.0195547333,0.7591891436,0.7225061976,-0.3351023542,-0.1300076429,0.4108818486,-0.1367543256,0.8046236725,0.8071299568,0.1448162952,-0.1389159976,-0.4135185344,0.3887491942,-0.0354169071,0.6175291361,0.3604510049,0.5091889022,-0.4286167799,-0.6448434053,0.1870483532,-1.7732023564,2.0321345233,-0.1902160109,0.5419985432,-0.3942142431,0.5790975164,0.3333736232,0.4104535886,-0.5380832024,0.2741637883,0.0361605097,-0.1331852242,-1.0326304899,-0.6696107628,-0.0571954305,1.3244997436,-0.2461282961,-0.4633913445,-0.1150730852,0.4685446974,-0.2342205092,-0.3977092354,-1.0592299747,0.8327369629,-0.7184663751,-0.2032845343,0.0800675565,0.271229758,-1.7777514218,0.0847524693,0.5757184054,-0.7642100415,-0.6653571316,-0.2722776083,0.0171055107,-0.1300220893,0.5087578277,-0.6572821236,0.332474513,0.2114689808,-0.0977511484,0.084155252,0.5977099237,1.0109052238,-0.142982186,0.1712720129,-0.109288213,-0.5942030469,0.0657199735,0.0788234888,0.1832046525,-0.340778457,-0.0305661261,0.7145177891,-0.5336103812,0.5573311128,-1.102781627,-0.9957070457,0.368151401,-0.0518145541,0.502685408,0.8346827667,-0.1704111846,-0.7294317131,0.4115109046,0.1559789252,0.496904165,-0.176800934,-0.8667152059,-0.2452405544,0.2159244025,-0.2220410216,-0.3522913833,-0.9544476791,0.8944120085,1.1951439299,0.3658423966,-0.6822638618,-0.311827771,0.2403745445,-0.2010957439,1.0763115136,-1.0865183999,0.4790243109,0.8612220528,0.7395455074,-1.0716759049,-0.641025409,-0.3286553424,-0.795954601,0.4795914447,0.241182978,-1.0003036396,0.1652769318,0.0112275439,-1.0030706753,-0.0278593408,0.2678763994,0.8491567614,0.4027306767,-0.6709405066,-0.1415207831,0.8073892494,-0.0275899826,1.1562257453,0.1630398207,-0.7416227292,-0.0235535401,0.3067484516,0.394433758,0.5433057259,-0.5516535318,-0.1698484475,0.4554906926,0.8733360615,0.9588174251,0.5231412707,0.4460259467,1.1120830271,1.1167518955,1.357945994,-0.4760714118,-0.6350822027,0.3792352539,0.0808361462,-0.2182242134,-0.0550998264,0.0849390547,0.1184306846,0.0606084704,0.9955643502,-0.0969251774,0.1549020327,0.5142114275,-0.8020957913,-0.0790540735,0.3320719803,-1.1587213777,1.2027440373,1.0341642359,0.9923713013,-0.1521549308,0.3233551213,0.7695095664,0.5692662046,-0.876590586,0.6225924947,0.012294152,0.3430340104,-0.6501353002,-0.5112771788,0.0625772599,0.7260363957,-0.7011388469,0.6403400461,-0.058306567,-0.318294727,-0.0687246749,-0.4794312318,0.602324908,0.1251117533,0.8322743426,1.0478569231,0.2653197714,0.120803835,-0.820312894,0.1367330115,0.2363516517,-0.9836559221,-1.0010595847,0.981700291,-0.6815548474,-1.3091279724,-1.1906369429,0.872058476,-1.0905363633,0.0232422546,-0.9320866289,-0.6447130971,0.4537418066,0.6663067971,0.7289564143,-0.5232357387,0.228045997,0.2140246166,-0.1374149288,-0.0396651843,-0.4870521108,0.4359681804,0.1079534208,-0.2880615064,-0.5228238053,1.1297241123,-0.3671230783,0.0652869134,0.8375392311,0.8975878704,0.2141835837,0.5739723231,1.0536642221,0.840614474,-0.1988068487,0.7808793714,-0.3193795354,-1.0998011031,-0.3191499696,0.768410791,-1.8058438876,-0.1132161455,0.5778260017,-0.2481291365,1.2566272672,0.0534914134,-1.1466863278,-0.2061178719,0.1913450308,0.7256126709,0.1466282138,-0.0527544713,0.3147099683,-0.733294372,-0.0613280389,-0.9355856633,-0.7909737633,-0.9286748418,0.007658931,0.5117469608,0.7900494643,0.710206677,-0.1069103392,0.4939669155,0.0031781251,-0.6660577317,-0.7191261632,-0.4117128707,-0.2725817855,-0.2069996762,-0.7955471874,0.4554815403,0.4150333876,-0.7060579716,0.0482239534,-1.0869904351,0.7510147637,0.755957197,-0.0610171433,0.2612538072,0.4960998125,-0.8837461006,-0.0725918773,-0.3490850348,-0.653513254,-0.7449345192,1.1713363007,0.7323572112,0.6741968809,0.0808842965,1.0515787857,-0.0293913671,-0.0302026252,-0.3844749416,-0.7544598061,-0.7971708312,-0.1782406699,0.0321475387,-0.989392865,-0.2212145701,0.3301159811,-0.9145007815,0.8162002518,-0.2377579939,-0.2725642782,-0.7730416248,0.0476330033,-0.6118829707,1.1271090135,0.9536334271,0.3365140969,-0.6238490639,-0.2380435438,0.6987452164,-0.1533617047,-0.7558778304,0.3432233051,-0.7435089808,0.3590268165,0.9642915366,-0.5453014676,-0.5558120845,0.7720419597,-1.1653364773,0.7267624007,-0.2380898102,-0.104043492,-0.1087851413,0.9419559914,1.2694147378,0.0764522388,0.7280108274,-0.5760836357,1.01068151,-0.0984702915,0.3373038645,0.4571565365,-0.7224782707,-0.5252701742,0.2312673572,-0.2330534209,0.213024602,-0.3186744901,0.324245968,-0.2304912866,-0.9984470867,-0.8939823178,0.7680476089,-0.4009214411,0.8189142618,-0.5434158764,-0.1506289322,-0.0466561459,0.6853747906,-0.780749241,0.2507334851,0.1515145279,0.4256323743,0.7472738444,-1.2604282203,-0.2661293402,0.6487621505,0.3528525574,0.8063892513,-1.4935029679,-0.4761329111,0.7668362757,0.740590861,0.1996900175,0.4057950168,0.35469542,1.4034898787,-0.4701559439,-0.1244912342,0.4104933055,-0.2740357159,-0.141702358,-0.5149294006,-0.1928608301,0.1932029607,0.4508248481,-0.4877285013,0.4250117041,0.3969075662,0.2752080961,0.4536031115,-0.2939683704,0.3021594135,-0.9149884526,-0.8644740262,0.196372075,-0.1794620948,0.0096012239,-0.7375483717,-0.6071480603,0.3572580654,-0.5398940342,0.6415781934,-0.4328866077,1.8510372879,0.3669052626,0.5643387757,-0.2187618085,-0.1130935738,0.4041455736,0.9413671649,0.4871262396,-0.4777197262,-0.2287315165,-0.3229795903,0.480873935,-0.5203990005,0.783280369,1.26716696,0.4240036764,-0.6044282152,-1.6486969085,0.0135082204,0.5077413185,0.4954561385,-0.7009710656,0.5411574275,0.4331740326,-0.5081504424,-0.0344515034,0.0858495972,-0.712665488,-0.5259072725,-0.9062913414,-0.7061656252,-0.130729336,1.0505385543,0.5964166415,0.6888321231,0.4734717316,0.0823181943,-0.3130798135,-1.2701683777,0.1814533003,-0.2241249658,-0.6215055057,0.4027516803,0.6881163786,1.0875240951,0.0415036743,-0.0697701469,-0.9883685051,0.1010362663,0.5704849259,0.8704700948,-0.025608202,0.9172903999,-0.3053204619,-0.3007470962,0.4764779365,0.8750234195,0.363833155,-0.1554084782,0.7523946764,-0.3928127828,0.5589713653,-0.8795846231,-0.0050689388,1.2078407174,0.7092826881,0.3790872716,0.0404243598,0.5259789543,0.1961413078,0.3630882462,0.4112836188,-0.6040125779,-0.7632482071,-0.8686335047,0.5520365968,-1.1641753246,-0.1964809273,0.482644809,0.5397792314,0.6519622115,0.3598039421,1.1834203003,0.1209572286,-0.3106599544,-0.0123040514,0.547687545,-0.3950210109,-0.0324304659,0.3457159788,-0.85946024,0.6239253033,-0.6197408363,0.2345874267,-0.721741349,-0.2905013701,-0.7615952539,-0.5709674243,-0.1860076839,-0.3353689455,-0.0818347045,-0.7359507162,-0.7106355278,-1.2377348465,-0.2712960113,-0.668414514,0.099186405,-0.4687137353,-0.803854188,0.542921664,0.0935807662,0.2024231048,-0.8159649724,-0.4887048219,-0.8722582871,-0.1679198082,0.5049180326,0.2735113544,-0.5813592339,0.8021150395,-1.1694274752,1.0217988808,0.4541618258,-0.4131162193,-0.0493808192,-0.3391129185,0.3644243771,-0.7022779861,0.3058330486,-0.5413994197,-0.3867592465,0.1281273654,-0.237430999,1.1921858778,0.5599606468,0.3725504779,-0.1783867621,0.4191225013,1.316152977,-1.1205696978,0.5524840823,0.8498993898,-0.1337309019,-0.0449002447,0.914847806,-0.4309628814,1.18724793,0.0747696542,-1.2403676065,0.7653283717,-0.8454376187,-0.787365414,-0.2909902341,0.2614381019,0.1120891182,0.0455496867,-0.8020012075,-0.4144296065,0.2140410391,0.5098448625,-0.05912704,0.4405163007,0.883895569,0.2109413651,-0.5113969924,1.1425542328,-0.0792185977,0.1058814124,0.5535553363,0.5135085495,-1.1106198724,1.1646751746,0.9209175013,0.8992993953,0.030196995,1.0908906322,0.1783119331,-0.7995035475,-0.8168201752,0.5967363316,-0.5840896114,-0.4502921358,-0.4306336977,0.2563958271,-0.991990407,0.1321744984,0.1271390419,0.0092412755,-0.3525953702,0.1438201666,0.832590653,-0.878160312,-0.4448190882,0.8340950569,-0.8838272611,-0.1273425112,-0.4063442743,0.6323971507,-0.0270176184,0.8000774619,0.3618138343,-0.581349237,0.8801600336,0.1501161711,0.2815432029,0.6952149334,0.2913203614,-0.2835206316,0.5579848188,0.0498287663,0.7435879837,-0.6975379028,-0.0102730298,1.5571918433,0.7229753136,0.0484137298,0.1928907591,-0.4870254113,-0.6619225637,0.1749622674,0.2169855087,-0.1710731165,0.9080787266,0.7771245674,-1.3782184082,-0.0159188132,0.2503434092,-0.1729790941,-0.1109814649,-0.3336794155,0.9511302396,-0.6271381736,-0.6510498991,-0.7627209369,1.0248164778,-1.2738597285,-0.0210553755,-0.0178917955,1.0588644104,-0.5888623775,0.6888472996,-0.9195457418,0.6687409439,0.0694906531,-0.7687302744,0.7083009278,-1.7112215993,-0.7238016746,-0.2420058355,-0.6393518386,-0.8425132648,0.284577282,-0.6838676921,0.301744347,0.9136677564,-0.8159178477,-0.0736472021,0.9779187093,-0.9557143579,0.0699816014,-0.7832464911,0.2308542167,-0.7404058616,-0.1331903331,-0.2383830264,0.7963873065,0.2875774622,-0.5995459564,0.1640711219,-0.5945471553,0.2451443982,-0.6744654571,0.8352218481,0.6297176217,0.7388575336,0.9137957197,-0.007301396,0.6863020222,0.8259370447,-0.3616497773,-0.8904487692,0.7521630879,-0.6692848069,2.0047873783,1.9749865508,0.8079813288,0.5747520289,-0.5525333947,0.4389671128,0.9336160402,0.2232030196,-0.3411111172,0.5869931579,-0.247627312,0.2681529594,0.6169954525,0.1531372646,-0.3831610873,0.9423522036,-0.6581963213,0.4692671155,0.2791924469,0.6453567054,0.894093439,-0.5476515043,0.1236634334,1.168411003,0.8375189561,-0.918815543,-0.0279730425,-0.3011816936,-0.8673891948,-0.40409511,-0.2486911391,-0.4738039601,0.1724836859,0.6393505902,-0.3022030277,0.8244539647,-0.7033958309,-0.2142073305,0.0703937769,-0.6559198647,-0.1059130881,-0.0896822206,0.0778537396,0.0769183159,0.8896431381,-0.7228470973,0.3482643207,-0.4704270957,-0.9213148298,0.1788332016,-0.4304779989,-1.7756428493,0.8547697126,-0.8855735014,-0.1195004129,0.8303780918,0.9041548599,-0.1265492946,0.5951387559,0.1242864997,0.9269639832,0.7603793448,0.0211828513,-0.3443404584,-0.5727053055,-1.0794457107,1.3378802228,0.7569289973,2.1130995491,-0.1774876499,-0.2187712926,-0.7966642778,0.3010723858,0.3673796008,0.6954961471,0.5080122617,-0.9770644395,1.9263560453,-0.8510511829,0.8093051771,1.0788811797,-0.6012523542,-0.0692590861,0.248014039,-0.7966274504,-1.2729147018,-0.2902251911,-0.4335953903,0.7222807069,0.2109851237,0.4399106654,-0.2005266557,-0.7347056593,-0.1224937475,0.2957809181,0.1830913823,-0.122099318,-0.7893365877,0.1540662661,0.4654703878,0.9616230111,-0.7833078093,0.6904883604,0.8137682086,0.2889741588,0.7418925797,0.492765832,0.1475280523,-0.7803099597,0.7435952484,-0.3601997036,-0.5402220773,0.3624788152,-1.2047288895,-1.0478485402,0.1158974448,0.3959178248,-1.3244018086,-0.6215105347,-0.6275086562,-0.9052292305,-0.1285567492,0.3382898737,-0.2240608836,0.7288181023,0.6011158361,0.2377061803,0.1065815126,-0.6247862434,-0.942880918,-0.7786580572,0.5949590271,-0.5530510768,0.0840750578,-0.0346451012,0.72984964,-0.1853055245,1.0754119955,0.8970822719,0.1289312102,0.5193005122,0.4423693661,-0.2974087573,-0.131794167,0.6586723211,0.9179734528,0.4353005749,0.0675492579,0.0092908573,-0.3749538709,0.234489664,-0.8773126014,0.3476660069,-0.2860680294,0.4924900882,-0.6178786453,-0.5166771998,-0.1172320254,-0.6533189716,-0.3060895505,0.7213170991,-0.5452566707,0.4908483012,0.0644196471,-0.747258061,0.7313415813,-0.2408041851,-0.2701139982,0.8518079258,0.4788653738,-0.2471695588,1.0879891377,0.6319132924,-0.240507287,-0.6968086552,0.9659036554,0.0868044309,0.3023281838,0.8796070284,0.6422882381,-0.1256045877,0.6555382704,-0.3259414236,0.3304967325,-1.140996991,0.4892253654,0.0502976413,-0.6775343143,2.192210859,0.004937873,1.1513940283,-0.771713619,0.7699613888,-0.8994132834,0.7436132885,-0.5881018502,-0.3033761184,0.2080498069,0.2227222287,0.3386083632,-0.6037181502,-0.0388805585,-0.2383660106,-0.6536452162,-0.3903130776,-0.2351395248,0.983016091,0.4348334635,-0.7648202534,0.353574838,-0.6796049127,-0.8868229301,0.2043096573,-0.6048545396,0.186434942,0.3344500654,-1.1983066936,0.4993314083,0.4728321814,0.6330559702,-0.0519258437,0.3783125199,-0.5020659729,-0.3504214302,0.4905720173,0.0575242363,0.6762636431,0.3965234121,-0.1352322495,-1.3097851153,-0.8779929464,-1.0966968284,0.049660134,0.7102132601,0.1286026349,-0.950397173,0.401637511,-0.3850102549,0.0045365423,1.0348445634,-0.5525112938,0.9185428234,-0.5019061432,-0.3809382879,0.734099305,-0.7150111126,0.6164705674,-1.0708976832,-0.4381414033,1.0253321852,-1.744831724,0.1474788991,0.0387959565,-1.4755662056,-0.6763197175,0.1584692844,0.8606888907,-0.0294083827,0.0670678069,-0.7986247012,1.0307262189,-0.6339987888,0.5332351034,0.1856537152,0.6712531427,-1.2872501191,0.8124046184,0.0041250684,-0.0301853946,0.2848011685,0.3844462023,-1.3016856406,-1.4930372012,-0.2420568322,-0.1573981702,-1.132068212,-1.021462592,0.1199161642,0.107984672,0.4424326288,-0.4808057391,0.8503337994,0.7383895639,-0.4021944549,0.2777470159,-0.6132929956,0.5856737339,0.6283767838,-0.5496769279,0.3559090818,0.2510239906,1.3955038677,0.8202319242,-1.1319449716,0.6778425455,0.0082278287,-0.589514603,0.4790529536,0.1488154942,-0.5022961441,0.7953124098,-0.0111530105,0.2386532543,-0.1704130465,-0.3293437655,-0.5411045574,-0.1971186793,-0.1562840566,-0.0613145912,-0.4094195076,-0.8918508943,0.0736700431,0.3089739184,-0.1560845447,1.1319707065,-0.6167209384,0.2501570921,-0.0190265032,0.8554538492,-0.8908945125,0.3698791946,0.563864541,0.7345681009,-0.2300412557,-0.60414676,-0.1665381325,-1.3851305102,-0.2728802634,0.2161232866,-0.168788146,-0.9378840199,0.3409851975,-0.3945911481,-0.0580298811,-0.2279652109,0.7334772064,-0.1144617228,0.0867132842,0.9381724362,-1.4267839394,-0.470293903,0.6266506558,-0.5653183766,-0.9434296021,1.0827924405,-0.2002982305,0.5187755148,1.03109103,-0.4863673378,0.2731323184,-0.2681288188,-0.3506664678,-0.5538393256,-0.4137545273,-0.2483056222,-0.0962539846,-1.938683911,-0.561566182,0.0927579842,0.718126009,0.4329390375,-0.4537396905,-0.4742696081,-0.7924190472,-0.2543727642,0.7024718206,-0.0223418964,-0.1530259705,-0.778856506,-0.4623624985,0.2385828187,0.2148179034,0.9836018686,1.1282570586,-1.1269793128,1.0822576315,0.500697379,1.0054402674,0.5236173264,0.858969896,0.8081054407,0.5579200057,0.5912084663,-0.2814761122,0.3033733919,1.2689687365,0.6693940331,0.6606632531,-0.7229941923,-0.215260906,-0.6627867849,0.0311155275,0.537449644,-0.2906407979,-0.2093254866,-0.0724966126,1.2005158113,-0.6000505451,-0.0472407565,-0.2264473202,-0.1764945036,-0.6505200819,-0.1559779899,-0.5169205337,0.3785167988,0.3422310156,-0.5142453159,0.2061992954,-0.4650557945,-0.8853829151,0.190662763,0.3613536437,-1.0149193843,0.4233747303,0.3658114156,-0.4475602087,-0.6732486849,0.8321067866,-0.6247256736,0.9974409904,-0.3587626948,-0.8874343456,-0.6970244372,-0.0811602736,0.4196334621,0.7402873489,0.5678753364,-1.365644712,0.4207197849,-0.6253508154,-0.0808350367,-0.4699730326,0.7069299803,1.4176256898,0.7048443676,1.0257439321,0.8776914167,0.5661860897
   0.6724045551,1.2587094223,0.2567344467,0.1716250164,0.3432103835,0.9165156296,0.2120267812,-1.0007125139,-0.3178889208,0.3131917719,-0.6637813213,0.6276119441,1.1046180049,-0.1653582073,-0.5357342775,0.2161243319,0.3089573841,0.0575196573,-0.2227169112,0.4179407099,-0.4393332022,-0.5011285793,-1.3634520543,-1.242908887,-0.5921919491,-0.0461360565,0.0885950655,0.07422218,-0.7234719754,0.2908351531,-0.3409169447,-1.3423147024,-0.563850154,1.5343255942,0.1741174703,1.3090980105,0.3826495776,-0.2164917311,-0.2204426622,-0.5718632211,-0.3437098768,0.2766809808,-0.5106841434,0.0492674135,-1.1070390534,0.1567450484,-1.104556515,-0.655084205,-1.0115681896,-0.2505831394,0.3089953244,0.0797651265,0.4674374818,0.3898954481,1.0607617626,-0.4526788111,0.8544700719,-0.4038174294,0.1723538983,-0.5740564445,0.5658937413,-0.022873861,-0.6345458446,-0.4608035365,-0.2316610509,-0.8845303883,-0.2087213729,0.2766646044,-0.2041012685,0.0719555667,-0.4776527303,-0.5029733791,-0.8196230161,-0.3313988657,-0.3326386504,0.0772533565,0.7346275813,0.312821254,0.9494899245,0.9328921152,-0.3931002082,-0.0196656367,-0.4809643109,-0.1513523856,0.8175257473,0.2634969306,0.6023002099,0.6810773421,-1.1390770546,0.7295918302,-0.7041226447,0.7924611295,-0.282829249,-0.2538857116,-0.5132413365,0.9197245362,0.473590518,1.3578022765,0.0924796428,0.5007553196,0.491319497,0.5030962093,0.0005077319,1.0550309182,-0.4344063145,-0.6737857452,1.4478236108,0.894182203,-0.2030622114,-0.1122714643,-0.2411622267,-0.4331350395,0.4267633776,0.1466633799,-0.1300289429,-0.1707557286,-0.600725152,-0.212218996,0.5068650662,-0.3623542924,-0.5897288022,-0.1665314491,0.2572118348,-0.185217747,-0.205387563,0.4703819893,0.8222745683,-0.0416136005,-0.03740113,0.1869474195,-0.1141247806,0.2663094955,0.9763715054,1.1370798563,2.4926453285,-0.3798827334,0.2337513639,-0.5637509998,-0.8448030648,0.8701184518,-0.9587693898,-1.0328884749,-1.3116956345,0.012827008,1.3229640681,-1.1647291502,-0.2039891418,0.4025419568,0.6508993531,-0.0351888267,1.0328522367,-0.9535329572,1.1362728367,0.4200713716,-0.6857463136,0.3211107077,-0.7401682532,-0.0922257963,-0.6101204705,0.5675832459,0.3509774931,0.1831963304,-0.0988561327,-0.5480906984,0.3243646966,-0.2220567701,-1.5676806225,0.1471836937,-0.1720413223,-0.0354324145,-0.1798640893,1.1018059338,0.5326971403,-1.0350469743,0.6897518268,-1.2900077042,-0.5040208,0.1482877798,0.7129661982,-0.5318667931,-0.1414313524,-0.7942568192,-0.4570081249,1.1900199818,-0.2310723542,0.6324315042,-0.8312059608,0.791811755,-0.6990925203,0.0754033369,-0.6294308428,-0.2926572349,0.2839340982,0.8127929244,-0.2251593711,-0.9254634367,0.7685708482,1.1877482957,0.32719982,-0.1360274849,0.6946565131,-0.7105213622,-0.9691685671,0.5977340924,0.8559483805,0.714604273,-0.1714476866,-1.4761775965,0.4719773838,0.2896507027,1.0150246506,0.0870302499,0.3958843468,-0.7212383983,-0.625906494,0.6997943801,0.4638926832,-0.9010919676,-0.9659942667,0.5306166923,0.2040609522,-0.8650004951,-0.239882201,0.1097620642,0.021073575,0.0164129104,0.9616708762,-0.0447754528,0.2955089239,-1.537918409,0.9481347766,0.2329757587,0.7867751357,-0.7971141921,0.0247068866,-0.4148421404,0.7826778923,0.6241579383,0.5500968234,0.2786931298,0.0042587871,0.2566195345,0.1618122368,-0.2229247337,2.317250728,-0.7846294511,1.259615881,0.5669086637,0.8909745941,-0.4002659504,1.1059767008,-0.9679275896,0.6277777354,-1.2396013611,1.3069483418,-1.2095814591,-0.3584584463,-0.1035850138,0.3520837533,-0.8572005362,0.2077987302,-0.8829497882,1.6261664718,0.2158988381,-0.102556509,0.5765673935,-0.8136796907,-0.002747366,-0.3872130426,0.2506424673,-0.9851340072,-0.5378373449,-1.2479568073,0.0900048685,0.1307191424,0.467854147,-0.6737951513,-0.1581088787,-0.6118132662,-0.3152975122,0.8720501661,-0.1930427947,0.0462903795,-1.4824932098,-0.0259767441,1.2833957433,1.3957462089,0.5910475694,-0.6907466522,0.4941941244,0.18715176,-0.8191884789,0.0926197665,0.1224221736,-0.9169814006,-0.0358668111,-0.3032922938,0.4679055032,-0.6862579448,0.3299371077,-0.3828002416,0.0985551795,-0.4486144801,0.3599137502,-0.4049410285,-0.8543320578,0.0115067974,1.1368779138,-0.8033803985,0.8220222678,-1.7997676924,0.1120048843,-0.9474713555,1.2063511892,0.7703408504,1.5248730377,-0.17680128,-1.6242858635,-0.0727870225,-0.8188696558,0.5637741619,-0.4781457983,2.321417551,0.4754580587,0.032318568,-0.7110674435,-0.8477166897,-2.391267214,-0.4830786641,-0.2115972646,0.1242156639,-0.4958629948,1.1388323073,0.2992941328,0.1211214574,1.0394569436,-0.8713819433,0.4797827165,0.0553124286,0.5791590928,0.2231527692,-1.0737981942,-0.1746497524,-0.1759270057,0.3510160958,0.2634897437,1.049173709,-0.5529188462,0.5037484215,0.7795707352,0.7858333526,0.2153833658,-0.7798033551,0.4403800223,-0.5098259448,-0.0709806905,-1.0632304248,-0.4848493145,-0.3104152254,0.2079769266,0.1791906041,-0.5038697165,0.09934875,-0.1011723236,0.9864397358,-0.8438686205,-0.0401143962,0.1252530795,-0.7109897128,-0.003321811,0.5027873684,0.0453336811,-0.9629764593,1.2140360901,-0.8171431767,0.5865988638,-0.4175435601,0.4899076066,-0.2073273291,0.701426447,0.1214211819,-0.343220276,0.9432307733,0.4528161026,0.7339171238,1.0393596885,0.9965194951,-0.1348672607,-0.3201016769,0.5973866061,-0.8197098259,-0.4536845143,-0.3004960633,-0.5108225021,0.435643052,-0.7248289711,-0.5360536339,0.3009734266,-0.3004656914,0.0180331787,0.5447291632,0.7125377078,0.228160167,0.1097098115,0.7280326017,-0.29569573,-0.7429257732,-0.0987759027,-0.6879683252,-0.8635687975,-0.8558422851,0.3918629535,-0.9510765488,0.604560913,-0.5009611467,1.2047093349,0.2226018476,-0.8297763097,0.4973528835,-0.0809595221,0.4270448607,0.5667655952,-0.6075907212,-1.3493084557,-1.0134254392,-0.4255392728,0.2719022621,0.1692162509,0.8184028529,-0.1594106221,0.1579041168,-1.393374802,0.1316340955,0.5457791619,0.5060795597,-1.0299809831,0.0848513026,0.6202894747,0.349135965,-0.5541054758,0.1615410881,-0.3426257241,0.3959100525,-0.2506208259,0.9093753888,-0.8578006314,-1.5354679183,-1.0218573489,0.3057885535,0.3733344166,1.1969079076,0.3053568457,0.0218665112,-0.3009045521,-0.2430098699,0.0012693515,0.8002465631,0.0029400582,0.1302483996,-0.345942744,-0.0703661813,-0.4729835101,-0.3750237601,-0.4129689739,0.6482468416,0.2689041465,-0.8584789083,-0.3755331303,-0.2854017552,-0.8981661928,-0.249107091,0.2774563606,0.3071484257,-0.339622702,1.1014564811,0.2072658901,-0.0111858134,-0.9772905392,1.0260884681,-0.1821644473,0.2926180535,0.5685626117,-0.8267136028,-0.7769663573,-0.8156476235,0.7524963043,-0.5222095256,-0.6309079186,0.6823599351,0.10292492,-0.3472461248,0.4750374549,0.7784195886,-0.4808617999,-0.0189306436,-0.9128037625,1.1764148262,0.902675444,0.3443542422,0.4697538733,-0.5901918079,0.295851906,-0.5027279319,0.3748988265,0.826817061,0.0891496149,-0.5735803241,-0.2277638012,0.6434714168,-0.2205219376,-0.2509153925,-0.1928090453,-0.4599418031,-0.4271787974,1.0357415412,0.5209806978,-0.3119474019,-0.6371010181,0.6318872118,-0.2526657874,0.2628528199,-0.2457793307,-0.8295166717,-0.0227175715,-0.4740916362,-0.3815622972,-1.060359942,0.7081274602,0.2464436056,-1.0380865166,-0.6573868803,-0.0013057591,0.3164528931,0.8620454435,0.6221637615,0.4425242741,-0.7136100385,-0.3067404713,-0.607482878,0.4255146565,-0.0047460595,-0.4449944157,0.5933655668,0.1771517527,-0.5596414974,-0.4063379161,-0.5151179268,-0.4663415089,0.4963996158,0.5169832657,-0.0729407282,0.1305321957,1.1400058007,-0.6524156359,-0.5271903769,-0.7935104616,0.7681963384,-0.8040784723,0.0093260041,0.3735158314,-1.6815390296,0.864730352,0.9888207841,-1.4004448165,-0.7302990576,-0.8077041785,0.7364161111,1.1400951522,-0.4584506082,0.0920420152,-1.9088307396,-1.0599623694,0.7335183833,-0.5761691019,0.6407310594,-0.5634622361,0.2148958327,0.1425285264,-0.0359825849,0.2177041511,-1.0087389471,-0.7128352733,-0.1366697118,0.4517484081,-0.7355576309,0.4392042713,-0.7773724744,-0.4502790806,0.9820475717,0.9255259716,-1.3981570639,0.1150812614,-0.3001508019,-1.0019245861,1.168176474,0.9839613927,0.8457845335,0.198701151,0.813501166,-0.1769483824,0.8435401069,-0.9994737828,-0.1160308842,0.7914829186,0.608845284,0.0822780833,0.8373515049,0.0411193387,0.9211314316,0.4437754121,-0.7439280586,0.0214428892,0.2753950659,0.36303681,0.531898624,-0.7175385907,0.0154030792,-0.0832784889,-0.8446175784,1.1371280786,-0.9856062623,-1.8066660282,-0.3538184727,-0.0603262242,-0.172999096,-0.2635470134,-0.6310993815,-0.2276548603,0.4281300859,0.1410148981,0.2509070651,-0.2695271646,0.8766582157,-1.7495463065,0.6447476993,0.5879678033,-0.6387134302,0.0031223946,-0.9801767955,0.8961960994,-0.0327223445,0.4773038302,-0.3728215108,0.668605357,0.7211567215,0.0222563459,0.6940068519,-0.5835332025,0.7600187443,0.373832425,0.3267344936,0.3703618662,-0.209067563,0.0933524292,-0.073289053,0.0995025906,-0.3384174224,-0.0554707423,0.1727295446,0.1011931769,-0.9436281415,-0.9052894401,-0.218113003,-0.1536882448,-0.2566613685,0.2982027113,-0.8693404115,1.8326016745,0.1491707796,-0.9638302911,-0.0167675698,-0.5572738911,0.6999677568,0.0196977583,0.4360381733,0.8172760939,0.4903940039,1.00069247,0.4524693234,-0.5834449961,-0.1836337526,0.7152152055,1.3349286336,-1.5240298118,0.9419794988,0.7181673836,0.9711665863,0.8514572335,-0.3216303282,0.4780395207,0.7099821486,0.0038336771,-0.248468472,0.3029711322,0.3669605872,0.5063157719,0.1677729381,0.0370428351,-0.1784055065,-0.0528005356,-1.5894876087,-0.9723192117,0.0898807801,-0.4981846172,0.6910269611,-0.1898443208,-0.2532472097,-1.01096966,-1.0206440594,0.057361295,-0.23283682,0.6766345569,-0.8103375657,0.5238624736,-0.9674132227,-0.8329240893,0.3183348104,0.4198954437,-0.2925969569,0.0877606949,-0.47512129,-0.8206824965,0.3006291061,0.6087927743,0.4537029207,1.2942238811,-0.6098937155,1.2735286756,0.0716196221,-0.3396084477,-0.4192720335,0.1421067598,0.5850376973,0.2910707291,1.6901662799,0.2319888081,-1.2889420581,0.4107113347,0.1908463486,0.1379684825,1.3461589727,0.3547307736,-0.6451065673,-0.6633183382,0.8452332841,-1.0443554293,0.1974040955,0.323375033,-0.760240488,-0.9250920145,0.4236660859,0.3953174467,-0.3346508077,-0.0305933908,0.2595918659,-0.7799391734,-0.0230502662,0.6266086432,-0.9783956711,-0.4603319955,1.0017518954,0.9156976012,-0.7743286207,-0.0980927424,0.096321615,-1.5804043335,-0.7490029801,0.1867928213,-1.0943131769,1.1419661353,-0.060514697,-0.5691071621,1.6693826206,0.8243708721,0.3352527624,0.5160076154,-0.918491823,-0.6287584918,-0.4541497262,0.4164302836,-0.0633485758,-0.7646780953,-0.6718405697,0.5984179143,0.2259078361,-0.2500131777,-0.6756836917,0.6348853868,0.0994324792,-0.3379762933,0.2649398396,1.2638154362,1.2036955513,0.1779687303,-0.9524098932,1.0550572518,-0.6081624694,0.5460897064,-0.6017054788,-0.7546087304,1.0000520994,-0.1895496412,-0.6908748651,0.9707497178,0.259347785,-0.3418760323,-0.8642105029,0.8503393891,-0.2654659469,-1.0198802531,0.502608346,-0.4663734128,1.0583678658,0.8440185205,-0.065505695,-0.8688116249,-0.3617974721,-0.4035673872,-0.7866423611,0.2105643595,0.1761148408,-0.8274005433,0.6062290139,0.2655797344,0.665343616,-0.5698165289,1.0618337236,-0.1093351214,0.6798911979,0.1157718044,-0.8738664847,-0.7604124099,0.4484019777,0.1011550637,1.7837822618,0.4622891385,-1.0437649144,-0.6201642309,0.2206798271,0.6108073857,0.0468166216,-0.2578042206,-0.4457820183,-0.0004543972,-0.3871088223,-1.3587835918,-1.0163232016,0.4446126205,0.5413522559,0.9144626806,0.6589430217,0.0936913697,-0.3569863869,0.8936504426,-0.5704104404,0.6148758296,0.2991224967,0.0830775255,1.055803647,-0.6187707246,-0.2390078671,-0.2914444238,-0.0659843133,0.8546077143,0.1238150532,1.0256622149,0.5674957197,0.2316029606,-0.0689854764,-0.4384936301,-0.1162625267,-0.1236011439,0.6114053937,-0.2477132635,-1.0154330917,0.6716487327,-1.5210714471,0.4074191582,0.3619793187,0.1757961155,-0.667598309,0.309418516,0.026096206,-0.2379861138,0.3696003798,0.9588023243,-0.5990938598,-1.6058186899,-0.238487042,1.0000526439,-0.2294734387,-0.0270335507,0.9231581078,0.8113062744,-0.6053641695,0.5239097309,0.317623535,-1.5107221016,-1.4079077674,0.6469012246,0.9750722613,-1.3095506927,0.4822844024,0.4488510898,-1.2238141465,-0.5891405918,0.5451466122,-0.5277391145,-0.4340505706,0.1281843017,0.0199723131,-0.1216120177,0.2452454311,-0.6948003975,-1.0826409312,0.6648326232,0.4320017955,0.3992855564,0.2364706888,-0.7962958487,1.2184397412,-0.7792495829,-0.0393749836,-0.1356856988,-0.7399327537,1.3938121044,-0.5907901622,0.4377657524,-0.7493051246,0.33563635,0.5864310254,0.6183206115,-0.0498932739,0.7998189813,0.1581221082,-0.8017048102,0.2700664615,-2.0446083197,1.1218502398,-1.1597431838,-0.6862713454,0.5281246558,0.3963226019,-0.1515282541,-0.3538404544,-0.5548234099,1.8163154273,1.6710858186,-1.3358675891,-0.2420310652,-0.322349672,0.2109668581,-0.6979675318,-0.4029311444,0.1875537962,-1.5027687904,0.2135938102,1.0796645459,0.2537758501,0.6979798011,-0.7015001877,0.0209911388,0.072963931,0.0479649184,0.704426957,-0.1273992561,0.7124470043,-0.8101139373,1.248715416,0.1159766087,0.8719200878,-0.7353403888,0.5974777955,-0.6514939413,-0.3587095606,0.179720277,-0.4144173165,0.3969390778,-1.6147069966,-0.9491869652,0.2364335145,-1.1733810678,-0.1381612327,0.344457883,0.5422699499,-0.291943765,-0.0668472243,-0.493185387,1.5118274638,0.0320723487,0.4687283419,0.6032496998,-0.1182363679,-0.5671070747,-0.5755642629,-0.052022396,-1.4464119708,0.0153169149,-0.7786627351,0.1441861638,0.3703357875,0.5289900212,-0.0183118448,1.1276056557,-0.6200627718,-0.04301522,-0.1237624735,-0.992622414,-0.742777793,-1.1734891135,-0.2555323729,0.3385492412,0.1899142895,-0.1751419113,-0.5632080705,-0.4278768145,-0.1184373413,0.00497665,-1.5523683503,-0.5704960461,0.711610537,0.7312526263,-0.7375900633,0.3445917731,0.3727146845,0.293119696,-0.1501049382,-0.672075618,-0.7983122034,0.7186321012,-0.868661494,-1.5011347218,0.4593964466,0.410406583,-0.0208527166,-0.5625776767,0.0271003584,1.3867631036,0.8730513196,0.0001542109,0.3649149917,-0.5872977451,-0.4287924942,-0.3731087942,-0.3922008021,0.8893682338,0.9315319595,-0.8328338849,-0.6762951926,0.8696892545,0.6287163228,-0.3448433601,0.8086088326,-0.3844338822,0.2609071489,-0.47010582,0.4048639003,-0.8180287957,1.5135904487,0.4900136534,-0.1754615893,0.1924955526,-0.724947028,0.2689423426,-0.8183971228,-0.7854818965,0.1153340291,-0.173898756,0.5737140816,0.4979238781,0.6612010096,-0.4994796427,-0.1669523957,-0.0581805957,0.0144812827,-0.3868779739,0.8054150206,-0.7573520638,0.5071488872,-0.9435392388,-0.9565038062,-1.0442936298,0.2766751401,-0.0102441001,0.0694368644,-0.9316566252,-0.0331233198,0.2633928952,-0.9716140072,0.2369615588,0.5578048985,0.1191516781,-0.6670385168,-0.2342433269,1.0023395123,-0.4123189777,0.7628209287,-0.8320229621,-0.2293190838,-0.0106571957,0.3033333852,0.0082833198,-1.0202955639,0.4219107428,1.5404440914,0.8873757856,0.2645982825,0.0913678995,1.3019756822,0.1670670602,0.1468595717,-1.4459615553,0.1436009694,0.2908743456,-0.206572354,0.0241980115,0.850236532,-0.5083684292,-0.3799307288,-0.7110762655,0.419493048,-0.4735414209,-0.1825980492,-0.8030569472,-0.0805728671,0.515043426,0.9731886475,-0.5445889415,0.0666313152,-0.1620347773,-0.1306862885,-0.6445493258,-0.1513028336,-0.2850598403,-1.0149775899,-1.4691889825,-0.5210672071,-0.4612543109,-0.0614573961,0.3874991626,0.1189121417,-0.6799121838,0.3380815331,0.5764016384,1.0190472576,-0.4879798765,0.7852135099,0.6418578539,0.3283693049,-0.7197388162,-0.7034638285,-0.1394304174,-0.7166732082,0.3904391128,1.0470726653,-0.2508806508,0.9853808159,-0.3605744181,-0.0065758831,0.6299038869,1.1704253214,-1.3375815978,0.5798369643,0.0518558023,-0.0892501245,-0.3250613978,-0.2159612484,0.0834494426,-0.9183575671,0.4298806837,-0.1340816323,0.5375870658,0.0317333992,0.4891403095,-0.1863536512,-0.2004175844,-0.3872908346,-0.5981496345,0.0057574721,-0.2843932656,1.0728647905,0.2605156827,1.1144031058,-0.0065580809,-1.1280938556,-0.6320930428,-0.975725083,0.7748753542,0.7011942067,0.9481160094,-0.8316525535,-0.5277867954,0.0858447154,-1.2603684586,-0.3842275836,-0.344569267,-0.5101837396,-0.4828086433,-0.3576268159,0.5802344951,0.9039593608,0.2465563095,0.0329631537,-0.379838339,1.1285314912,-0.1389973364,-1.0970320148,0.4713492734,0.4274225242,1.2789310864,0.0986136775,0.0172381747,1.2323269908,0.3552630063,-0.3632320227,0.3329343265,-0.4049982811,-0.2749368443,-0.3249900715,1.5908277457,0.3333832443,-0.6149240848,0.2287879098,0.5081539889,-0.399712749,0.7142229417,-0.6383529282,-0.801880853,0.5001212097,-0.236733322,0.8099764537,0.11769716,0.392344687,0.5688816581,0.4368561031,0.2126511337,1.2068949659,-0.1940951778,0.4973799827,0.1553321943,-0.2541336202,0.0030363176,0.0521872675,0.2815841588,-0.2497664352,-0.9379992795,-0.438969732,-1.7710131517,-0.0931058694,-0.1225899164,0.4571547018,0.2539583575,-0.4804226178,0.8391049533,0.7340853984,-1.4040680512,-0.3101046642,0.582566395,0.9417878996,-0.9873886811,-0.2637939756,-0.7043724595,-0.8291460523,0.52719953,0.1614549293,-0.1624809211,-1.2263822026,-0.5055926651,-0.0509400802,-1.0074653746,-0.80789403,-0.1866101695,0.1144998715,1.7609982299,-0.0627118426,-0.1298428657,-0.3971860926,-0.5329767224,1.0576340077,-1.0955620039,-0.8966704037,-0.1929485985,-0.1840899437,-0.4730358411,0.1624041995,-0.3763918166,-0.3692493056,-0.1340157982,-0.7760201601,1.2043496096,0.2462117862,0.2292509137,-0.8651606975,0.3967699137,-0.4011102721,1.0872029689,0.5329364826,0.788565227,-0.8885470518,-0.8566603768,0.0620212505,0.0606677613,0.5437222303,0.2066092045,-0.0935061766,0.3156679866,-0.2854901788,0.6656175269,0.7157442391,-0.7835761485,0.7611476876,-0.4144153826,0.0674561298,0.7854110116,0.6248890063,0.2567592511,-0.6363841929,0.1448356194,-0.9133834127,0.5898710325,1.1924072898,-0.5362159636,-0.5355883916,-1.0494960902,0.2764630475,-0.7487766866,-0.2102029322,-0.081986666,-0.7004563422,0.3096414006,0.3059060403,0.1052507811,1.0302991892,0.9774425441,-0.3252156435,-0.6074532094,0.0097993973,-0.409793719,-1.1247097135,0.4073763024,-0.8567826788,1.0257263744,-0.6990383714,-1.0943416899,-0.6175094227,-0.4706441087,-0.1968759863,-0.2360062516,-0.3830819853,0.8630276512,-0.4575866437,-0.9278512642,0.3190863465,-0.7651867379,0.2291434279,0.241809969,0.3807955504,-0.8637558919,-0.5929091,-0.2355261528,-0.1661383797,-0.1527527962,0.1516205344,0.1320204623,0.3951559363,0.9610497671,0.9312222912,-0.3316130158,-0.9439402425,0.7849190252,0.9912415527,0.2485213755,1.0985909296,0.5719274744,-0.6914807721,0.0370592486,0.5796438534,-1.2914175486,1.9402681419,-1.0811715186,-0.5215295963,0.8893729915,0.2439156312,1.2559581058,0.5817111016,0.2351540319,-0.7475285156,0.649655471,0.8088179358,-0.043549378,1.1659121418,0.9222273829,0.6147852702,1.1812350027,-0.0024004862,0.0208473583,0.0851759957,0.727919808,0.8712111091,-0.6091453642,0.0900599294,0.6133706999,-0.2673077075,-0.1763168565,0.1523759074,-0.4324624208,-0.4857466202,-0.6348849467,-0.6589889341,0.74364344,0.1512524642,-0.1428900059,-1.3297201916,0.5175524323,-0.7035672591,-0.335641878,-0.2721481194,0.72740976,-0.7483866494,0.8198098882,-0.9917072604,-1.0751820708,0.2040682299,0.343891604,0.4044647666,0.9880323792,-0.6349273046,-0.5849240584,-0.9506319712,1.618917676,-0.3531262889,-0.1461250442,-1.0042143388,-0.3308170012,-0.2002938527,0.3509793844,-0.1723057207,-0.4309978243,1.4180578213,-0.2416951171,-1.0516386,-0.3357220613,-0.1387781271,0.5773414838,-0.2890436209,-1.3584515898,-0.1892142734,0.0667574542,0.3345722035,0.7439475119,0.1945859494,0.189714535,-0.0274609339,0.1810149968,-0.6646041648,-0.4198105268,-0.6126726753,-0.5867308882,-0.3507340658,-0.8600521004,-0.2119079554,0.5605628437,0.6245351612,-0.2426337183,0.8202968951,0.0859053517,0.3568521254,0.3453266293,-0.1164171541,0.8386085814,-0.412768228,-0.1101856911,-0.5838264735,1.0990174122,0.5090902382,0.604443161,0.2444452426,-0.8939585522,-0.8143021956,0.964571442,-0.5381686166,0.4447253494,-0.9269414976,0.3192020484,-0.8091579858,0.7804888554,-1.1036307269,0.1929409594,0.3628498441,-0.8326911254,1.3766762496,1.2747534927,1.2772391787,-0.2660843343,-0.1037304763,1.1127031216,0.3611191823,0.7196455534,0.0473259966,1.6529182413,0.6957753649,-0.1863165041,0.7232240635,-0.2214017123,-0.5244599892,-0.2152285373,0.7384888477,0.8105708983,-0.7084479651,0.4982125615,-0.5602045852,0.4065469858,0.6250189858,1.1673496471,-1.006168671,-0.1780207866,0.7165927968,-0.3373698853,0.9635718355,0.6050529199,-0.697003186,-0.457348229,0.0249100141,-0.1450606892,-1.2974116873,-1.3566605492,-0.9221149912,0.8983340657,-0.7048544976,-0.0874815397,0.1571119491,-0.7355185062,0.8157714472,0.2860814425,-0.6673171427,0.071492141,0.571469047,0.5656742639,-0.2442146018,0.7658487445,0.4825851004,0.62209101,0.7713475567,-0.2124600965,-0.0798137964,-1.1506194654,-0.115245808,-0.1376880214,-0.8567252585,0.3816293879,0.4193534715,0.8069586447,1.8216481812,-0.1990286955,0.1846157625,0.4412410027,-0.2074895931,-0.2552070881,-0.1470376335,0.711763542,0.0194982763,-0.0155870688,0.4501956467,-0.0712994527,-0.9741011478,-0.1981171566,0.0513855902,0.800611254,0.5659036407,0.3726801495,0.3441274397,-0.9382780871,0.6269667978,-0.1542407456,0.8880302151,-0.0726563948,0.2015899352,1.2131938137,-0.13907147,-0.855974348,-0.0036780147,-0.4822300237,-0.4403261525,-0.3781637894,0.8377845519,-1.1696917977,0.8470257339,0.1467733076,0.3520783391,-0.9673762298,-0.3459409372,-0.1084409795,1.1811287391,1.2187996862,0.240216197,0.5055687727,-0.5254266559,0.1039794662,-1.2382911373,1.2426055412,-0.1192539518,-1.5108317437,-1.0858572451,-1.4112652433,0.2021986011,-0.0667068391,0.1466762,0.6547959729,-1.3859189706,0.6403350976,-0.2427923089,1.1305995339,0.5040371898,-0.1201455079,0.2814451566,-0.0576354013,-0.0090017703,0.0679161776,-0.7838809893,-0.1868326987,0.7923997974,1.5600763448,-0.3167667125,0.457181099,0.7359369815,0.3482937096,-0.0784341282,-0.60245153,0.2286483263,0.4849389905,1.6256927781,0.0694412953,0.7917162657,-1.2114069942,-0.9953881113,-0.9498775287,1.4095688232,-0.1453258134,-0.7294986979,-1.6913292804,0.1922024273,0.15968178,-0.3990049856,-0.5126952555,0.2703651167,0.4765432652,-0.8872193124,-0.7716006567,0.835572279,0.8335921486,0.2144588445,-0.4286158969,-0.6763785502,0.2569720791,0.1221495822,-0.9431628837,0.0940271352,-0.1010517041,0.3460776005,-0.6888040107,0.3574804052,-0.3361417784,-1.2284205209,-0.8344612628,-0.9548477714,0.7548595149,-0.4313238463,0.8719085834,-0.0640473597,0.1225922434,-0.1112972257,1.6478814476,0.7407257576,-0.7483088067,0.1415957605,-0.0446463402,0.6275939409,-0.1961281741,-0.3868803661,0.0973101955,1.459702408,-0.4791945943,0.5291239384,0.3385063823,-0.7300986532,0.2515409777,-0.3732629975,-0.7516729504,0.1668840796,0.7847562824,-0.3103554717,-0.333240059,0.4151098453,0.8540374801,-2.1075818353,0.7519557865,-0.0767684828,0.8514930117,-0.3785879352,0.8422564049,0.5610780488,0.3301386685,0.7670858879,0.1310825067,-0.9322565467,-0.0446749453,0.737237392,0.051256508,0.580544162,-1.0309102443,-1.1528502404,0.2700915746,1.4132103555,-0.3333743216,0.0665837622,-0.5694258611,-0.0642520837,-1.2117966466,1.4294314714,0.304663753,1.2516862319,0.1908684961,-0.6663931531,1.0970040504,-0.9051618827,1.1765030529,0.3499400131,-0.682156376,-1.0739370277,-0.0128959306,1.4572845438,0.1564233405,-0.4744607714,1.0913034645,-0.8699496823,-0.0069649146,-0.505513269,0.7266949872,-0.6578706869,-0.1937701107,0.3134545806,0.0316225308,-0.02390017,0.1532461208,0.0746660793,-1.5012814317,1.3619291943,-1.0077943411,0.0740092415,0.0754268757,0.2607371014,-0.1407458875,0.9399633709,-0.2573357957,-1.1222382374,-0.8493014495,0.4424868294,0.4208008934,1.5436311199,-0.0681228089,-0.6529524871,0.6318921558,0.4256949521,0.5520665857,-0.7213453812,0.6264495501,-0.605944408,-0.1848083111,0.5785341608,0.0104659423,0.1647495774,0.4671416237,-1.1833024462,0.8942491209,-0.2287186426,-0.3199573614,0.2765743216,-0.5422964251,-0.0078311436,0.3830538757,-0.3301724892,0.0070286906,-0.5366744184,-0.6764001541,0.7839923583,0.2037443133,0.251370583,-0.1942259259,0.7331411929,0.837017967,-0.9311718394,-0.5403254839,-0.2154868747,0.6429801635,-0.2129140521,-1.0600616804,-0.7489629919,0.0283168913,0.654989368,-0.1144890632,-0.4794135219,-0.4929242202,-0.0279476505,0.4592373337,-0.3158178114,1.2176783816,-0.0825867984,0.4304242621,0.9808148959,-0.4266561644,-0.3782917515,0.2551249181,0.4234484102,0.4904181095,-0.2591219561,0.0842206699,-0.517006376,1.3133008144,-0.3561301608,-1.3445851167,0.1315288158,1.1779034871,-0.2155240692,-0.4153563708,0.3875189495,-0.3292643208,-0.1845726317,0.7609438661,0.5137905245,-0.9536909598,-0.3462143172,0.2938986817,-1.0851885709,-0.1231318302,-0.8443054644,0.7796907762,-0.7752206699,0.146471545,0.6093097826,0.0755741406,0.4915996199,-0.6125282717,-0.042450051,-1.4924626209,0.0458227427,0.7724684352,1.0417377924,-0.4990482421,-0.6410073543,-0.7697425589,0.0605708535,1.2595568027,0.0934521213,0.1322573927,0.6225101438,0.1141652422,-0.6679696412,-0.5199637225,-0.1072813489,-2.3693081909,-0.2070893007,-0.3532248409,-0.8097289369,0.2989664344,-0.6946125342,0.4264732656,0.5168909555,0.3379180296,0.127173563,-0.5928955465,0.5648418348,0.8821348679,0.0479098376,-0.1703113109,0.4063326504,0.3146385079,-0.1117532193,-0.6509902536,-0.4695489833,-0.5559236143,0.4649733219,0.101195104,-1.2406526783,-0.2205706986,0.1661556047,-1.2435756769,-0.5735596942,-1.2398089577,0.0278537042,-0.8195676384,-0.8573866754,-0.5056045091,-0.1432965705,0.9777128937,0.2268383051,0.4668861184,0.52875476,-0.2354338287,-0.4027384666,-1.0863816155,0.618669383,0.5459737281,-0.8842663549,0.1304989241,-0.4125871205,-0.8673300567,-0.0395137556,0.768900202,0.8769319207,0.3287184503,-0.0200975667,0.1194035887,-0.9132681207,-1.0000047055,-0.3155293624,-1.2705901235,-0.0241973593,-0.8071639906,0.0743188231,0.0072782725,-0.2113038282,-0.9288268711,-0.3141658507,-0.9628971328,-0.5302217767,0.9330269418,0.5014963217,-0.5673928611,-0.8469912056,0.0790875361,0.4136643332,-1.7680627706,0.2298888587,-1.0541411017,-0.0348727436,0.5666004127,0.4682794792,-0.5023724611,-0.0928351177,-0.9615936753,0.0234073681,0.3911714639,0.0343680561,1.5426650033,0.1340123514,-0.6912805768,1.2334866945,-0.5225783414,-0.0396304805,-0.7325214024,0.189971098,0.6297039037,-0.4409043526,1.3809720679,-0.3156482705,-0.6009781922,-0.9730376714,-0.6694213298,0.4101489981,-0.4266466687,0.9496978863,-0.1924830445,-0.0810808606,-0.4803634251,0.9107787866,-1.1294969252,0.507298685,0.8670830316,-0.4639929922,0.5563013057,0.7340574503,0.3277162078,0.0995065124,0.1638360818,0.8156815198,1.0961289312,-0.1239830639,-0.5466686988,1.3682277939,-0.105777478,0.2438781336,-0.317094877,-0.9220337139,0.6388416894,-0.9744245704,0.189109007,0.7790331619,0.6395538314,-1.0532078768,0.1057832486,-0.3670566256,-0.2419904543,0.5435886129,-0.7302604538,-1.3611737791,0.5218730035,0.4629809734,0.526857891,0.8693415332,0.4170452776,-0.1123345828,0.4303188386,-0.6366909084,-0.9323207834,-1.0574313459,0.2997307709,-0.1326200962,0.3716838396,0.5993234985,-0.0744918757,0.4015752965,0.0780226468,-0.4861409244,-0.6578390292,1.2608289078,-0.8499830515,0.4879583875,-0.3471996006,-0.7397778829,-0.8282984205,-0.1620465683,0.9693307132,-0.1371445517,0.0283200745,-0.0466414655,-1.0156746248,0.0584341887,-0.3880661352,-0.0043394918,-0.4799415569,0.1396770397,-0.5950096371,-0.3340813933,0.9417251881,0.5979769054,-0.0730829244,0.2414933733,-0.48941766,0.6922385761,-0.277019126,-0.2575703098,0.5040660164,-0.5018037772,-0.1796937515,0.3809994761,1.3016779586,-0.6712888854,-1.0900538972
   -0.5902969559,0.617003673,0.051484383,1.0792628094,0.7057607522,0.0196838566,0.8542497052,0.4907126547,-0.1310964565,-0.3524805179,-1.2620942793,0.7841098215,-0.9251656491,0.0380337113,1.2772053517,0.6577499394,-0.3926476149,-0.1679324972,-0.3309262755,-0.30723504,0.7379287237,0.0060342825,-1.7544195374,0.8203655069,0.3711459915,-0.1220564255,0.2045818645,-0.6034288161,-0.0130649166,1.1615301061,-0.9091001066,-1.0061699488,-0.9986301722,-0.397730543,-0.1813007022,1.1447509167,-0.5417688423,-0.4585487985,0.0593488874,-0.4791465918,-0.0097022639,-1.6534369364,0.3285292681,-0.2945875554,-0.8556628586,-0.3003566148,-0.3843112037,-0.4015026813,0.548148095,-0.5647813941,0.2446569653,1.0299754319,-0.6310650669,0.5253387655,-0.0772161395,-0.5126054015,-1.0428045581,0.5888019285,-0.2077644644,0.4702173373,0.5562550757,-0.626651474,0.1563883842,1.2311774901,-0.8179358752,0.8022429511,-0.5007057517,1.051049245,0.1446580056,1.0038160849,-0.1357440608,0.8518847119,1.2675978461,0.9898052016,-1.1878796917,0.9372743905,1.0796734317,-1.5057641984,0.0045435487,-0.1522182183,0.1322482261,2.2299153375,0.4484699584,0.2435864912,0.6998622055,-0.7659219133,0.3613464884,-0.3881647116,0.1138193875,0.1396368254,-0.1335638807,0.2111407957,0.0329426528,-0.893875912,-0.3706375342,-0.1876745393,-0.3952787897,-0.8873669588,0.0543850973,-0.0980586401,1.0010626365,-0.3289383499,-0.0458450471,-0.6458542631,0.9882345015,-0.1592010074,-0.0489774663,-0.4915926663,-1.3142591708,0.4248552407,-1.2106915684,-0.7941306812,-0.0338116801,-0.5515658456,0.845334127,-0.3697992148,0.190485769,-0.6662907357,0.2191541261,-0.5515630252,-0.3004617489,1.0710473117,-0.2618467518,0.7437498077,-1.3446842666,-0.5726492456,-0.3094497211,0.2845109066,-0.6042441618,-0.1626706137,-0.2221904935,-0.2348265593,-0.5988730718,-0.797866159,0.0150396522,-0.2539070779,0.6297350208,-0.8868908241,0.5533981034,-0.5557016363,-0.5418335037,0.7832721833,0.5796361199,0.3345161738,0.8699202076,-0.0227207201,-0.5844658885,-0.9074346093,-0.5214846322,-2.0165918816,-0.6770660716,-0.4303223876,-0.7977903959,-0.2650979449,-0.6912451355,-0.3989297804,-0.4623840355,0.0961735459,0.3450561017,0.8293631549,1.1743463445,0.3113100352,0.4118142946,0.4783712547,0.6155468442,1.0331185513,0.985922482,0.8733346554,1.9433669291,-1.1641345151,-0.0928507805,0.3208928192,0.0147886531,0.6452135187,0.9673075471,0.1086789022,0.7656801304,-0.4866629878,0.8259514674,0.4608198813,-1.3843024124,-1.3181490798,-0.6274199326,0.57319359,0.7203231543,0.5117904157,-0.8691583265,-0.2039282179,0.1171781848,-0.0796958853,-0.1254402788,0.0885035862,-0.0397113537,-0.0110422927,0.2566239127,0.0464183759,-0.9794727245,0.9509471994,0.3734028752,0.4522426844,0.2595151172,-0.9483538151,-0.5978065834,0.3515814336,-0.0926264247,-1.270273243,0.013628114,0.8809934703,-0.1396078151,-0.5415098421,0.057434545,0.4013329969,0.2912002013,0.0551604794,-1.1523789152,-0.3894106385,0.062997258,-0.7951434766,-0.7411303128,0.9854525396,-0.8706981848,0.3072024472,0.9045524737,-0.9410458227,-0.2498271604,-0.4207562841,-0.4818244741,0.5301380954,-0.2348665085,-0.9464846929,0.1009547183,0.0486764437,0.1071187154,-0.2435022807,0.4837360195,0.2813571006,-0.5421846421,-1.4610956862,-0.7343704001,-0.0194121585,-0.8199966369,0.3281058677,0.1129312454,-0.6769516899,-0.5234775029,0.2578508461,0.3286513883,-0.1478877594,0.0613149808,0.2803398096,-0.7798087956,-0.25492851,0.373461484,0.3172158756,-0.0747901594,-0.3838420229,0.4059332195,-0.6179373087,0.0877556737,0.3148607605,-0.2156768294,0.2359494282,1.0397845649,0.2265553794,-0.2211592891,-0.5861243668,-0.1786950353,0.9952229411,-0.2323822982,-1.502564591,1.0773293066,0.0000946942,-0.1390923154,0.8918258833,0.2491973822,-0.385197341,-0.1166244895,-0.8248309176,-0.5208387078,0.6202287554,0.9680568043,-0.2623067044,-0.4794489298,-0.6357308397,-0.1045710722,0.0156830624,0.1352831919,0.5153367492,0.0773212724,0.2629179989,-0.3905358059,-0.8885622923,0.5415978335,-1.5449284801,-0.3618419156,-0.7172870568,1.0742625244,-0.663181874,-1.0691313219,0.3131850294,-0.8126416072,0.5484729988,-0.0636365007,-0.1615956112,0.4622502921,-0.4964849159,-0.5600568114,-1.2197936131,-0.2432487235,0.4572394033,0.8823190058,0.7307543822,-0.2340930786,-0.1463414608,0.6727101651,1.2132061173,0.3217071499,-0.9301019954,-0.4168865359,0.1158725751,0.6663841872,-0.9023715643,0.3610638327,0.4922012081,-0.0548808271,-0.3201446755,-0.2819548569,0.0102886704,0.1153196277,-0.0599351021,0.7034864567,-0.3937006619,-0.6233614241,0.4469567635,0.3563572699,0.7017893073,0.9179178425,-0.0499054654,-0.6178610806,-1.0245902418,-0.9758999372,-0.229784839,0.979886721,-0.8620712206,1.1076521459,0.2736003881,0.7289109844,-0.2721575355,-0.0320780309,1.1294481592,0.7366640261,0.529930453,0.5769220379,-0.0644408506,0.3481790309,-0.4792076949,-0.9149946094,0.6806018101,0.559461801,-0.5866788471,-0.264264291,0.6554948254,0.4052135462,0.2572793467,0.6587798252,-0.1684267233,0.5863477461,-0.7268101882,0.5115160961,-0.3014346037,0.838684409,0.6324699952,-0.7004382299,-0.2952577527,-0.5986860663,0.7473013279,-0.3177848869,-0.733467597,-0.9624424091,0.4119622367,0.7814086778,0.885414371,1.565725843,-0.2664500346,0.1844673467,-1.6446406236,-0.0280047165,0.211201774,0.1983854259,0.1951709246,-0.2817077498,0.1765981764,-1.5719076564,0.1281522733,-0.7005851485,-0.2056171922,-1.0983615157,0.1669678287,-0.5336124222,-0.7052445123,-0.2983371423,-0.7242542319,0.6371434622,0.516128898,0.1111494272,-0.3698040832,-0.4152906398,-0.1941927033,-0.0023967518,-0.1769495705,-0.4371227401,-0.4665940448,-1.0887972488,0.6664771568,1.1520938487,-0.4516782886,-0.3261852559,-1.3792991251,-0.3788298031,0.2755317208,0.2634795735,-0.1157606881,0.6547112187,-1.3188220622,-0.1328783794,1.0208755387,0.1515695785,0.9094001365,-0.6743099561,0.3926185387,-2.0360241282,-0.6603001052,-0.4792710375,0.7178049878,-0.808024304,-0.1460690338,0.2429433206,0.5335135974,-0.2262178302,-0.7506074074,-0.8310586569,0.4871634715,0.6098833067,-0.2494104409,-1.15074453,-0.1026080451,0.6439349813,-0.5896863423,0.415551775,-0.0178586682,-0.5326755117,-0.0668051199,0.5841831915,-0.1404346015,0.5431525109,-0.491114341,1.0636712407,0.721737132,-0.2441937716,-0.0620017986,0.6458796433,0.0743900469,0.0822838521,0.63427538,-1.1304595569,-0.6734640297,-0.9452762013,0.7633618198,-0.6835515955,-0.1545791355,-0.2938299897,0.1272866405,-0.5087244258,-1.2704359317,-0.8776252439,-0.4172346958,-0.4352181907,-0.5605227711,0.2140185715,0.1634106564,-0.3337023008,-1.0417237684,0.8242327475,0.6462716465,-0.1472795012,-0.2004490902,-0.0819778903,0.8719121267,-0.2144391369,-1.1565924202,0.958778871,0.3698938755,0.1898086788,0.8106995796,-0.7949518057,0.3086212928,0.3900815513,0.896693507,0.043222167,0.8450906307,0.4281958169,0.2208487925,0.3905921881,0.4052969452,-1.4878531167,0.5002771683,-0.1914770748,0.8791872223,-0.0983291263,0.5391456697,-0.550189314,-0.8475649121,-0.9465835081,0.362343374,-0.2979060449,0.7327347076,1.6965228335,0.1447277836,0.1278250069,-0.6228552031,0.9992361798,0.2220782997,1.2654782162,0.6388269884,0.7981003559,-0.3111573707,-0.5564063147,0.0519783812,0.7775988368,0.8465795847,-0.4373648884,-0.0991234574,0.36220835,-0.050661944,0.0888775041,-0.9429348206,0.2330039625,-0.4587346784,1.6165032273,0.674524125,-0.8416726403,0.1466250029,0.2772662098,-0.2752641234,0.4879949424,0.9511915925,0.8496578377,1.2478135515,-1.2859722076,0.9442171302,-0.187019113,-0.8988773439,0.4069825937,0.2974987703,0.326858499,0.9127895551,-0.2443811302,1.5504254638,-0.6148355397,0.6641508667,-0.1673586868,0.9458201746,0.0984498597,-0.1489380846,0.3662836953,0.5812283808,-0.059084283,0.3334333766,-0.6037708336,-0.3470436041,-0.2471979506,-0.0080396884,1.0758006172,-0.2690416413,-1.1987367331,0.9448238033,0.7368181303,-0.4149316475,-0.6532251977,0.593075338,0.2611981144,0.8419971115,0.9492069887,-0.2928435508,-0.8470001509,-0.2519432559,0.247427933,0.2836881466,1.3493528858,0.420217943,-0.1321115329,0.7598695376,-0.1543144373,0.2561107446,-0.9787825044,0.3227751104,-0.1895202877,-1.0736919303,0.5510378398,0.0363601538,0.0019738226,-0.2381193757,0.9548169919,-0.1994709764,0.107074606,1.1421630491,-0.1328396883,-0.7032783929,-0.1355748556,1.1466898744,-0.8682983053,-0.1306552968,-0.5275715193,0.703573105,-0.6778490938,1.0720971308,0.6044097452,-0.0902210321,-0.5688913353,0.6297291353,-0.0658272702,0.4385757086,-0.2283108037,0.5131132121,0.2750561063,-0.8870148068,1.0690871403,0.8804672427,0.6295434745,-0.5403778332,-0.2041715924,0.7772494718,0.5306451079,-0.1043273955,0.1034437466,0.7370279427,1.2928629361,-0.7788361136,-1.1775334871,0.786525893,-1.1617637751,-0.0905232507,0.582387149,-0.4181576311,1.0859265043,0.5423576172,-0.4885949984,1.0333633829,-0.0008232808,0.9654178984,0.339321277,0.5784555882,0.1402456748,0.1585532042,-1.2965449426,0.2533436443,0.4937514963,0.6648731078,-0.8622726868,1.4843830283,-0.4023909518,0.3387703745,0.5846204863,-0.8641965608,1.0909431333,-0.7339447238,-0.9923561329,-0.8467048011,0.5665272369,0.8059553126,0.3739274315,0.0691361343,0.3846078619,0.3904219967,-0.3524993369,0.5662081995,0.1074764578,-0.9031226205,-0.7441230064,-0.2684737218,0.5354632938,0.3783268063,0.1936045277,-0.8998170347,-0.4233715575,0.682270128,0.6113343258,-0.4623412862,-0.9674467089,-0.9144912785,1.1729683271,-0.6639511557,0.0561817881,0.5146451985,0.6785645154,-0.1677408354,-0.8797533331,-0.8620672263,-0.914235732,0.1314182097,0.2519435476,0.3515234796,-0.3540428588,-0.3277164591,0.1438914995,-0.060113009,0.2719146814,-0.7607535047,-0.708189173,1.1468496102,0.790366772,-0.2883237157,0.3104601118,0.8652542023,-0.1263088501,0.2811035668,0.3628404611,-0.0077619809,-0.0659517993,0.1647657717,0.7842315386,0.2844970223,-1.1108692504,0.1807166563,-1.1713618177,-0.7628297231,-0.5378496562,1.3530688833,0.7617247744,0.6854645119,-0.0897342659,-0.2542755078,-1.7639571488,0.6215583077,-0.7201356484,0.2260593929,0.0601667718,0.3001867172,-0.4880499539,-0.1413713789,0.574667459,0.0449961179,-0.5038107951,-1.458829569,0.442078802,0.3271530401,0.6017085123,-0.2346577883,-0.1015632021,0.1738008686,0.6160857628,-0.3367531936,-1.3367432686,-0.2133599097,0.659531975,-0.0484793245,0.9266871431,0.2466473888,1.2414736653,0.0320993846,0.942490156,0.5029898125,0.6905193164,-0.5167115956,0.4317000504,-1.0799253728,1.0620179547,1.0911111589,0.9783844752,-0.6444151697,-0.599154276,0.0971631991,-0.8149607438,-0.2402655195,0.2330467866,0.2499534658,0.4562532613,-0.6160937149,-0.1866686261,0.008567161,0.1964858386,-1.0467209393,-0.563790686,1.0268452303,1.3348972296,2.5523167502,-0.9280276018,-1.1330012988,1.337787533,0.0047622064,0.0015836037,1.8650994081,-0.7956030953,-0.5035914808,0.7204446285,-0.7727377817,0.9506372588,1.0489845125,0.642581869,0.326137897,-0.3532945183,0.1334347358,0.3387663956,0.250483634,0.8753904234,0.455166912,-0.5477702735,-0.6520799336,-0.4280482341,-0.7285201305,-1.1791043329,-0.9307260449,-0.4020545266,1.3713359143,-0.7791954296,-0.3691417381,-1.0256928764,-1.0466541145,-0.1613585789,-0.2137031888,-0.8640753004,0.2783416711,0.3980164341,0.246276891,0.3253871592,1.1614594588,0.5379732539,-0.3118892072,-0.4198556929,0.0678116719,-0.0342435652,-0.7297217647,-0.8642929027,-0.8924622847,-0.1543852796,-0.3140121735,-0.8262971022,-0.5807571688,0.3569673408,-0.9986829382,0.4169726934,1.8494518945,-0.5845737867,-0.4262191911,-0.1806849259,-0.0388591795,0.0733432591,-0.2475954928,0.9222438013,-0.6754809358,-0.4607461225,0.0105501565,1.3261350259,-0.2437086453,0.7446033535,0.5431478482,1.0225778742,-0.0387588464,0.0303916786,0.2998747539,0.0498764959,0.5366262843,0.2894598977,-0.719922527,-0.9368315196,0.4036923776,0.4524379908,0.6916238591,1.5218807015,0.0664360182,0.8970704608,0.1296403471,-0.0002096571,-0.8336494199,-0.0733624446,-0.6218198044,-0.2357592228,0.0295991212,0.7157647054,0.2850189343,0.045937966,0.3132525902,0.5652154945,0.3064557731,0.1417737986,0.5755234015,-0.0942643624,-0.2384457173,-0.5776467667,0.5493899931,0.1843911773,1.2818577403,-0.7829450667,-0.3824703259,-1.8129186619,0.4677914152,0.5149596927,-0.2778432536,-0.3087928147,0.6472982683,0.2198631504,-0.2677717456,1.0150868192,1.1284564412,0.5216886091,-0.8439993683,0.7136796783,0.5373386621,0.8845929834,-0.3908368899,0.5473649546,0.1700063476,0.8979329323,0.6578630959,0.68236561,-0.1390849274,1.0449761921,0.9101008791,-0.0097202822,0.7563765134,-0.5011229536,-0.3495129893,0.2240052222,0.3593621414,0.4406256139,0.6590533484,0.7780957782,-0.4746062928,0.0791814163,0.8281005443,-0.7513184273,1.0766648059,0.3446787497,0.5934453878,0.7647039865,-0.5585327957,-1.1444385219,-0.0485197933,0.3995326082,-0.1353789224,0.4807281585,0.5113448271,-0.5843794264,-0.1690299219,-0.5007586472,-0.4786146715,-0.0335064272,-1.3120660046,0.6295263674,-0.7113410212,1.0187478373,0.0860484064,-0.5341829633,0.3109164365,0.2795238125,0.6088268206,-0.8258216222,1.1422192145,1.1414138703,0.0324453772,-1.1385156463,-0.1740235784,-0.694711565,-0.1882835975,0.9697078671,0.4493625775,0.9163481267,0.1365295217,-0.81642223,-0.3371720586,0.4767000183,0.0080101664,0.9028460257,-0.3097936858,-0.6569198367,0.0561110729,0.9631135614,0.1982584189,-1.1850615263,-0.2902630062,0.255246365,-0.1389807626,0.4573790158,-0.0151741839,-0.0641076317,-0.3715867272,-0.8875480475,-0.5309691496,0.9668929811,-0.4027899868,-0.1304249194,-1.0141754886,1.1296277979,0.3165276712,-0.3253946974,1.0515688566,-0.7933185334,0.0965493298,0.6072683465,2.0114928682,0.384652823,-0.5414136893,0.8556033982,0.3720860429,-0.8113277095,-0.7750024607,-0.6034989226,0.1052858852,0.0909214724,-0.8400174091,0.0914343415,0.1686907258,-0.4589015881,-0.56419553,-0.8440705894,-0.5462873136,-1.6897630455,1.2260411128,0.1031271042,-0.4496982045,-0.5674853466,-0.3304506486,0.448396298,-0.272887304,-0.7210648593,0.1537660639,-0.5349535465,0.4828911956,0.6630763403,-0.1139114636,-1.2081383391,-0.5834638426,1.3385836839,-0.3319895444,0.8065860543,0.5645212131,0.1333788543,-0.7981706475,-0.6348101033,0.7814269491,0.3790271189,-1.0178232204,-0.805244649,-0.124634978,0.1460959787,-0.6506173956,0.2463020957,0.4738729405,0.15115113,0.0011122879,-0.1694666666,0.3641388413,0.8609122512,1.1032689721,0.728090509,-0.8706424876,-0.0460021489,0.6750154445,0.0225952506,0.1554584417,-0.1632043017,0.2614523718,-0.0202778733,-0.2302941161,0.0609561463,-0.5298657005,-0.7824981207,0.8902675844,0.4679572988,-0.1363280419,0.4139137814,0.7554019589,0.3985426825,-0.1456782459,1.3202050136,0.4905933266,0.5175758542,0.6389165408,-0.3300018951,1.2620481076,0.9378975785,0.5897287315,0.2055094941,0.626876998,0.4002233025,-0.2516465798,0.98499567,-0.8042936441,-0.0908739971,-1.2713909316,0.071249047,-0.1356713765,-0.2622623468,0.3721110009,-0.3777677537,0.2020775536,-1.1142760636,0.6776075191,-0.0993783265,0.4593352056,0.361250659,-0.049311855,0.3610423368,-0.2378188838,-0.0232938505,-0.3637765068,0.5947938586,-1.3572222385,0.2104297157,1.4630509469,-0.3607498361,0.7823239196,-0.4985527238,-0.5884314152,1.2930734408,0.008127043,-0.4788263567,0.9215636411,-1.5195867751,0.0689868378,0.8725306472,0.0670748478,-0.3306382988,0.6088943204,-0.8763283657,0.0479107144,-0.2904668917,0.1094679864,0.3756912092,0.2692870328,0.7125765113,-0.6940125287,0.1779232462,0.6888438521,-0.6918853558,0.9926870429,-0.3042789479,0.5120224662,-0.8577492446,1.1345936254,1.4100434993,0.9686913579,1.0903328326,-0.8175376468,0.4870546835,0.3336169189,0.3280289769,0.3916556334,-0.5267584931,0.3299889895,0.7737374053,0.1419597588,0.6009145965,0.5279240474,0.6839581894,0.1825412726,-0.6147614101,0.8247317441,-0.6453797477,1.0955161771,-0.1097029544,0.9671156844,-0.1810056542,-0.7716647238,1.271798102,0.5663619795,0.4404994525,0.5025563609,0.0490987352,0.2181042843,-0.5383036016,-0.2089187087,-0.1453948564,0.003529262,0.0376601114,0.6106485892,-0.2687036405,0.0255471287,0.9258271356,-0.7780047525,1.0694966536,-0.5690684436,-0.6043031145,-0.3159748408,-0.5056773438,0.780231655,0.8410695243,-0.171232561,0.5477801226,-0.6743279707,0.187079585,0.2065116687,0.5248037129,0.344057009,-1.2628072479,0.2929589806,0.7287986822,1.1019295287,0.2897800745,0.1005370109,0.7735711661,-0.3546434152,0.7407572607,0.0394486758,0.4963802806,1.0102293092,0.9410359298,0.8898265492,-0.9368433438,0.9444102943,0.4076295345,-0.2093964546,1.2566084266,0.2083414847,-0.8993780265,-0.9328576519,-0.2874139744,-0.778630579,-0.5563133346,0.1305089544,-1.286066921,0.54363175,0.6886141613,-0.866828839,0.8987212656,0.5243881136,0.9087408878,-0.2797494803,0.9934296346,0.6785066974,-1.0063672313,0.3289828909,-0.5596742928,-1.0734477881,-0.1130054222,0.2276918267,-0.3906328992,0.0813534726,0.4605966098,-0.4468027268,-0.3914489848,0.5211021306,0.5851331276,-0.91964206,-0.3327085819,-0.4338798939,-0.9185276439,0.581618855,-0.9558207737,0.7065107902,0.1094421114,-0.0805150468,-1.4411264462,-0.8609563731,0.1870379754,-0.6736100543,-0.3931187557,0.0050102922,-0.0228674971,-0.4075156102,0.1061881704,0.0708233034,-0.5700839107,0.7782813376,1.432194165,-0.1934030289,-0.1990248726,1.1794407411,0.5154340851,0.5309086568,-0.9185558487,-0.2639254404,-0.3433127974,0.8212899811,0.7835601771,-0.7891373457,0.540603253,-0.1339444006,-0.1827530308,0.7730579622,0.4541111838,-0.0281422154,-0.445886811,-0.8552774246,0.5761450592,-0.8698533154,0.2389643264,-0.3881699363,-0.4493006556,0.8732474989,0.0583355555,-0.6141819321,0.7510165359,-0.5272336367,-0.0859458823,-0.3367296036,0.9327228985,0.2153195698,-1.3553858642,0.0399602298,0.8990289235,-0.5146275712,-0.101154067,0.2125450246,0.3583103188,-0.2701457366,-0.4052821709,-0.1979334541,0.265590115,0.336016784,0.2457703227,0.5241243373,0.3489981271,-1.2303320257,0.7083567533,-0.2102202622,1.0208666862,-0.8712305583,0.7594645719,0.1335871299,-0.7614396553,0.260916278,-0.9452992341,0.3925192231,0.0500650579,-0.6014740965,-0.8497093279,0.4591454288,-1.3041299616,-0.6186495675,0.676221627,0.7796698207,-0.0918926932,0.6671900933,-0.536185184,-0.3245603139,0.806359412,0.5137931952,-0.7531334492,0.7060818243,-0.3076071581,-0.1169247458,-0.2610354656,-0.2386354501,0.2410366113,0.2862441714,0.1654194792,0.5295467566,0.8547155704,0.0675578141,0.5996895504,1.130417156,0.0180096462,-0.0351308063,-0.007656959,-0.5205223777,0.8387806324,-0.1243897683,-0.9007144668,0.8933019562,-0.0811784243,-0.3920560162,0.4847469205,0.2499778161,-0.2281653036,0.2281792238,1.18069456,0.247371802,0.6403138089,0.3705153772,-0.6376286493,-0.3823252699,-0.6483757457,1.1116134974,-0.6464944276,0.5626896946,-0.3669976718,0.2166152812,-0.9626815631,-0.1783334098,0.089145445,-1.0797536384,0.2199162775,-0.7528890035,0.5995392303,0.5337659882,0.5067962639,1.1711664576,0.4166519245,0.0645406067,-0.2807674461,-0.0989337006,-0.9269434112,1.4572405346,0.2865781327,-1.0390699293,0.1066040813,0.2873186742,-0.5874326935,1.1007309726,0.6602018027,0.8283182138,-0.1721480575,0.9859959072,-0.2363355467,-0.515729746,0.4276065495,0.6891419356,-0.3184919065,-0.4602079578,0.4958215612,0.8715993286,-1.0479119822,-0.2762014488,0.3485914663,0.3510139624,0.2169438252,1.0817076642,-0.0463996403,-1.3029968283,-1.4915973233,-0.0719932567,0.3062979947,0.5165802226,0.7768355182,0.4507616303,-0.971827789,0.1928880326,-0.6658060393,-0.6298063748,-0.6973272486,0.1730815957,0.3931196481,0.076448602,0.0946962331,0.8484826371,1.2657308908,0.490839025,0.4360719069,-0.3863010183,0.9573609107,-1.4686004014,0.6145619441,0.1594869567,0.3777935096,-0.3435208998,0.5545352679,0.8478998811,-0.2317395093,0.1933474038,-0.1138743541,-0.0593617452,0.6240540458,0.5197314228,-0.2764416775,-0.5151716112,-0.8125686137,0.427258688,1.0662270996,1.3945653158,-1.0389160079,-0.388493699,0.4552778738,-0.7877668302,-0.3829414878,-0.2204466964,0.4921539718,0.2439006099,0.5819598957,-0.5140937016,-0.0842304113,0.1088555894,0.0393388911,-0.4218489681,1.083850013,0.2430298795,0.4354596129,-0.8954403632,-0.8671831432,-0.4043828675,-0.7962155489,-0.5008451109,0.4636959535,0.5048499004,0.6452220537,0.8567568195,-0.222599082,-1.0036734404,0.2372933225,0.7143183172,-0.4927113596,0.5237402525,-0.3438602745,0.3981438252,-0.7265087753,-0.3194669514,-0.9709826444,-0.1190248891,1.1540774743,-0.2238588016,0.9923119354,-0.4367696479,-0.5614189384,-0.2793580689,0.8624627607,0.7258219473,-0.2086303011,1.3966186783,-1.0930442849,0.416808688,0.050635384,-0.0441929739,0.9638308743,-0.1902374102,0.3627415138,-0.9083811752,-0.8628540513,-0.667206007,1.1212551797,-0.5266443856,-0.3723680351,0.6199651219,1.2498848846,-0.0201806601,0.1100989363,1.1899393525,-0.0146922291,0.9180794802,-0.206700023,0.1998484789,0.4238922597,1.748698327,0.1064240788,0.8164316,-0.7417698986,0.5717396711,-0.0321104331,0.9377150153,0.476082748,-0.8084342223,1.1187626411,-0.5178719337,-0.5343560019,-0.8509010316,0.8175354526,0.152961608,0.3637215299,0.5143831016,-1.3623369081,-0.0769877179,0.3063643095,-0.346438911,-0.7505415223,0.78498241,0.953562206,-0.9787440427,-1.0913840906,-0.5605406263,0.7900518667,-0.1089923356,0.7371360281,-1.0300683871,-0.3113129539,0.1621786543,-0.7759541683,0.9236037411,-0.1014272751,0.4350275151,0.4584868171,-0.2152573624,0.2512744198,-0.2965641604,-0.527808749,0.88269644,-0.4092465239,-0.7921742044,-0.950344216,0.1401083098,0.7718412479,-0.246411154,0.4009822656,0.2439034097,0.8478831223,-0.8375241512,-0.2421568074,-0.7167221174,0.7084378998,-0.0751801176,-0.3014279146,-0.9169134655,-1.1423780162,0.0506449266,0.4304816246,-0.9896193147,-0.755022283,-0.6886515776,0.1301301798,0.174897575,0.2426518301,0.8116740415,-0.2677679492,-0.6488971218,0.6558665817,0.5521721374,0.1635168526,1.0884880682,0.8530228281,-0.1631618286,0.6922402322,0.3454514581,0.0357653235,-0.2316693606,0.1004144335,1.2742180199,-1.4669680923,-0.057602342,0.5674523204,0.0889910194,0.5978860749,0.0145325403,-0.0565775852,-0.1906964704,-0.2398729405,0.3597415245,1.3933103139,-0.349860427,0.9688079429,-0.1137094186,0.1627860505,-0.4467046226,-0.3676428394,0.966529443,-1.144599832,0.6826451676,-0.9765688966,0.3729670046,-0.9136560961,0.7728183417,-1.1785327937,0.0739291962,-0.2425741311,-0.7908902263,0.3649594322,0.4061074343,-0.8591312481,0.3840511483,0.3215042698,-0.4128114084,-0.8892718518,-1.1946969222,0.5550051203,-0.2231479906,1.5411981532,-0.6269599254,0.1105084332,1.0142643212,-0.9828415585,0.1289794991,0.4030239118,1.2517738841,-0.1621526041,-0.6310664367,0.6902500596,-0.6443870589,1.2338222283,0.06000028,0.2007494261,-0.8205728442,-1.1103785989,-0.1750126056,-0.3733087759,0.1356831759,-0.4855107498,-0.1589367478,-0.7791551459,-0.9301300027,0.7877498323,0.7588040983,-0.2848763452,0.1951819458,-0.4378177953,-0.7396814923,0.1697786225,1.4672701546,-1.6706555786,0.738364667,-0.7581447581,0.5206867724,0.3749799275,1.1292100757,-0.2023341077,0.4999136297,-0.4058908041,0.2199269802,0.0758291409,-0.159832066,-0.5286261572,0.1830303583,-0.6643150897,-0.6433114104,0.4962379529,-0.3123927884,0.2204601556,0.5297215392,-0.3355317648,-0.5826254631,-0.7291689022,0.6787534185,-0.0695989496,0.2694383511,0.0383040183,0.6650396124,1.6218459615,0.3652222652,-0.324376926,0.4485224464,-0.2142691621,0.9489303028,0.9244166975,-0.2917822235,0.9441202035,-1.0032805509,-0.3418157723,0.329117168,0.9567673279,0.6624644145,-0.1550515918,0.8485713812,-0.0210134881,-0.0181389906,-0.475211091,0.2816883303,0.208031463,0.0034870391,0.3999848305,-0.6472673912,0.1470558354,0.3312254369,-0.7177664918,1.2734850316,-1.1249888368,0.2697068835,0.3707098555,0.2345319465,1.452436378,0.0622849307,-0.8716017132,1.5998087569,0.7170390113,-0.7579170969,-0.0496947844,-0.3790623531,0.4408325885,-0.5213459939,0.0544788269,0.0526200352,0.0210281249,-0.5133667158,0.1423207159,0.4692959389,-0.1955080354,-0.4640752694,0.3292124539,-0.2552334432,-0.5736802387,-0.5837300135,-0.5038511012,0.1014878086,-0.2609294186,0.6224302215,1.0631233747,-0.1667539638,0.7697227204,0.8798435319,-0.2923481446,-0.0631461346,0.9365757579,-0.6608656424,-0.5800010813,1.6210865702,-0.3219858799,0.1480882283,0.2149483941,-0.2695504246,0.2312549409,-0.5841470116,-0.123258598,0.2818694328,-0.3711931883,0.317866866,-0.0778526768,-1.1122238534,1.3302451927,1.2625206031,-1.6973477786,0.0128319909,0.0022042755,0.2247933122,0.5330003169,0.7149092453,-0.4084537295,0.7720685779,-0.2140040578,0.0552777948,0.1096675321,-0.6622882831,0.0506600158,-0.6849912404,-0.5804626353,-0.7275949862,0.1534651339,-0.5130982145,-0.9301684815,0.51005463,-0.0256769772,-0.8686929231,0.4974070917,-0.2239703301,-0.5851298393,-0.191834471,-0.3765713876,-0.0891586288,0.2587550151,-0.1244715189,0.1512017482,0.4199964111,0.2545564493,-0.6121855728,-1.0040925331,-0.6920588635,1.3120517041,2.0160149399,-0.4301600433,-0.4070391058,0.4861424154,0.8725296542,-0.3136687527,0.2431760218,-0.6776668619,1.3411051791,0.4131664727,0.0296588221,0.8491308035,-0.3681618846,0.9512925087,-0.273387392,-0.7394633521,1.1615181509,0.8501147022,-0.5744901316,0.0590991116,-0.2101709026,0.5201370113,-0.595777516,-0.0745354676,-0.7768252389,0.3334675217,-1.3680734999,0.3187858895,0.6517776519,-0.4249547193,1.2093167714,0.5661445882,0.5585089268,-0.6077053744,0.1212457912,0.4277943383,0.7625923477,0.0323173246,-0.1459517916,-0.4827085549,1.0624157955,-0.4854071852,-0.3865558943,0.2426664047,0.1517818385,0.0852950548,-0.0312672074,0.3006756507,1.0136746721,0.1892325288,-0.3381610932,0.2383419172,-0.1205280754,0.2185553237,0.1086967006,-0.5326759683,1.2920555953,-0.1153442964,-0.4622892257,0.6340779905,-1.1586027694,0.736883048,0.7514255713,-0.6183438972,0.4743242778,0.8265874865,0.9609288519,0.3181273634,-0.6949854012,-0.3613921637,-0.4782099704,0.8223671223,0.6143302016,-0.251709854,-0.6156230068,-0.3899945601,0.8864345119,-0.1346523228,0.5585541755,1.1856679309,-0.0802590192,-0.9213495932,0.3672443516,0.1663150122,1.6795359532,0.2277395334,-1.0961877678,0.8522710811,0.1123828086,-0.5852751071,-0.3032889068,-0.4461648648,0.0077326571,0.3926735711,-0.5344945602,0.4842226382,-0.6839032311,0.381133192,0.1363622566,0.0174130826,-0.0919091157,-0.730079499,-1.0335221635,-0.920304504,-0.973237037,0.1982486429,-0.4450326736,-0.0109374546,-0.0634307746,0.6599037961,0.3678945635,-1.0524596111,0.529576656,0.4208216846,0.9781064828,-1.9188138628,0.5148477255,-0.2567561963,1.0427699968,0.3207599346,-0.7964994865,0.2949106891,-0.441712028,-0.1013711119,-0.6312091099,-0.4361250452,-0.7397794481,0.514479526,0.1453583601,-0.5565020102,0.1597045923,0.7482666218,0.1506968874,-0.2800503006,0.0324081715,0.1277789163,0.0108734688,-0.3927390118,1.2832464606,-0.356852433,-0.1699690529,0.6202058016,-1.1049332274,-1.1548558966,-0.701557895,0.7712303505,-0.3535861809,-0.8320387762,0.0845360401,-0.9801934952,-0.8328852038,0.45049163,0.178432546,0.8247974612,1.375556167,-0.3419216775,0.4204993843,-0.0157435906,-0.1389739711,-1.6095110335,0.5094814521,0.1656053532,-0.024598243,-0.5967502037,-0.547775551,0.0677420567,-0.1841263787,-0.8450919142,0.603958765,0.338099985,-0.4530077716,0.8647175445,-0.383327095,0.9086554743,-0.4476063004,1.5080818887,0.5614610724,0.2727723258,0.3141321435,0.4105181694,-0.6819757277,0.4449430198,0.8647623697,1.4565810562,-0.5681628967,1.0955555911,1.0788943229,0.9207004779,1.101488383,-0.4131712974,-0.2419140466,-0.2095825566,0.7282631565,0.2613868053,-0.4716151315,1.2524927044,0.1774503356,0.0974584959,-0.7529606109,-0.2036573559,-0.9379891769,-0.1564070671,0.3638849303,-0.595433369,-1.0576135029,0.5978310855,0.5560849448,0.6099218456,-0.5459081338,-0.2136498062,-0.6756835292,1.0835535701,0.0224486271,0.6268529173,-0.9841809587,-0.0572662244,-0.2416521318
