encog,BasicNetwork,java,3.4.0,1,1589973086245
[BASIC]
[BASIC:PARAMS]
[BASIC:NETWORK]
beginTraining=0
connectionLimit=0
contextTargetOffset=0,0,0
contextTargetSize=0,0,0
endTraining=2
hasContext=f
inputCount=300
layerCounts=235,28,301
layerFeedCounts=235,27,300
layerContextCount=0,0,0
layerIndex=0,235,263
output=0,0,0,0,0,0,0,0,0,0,0,0,0,0,0,0,0,0,0,0,0,0,0,0,0,0,0,0,0,0,0,0,0,0,0,0,0,0,0,0,0,0,0,0,0,0,0,0,0,0,0,0,0,0,0,0,0,0,0,0,0,0,0,0,0,0,0,0,0,0,0,0,0,0,0,0,0,0,0,0,0,0,0,0,0,0,0,0,0,0,0,0,0,0,0,0,0,0,0,0,0,0,0,0,0,0,0,0,0,0,0,0,0,0,0,0,0,0,0,0,0,0,0,0,0,0,0,0,0,0,0,0,0,0,0,0,0,0,0,0,0,0,0,0,0,0,0,0,0,0,0,0,0,0,0,0,0,0,0,0,0,0,0,0,0,0,0,0,0,0,0,0,0,0,0,0,0,0,0,0,0,0,0,0,0,0,0,0,0,0,0,0,0,0,0,0,0,0,0,0,0,0,0,0,0,0,0,0,0,0,0,0,0,0,0,0,0,0,0,0,0,0,0,0,0,0,0,0,0,0,0,0,0,0,0,0,0,0,0,0,0,0,0,0,0,0,0,0,0,0,0,0,0,0,0,0,0,0,0,0,0,0,1,0,0,0,0,0,0,0,0,0,0,0,0,0,0,0,0,0,0,0,0,0,0,0,0,0,0,0,0,0,0,0,0,0,0,0,0,0,0,0,0,0,0,0,0,0,0,0,0,0,0,0,0,0,0,0,0,0,0,0,0,0,0,0,0,0,0,0,0,0,0,0,0,0,0,0,0,0,0,0,0,0,0,0,0,0,0,0,0,0,0,0,0,0,0,0,0,0,0,0,0,0,0,0,0,0,0,0,0,0,0,0,0,0,0,0,0,0,0,0,0,0,0,0,0,0,0,0,0,0,0,0,0,0,0,0,0,0,0,0,0,0,0,0,0,0,0,0,0,0,0,0,0,0,0,0,0,0,0,0,0,0,0,0,0,0,0,0,0,0,0,0,0,0,0,0,0,0,0,0,0,0,0,0,0,0,0,0,0,0,0,0,0,0,0,0,0,0,0,0,0,0,0,0,0,0,0,0,0,0,0,0,0,0,0,0,0,0,0,0,0,0,0,0,0,0,0,0,0,0,0,0,0,0,0,0,0,0,0,0,0,0,0,0,0,0,0,0,0,0,0,0,0,0,0,0,0,0,0,0,0,0,0,0,0,0,0,0,0,0,0,0,0,0,0,0,0,0,0,0,0,0,0,0,0,0,0,0,0,0,0,0,0,0,0,0,0,0,0,0,0,1
outputCount=235
weightIndex=0,6580,14707
weights=##0
##double#14707
   1.2211895702,1.1609686098,0.0388871963,-4.4733272756,2.186189752,-0.2564512643,-0.6932891567,-2.5771784811,-1.702768177,-2.6977808301,-4.3301922917,-0.1009409092,-0.5906039105,-0.2106297294,0.5516360392,-5.733834225,0.013126537,-1.4292706481,-1.5605917093,-0.785105094,1.1751868546,0.6355960943,-4.5562894771,-0.8677827929,-0.2532921006,-0.3033344913,-1.3465135538,-0.1126403494,1.2963454712,0.1066000474,0.872582354,-0.0148689945,0.1097515863,0.4817905325,-4.2492143488,1.2384167043,-4.1982617697,-4.4697848832,-0.308202034,-4.2795409637,0.9375349444,0.068035527,-3.9062235135,-4.2632546704,-0.2358833861,-1.4720880149,0.8406722166,-0.5145379916,-0.839558768,0.0114323692,0.8637509949,0.0429552059,1.0818238268,-1.6316616068,-4.2116678695,-0.161122878,1.2885312946,0.3515543258,-0.2390945413,-4.1305226884,-4.0436377028,-0.8022330461,-1.7509385155,0.7809351178,-5.0711397743,-4.3082188524,-0.5297233022,-1.8881340418,-0.0229683021,0.799589395,-0.0175850466,-4.4164517691,-0.6679576768,0.5033574357,-1.0141734068,0.6964295392,-0.8725482565,0.1933754348,-5.1391503515,-0.5344676761,-2.6076958056,1.2681945557,-4.4062633772,0.1217181869,-0.1748934437,0.6653084918,0.2141281655,-0.6701428856,-1.2837814314,-1.0414362385,-1.6158137933,-0.2468630524,-2.0503997962,-1.3513040065,-0.1656776963,-1.2548063895,-0.1961226661,0.7755665933,-0.8149058646,-1.9962664083,-0.3857902272,-0.6334531851,1.8495788715,-0.3062508484,0.7246903479,0.1785858995,0.8692430639,0.6997470104,0.8312871709,1.5797039701,-1.4452221069,-0.2839259231,-2.2072441602,1.2873007904,0.7445007484,1.0422280356,-0.9552506191,1.9648359006,-0.0238188808,-4.5048949469,-1.2989931898,-2.2071429787,-4.9913252567,-1.9537854726,-0.5233381283,-4.4650707662,-4.8451457064,-2.1654863806,-1.6756737396,-1.0323133145,-2.2887647206,-2.2503944176,-4.9896489678,0.228173957,0.1996551759,1.1765195692,1.3572028303,0.5965086655,0.244891877,0.3025251286,-0.7640576166,1.1963474897,-2.3505419051,-4.3201376282,0.9550496648,-2.2126896511,-4.5235574254,0.697434944,-5.2020075418,0.9622781886,-5.0559994859,1.0320575366,-1.0201017287,-3.8650693306,-5.0149258302,-4.5762515184,-4.7797803375,-5.286172437,0.067906209,-4.5744723305,-1.2875329173,-2.6074628022,-4.9311047772,-5.1519035765,-4.0564415137,-0.236085359,1.1024902151,0.0889152985,-0.5203738676,0.8643464406,-0.598188922,0.6910810228,-0.2352551244,0.1285350223,-1.9832425133,0.3472325198,-2.2087526156,-0.7423651825,0.3459632001,-1.5773353203,0.8291495308,-0.6048422335,0.3742773059,-1.6570944991,0.3783999022,-0.9223227469,-0.8529941,1.1229428661,0.6412610132,-0.5930623673,0.0197042301,-0.0056702012,0.0232645994,-0.011000864,-1.3579291776,0.2358366625,-2.1308288366,-1.569883044,-1.7971260244,-5.5366015704,-4.2486481171,-5.5623465676,1.6556557496,-4.4269861874,-5.6935801568,0.4183647499,-4.7982793835,-5.5791158622,1.8731701446,-4.7989155886,-1.1131788906,-5.6667332774,-0.7803508061,-4.159462861,0.6028967679,-0.0215276186,-5.1346434432,-3.2937794147,-0.1948101496,0.5834488669,-0.129394574,-4.1316359143,-2.5956495632,1.9023169783,-0.3515829164,0.5304317905,0.794135961,0.2843276022,0.9324136525,0.1010837608,0.6547845363,0.9475162513,-2.1690087658,-1.641417109,-0.0586075488,0.1909488555,-0.2364969262,-0.1007897107,1.3508145656,-1.2964428252,0.8374058105,0.1926076374,-0.5860407358,-0.6203902607,0.5429523248,0.0851083675,-1.6624844205,-0.5240099463,-0.2742836334,0.411987057,-0.6471680678,-0.5236007732,0.3164007261,0.5288456577,0.8264555203,-2.1996994064,-0.044043265,-0.441516309,-1.0894998608,-1.333824075,-5.208931708,-5.0808771064,-1.6929458822,0.1317747105,-0.095816193,-0.9827885017,0.5028899771,-1.6108761414,-0.4039980924,-0.2565100803,-0.6288916856,1.2452109831,0.9478921794,-0.2409466468,-0.0780166632,0.6886419808,-1.2063575028,0.8823101857,-2.4253937698,0.5761069682,-5.6346676213,-4.3473350715,1.7318768818,-0.0900990081,0.6179681243,-0.6921493013,1.1762222653,-4.7712981962,-1.9672510401,0.2170787987,-5.5562177716,-4.2816618816,0.0534054682,-5.4856110013,-4.8221788901,-1.0030976274,-5.2506273989,1.0857494494,-4.5508210007,-5.4556041426,-5.711905687,-1.9323807461,-3.9384702535,0.462994788,0.1696354214,0.8273453812,0.6688328004,-0.2458083026,-0.2917303761,-0.0597036625,0.345359305,0.3040375993,-0.2678314015,-0.0605523827,-4.051385486,0.6578576637,-5.7542623666,-4.3115072733,-0.8615986211,-2.0757942647,0.5007369933,0.1804202783,0.9022906198,-1.5532514847,0.0131331856,-0.3868403452,0.0603199143,2.1381347595,0.2485779265,-0.9277363289,-0.2692481639,0.593374223,-1.3115559558,0.264812031,-5.188653976,-0.4633832166,-0.2926259124,-1.4821726161,-1.0370284758,0.7829368331,-0.0845367023,-0.9011857465,0.8530134394,0.880600954,1.2946497981,-0.734271497,-0.3586178111,-0.8717100632,0.3444112149,-0.4630730319,-0.2785972122,-0.6705973975,-0.8936101916,-0.1362476808,0.5328161243,-1.8013834121,-0.949391632,1.0439676235,-0.2132789524,0.109625275,0.9643689821,0.7406458247,-2.2309714811,-0.1064989505,-0.1279377302,0.3057933256,-0.8196847229,-0.3138502138,-2.0635137834,0.0845188763,-0.1419225617,0.4223146137,-2.2275365618,-1.5023135938,0.9492601385,-2.2882976888,-0.4719085941,-0.951020772,-0.1075397054,-1.2578733735,1.4788549352,0.2764809427,-1.5017885694,0.5163351278,1.0788252547,-1.1189670359,-0.2256401442,-0.2811341097,-0.4077866531,-0.9936340592,-1.2834925971,1.0933047649,0.8081811653,-0.4608885312,-2.5586260486,-1.4792870146,-2.3114416057,-0.7209844024,-0.8222655888,1.2241552118,-4.8407895466,-1.0181851371,-4.4846204551,0.8063468102,-0.4332386858,-2.5502920085,1.5803103889,-0.8676163711,-1.2359816994,-2.5889265372,-5.6712170931,-0.4912924352,-0.0502731678,-0.8713322985,-2.4528197949,0.6549129623,-0.6100020934,-0.6100369853,-2.2164170677,0.3737076245,0.3120591967,1.0985787538,-0.4399126654,0.0619955444,0.5645102559,0.8752916868,0.5712900736,0.1839984358,-3.9581937861,0.6615224167,-1.4808867899,0.8116389444,0.8097202182,-0.1415354709,-0.8056418717,-0.8088281784,0.6833196191,-0.5363668792,-2.3520466538,-0.0273187197,0.5833578242,0.3658308342,-0.4803166742,-4.777089513,1.0394366026,-4.5949612069,-0.7511871426,-0.1420926611,-0.0862811132,0.8776080625,-0.3943629268,0.2890531829,-0.6710318158,0.9998013974,0.3171486996,0.5312192848,-3.9124448026,-3.9539023122,-0.4932767377,-1.0581739892,-0.1919138075,0.17106152,-1.4265403008,-0.9626981566,0.1367006976,0.4687915832,0.0522205201,0.3835998526,-0.6632108246,0.1876585111,1.0122213939,-2.2203512889,1.3939455489,-4.7275975221,-2.5572200543,0.1342393641,-0.5934859405,-4.6807185565,-0.8917062293,-0.7016793506,-5.5752671983,-0.9875553461,1.3485284787,-4.8071997565,-0.2403263281,-0.0793854506,-5.8209285059,-4.3781742439,2.1656421435,-4.8917911751,-5.7170509789,-1.9975358906,-5.7081149329,2.1505232223,-0.7397385506,-3.911896901,-4.579106699,-5.5299887957,-5.6849063158,0.3458037256,-4.5532173535,0.2248475538,-4.931179574,0.2443838062,1.3720957923,0.5877864404,-1.667719871,0.7497066169,0.3595836371,0.9173630201,-2.5557089629,-2.0023236387,-1.7370043085,-1.7985597872,0.6375623501,-1.5450776375,0.1974251408,-1.2175687745,-1.4769004871,-2.166898663,1.2875289424,0.3515219674,-0.1043240424,0.5857582636,-0.4954802305,0.6211675935,-0.2682626188,0.2404563938,0.4880699589,-0.0540093597,-0.6119034916,0.4695995823,0.4090331738,0.288079762,-0.1036997925,0.9548988746,-0.1748994227,-0.8083638932,-1.3925476105,-0.6499465066,-4.4529544694,-4.2123379473,-0.9644686799,-5.0109480082,0.3029580168,1.1558768668,-0.2471774862,-4.3069257251,-3.853413321,-1.1107028529,1.1550581154,-0.3248292401,-0.0223493181,0.5366310511,-0.190896982,0.4287458614,0.4953237034,-0.3019102827,-5.2312088881,0.9295516097,-0.1569350383,-1.6741059896,-0.9220768795,-0.6980924101,-5.8322604338,-0.1072265581,0.2115915187,0.207847832,1.1958827054,0.797249149,-4.8242478828,-1.789006494,0.5123523453,-4.8197752985,-0.9175645294,-4.3516587033,-0.3270232625,0.7723721386,0.4379151149,-3.9941765375,-0.3050243505,0.387389876,-3.9921679226,-0.3277677629,0.7652034063,1.0296907547,-3.8546550985,-0.0436638742,0.2890914919,-5.2239789257,-0.9314848284,-1.7832051151,-2.3719990046,-2.2123649081,1.0714580676,-3.9421719516,0.5297527023,0.632207278,-4.750745486,-0.9984856911,-1.1817493573,-5.5639603163,-5.6858360846,-1.3571870609,-5.1551520946,1.4683244743,-0.5816164398,-4.9723258795,-4.086808683,-4.2661466467,-2.4770162946,-0.0619266753,-3.9358271857,1.0479762017,-5.2476793532,-0.5781307443,-4.5929058407,-5.737954368,0.9152589343,0.2604548766,0.7866473587,-0.7316608569,-0.0132254137,0.3327032027,-4.3429789801,1.1278723602,-0.4141598173,-1.3771608034,-0.6412481354,-5.2934591574,-0.0140250817,-1.3842528441,-4.5951392982,1.000768586,-4.8523281725,-5.011984001,-4.3481682846,0.951230717,-5.5016497742,0.5726192028,0.3570764865,0.2252153664,0.2758431416,0.0852602262,0.3728632879,-5.1455020732,1.9652355532,-5.1956516086,-1.1758176078,-4.993080398,-3.9837203713,-5.3839075922,-0.6789819347,-0.7020447204,-5.091276569,-4.1828722228,0.3083888459,-3.8893771947,-5.0137302381,-1.0712765361,-5.7382949661,-0.3657290895,-4.3310956872,-4.2873886133,-5.8304889396,-5.1951125437,-4.4813153909,0.1494105567,-4.8601092033,-1.7678468128,-5.2017279348,1.2154888794,-5.5269833877,-5.5618935413,0.6657695217,1.4337330494,-0.9770220284,-0.8922934498,-0.549312196,-4.6687804411,-1.7477895812,1.4082432611,-4.3270218283,-3.8759804165,0.323436983,-5.3646775803,-5.0063276054,-2.2275907019,-5.140341272,1.7904136979,-4.2105757779,-4.9787302895,-4.7421300237,0.9482676291,-5.4880449753,0.1780016098,-0.7520240956,0.5880002559,0.1717747649,-0.1944223866,0.3974203144,0.3235813827,-0.2046501732,-1.1656497302,0.0240646981,1.1833147019,-0.6290424501,0.6740951111,-4.3115358383,-4.0025362577,-1.0278183862,-0.8242476942,1.0169346754,-0.0186162569,-0.7984991425,-4.6191563565,-0.0900945015,-0.0901685224,0.3547164637,1.3667106324,0.0562812577,-0.0420042206,0.12055689,-0.1795651108,1.098143332,-0.5130863992,-1.0946993065,-0.39465075,-1.0949747697,0.3656921097,0.7706460874,-2.1013863147,-0.8283326097,-0.3865480467,-0.0219934771,0.687584578,-4.2550320711,-1.7303994242,0.5737637411,-2.4058234031,0.5581104388,-0.3933847982,-0.502256839,-1.7163745032,0.0008502757,-1.8647331584,1.4794019896,0.5767737989,0.0590525297,-0.0316978158,-2.2854236602,-4.9395453284,-0.1588137364,-4.3425609218,-5.6166557565,0.0629195063,0.7449814182,0.6763599316,-0.5859198906,1.2630807505,-4.0392768434,-0.0459940922,-1.0666874255,-0.7960899598,-5.1272532806,-5.5494601224,-5.4988706921,-4.0978561515,1.1344314763,-1.3961473971,-1.5915487534,-4.0410690502,0.9768415517,0.0168054729,0.6958258541,-0.1536218654,-0.8605196105,0.2741208635,-0.4573601397,-0.04506757,0.9328754874,0.3692609708,-5.6924011841,0.5672488586,0.5759458713,-5.7371751551,-0.8606705759,-5.6015270299,-4.1587770356,-2.0236225364,-0.5241247445,-5.644058128,2.0105161114,-4.0067881779,-5.175143887,-5.0820068819,-0.6172477587,-4.8654845601,-3.9984781331,-1.9533646004,-3.9478295322,-0.0155902813,-0.7015759224,-4.3150738733,-4.2874843971,-4.9354920484,-4.2110278606,0.4627769788,-5.2937978483,0.7163732221,-5.1244776224,0.932272536,-0.034869181,0.8741777204,-1.8392216722,1.4623071293,-5.4614569274,-1.6485671088,-1.0240941212,-5.1372729414,-2.2098395717,-4.784442916,-5.6038418268,2.53544263,-0.4139799021,-4.9680810955,-5.8357269345,-4.3703776936,0.3508779033,-0.3427831588,-4.4563103201,-4.8264606791,-1.5057503262,-5.3304394456,0.9559970879,0.8026790762,-5.2102250479,0.1461994407,1.2080976691,0.1376638872,1.0313311643,0.1717286871,-3.8617738238,-0.4957583051,-0.5664466773,-0.4330236744,0.8892255184,0.2045496157,1.110354745,-0.1974232359,0.3747619942,-4.6712536851,-0.4603785462,-0.4031242807,-1.1656875141,-4.9055343648,0.445654976,1.1932990879,0.1746254847,-2.6297841374,0.7148740558,1.4660230067,-0.2879145844,1.7636027528,0.2937414677,-0.353978564,-4.378990012,-0.5944407945,-2.229908777,-4.6972728129,-0.8511785741,-4.3162594744,0.3090751209,-2.2135344446,0.5740252405,-0.227975892,-4.4042015508,1.5764323941,-1.3272277065,-2.3902197117,1.0692166586,-0.0906494514,-1.6496787131,-4.4887604775,-0.168109049,-0.8364125177,-4.574784551,-2.5392086778,-5.5933985344,1.1100733737,-3.4638802756,0.6190888779,1.2607819047,-2.3480080785,-1.3013121554,0.7718725243,0.4969113686,0.0837758804,-0.8465886954,0.549640346,0.4118333497,-0.078516201,-5.1871513355,0.7957611743,-1.3135412954,-1.5615832205,-0.2485716793,-1.337367883,0.862988717,-0.3284221646,-0.0168985047,-2.1202891777,-0.3408302257,0.8591200664,0.0406057709,0.8267886484,0.3534788353,0.6817171562,0.0223024328,0.8001407576,0.1136775491,0.995497799,-4.1416177927,-0.2361427839,0.478650278,0.7080041159,1.0402294516,-0.4274816449,-1.2631199957,0.3851903231,-1.8842662161,-0.2668685948,-3.9251471255,-5.8194530317,0.9430630912,-5.758774876,-1.6535322922,0.1156253513,-1.5107937437,-4.6540165628,0.864664595,1.1671012169,-0.6746839675,0.7215581374,-0.994555917,-0.4992270355,0.4718179604,-5.2932334116,0.6297420384,-1.4067956507,-2.0699303686,0.9031415473,0.4226110046,0.9215568287,0.4557349417,-0.6841204442,-0.9529678085,1.3786071212,-1.5280162557,0.0826965723,-5.7122832774,-1.5911011302,0.6974552955,-1.409889279,0.0796731886,-0.2621216094,-0.1379986871,-4.9062743026,0.3232456132,0.0059064611,-0.5318853128,0.2182559385,0.2969202628,-0.2545251866,0.8283836111,-4.0472887371,1.1729882989,-4.7940382702,-1.8067906079,0.5410721702,-2.3473179861,0.7571544594,0.8718366969,2.0871133987,-0.5038662763,-0.4964669867,-2.0129168871,0.2000289844,-2.0222681219,-2.3118995951,-4.0429415428,0.4451522264,-0.0834399421,-1.0994239534,-0.673431028,-2.230500229,0.3274139735,-1.4119222697,-0.7887329169,-2.0938045118,-0.5825651901,1.4101771878,-1.2859358356,-1.7492443906,0.4139565146,-0.0887594799,0.0715658462,-0.0270103059,-4.0646529518,-0.0338639397,-1.4221048903,-0.6692354298,-1.1839530092,0.8232177891,0.8965429226,0.2793778888,-5.4514804,0.446508922,-5.7564072392,-0.5569659685,0.7310852479,-5.2365046673,-4.1292761635,-5.339367235,-4.6754594777,-5.6388313087,1.6410920193,-4.5092034661,-2.569383845,-4.4297078962,-4.8818952445,-5.3524583201,-4.0265331018,1.1332968732,1.1714342508,-0.243858774,0.3807237368,-0.1956795217,-0.6923439037,-0.1110212372,1.015397537,0.7211466201,-0.9486368966,-0.3465880726,-2.2744718977,-2.1610430859,0.5255468365,-0.250432235,0.3188199103,-0.1477944618,0.0139867761,-1.9153463799,0.0413884447,0.0969998932,-0.0925125782,0.3706851379,-0.4869414594,1.0301380726,-0.5602270154,-0.128493392,0.5604021921,-0.5040867828,-2.3971479096,1.2209956109,0.3721855104,-4.8742222457,-2.1649083866,-2.3685671947,-4.9781645451,-4.1207480388,0.9714191391,-5.4978824384,1.0641162191,-0.1390883858,-4.3055198168,-5.2506329199,-4.5276235212,-5.034582674,-4.5167150603,-4.7853615702,-5.3876376232,1.2811413655,-1.8698124091,-3.9822542995,-3.9790517207,-4.6697757656,-1.3352911629,0.7977364735,-3.917950088,-0.234394792,-5.8251685554,0.0053524363,-4.5445455584,0.9229623925,-2.5841426961,1.1514964083,-5.1258169993,-2.4273084254,0.1672437155,-4.2281417074,-4.9726661764,-4.1451198118,-4.3008071681,-4.8071596688,-1.3457583169,-5.7956528612,-5.2101651552,-1.1714701177,2.0010249025,-2.56631589,0.5800443601,-4.1966913203,-5.7959763404,-4.2908048476,-4.802546203,-0.2845027122,-5.4581688084,0.969500851,0.6808193616,0.6335368772,0.393874518,-1.0720529959,-0.910557001,-1.2388621032,-4.0658820793,-0.7016919677,0.6385497063,-3.9882117867,0.0551793266,-1.5115957841,-3.9354097165,-1.3529415926,-1.0937540892,-1.8389055217,-2.129504336,-0.997839418,-5.4667580712,0.7805646378,-1.9142293015,-5.0269668167,-3.9638382736,-3.5520710796,-0.9143911738,0.8997440929,-1.7943658423,0.8016305585,-4.876441012,1.0286247292,0.1098679488,-0.3482936652,0.0589159768,0.9227100833,0.7893435011,-0.7789577551,1.3793986804,0.4913377624,-4.4627622537,-1.7115110017,-0.5618894243,-2.1612216449,0.0075896265,-0.4737543531,0.6550379588,-1.1231353331,0.7745342672,-0.0954705999,0.4344166324,0.0181379217,-0.572527017,1.1464766529,0.1940006853,-0.7616930087,-0.0425586811,-0.3859187385,-4.744748848,0.5197924512,1.1605067276,-0.9397765546,-0.4677446952,0.6305977352,0.1418457483,0.4433883439,-0.6563678811,0.6544057905,-2.3561680852,-4.5775866075,-2.1576798431,0.9469045911,0.7170280689,-0.2980451954,0.7463922458,-1.0782896199,0.3021237805,0.7423934451,-1.1508350646,-0.2977900908,-0.6898422707,1.040734309,-2.200037173,-0.0168289458,-0.0939381203,-0.7454594861,-1.2164178047,-0.0298789648,-0.60672711,0.1120870326,0.4260750847,0.4432392616,1.4365351211,-0.3240588508,-1.2847645612,0.2376089641,-2.5027122953,-0.7084922823,-0.4040460846,-0.4532841731,0.6401816079,0.3735635875,1.0783636443,-2.1470849135,0.0855651062,-0.5701442296,-0.6656543341,0.7020044273,1.078190579,-0.7069336278,-0.7314708329,-0.0951337468,-2.0489004419,0.2707657695,-1.9397368808,0.4136051166,0.9675409614,0.6243569033,0.089798916,-0.2498063111,-0.7445166879,0.2455094669,1.3675800442,-1.5445251356,-4.2956917891,-1.8398768165,-0.777730643,0.5269269161,-1.2258881217,0.0492544853,0.8350786195,-3.9195949142,-1.2841538294,-0.8166820358,-0.947519586,-1.3312700862,-0.2013091201,-0.8522239383,-3.9251625548,0.4609583749,0.7073950158,-1.6085798741,-5.4277959395,0.4907381954,-0.3384804692,-0.3177624964,-0.1900857217,-4.6011147006,0.0305946661,-0.7688399875,-0.1753430773,0.6524910005,-5.3780431187,-0.8821661935,1.0025820864,0.3409926454,0.4212734777,0.3786251566,-0.6435438944,-2.0645106692,0.6750754303,-0.4180322862,1.8047207501,-0.1837420194,-0.3799143301,-0.1973732557,-4.3333922566,-0.780896693,0.3026286161,-1.3529099327,-1.2758598953,0.7740106833,-0.5649049211,-0.1445583182,0.6962904741,-5.1537768316,0.4958370582,-0.2209186575,1.293680808,-1.613618477,-4.9304560298,-4.8579223262,0.3958697681,-4.5187822559,-0.424408755,-1.5630060314,0.2826375114,-3.9820232347,-0.5581500248,0.5579724132,0.6615683194,0.9692736358,0.677960657,0.1204034369,-0.4355370433,-5.6530913365,-0.3790268998,1.2299918823,-4.8126064968,0.4122837471,0.6659470727,0.2692328499,-0.355094287,0.3458790265,0.3514375299,1.1677656505,-3.8862759684,0.5398550998,-5.8041110295,-5.6780500392,-0.8454545294,-4.271688963,0.5915537229,-1.2597117223,-1.374695985,-4.2764586161,-0.0641089,-0.8430121088,0.8953012442,1.0068242212,0.1535444722,0.2438865449,-0.6853357814,-0.0139694328,0.2866650996,-0.9053091617,-4.3752428602,0.8406430888,0.338766531,-0.4827969229,-1.1336072,-0.9252019316,1.8763980102,-4.2386760207,1.4534593942,-4.8576452115,-4.1949070346,-5.5276066701,-4.2479760708,-1.8401150181,0.2420929796,-5.6576143313,-0.6311046988,-4.06596073,0.7922217986,-1.384378454,-1.6076395846,-5.2531496386,-5.2267646823,-5.3514120315,1.1000709581,1.1143406725,-4.3293574595,-4.577216126,2.4650281947,-0.0064100104,0.6688355673,0.4513735445,2.1042151201,-1.4041052303,0.4225350327,0.9219984583,-0.0558023782,-0.3606023259,-5.2910999527,-1.3723966246,-0.1863814686,-0.8415893034,-0.1836359463,0.372550721,0.6190514341,-1.1862522309,0.5066327918,-0.4113151238,-0.2473181777,0.1215331814,1.7305596712,-0.2156667234,-0.2957962682,0.6099627635,-0.3126910591,-0.9099175248,-2.4155230357,-0.4464620305,1.1117764725,-1.1710362572,1.7050559623,-1.0891323735,-0.9147442963,-5.6985763351,-5.1066107273,-0.5632642162,-0.5097922283,0.5550678553,-5.8025993708,-5.5800721723,0.6227729792,0.2120489035,-4.304209715,-0.6422626313,-1.3608973937,0.637534833,-3.9924416156,-1.230182087,-4.5741373956,0.3287924558,-4.2597877146,0.3203658428,-5.0098695777,-0.404438782,-5.1980441279,0.4612157637,0.8503145802,0.8902820517,0.2306822714,0.2541400669,0.1743724047,-0.0773224885,-5.7094997083,0.3339928946,-4.7484744101,-1.7413965759,-0.4971146434,-0.6133035158,1.106033799,-0.0061972811,-5.2889263266,-1.8927873701,-0.7897671424,-3.8865326249,0.3136020708,0.1006673396,-3.9043311751,0.9290610498,-0.4628358911,0.1082628329,-0.1175048033,-4.2448363578,-4.69291654,0.1057146344,0.3518222936,0.1019158609,0.6973907267,-4.0660091979,-5.2088760611,-2.0744770504,0.8971208759,-5.1066465658,1.9981814128,-1.1994096125,-4.9346416463,-1.9741050146,-1.0456547038,-5.1993812708,-4.9888022043,-2.2100094128,-5.0431800972,0.5151103744,-1.2558188653,-5.5512325555,-5.7592455819,-4.977487281,-2.3990047796,-0.501734508,-5.460779536,-0.4356770453,-3.9362028318,0.3251558442,-0.2702205315,1.5459243603,-0.9739146057,-5.206906698,0.3624893696,-1.5362050006,-5.6401110162,0.3993396749,-4.0399715857,1.3812841452,-3.9029878519,2.438459885,-0.1163296853,-1.8731916693,-2.8939224019,-0.646312833,-1.2202568182,-5.1049201321,1.1058238569,-5.6905811907,-0.3413343137,-2.1760514154,-2.2760366947,-5.6147904951,-5.5327559714,-0.7477446425,0.3641980426,-0.2814424984,-1.0542139334,-0.0529253827,-0.3501637164,-5.6886659707,-0.0031072125,-0.6755221467,-1.3344760775,-2.2575758401,-4.1386892485,-4.1582699563,-1.938595825,-1.6709983622,-0.6502894199,0.1017820089,1.7256802247,-5.6203576702,-3.8788893432,0.1510119507,-2.0979652139,0.4804728056,0.5300563243,-4.687639598,-0.1876278675,0.2677650092,-0.062671578,1.4063018989,-4.5827617085,0.0096866538,-0.3366075898,-0.1787234363,-0.3117078748,0.1310019447,0.710480592,0.8492843222,-4.8945283287,0.4260193796,-4.9559034122,-0.6671760627,0.5434486206,-0.4493456023,0.9375635395,0.3586231895,0.1365563798,-2.2985820702,-0.4286125861,-4.281174478,-0.1019292817,-2.0705241655,0.6393625058,1.1586898718,0.6842962741,-0.7732666778,1.0110047819,-4.6453865732,-2.4242907651,-0.4693729446,0.8939151074,-5.7864637351,-1.6105340005,-4.6211979901,-4.0073065422,-1.380921236,0.7169027878,-4.0727157559,1.5012491871,-1.0575513602,-4.3710979669,-5.4422272548,-0.7935626855,-5.2659629124,-4.7599014337,-1.0081071092,-4.3419256248,-0.2455567143,-1.1708367538,-4.6748487516,-4.043307693,-4.9663581398,-2.0267249699,1.1159132098,-5.4201295728,0.090309005,-5.7423293807,-0.5942165164,0.8981658911,0.4217441296,-0.1372013612,-0.7170234007,1.2550355672,-0.3718868676,-0.3185804082,-0.4641081622,-2.3523355008,-2.3220849045,0.5181437303,-1.2215095605,1.0040025787,-1.0523941056,-0.416932107,-1.8783392424,0.9857173549,0.0976587915,0.4824582914,0.0882304448,-1.5416043755,-0.3134862076,0.462663285,-0.2945158355,-0.3344629828,-0.9095440025,-2.2371034263,0.562564036,1.1288974907,-0.2551356359,-0.8913479781,-0.5901536501,-1.3527454258,0.1709594957,-0.0367249679,-1.29176752,-0.5451578587,-4.7124991262,-1.505372238,-4.1194965085,-0.8930138631,-0.2940769358,0.4609652404,0.4374039626,0.2721277397,-5.161731891,0.9543336798,1.2168965686,1.0158092001,0.6859301592,0.4499925706,-0.2765892379,-0.13548287,-0.8182060268,-3.8557575724,0.9359619985,0.4823845629,-0.8140799627,-0.6537218952,-0.5263808618,0.2046213216,0.043853051,-1.0594733484,-0.0454782092,-2.5301667614,-1.0282400877,-0.6650291081,-2.1547006116,-0.1381938037,-0.8986129664,1.3494802137,-0.7192837667,1.0104507183,-0.120103966,-0.3759886407,1.2951851952,-0.7188888399,0.5762308999,-0.4360620026,0.7408469057,-1.4216893278,0.2468269761,-0.8665006166,-0.3994330978,-0.2659748158,1.4195959333,-4.8060752751,-4.0568333087,-1.0863737661,0.1484145379,0.8659703378,-2.1862016345,-4.1940456485,-4.8185844526,-4.7039203955,-1.8021544437,-2.0874579788,-0.2559139864,0.3158265576,-4.0849082944,0.2393676011,0.2361854926,-1.5011325332,-0.3556743695,1.5165884981,-0.3902755768,-0.4302421663,0.8058505504,-0.0782956599,0.3034726824,-5.6701231229,0.4150922202,-0.6240645655,-0.6172569439,0.6823040519,0.2216103707,-0.4955722299,0.2506660359,-1.9521420862,0.4404122077,-4.6646782835,-5.6366937296,-0.7696759884,-0.3493852563,-0.6570820117,-0.6538351838,-0.5087922833,-2.2097510345,0.4943100344,-1.4545408452,0.8955924725,-0.1443379716,1.0397057779,1.5015368906,-2.3681076388,-0.1802813239,1.0227645321,-4.3317026073,-4.138055529,1.1622445761,0.6309164518,1.1828954473,-1.2058039732,0.6373460745,0.7733030846,-0.8342183084,-0.7981938878,-2.5709793056,-4.3904329961,-4.0905203189,-5.535132499,-2.4010520705,0.1937494444,-1.2321805498,-0.6479463599,-5.216108936,0.2093207435,-0.599968758,0.8347122179,1.8248569986,0.3466728455,-0.3316109781,-1.1181417936,-2.2050900808,-5.7259956373,0.9037308013,-5.7167009247,-0.5970931155,-0.5201390727,0.115729691,-0.0560066797,-4.5247407817,0.0575094104,-0.4597293237,-2.5420620038,-1.395026348,-5.0053607016,-4.6827838449,-1.5067565508,-0.3999805556,0.257144223,-0.4768333189,0.0355811587,-1.3558225534,-0.2206275382,-0.0511333718,-1.9982870027,0.6201599407,0.3573612783,1.6310109028,0.1105792798,0.4031539827,-0.250693513,0.5880023172,-3.8878281866,1.3580871913,-0.9193729085,-0.1597250999,0.0013328133,-1.6496109375,-0.2881244,1.7260884256,-4.0268324004,0.0482963145,-4.2744676338,-3.8514356695,0.5101447727,-2.2278111527,0.4443356057,1.2112363817,0.7157064468,-1.9337550743,-0.5217646633,0.3980436208,-0.2042259554,-0.249326595,-0.0680651778,0.6982519223,-0.9910234132,-1.1376703944,0.3286699801,1.2549038117,-4.8782366971,0.1754115137,1.2814081885,0.9033168112,0.1700090171,-0.7045454333,0.0677312224,-1.1457622129,0.9577114151,-4.3446771972,-5.506907896,-0.851380172,-0.8212839957,-0.4452328073,-0.835438511,-0.1461026414,1.0748557225,-2.4071522178,0.1370132478,-1.2346185863,-0.8995117328,0.2501561106,0.963964865,-2.1296367405,-0.9881936812,-0.5686074811,1.3616953548,0.3919530598,-3.9170124157,-0.6295862664,-0.3425997903,0.1782551225,0.3785818049,-0.0431952439,-0.0497221021,-0.8806781901,-1.9555880942,-0.6344489067,-1.9300459852,-2.0232062958,-0.7129772668,-2.2158702287,1.2430632893,0.1194241882,0.138924996,-2.2613058023,-0.1900483746,0.9069467032,-0.3911342559,1.1463450546,0.8556778943,0.6079714798,-0.1743757752,0.9950571364,-2.3990223284,-0.0479370866,-2.2111431778,0.0894146638,-0.9136908613,-1.4066479319,-1.2509452525,1.3876576819,-4.725766236,1.3064442368,0.8951924627,-0.0909078956,-4.4566584005,-1.9815694418,-5.3632607733,0.2849886595,-0.2399849188,-0.6612120465,-2.0745323214,-1.6267906643,-2.5330532091,0.2634616857,1.1426569821,-5.4509357133,-1.1773724781,-3.2666336439,-0.4293879387,0.3160946407,0.5583233762,0.1370363638,-2.2229668605,-0.7663992736,0.8112050104,0.6558551109,-0.2603167596,-0.9967421528,0.4201844588,-0.9350075383,-2.2119519156,0.2046259832,-4.4823840666,-4.9858231167,-0.3712982787,-4.0423250312,0.6261501966,1.087387686,-4.1594337574,-4.6736398191,-0.4429404864,-0.1823027526,1.0863672598,0.2292140729,-0.1022140804,-0.0867062155,0.8501002076,-0.7604275758,0.5919052763,-0.8610757105,-4.5067556108,0.9026361742,-0.5781008845,0.747910276,-1.6163036944,-1.7946153206,0.3401094938,0.4728424304,-2.4689532369,0.8494650805,-5.0881066202,0.8613548412,-4.1548321559,1.4575541551,-0.354693154,-5.2041222425,0.2296859271,-5.1587940083,-5.7689293109,-4.5762211887,0.2570500259,-4.3792256773,0.1858652513,-4.9901732973,-5.1954974433,-4.7844205607,-5.3226459042,-0.1132930312,0.66752708,0.623403462,-0.1068722768,0.4064186411,-0.8454692142,-0.8431546746,-0.7038950974,-2.2398449713,0.520589708,-0.8293982533,-5.2912949751,-5.2953519911,-1.9430522372,-1.1725793603,1.0350292515,-1.2725222583,0.4128995472,-0.9456205991,1.3116862607,-4.1158311671,-3.910850658,0.8073606851,0.7609055943,-0.1034836993,-0.9768698574,0.9250825283,0.7678831013,0.1509008266,-1.8434418616,0.6235681676,0.3304230642,-2.6005839618,1.3385484727,-0.4103089525,-0.989314396,-1.0293740763,-5.3823126794,0.012506546,-0.5392416206,-4.0463772849,-0.8911985995,-1.0653561265,-0.3185523707,-0.041327483,-1.1492570351,-0.9419818451,-0.6481176457,0.2838474031,-0.0206012162,-1.5216210956,-0.1299206324,0.9896868824,-0.1742705606,-2.0776655988,1.6589787693,1.1595130198,0.6673805111,0.7679311808,1.0824292487,0.6403606049,0.2271888812,-4.0077925842,0.1821575261,1.1444645891,-1.3390530437,-0.0295514383,-4.3841421412,-4.5195430982,0.1173100919,0.7164191309,0.8145010718,-1.4052213808,-0.0721741509,-4.4467279539,-0.101342494,-4.6915167749,0.8340021751,1.3454638952,-0.7134546402,-0.9634567045,-1.6558441226,-0.6754701832,0.6858463154,-0.3278086458,-5.0144554201,-0.3712086813,-0.4111434229,0.2447384946,-0.1444594975,-1.8423659921
   -1.3554635977,0.0512811242,1.1193500786,-0.9432872567,-1.2818332692,0.1330184991,-4.9769732483,-1.5308115275,-0.4136435956,-5.2635210009,0.6572777165,-1.8056296277,-0.4453262276,-0.2756090808,-1.7637857371,1.0358548966,-0.7289881696,-1.3399271271,-1.3047595703,1.1772095085,-0.9447751047,0.7929414839,-2.3591878885,-0.4777775366,0.3724709402,0.617867488,-1.0566554039,0.7580387197,-0.2146249495,-0.7894847837,-1.6140841052,0.3181321154,-1.6313712008,-1.7347529461,-0.2170106313,-0.7564836509,-0.5376890728,0.8537191397,0.1027082687,-0.8709908417,1.1751043642,-0.3787336229,-2.2472192034,0.7649350129,0.4831415023,-0.8617044779,-4.0419179239,-0.4296603505,0.9481975492,-0.7967461997,-0.1959421717,0.5919914405,-5.4925448158,-4.4406535296,-0.092097483,-1.6993048599,-4.7662862372,2.0178708366,-0.9897118709,0.6225238349,-4.567867212,-4.9188088531,-4.160335345,-5.2766721285,-5.0025950436,-4.468178386,-4.9469510865,2.3802805138,-4.2854504375,1.6278718702,-1.7828986906,-4.0179481676,-5.0429896248,-3.8618552598,-3.8586827036,-4.8122788184,-1.6906880417,1.1359705015,-0.0097704594,1.1692209306,0.0770947332,-4.8492350722,1.8247835202,-5.0720149734,-1.3711736157,0.5578011513,-4.0062350084,-1.0408742748,-1.2274897501,0.7503187152,-1.573981018,-4.7568051514,-0.0309294146,-4.1967573072,-4.7206503648,-0.9227998643,-0.1893351732,-0.4474964729,-0.1057643064,-4.3252688121,-4.0775853989,-0.5963112773,-1.8048502619,-0.081028966,-3.8920264639,-1.2639338453,-5.2090548852,1.1863748779,-0.0214561704,0.4133351862,-0.3556117392,-5.7582127819,-1.0798292332,0.4822800381,0.2703900006,-4.4276675683,-5.7480164857,-4.3352319857,-2.7436800136,-1.370432407,-0.7216879095,-5.655347151,0.1511673325,-4.8030145899,1.2305584296,-0.516785108,-0.5613787335,0.5642574226,-0.3726204523,-2.3076029703,-1.0316413182,-0.8708801198,-1.9218692437,1.8158250045,-5.2829821905,0.308959033,-0.8972904626,1.0734975982,-2.1982768906,-4.5906147147,-0.0962260039,-4.4482125668,0.664760425,-4.7410013026,-4.0974872463,-3.8848051289,-5.0942199631,-5.397773396,-4.4090533844,-3.983706623,-0.6183532217,-5.5905236615,0.3534355228,1.4673785826,-4.0908465893,-0.2201133924,1.2697309371,-1.8114567708,-0.1715738714,0.887308893,-1.4736835391,0.8873367283,-3.9710790258,0.5165625168,0.4501831324,0.2783786611,-0.4113244824,0.3380052315,0.6189787461,-0.1706047678,-4.8206159103,-0.115781785,-4.6162355601,-0.8325230549,-0.0157975143,-5.4638626956,1.7412009233,-0.8487475888,0.8160355125,-2.2441167264,0.5254244471,0.4908684386,0.9234932805,0.5296238192,-4.0293496644,-0.4684392626,0.6031374773,-0.6457269147,-1.1423822145,-0.5013318751,-4.5808646892,-0.2756729714,-1.0830393816,-1.5273322491,0.7809933596,0.9955148517,1.3229303822,0.7203532914,-1.3618777697,0.9644818145,-4.0334992164,-2.5906752968,-0.1433631028,-0.0268158219,0.855612779,-0.3320357853,-0.5355690625,-4.05744352,0.1434438918,-0.062344313,-0.0241134677,0.3751476896,0.884281543,0.4002938184,-0.7336566447,0.9659076246,-0.4703476296,-0.5811171097,-4.2808946173,0.6676504605,-0.9016130004,0.7960617413,-0.8602053597,-0.2736314445,0.4124974936,1.2139505993,-0.440915749,1.415233127,-4.8697254121,-1.601241639,-0.0676299501,-0.7173262111,-0.3376093189,0.5083903246,0.5659176598,-0.4835772502,-0.1985708378,-0.6496962037,0.5972574445,0.8828081429,-0.6445371591,0.310574713,-1.5631007337,-0.5153351325,0.4538183085,-1.2131936461,-4.4263073049,-0.8195599619,0.2487365532,0.207798235,-1.1658143388,0.4528436315,0.5108282531,0.8682378421,-0.9062258529,0.3416172436,-2.5067570864,-0.8840617625,-2.9666570939,-0.6309201431,0.6117168018,0.7646169666,0.0025128098,-1.8925647042,-0.4148293106,-4.3027797521,-0.3873578601,0.2058208453,0.9309476582,-0.7213428659,0.7481627652,-2.1028272958,1.7271769261,-5.1464548709,-1.7125582487,0.8587544407,-0.3739183597,-0.0522477752,0.4215904023,-0.8738218597,0.35443932,0.1513506566,-5.0139595996,0.6709570891,-4.4531974119,-0.5110682248,1.2023700903,-0.9674167001,0.0049380929,0.0975587364,-0.1234308093,-2.5910925371,0.5985308603,0.2765841306,-0.7133131397,0.0642750819,-0.5872030452,1.2586612805,-0.3741104045,0.2460091053,-0.5615895775,-1.0493458013,-5.5001109921,0.1817812068,0.6064112885,0.2717694116,0.0647034378,0.877337744,0.6758120025,0.4315700096,-5.4778556671,-0.1075491273,-5.387754087,-1.027254698,-0.0284547982,-1.6635361123,0.6565950472,0.0593168723,-0.224578772,-4.3560983671,-0.5086116943,-0.0227938931,0.9276343582,0.4784678768,-0.1392870236,1.1214456299,-0.6969244819,-0.3614200534,-4.4114897983,0.9320383229,-4.3625998626,0.2647367111,-0.3955908105,-4.236792056,0.883740241,-5.6085054076,-0.1798224166,0.2598641165,1.4299983161,0.6085544266,-3.8781665031,-5.2097687628,0.4677664278,-1.0273249477,-2.081690513,-0.5189295352,1.0685265345,-4.4804094728,0.5037204422,0.2497253294,-4.3039293975,0.3704516761,1.1067121752,1.1343674641,-0.6596740865,0.3978392558,0.4583922405,0.7628488147,-4.1445158966,-0.1581973138,-1.0072545123,-0.1252816204,0.0405739062,-1.8245338321,0.2743057315,0.7324355973,-1.9549974771,0.3877556974,-1.6438593764,-0.9313700766,0.9141215561,-1.3779707412,1.0201960946,-0.2299117057,0.5292497881,-1.8334705167,0.607050037,0.1375691021,0.771908864,0.5156040205,0.362568225,0.1423260937,-1.1686567061,0.1907084761,-0.6589321276,-0.1955198662,-5.4268216181,0.1435128864,-0.4971389913,-1.0730942553,-0.3617453544,-0.483019284,-0.7634568374,0.7664047118,-1.6430518471,1.0416886005,-4.6398318175,-0.7309926316,0.0576460555,-1.8830357756,-0.2382323842,0.8232532405,0.5253184723,-2.35047575,-0.0698879941,0.0246596525,0.6397530207,0.7738525985,-0.7894655011,0.4094133965,-0.2323607187,-4.8889825815,0.8433734486,-0.48322913,-0.9973742817,0.6823571248,-1.2875534595,-4.0979055942,-4.4835606051,-1.6053431724,1.1603143434,-1.4900114196,-0.033870909,1.0828955844,-4.7579547452,1.2956978293,-4.1960406035,-1.9319067449,0.7262020188,-0.161124779,-5.7970080049,-2.432268694,-0.4018527052,-0.9151774784,-4.3693874341,-0.1671359642,-5.4128184495,0.245870898,-2.2005263518,1.8509788088,0.2711489325,-4.1741130153,0.4559732941,-0.2422089507,0.0453293886,0.8692772103,-0.7960279096,-0.3607500196,0.9988569637,0.5359643012,0.7628559013,0.4274035219,-4.8478148634,-1.8553188803,-0.1601086898,-1.5434778493,-1.2196873065,-0.0487135873,-0.5333134751,-2.0296487731,-0.0454106502,0.2447104078,-1.0327746804,0.9029883561,-0.0950513379,-0.4210547649,0.8494366609,-5.4606737582,1.4993178035,-2.3971020682,-2.2516063047,0.270192021,0.6437621023,-2.6076303961,-1.5368794337,-0.9051268009,0.3778468363,-0.8015827541,0.8973326623,-0.3412474944,-0.9768899511,1.1441392252,0.0541394593,-4.6842719107,-1.2445218303,-4.9291434894,-5.055869186,-1.489933705,-1.3592867816,-0.0793131367,0.504645967,-4.387585798,-0.3934707858,-4.7831853978,-0.7122248191,0.7692509793,-0.0473352681,0.7261419708,-4.1194289051,0.753121014,0.8671871632,0.619599647,-1.6606902546,-1.3575060007,0.2701994431,1.7704462911,-5.6588699621,2.1914420288,-5.194195133,-1.8605625433,0.0535164864,-0.7428768265,-1.2015201807,-0.7803253626,-1.685513091,-2.4560587117,-0.2037823615,0.3108817387,0.0752884826,-0.1521491602,-0.8118599983,-0.4684628325,-1.0831159288,0.6930443041,-1.2966280118,-0.1360955081,-4.3512511894,-0.5073437556,0.0821173375,-4.0910079377,0.9113191754,-4.5882040649,-5.4960891874,-4.6879446562,-0.5612868755,-4.8079976221,0.1209571988,1.7793154088,-4.0279548102,-5.7584037477,-3.9787559275,-5.7499144686,-1.2616505134,-4.0490072914,-5.3039620761,0.7299091515,-4.8352611951,-3.9812685722,-5.476546579,-4.6241960021,-4.8020212406,0.6165064135,-0.0108193894,-1.9016528052,-1.8648620649,-0.4799949558,0.2528912106,-4.0027663319,0.3078669414,-5.1521754299,-5.3016963531,-1.2472904762,1.1258931681,-5.6256153052,1.6983890457,-1.2114833787,-5.6133895894,-2.1928853051,-0.6309336341,-4.516485344,-4.3021935052,-1.9331526839,-5.4785018787,-0.0089912762,-2.1283941192,-5.4374344356,-4.371149157,-5.1459824382,-1.6187013449,0.7214414142,-5.8345242952,0.0367201468,-5.2469649449,0.045586013,0.7542221155,0.5312496434,-1.9188642774,0.1875994488,-0.301662364,0.6611894712,0.7850679202,-0.501371345,-4.3750178459,-1.3459632807,-0.8765369593,0.6547619679,-0.4212154071,0.6940367377,1.4778395795,-0.8804143078,-0.8689227519,-4.3066803965,0.2927606159,0.2325443265,-0.7246057427,0.2980778924,-5.6979294187,-0.6344450975,1.4573835448,-4.3539913054,-4.1356828352,-0.307779793,0.9871973776,0.3170988009,-0.179276703,-2.1003432821,0.7513569292,-0.5748433147,0.2802692807,-0.1360761036,-1.2221310936,-4.879142588,-0.5240693105,0.1135197158,-1.0429926199,-1.1143914841,-0.1787322498,-4.7403121712,-0.9837955641,0.4905247907,-0.5287998495,0.0188425347,-1.1728476927,0.2116296011,-5.2434352071,0.5794096615,0.2194472338,1.7738496437,-1.1622514279,-0.6788464938,-0.3676031399,-4.8314361758,0.10960319,-1.466367117,-5.0643107906,-2.059113485,-0.3981878,-5.543819667,0.9927112883,0.9345722801,-4.5253536437,-4.4976466142,0.0324278649,-5.1901009817,-4.8866020759,-4.9158704695,-3.9825429673,1.5265803242,-0.3154094689,-3.8919903895,-4.968615066,-5.7601512661,-2.3312878859,-0.0269408018,-5.0685886495,1.0306689979,-5.4554106133,0.5289271119,0.7271492304,0.8257485359,-0.2958491118,0.8813970245,0.0025195844,-5.3677578005,-0.7880913968,1.4333829816,-5.6249683744,-2.0716548777,-0.0770921978,-0.5205854096,0.1018852004,0.238354376,-0.1702918523,-1.7130456973,0.2225416777,-0.0915936086,0.0777602542,0.1923015474,0.6749815694,-0.1212601757,-5.1591034527,0.4396553771,0.1815467914,-2.1076453157,0.2071836913,0.2229799703,0.1738556403,-5.4710708237,-1.0252000858,-1.8796723507,-4.0645437751,-4.5659776773,-0.4612322875,-5.636108845,1.6246087339,0.1124706723,-4.6777607065,-4.1770202132,0.3110296758,-4.6925994593,-4.6385581461,-5.0113408628,-5.805809075,0.139289684,-1.4957006494,-4.8074633383,-4.0234766298,-5.4769892641,-2.1954789714,0.0233413002,-3.9309094869,0.862768576,-4.3476366891,0.8013736092,0.8588789513,-2.0348633175,-1.016393321,-2.2136636775,0.9933280703,-4.8094150794,0.1124754837,-1.3535303521,0.9274035927,-0.0663935562,-2.9268146681,-3.8663039506,0.0003187182,-1.1361482744,-0.9917773135,-5.0572176522,-4.6452555016,-0.0628574583,-0.9887840588,-4.27040422,-5.1315763618,1.1453849291,-1.3396073408,0.459061519,-5.1544686986,0.8701672953,-4.1355867839,0.515274893,0.6204041776,-4.6233353669,-0.7625325345,-1.806720801,-5.0836877993,-5.3550343951,0.8499869933,-5.6178807503,1.2174530949,-0.248556012,-4.1734325329,-5.0124366698,-2.4531453972,-5.3946860555,-5.0150063985,-4.317911843,-4.2164808039,0.3286550379,0.2757683716,-5.0869426974,-3.9451009094,-5.0556564693,-2.2481392612,-0.2759003635,-5.8211763643,0.5420025031,-5.0246481947,0.0545416226,-0.2454582005,-0.2353792686,1.0275012264,-1.4193846675,0.3044177447,0.2755584027,-0.5532479294,-0.6397955446,-1.1215019909,1.164677804,-1.2096556127,-0.7174685597,0.47587133,-1.2638517844,-0.3779666866,-2.4699023309,-0.8207525357,-1.7967528693,1.3408411952,0.8026781806,1.4924177306,0.2467441359,-0.2238688453,-0.7305292849,1.8651747419,-0.6421518524,-4.0071770968,0.7421879716,-1.233112811,-3.2254625579,0.3627671377,2.1836340296,-2.0726786398,-0.7555586762,1.2626140598,0.4280282582,-5.1643842065,-0.0077484026,-2.1317283778,-1.4421555713,0.012502586,-5.4242425642,-2.3223037301,-0.9598589792,1.6066598297,-0.3058445266,-2.5331064431,-5.5367290896,-4.9355064228,-0.2664202663,-1.3912527931,-1.4082287631,-3.9066530265,-1.4921757623,1.2900154858,0.3498133952,0.8236904798,-0.0010365822,0.6221963086,-5.3320912635,0.0689479054,1.3761150322,0.0432302855,-3.5141318449,-5.1255901738,-4.3125057416,-0.8222020419,-0.0821970999,0.1527308852,-0.0423580478,0.015658975,-4.5207013376,1.8459893738,0.9858231823,-4.3322539366,0.9727458599,1.5118651737,-0.1609041705,-5.6568781574,-0.0459838143,-5.687704064,0.804485849,-4.0090398297,-0.9351596773,0.2846669812,0.467004271,-0.1140298695,0.8129183919,1.1480853849,0.9178828263,-5.58069365,0.1163600729,-5.7613374713,-0.8853984881,0.7928088448,0.5641435703,0.8639393445,0.4402854557,-0.4514474228,-4.006625189,0.2761106657,0.4794062094,-0.3970689822,0.8071301036,-1.7631053182,-0.0535967942,0.8228471347,0.1884913518,-2.0591272431,-0.5122392782,-4.6049073099,-0.3094756058,0.7720103871,-5.2506079219,0.9221309607,-1.7559882426,0.0686800764,-1.3499830938,1.7846560816,0.656560917,-2.2673402492,1.0041563763,-4.40508662,-1.0212018461,-0.3812247899,-0.5371367487,-0.4713048919,-5.10012553,-1.4622463921,-0.9004088339,0.0668886962,-0.6402615959,0.9164284869,1.214311971,-2.3342959981,-0.9329746605,-0.2926053549,-1.3073024066,0.681669205,-0.1423331969,0.7282287256,0.7538181792,-0.4338449971,-1.3575892316,-0.9282072477,-1.3025352385,0.5633596401,-0.0036711924,-4.8148805691,-3.9492425117,0.1353038819,-1.1494710904,0.4166283065,-1.1952712947,0.2558883283,-0.655698263,0.2572338933,0.9054507186,0.0324416294,-1.1796813859,-0.9520832344,-0.0264849065,-0.6070192363,-2.5326655563,1.1384205574,-0.486943536,-0.8991883116,0.5523806785,0.4657742387,-0.0723972032,-0.908759798,1.3887245365,0.739914246,-0.8877519327,-1.5657185822,0.3594710617,-2.4898338352,0.0311815547,-0.854237282,-1.3970312511,0.634132641,-0.6623372889,-0.3342243092,-1.5350942077,-0.1096714973,-0.8596233603,0.5541667571,0.6121610985,0.4389295701,0.83104436,1.3532606817,0.361009965,0.2345302149,-1.1026103007,-1.5741641521,0.3348407504,0.2133650188,1.0966929367,-4.8061079266,-0.1414706155,1.0085139002,-1.4901334544,0.5319686378,-0.9188518447,-4.9214723917,-0.6011039018,-1.8810331274,-4.664133882,-0.5058288496,-1.2658352327,-5.3458163607,-4.2514428602,-1.5456071512,1.3310359028,0.585540178,-4.5968113342,-1.9617851648,0.4287472792,-0.3181876647,-0.5480656936,1.5529196837,-3.9688875346,-4.5997554306,1.2177546939,0.3592479613,-3.9504461826,-4.205072175,-1.9608839784,-4.904507907,-5.3702662281,0.3384983339,-5.6031307014,1.4698008528,-2.4729235147,-5.0999418217,-5.3211031524,-4.9760515455,-4.651754077,-5.0098571078,-4.3494044383,-5.112825437,-0.9989387888,-2.0024531509,-3.9024523501,-4.3799075031,-4.4749882494,-5.1584448089,0.6065904295,-4.4865703346,0.5518874384,-5.7812880191,0.9214130438,-2.2377221063,0.7180048956,0.3409582983,-0.5597619137,0.3378782179,-0.3001590297,-2.5150828546,-1.3772895714,-1.783695864,-4.0784387481,0.2535743451,-0.5803771718,0.9406905389,0.5273028129,1.1928918935,-1.2008623776,-0.0379265547,0.7268572257,0.4110524486,0.1674258694,-0.2025077885,-0.5519968999,-2.5124561958,-0.2796308353,-0.8372977472,0.088900192,-4.841740732,0.8660077179,-0.1188493974,0.3639383638,0.041950478,0.3606014493,-0.2148145237,0.7722999985,-4.4013945926,0.8940691878,-5.4228003718,-1.9766944774,-1.9563669901,-1.5321745262,-0.0481939275,-0.3989404133,-0.3061034643,-2.170134722,-0.5413994773,-2.5889991618,0.6602809287,-0.1710708054,0.1008594173,1.2125206021,0.3699879319,1.0861887592,0.5007012861,-1.0900792971,-1.330872805,0.1937990004,-0.2601460825,0.3141880382,-1.7747826649,-2.3058609548,-0.226532741,-1.7649238304,-1.1583402342,0.4591680075,-5.0963764305,-1.7272417293,0.1973553633,-2.2132847452,-1.6219402158,0.0805897463,0.582919043,1.9191782549,-0.5106778659,-1.1347507253,-0.3733212995,1.0592506037,-0.7718010257,-0.9719579292,-0.0977757571,0.9206124774,-1.4973776488,0.1059283903,-1.8592123208,1.5759860235,-1.9921189442,-1.2111441309,-1.0099753652,-2.0716008354,-2.3950824907,-2.5364257444,0.3395694315,-0.8422740599,-5.1530418921,1.8476017146,-4.9794528054,-2.1105812345,0.6788859962,-5.1390256568,-5.4220617107,-1.8675691928,-1.1482985113,-1.3218631965,-2.454096971,0.2849830628,-5.3179696495,-5.370044324,-5.4960604279,2.3387470232,-1.9341703939,-0.2038942662,-2.5478318743,-0.4225109774,-0.4243245893,0.5438857652,-2.5448696704,-2.001457067,0.1496987761,-0.5493791762,-0.185248015,0.6576181909,-5.4066914712,-2.5635690741,-0.8438189418,-1.3211018254,-1.0460600596,0.0638299428,-0.6296363282,-1.90526412,-0.1638670683,0.4467956215,0.903069386,-0.7040913641,-1.6635163874,0.0253927637,-0.2339928278,-4.5841859785,0.6481625697,-0.4645779044,-2.1865752329,2.2420185405,0.8997297855,0.3988367524,-0.7707247426,-0.5430013879,0.3440598442,-0.8944481602,1.0141943172,-1.3620855883,-0.1570567335,-2.3043623545,-4.811491819,-0.2368345558,0.0611420631,-1.184924471,0.3332396438,-1.6963529804,0.4993497276,0.0241554095,0.9560906824,1.9297249295,0.0039892351,-0.2907382666,0.4500270048,-1.002226447,-0.5052693329,0.347394577,-2.3985723734,-0.5632670176,-2.1460612813,0.8714031665,1.9217826045,-0.5394104875,0.575523934,-4.4002646953,-0.6497331941,-2.3538450995,-5.5304270389,-0.1624715711,0.6169653525,-1.0767538225,0.8508115027,-0.0958709426,0.8236882169,-0.5313116635,0.2489038564,0.2178714808,0.7352980549,0.6033531735,-1.4968316393,0.3975308174,-0.8039750935,-0.1172544661,-1.9092090601,-3.9385677097,-4.3586015699,-0.3171952162,0.1142625687,0.1403432045,-0.2255470614,-0.4038649147,-1.0275102394,-0.502924973,-4.7474625589,-2.868197883,-4.0296243444,0.3038909778,0.172908902,-1.4482123751,1.2550989557,0.5253847701,0.6780667735,-1.6990645076,-1.9986159188,0.4907535912,0.0636841219,0.7599325636,1.01917727,0.4780761349,-0.6737081943,0.5744317154,-4.799341906,0.7374704338,-4.0028691059,-0.233936466,1.1130460661,0.7969508473,-0.5482240877,0.4477857577,0.5437124339,0.5257307264,-1.8420716789,0.406265566,-4.7752856599,-1.7020279051,-4.8180319801,-1.1251932953,1.0178171055,0.1424492715,-1.5968616815,-4.4530125453,-0.6493286914,-0.1498653001,-0.8263066514,0.180712615,1.5817699679,0.056976741,-0.2687925149,-0.2917781175,-3.9372189142,0.5477939511,-5.5442198592,0.3832777345,-0.3905290114,-1.012560446,0.3179194546,-0.8697707785,-0.9927595399,1.1197328944,-0.4100235214,-0.6680442278,-4.0454262963,-4.1211456368,1.6571262994,-2.38141205,-0.2592724178,-0.3517210712,-0.4980872158,-1.7522580141,-0.0530885228,-0.6183021353,0.7700836547,0.8976142186,-1.2636539169,-2.2865926697,-1.9076710901,-2.5611533715,-0.733182475,-0.6788650143,-1.8686121821,1.4351353693,0.7032046449,1.2774901596,-1.3600817743,0.5992895022,-0.4057114405,-5.0910416814,-5.6425022558,0.0720222975,-4.4145923371,0.7749690238,-0.0592707863,-0.146840654,0.3429083489,-0.6218381123,0.3333716463,-0.9920737976,-1.0200572273,0.3912559123,-0.012503264,1.1442953186,0.4089217856,-0.2765641306,-0.9531416565,1.343724188,-0.9580979152,-1.6776980276,-0.8437682963,0.0319990775,-0.0377768045,-0.2174408478,-0.9788215058,-0.4874339477,0.4456910536,-0.5888070012,-1.4129048422,0.2493216454,-5.8479533051,-2.3660783919,-1.037463787,-1.4715174007,0.6434379227,-0.0867903277,-1.5974155807,-2.2871653603,-1.0467970081,-0.8459300251,0.233144958,1.4266439616,-0.0039556342,-0.1073760237,1.2022479675,0.343195109,1.6588957689,0.8541864473,-1.7266732642,0.6590183063,-0.01333009,-4.4259848013,-0.6802342331,-4.4570450178,-5.3614847433,-4.0399675264,0.5697257463,-5.2865691329,1.7423610824,-4.0263851776,-5.2557610004,-5.833785424,-0.3720610743,-4.9289392432,-3.913955046,-2.2393335626,-4.9625068452,0.2381395601,-2.3295363592,-4.3611423889,-4.9138357771,-4.0221871377,-1.6599029843,0.2883957304,-4.7160703066,0.056842479,-4.3854306333,0.4424260305,1.0801648157,-4.310220589,1.7698234682,-5.0557402194,-1.9633037604,-5.5573439717,-5.1228423247,-4.3852009787,-1.2109097619,0.4011692243,-5.6384769703,-4.5948784459,-0.3137239326,-5.5280979216,-4.2564130983,0.149860623,-4.6754461608,0.0514725333,-4.9602523063,-4.5272486662,-5.0044569674,-3.9190244301,-5.5127678669,0.2376487698,-4.482148253,-0.7015620488,-4.4684081113,1.3274698402,0.4472010704,-0.2176135984,0.56077201,-0.1790581012,-1.0576162373,0.8018700435,-1.4976461214,-0.5959324968,-4.4600311378,-5.5168729653,-0.6682491186,-0.6883682201,0.2868927302,0.8305714857,-1.1138600733,-5.0604431728,1.4243171891,-1.0768899229,0.8417328434,-0.5302819788,2.3972100071,-1.06792282,-1.7446499077,-0.6833766056,-1.2328669017,-2.203326769,-5.0131834901,1.2984224588,0.5735631388,0.0830707603,-0.7369620405,0.0280148685,0.8360295533,1.3157240904,-0.9595902717,-0.0340371952,-0.8442986703,-1.9926297387,-1.1277800787,-0.8905961417,-0.3382859486,1.0491741462,-0.6370687554,-1.8187109011,-0.4799843969,-1.1626502719,-0.3775012044,0.6461249553,0.8843324854,-0.2614426983,1.1186238574,-2.415239299,0.5544276652,-1.8897916074,-2.2454910957,0.9994880591,-0.9399520244,-0.9358845695,0.0039373176,0.2981447949,0.0884432129,-1.36437755,-0.2422220548,-4.0158946559,-1.1954180175,0.5884745634,-5.4335590347,-1.8555441745,1.0274682174,0.0836374753,-1.7069253869,-0.0983883759,-3.884953475,0.4766655562,-4.9911379234,-4.2346971793,1.206687138,-0.4161706943,0.1235029843,-0.482907008,-0.0684704063,-0.8259104484,0.9040015469,1.6605861267,0.2295292864,0.033652267,-0.6680301912,-1.0460221794,0.8699669936,0.2454827931,-1.3128843378,0.7848820646,-5.767036045,-5.302168539,1.0337684248,0.499533733,-1.0498221268,0.0223532132,1.4192020144,-0.6638386868,1.0543661452,-0.635941183,0.8241821712,-0.3588508801,-0.5304548907,-0.5576394294,-4.9697846436,-1.3080458169,0.0241466773,-0.4960382657,-1.9610132207,-0.1439347994,0.6626389048,-0.8274331693,0.8019390577,0.133082084,1.3787938673,1.3413098097,-1.2888061224,0.0255667418,-2.2323192228,-1.1084139123,-0.5221121493,1.0222378214,-1.2520645933,0.1235121543,-0.7591441825,-1.6282945466,1.7631007048,-0.6277612486,-0.5923899019,0.0976095162,1.0419568571,0.4502137888,-1.4091239391,-0.146274183,0.9929922534,-0.5172012758,-2.1736905217,0.1583866144,-3.9226887936,0.5485064531,-0.2833889439,-4.7355668937,-0.3077171012,-0.663334385,1.0649368804,-0.3649537773,-4.7562799857,-4.9478643514,-2.0497797204,-1.9146360608,0.6460734035,0.3830549455,-0.0272188539,-1.9751668897,0.668373899,0.4326127512,1.0895853758,0.0715465297,-4.7908995219,0.7745115689,-5.4581612142,-1.2154530467,1.3746071771,-5.3619236697,-4.0214336729,0.3707606401,1.024542707,-4.9087301677,1.0399845378,0.9117394505,-0.6959547674,-2.5775902376,-4.0590552271,0.1611082345,-0.9070028027,0.4429829828,-4.911273251,-5.4720127369,1.1247715426,-1.7605650672,-4.2322614521,0.7703015897,-0.8269937314,-1.2385792817,-2.2064594775,-1.3121285609,-1.6830154728,0.1568435411,1.2197685536,-0.2968911009,-0.1935194913,-0.799669706,-4.5651054734,1.0778268799,-1.2741989424,0.5701861854,0.0116668327,-4.1721453633,0.0475738772,-0.3611445119,-0.2421531662,0.9699593959,-4.6456905336,0.8072705105,-5.4393482678,-0.162646302,-0.986609407,-3.8714948077,-1.1593081816,-3.9872323805,-4.0168727139,-4.1061794723,-0.0549867794,-4.5073036671,-4.0469522495,-5.008485079,-5.072042048,-4.3864069246,-4.1771883578,0.5392124279,1.5554780554,-0.4050953812,-1.1373359364,0.5574095999,-0.308255774,-5.0657187274,-0.7508339294,-0.6016396645,2.1617816496,-2.0644659277,-5.3527508227,-0.812205626,-0.0146674774,-0.6855957632,-0.6848637154,-5.8427959531,-0.4624671672,-2.192788672,-0.0000456659,0.3791004543,-4.6423411124,-0.5838178773,-1.3072549125,-5.6174612542,-2.433693379,0.2151049946,-0.8536770347,0.6425104306,-1.677129435,0.1201549559,0.0109449686,0.3562565654,0.0501153691,-5.6098205595,-0.7758068352,0.1271908953,1.3134188471,-0.5639511654,-5.6986189671,-3.9782695626,-4.3835345692,-2.4104270422,-0.8007160851,-5.6259152814,0.8068682044,-4.2714479233,1.0188167693,0.8806730725,-4.633356213,0.9138523332,-2.0341813059,-0.7730733991,-2.0973787643,1.8053097891,-0.7709667,-0.1494504495,-4.2902419451,-0.2869561332,0.4015203931,0.862806724,0.8532562729,1.4784852574,-0.4844885025,1.8619426535,0.0944293567,0.431931996,-2.1724657994,-0.6749463704,-0.7319353186,-2.1724275064,-0.1995333075,0.7229226659,-0.3544484912,-1.8390284073,0.4068560962,-0.8298116244,-0.0128670993,-2.9559730373,-4.654079036,-0.2144141443,-0.5052581132,-4.6750623805,1.8698477151,-0.0254205252,-2.2677212145,-0.3087161811,-0.1507779572,-0.2409478659,-4.3255905899,1.2118782549,0.7497224016,0.890910257,0.6152812464,-1.21956337,-5.8301147163,-4.0424940667,-5.7003829024,-1.7541272531,-0.2613631658,-4.1763975508,-5.2725198874,-1.1147674019,-5.1050141139,1.0076713304,1.5442970639,-2.8483398808,-2.5185124316,-0.0690118305,1.4199877181,-1.1269456766,-1.6685041187,0.3634685364,-4.6326982214,1.1197027956,-0.0429665016,-0.6148864824,0.0042516161,-0.4912276386,0.5589150396,0.0050428607,-5.4317454879,-0.8092439983,-4.443820844,-4.8505776502,0.5720221213,-1.4319142994,0.4434531412,1.2704060088,0.7183083342,-2.2871112926,-0.4137245204,0.828596597,-0.1587943104,0.8032028774,0.1878356636,-0.4620667225,-0.5548602836,-0.5812359037,0.6284838631,-0.4511839697,-3.9194889457,0.7722569991,1.5227746708,-1.8039145837,-0.705746008,-0.9497372779,-0.1084197578,-5.3962501757,1.7925334919,-5.0632867036,1.2463958164,-2.076789854,-4.8158562464,-2.3878214389,0.0963594771,-5.5752600156,-5.580793919,-2.2109262892,-0.0764575611,-1.3348349015,-1.5341719621,-4.0915478124,-0.2636433147,-4.2676206062,1.3174569539,0.011897888,-4.167016135,-5.5255523896,-2.1275229027,-0.275079743,0.5454737561,-0.0528023471,-2.528280503,-0.7392126052,-4.0743521547,-1.8954847981,0.9675623584,0.1957183923,1.4523222706,-0.1298133248,-5.3223520277,-5.6197633289,0.2823733747,0.2538094107,-5.188963112,-4.3110861627,-4.1230199238,-0.4489333633,-0.445351591,-0.4546812187,-4.3724629241,-0.5543327855,-0.5550120938,-0.6328616658,-5.3028557333,0.4354583703,-5.78890236,0.2962981363,0.9630163511,-0.9660848017,-1.9569876199,-5.3668583441,-5.1520294584,-0.9013619855,0.8519187707,-5.3936147122,0.7282073524,0.2210170058,-5.3516438842,-1.4247318114,-0.285734701,-5.0310662045,-5.6056081184,-0.6928130876,-5.6316586215,0.8724403308,0.3438541083,-5.095519033,-4.9707084168,-5.0260815971,-1.1150375177,1.1165166361,-4.131806067,0.090205087,-4.3623560958,0.0989076639,-1.3497276458,0.8183121753,0.5709978922,-1.2642450945,-1.9730891385,-2.5228661423,-2.1638063047,-2.454330973,-4.1911654934,-4.3298293093,-4.4274998749,1.2520591782,-0.100653907,0.2813343368,-0.2570692548,-5.201250043,-0.1528355774,-0.017518492,-4.0527292782,0.8976542582,1.0160496363,0.9866945525,-0.7870285038,0.5895449341,-1.1256463298,1.7638365693,-5.6853273838,0.6754995152,0.9887767144,-0.5649044001,0.4199364869,-4.3219976014,-1.0543511998,-1.3056520951,1.7780444672,-4.5875689135,-5.5237811522,-2.14301872,-4.7636790248,-1.7828277628,-2.474145633,-1.7970645439,-2.3269354092,-5.3335478114,-0.9344627827,-0.1965278471,-1.2608054991,0.9405884967,0.2683833558,-4.9199536048,-4.1383731532,0.9033948271,-4.793270016,0.0893037631,-1.6017356439,0.2810246639,-0.5612931682,0.2938321779,-0.2908690636,0.4880211235,-2.0541045335,-0.1193722385,-1.4900933791,-0.8607194768,-4.4047110449,-1.9587634833,1.0733690556,-1.0049859299,1.6524792471,0.2584189553,0.2563850734,-0.8819637456,0.5563079904,0.5874433973,0.3109854577,0.2317716826,0.9877053872,0.9737008686,-1.0131888491,0.2162772638,-0.3079975937,0.1707057986,-1.2810113035,-0.2062340976,1.3223194985,-5.7346447576,1.0767635867,-4.6705687677,-0.7649983273,-4.3118249399,-5.6254004879,-4.5864480938,-0.706002212,0.5908409218,-5.6317565483,-5.0859185874,0.7248904757,-5.4954924433,-5.1914076177,0.3284504704,-4.8752836697,-0.3784857361,-4.7873007574,-5.0209708887,-5.6281659657,-5.1511940377,-3.9384720384,0.0961119817,-5.1287414303,-0.2442151253,-4.2719370873,0.9002153858,0.5469422167,-0.3062597321,1.9097296545,-0.9657484562,0.2998075774,-4.2061469833,-4.4241512948,-0.2640887936,-1.7779745178,0.4046252222,-1.3743397175,0.0776260423,0.5676564474,-0.1458958467,-4.6839255151,1.0542479457,-4.4660352403,-4.250883301,0.0145427445,-5.3885308684,-1.6253871192,-0.4009870243,-1.9545394163,0.7404004059,-0.0694528608,-2.0114244836,-4.3162892451,0.2849740862,0.4857525269,-0.2592013893,-1.1123252365,-5.6389461342,-0.1836600619,0.4369004932,-1.1554450116,0.8276806879,-4.3950984626,-0.0289363267,-4.9345554297,1.0223983421,0.0511583146,-5.2436063717,-5.1929999474,-3.9662705175,-4.1963330542,-4.502585173,-0.478743503,-5.3148352616,-0.7554396155,-4.3026657313,-4.0980437219,-4.0244529127,-5.3527825072,0.4695762096,1.5132742567,0.6738709792,-0.7782560888,-0.8865263379,0.0224151745,-0.745191505,-0.6393789213,0.6091191485,0.4775991525,-2.3121990498
   -5.0665752809,-4.0163830512,0.9871407836,-2.1063776959,-0.4330743425,-1.540977525,1.1773923716,-0.8251059356,-0.1190685832,-0.2824598809,0.4211127977,-0.0615232054,0.9355297607,0.0019853559,0.7321399842,-1.109971733,0.9768290747,1.1800175414,-1.8936214134,0.9293622356,-4.1875543576,0.4392060421,0.1061429362,-0.9724132413,-0.9246316111,-1.5530449565,0.3730912193,-0.7803368112,-4.3036213244,-4.7197201724,0.2124201988,-2.3713377349,1.2542235251,-0.6837598646,0.0654763638,-1.9040643209,0.9960756649,0.9732358595,0.2189142787,0.1550871937,-0.2801220004,1.0889954157,-4.1575123444,-0.9558052525,-0.3747626785,-5.7205928475,-4.8758719902,0.7128338764,0.2511389405,0.1595867218,-0.0798935708,0.0694655541,0.8285294881,1.0983415688,-1.1868408413,0.347196735,-4.5719690764,-5.1403239073,-0.7485294202,-2.3745615926,1.2907855896,-1.3848218558,-0.6414561805,-2.0253409943,-0.3318727611,-1.359806262,0.4000581007,0.2355051772,0.4340398252,0.4725020015,0.7444742465,-0.387523564,1.1877832896,-0.1473948006,-4.8511518362,0.1380060841,-0.4325826112,-0.070620255,0.4495656046,-0.5034627016,-0.2856627549,-0.5402501401,-4.8813609841,-0.1649548294,-5.3506101135,-4.7585000461,-0.6231861113,-0.9088965422,0.8138259358,-0.6333638013,0.7240115379,-4.2609088271,-2.2250659945,0.7781064969,-0.8032125169,0.8616606346,0.9815733541,0.7577378666,-0.4869697343,0.5230731998,0.1484311489,0.4239061956,-3.9139513959,0.4513236103,-1.6852409006,-0.6276225674,0.2962434922,-3.906035158,-0.660983552,-0.1305215694,-2.1723091163,-4.2397046837,-4.3695561982,-4.4990168211,-5.8380020296,-5.4908929213,-4.2796893809,-4.1508136277,-5.4775735235,-5.4216012482,-4.1320506082,1.2396600278,-4.1649573923,1.773281234,-0.2268275944,-4.927717337,-4.7508080053,0.8795941349,-4.6570125327,0.3589468022,-5.013726738,-0.2041222006,0.1937564441,-5.5472558305,0.9401861686,0.851442015,0.7955147245,-0.5922197651,0.5499537883,0.334550885,-1.81637042,-3.8611631158,0.4526815844,-0.8612764672,-0.6926893312,-2.0886962301,-1.1248737016,-2.22889807,-0.6634789403,1.6894223545,-0.4984245396,-1.7348353423,-1.0479637508,1.0351828666,-0.8487766458,-1.8208699084,1.7875302873,-5.4622363054,1.9317890518,0.3787152965,0.4596629649,-0.0406878825,-0.6374542398,0.9201956333,-0.6700630964,0.1874364481,-1.1499947807,0.3023496468,-5.7760712756,-3.969444707,0.5372420579,-1.0229060313,-1.2363097149,-2.7577251212,0.7524910272,-1.7179962679,0.6951356856,-1.2767261868,-1.086478811,0.6220264685,1.1956857162,1.3654990011,-1.9688895326,1.164484271,0.1062258053,-1.6757494097,-2.1095933376,-0.082978004,-0.6929607944,-4.350292205,-1.2831535685,-1.2806067658,-4.557009074,-1.4908621208,-0.1746845874,-5.6436251888,0.7276039561,0.0296160544,-4.9557799702,-5.4298296501,-5.0690115025,-5.4799355092,-4.2168118705,-4.0850131988,-4.3697545245,0.6486650796,-0.4659681839,-4.2593579215,-4.328371656,-4.2287043861,-4.6351551398,0.4531538231,-3.956486905,1.1454875025,-4.1948973553,1.0059758709,-0.240549626,-0.7407225547,-0.5130566241,-0.2572452693,-0.5203732538,-1.1016925663,-0.6246469857,-0.0099277911,-4.6477282462,-2.2518045341,-1.1731743737,-1.7184925424,0.332283331,1.5447176359,-1.9341928366,-5.6970495393,-0.8615248585,0.0160907318,1.2283941515,0.4030018438,0.9915804777,0.5608391457,0.2609438867,-0.0075060522,0.0965846755,0.8137163078,-2.3619066832,0.6667900103,0.3736333095,0.3575853824,-0.5839876148,-0.7186922628,-0.1110891043,-0.2462402393,-0.7100630986,0.1729511561,-4.1986204655,-1.0977994017,-1.6137796777,0.2124316133,0.8515580582,0.3949810219,-3.8668756483,-5.4860927077,-0.3679009103,-0.8124342548,0.5665309646,0.6410538784,-0.7886282867,0.2820752926,1.1489466807,-0.4206816128,1.3393080129,-0.8022114664,-4.6366141263,0.36493251,-0.3499465687,1.3601713603,-0.0352772612,-0.4132605931,0.7957868211,0.4307395242,-1.0756428316,-0.0331294333,-1.6509684376,-1.6493421254,0.3254268019,0.5098676507,-1.5070480413,0.4253640646,-0.5223865183,-1.5918473973,0.375977558,-1.2359312928,-0.0220084457,-1.2120390459,1.192765689,0.3026457324,0.5821141305,-4.391951496,-0.4298777428,-0.260372448,-2.4949631787,0.5889424886,-0.0439244061,-4.6772994237,1.7356814544,-4.6860066231,2.9027131351,-0.0650891656,-4.8729972309,-2.015212772,-5.280936278,0.4259633678,-0.8523375112,0.306667749,-1.946302228,-0.0054691559,-4.3878855222,-2.4693980044,-1.3813139201,-2.2552952704,0.3151638766,-5.0503808436,0.2506999326,-0.6352617063,-2.0151357187,-4.4701952975,1.2065558237,2.136217956,-1.9489542329,0.3707143682,0.2779462766,0.3081694828,-0.1652945736,0.3828982399,1.2896468951,-0.0134607962,-0.893289818,-0.2111397375,-4.0060596215,-1.6999418853,0.7172400164,-1.4734462904,0.9925163719,0.3102857752,0.8170737063,-1.34576286,-0.3584215698,0.0353996505,0.8791627525,0.9000820378,-1.3840755979,-0.1865320404,-1.044029002,-1.3879627338,-1.4712811137,-0.8733028261,-5.4139213229,-0.007927461,-0.2803085624,0.2199753035,-0.3152414238,1.1685066786,0.1406817216,-0.3208164121,-0.3694695823,0.711296749,-1.8537384251,-0.5898423751,-1.3438737492,-2.0200776228,0.4446625282,0.877614376,-1.6962341834,-2.4647030038,-0.0421506319,-0.4357904095,1.0428489054,0.4600513906,0.7772866448,0.3017802162,1.0239388528,0.6522072642,1.2029990548,-0.1731949963,-1.2869587251,-0.4037202662,-3.8542118947,0.1033213538,-1.9165820736,-5.0857330396,-0.0192594449,0.0462608874,-2.183407407,1.0519587637,-4.38643568,-0.4152649971,-4.9133960008,0.4861446767,-0.7559184725,-4.8549756197,-5.0044733633,-4.4470141275,-5.5574847126,-4.4924258061,-0.3858981449,-5.7728478807,-0.6087939348,-4.0535682951,-5.4075421147,-4.671715585,-4.1080983191,0.5774605553,1.3107599487,0.8278768279,-0.408467805,0.9340528712,0.634228959,0.1408922176,0.2913361752,-0.8388145318,-1.4959607018,0.1717119625,-5.0395474852,-2.2259648324,-1.8118007924,0.4738072141,-0.0033054659,-0.0739343788,0.5478323491,-5.7838048169,-0.7806388909,0.0631790251,-0.7061661202,0.387386705,-0.4588270483,1.3387842758,0.1080155776,0.3386199055,0.8281150237,0.9697992376,-4.8438835088,-0.1076931038,0.1052658752,-0.2003706443,0.2066492595,-1.9440652892,-1.1812871608,1.3699274542,-0.410683684,1.0281079216,-4.8761031125,-1.4901480587,-0.0901817589,-1.6020875547,1.2206857286,-2.2931391173,-0.4238995949,-1.6366655132,0.0997775137,0.4515326332,1.7644450725,0.1954237825,0.0998678085,-1.3871992785,-1.2099727116,-1.9634753545,-0.8932942187,0.0096451231,-2.1330194609,0.1646177398,0.2633231357,-0.3358984361,0.3424464369,0.1007995381,0.6984765707,-0.2774617896,-5.0529745986,-0.697920734,-4.3253990731,-4.2698479285,-0.5554675708,-4.422781772,1.1458229585,0.5895132568,0.8688220844,-5.0843965256,0.3997803968,0.7285736786,-0.2331549362,0.0565384475,0.7673449381,-0.6091353236,0.4406751636,0.7977354763,0.1783902354,-1.2144198631,-4.2729859568,0.8079070673,-0.5655085352,-0.3124559077,-0.5908953599,-4.9077985909,0.639407741,-1.2447486802,1.0626907082,-0.5962216254,-4.4935921152,0.5691205372,-5.4194300197,1.0322758855,-0.2603882063,-0.1925773573,-4.5446566138,-5.5152298918,-3.0586555789,-5.7158986914,1.1998961143,-1.2775559209,-0.9406840366,1.0802977926,-5.3217034232,-5.6075431412,1.1410929582,-0.864004511,1.2603463379,1.0073271656,-0.7077172051,0.3338697103,-1.3048997336,0.3780499664,-1.0813097395,-0.2033592148,-0.2048986621,-0.0400438639,-5.05562488,1.3954951406,0.444462231,0.9644171273,0.0919226072,0.1026693254,0.8349864593,-1.7286934387,1.7952299289,-2.307974625,-0.8004821517,0.1666048265,0.3103918264,-1.2910474533,-1.5964199924,-1.3701361441,0.3471774382,0.1529911654,-2.1518150889,0.8823143192,0.7458813273,0.6204639378,0.4652014704,-0.2322915974,-4.0367390562,-0.758388468,-1.1996288534,-0.4796965292,-4.0733848361,-4.4870128232,-5.6691229822,-0.8352315835,0.5003732919,0.2603620583,-1.7094278205,-5.4674984396,-0.6105164208,-0.7155615876,0.8628385357,0.3890530748,1.4762940307,0.5029325032,-0.5898754698,0.9439921013,-0.3455078585,1.3892224398,-3.9391803809,-0.5741648386,-1.8248797172,-0.1440625319,0.3195799137,-0.5504680104,0.7537975648,1.2887569791,0.2095562715,1.4500171952,-4.4456761138,-0.932629968,-0.6454554529,-1.5923637094,0.2847292703,-0.1911919811,-0.7982898833,-1.6783420749,-0.6645555603,-2.6607916376,-1.0340567306,0.8756248436,0.0308034032,0.9632908715,-1.6729467285,0.1496363391,-0.9105535939,-0.0788728783,-5.1473813177,0.2889003496,0.8368868302,-0.8894209268,-0.3206206464,0.9613288026,-0.3776248792,-1.3342564234,-0.6795032057,-0.2366043296,-2.1566132565,-4.0272681576,-1.1004304098,-1.3190059084,1.1333189972,-0.3774911768,0.80872145,-1.0481824392,-1.2787313902,1.2362939096,-0.0952782085,0.4244745366,0.3138301028,0.0438542978,0.8616657581,-0.1105878736,-0.7399199339,-0.6710665391,-1.6584623801,0.6517275835,0.6208844369,-1.892750125,-1.1146609464,-4.7167627906,-3.8976265614,-2.3855153672,0.0552135073,-4.5378906066,2.1601230211,-1.2862317946,-5.4131708314,-5.381027259,-0.2870558613,-4.6713121082,-5.4866428172,-4.2625524774,-4.1759592627,-0.5003158145,-1.0278916314,-5.1866872687,-5.1562099968,-3.8656383175,-5.7922741805,-0.5523817742,-4.1957320307,0.6617495932,-4.9456964478,0.5812845038,0.8184345883,-4.3980413084,-0.786762176,-4.8026454543,-5.0313202917,-1.3917988315,-0.7789293659,-5.6976852826,1.7579013898,0.3516087353,-5.5783720549,-5.375234356,-1.7234494148,-4.3398988671,-4.4979590613,-4.5944808977,-5.5445274947,1.2609821309,0.2608147646,-4.1751369289,-5.6174893923,-4.4890956585,-5.6107648917,-0.4215592221,-4.7049235036,0.3501784294,-5.0493508126,0.6279790584,-0.0166253278,1.3151428287,0.2696412733,-1.0091001662,-0.2875054851,-0.0005612565,-0.4600782161,0.1854237243,-4.1583856726,-3.8738289984,0.1361750239,-5.5534582782,-1.0923918455,-1.9293952374,-0.9517953375,-2.1499596001,-1.0797041916,1.6987563275,-4.1120541476,-0.5391771491,-4.0306357405,-4.0393233896,-1.5846208691,-3.9730250606,-0.3287553934,0.20992521,-1.1529255705,1.6541014918,0.7116074016,-1.6293880397,1.4537362994,0.9581159591,-0.788019112,-5.1617855222,-5.5517726943,-0.6346964253,0.3517499937,0.5267325832,0.0875790154,-4.2911741966,0.453423609,-0.9931821459,-5.1827459212,2.3698876557,-4.9042305993,0.3218454659,-5.2247092295,0.5031764837,-5.3377358597,-0.0372186057,-0.6314183091,0.1503702861,-3.9362763137,-0.8663050623,-5.4831495167,0.3392161107,-1.0443556681,-0.5034883279,-0.3109295231,0.932644751,-0.3038307468,0.1808755571,-4.3862721358,0.0777243149,-1.330328152,-3.8574989592,0.3445389843,-0.8573049166,0.9566595726,0.7212319101,0.4391493609,-2.6021474501,1.3161187833,0.1680961255,-0.1364045826,0.4309110021,1.4054280921,0.8381094708,-1.2226860038,0.1062824916,-0.5274932854,-0.144777377,-1.3858753321,-0.4332394329,1.5457233375,0.552476619,-0.3384981309,0.4635115094,-0.6319618226,0.6517448721,-5.0078502556,0.6594166159,-5.0327866063,-1.3360163078,-5.4821342025,-2.0351123112,0.2465474766,-0.0328209755,-0.8029685241,0.6363090152,-0.9479436723,-3.9369033716,0.5766767667,0.2894380384,1.5930675702,-0.0663911277,-0.7350698809,-0.7226798966,-0.0870234337,0.8320795497,-2.4884335334,0.7092436234,-0.621240202,-0.3563075358,-0.6368162331,0.5779233282,-0.0435951034,-0.5613519786,-0.9446556919,0.8762586,-5.2626403076,-5.3685240673,-0.6385397842,-0.0887425047,0.2546505306,0.0807301483,0.127438838,-0.7326388327,0.444363107,-1.5852654125,0.5698419323,-0.4324670895,0.292127361,1.0294080432,-2.3406567407,0.1455878915,1.019334697,-1.3123297895,-1.7701798784,0.8716334502,0.2280548905,-5.2532745346,0.9288483735,0.0075494544,0.5919627854,0.2937206446,0.697162687,0.9898901769,-2.3482987655,-4.5255328401,-0.0738567003,-1.3636357531,-0.2982297865,-2.28635848,0.8957446744,0.2570123956,0.1075919592,-0.7738422408,-1.3046272017,0.5475713753,0.9903246844,0.8787692714,0.3438324285,-0.1838582665,1.2279376693,0.880519671,-2.5374828243,0.3680508206,-0.544103213,-0.5230837772,-0.2178620671,-4.531613244,0.9569928755,-4.7268987437,0.6770488014,-0.7845740045,2.0359200662,-1.934507846,0.8119880576,-5.0395126124,-0.8250172728,-4.278732573,-1.000415577,-1.964968407,-1.7788358505,-0.2085399251,0.2884963205,-2.1423600812,-5.5969495977,-3.874593311,-0.7264490461,-0.3224276151,-4.5027750973,-0.2359459351,-4.2401091681,0.9702509247,-0.6842650208,-0.0752459388,-0.0228610853,-1.9064531178,0.1936020255,-0.9689536155,0.2842229534,0.426269911,-1.6773341285,-1.0540113424,1.5160959935,-2.2661719875,0.8605235596,0.4445081574,-0.6810207479,-1.555894016,0.6777265461,0.1384747038,1.6620031965,0.2544553172,-0.8101037901,0.2537353172,-1.9066303053,-0.6870676012,0.512047574,-1.0347682903,-1.3916078935,-0.342775128,0.3889937091,0.3637495658,-0.2948138192,-0.2064972888,-0.0642032614,-2.0023670116,-2.3964892544,0.9276472264,-4.6428982338,-1.5152444273,-0.5234551958,0.0727261891,0.0478505654,0.2576778581,-0.2910667452,-2.0438671618,0.2412192983,-0.324437479,0.3299554438,1.1303962756,0.0467211041,-0.5668022325,0.9526348661,0.2998902304,0.8782965514,-1.3084101485,-1.9136625316,0.1744041687,-0.7396403283,-0.545719613,-0.1894405463,0.0680453959,0.9839306169,-0.7377870726,-0.5966576195,-0.5947785585,-2.4017325813,-1.1441204759,-0.1698314504,-2.270692723,0.4724359145,0.0156599748,1.2266079913,-1.1868001075,1.4464391166,-1.1884435494,0.1500468851,0.48139522,0.6431306389,-2.5544762223,-1.2759871744,-0.2588863802,-1.3722464151,0.2242982896,-0.6133739997,0.4670220827,-4.0582426461,-3.9188435851,0.7561006247,-5.7852074896,-5.481936891,-2.0869936579,-0.9350870196,0.1132193813,-3.8669084085,-4.7165178271,0.9260824498,-4.461099488,1.1944060177,-1.7494288657,-1.245655769,-0.9606947563,1.4240561456,0.1379843504,1.4610140883,-4.7183923978,-2.5658417463,-1.189272597,0.0439079798,-2.8072301721,0.1721751732,0.9120260939,-4.0582353353,0.6372900545,0.1445829376,0.7731762048,0.4306986137,-4.1123898318,-0.1650668462,-1.9951066121,-0.8657057638,0.7895876493,-1.5035306396,1.2938536212,-4.545528867,0.7946341919,0.3601353105,-5.7852719112,-4.7021166248,-5.8016458735,-5.0903831201,-5.3885321205,-0.0534574223,-5.8054876066,-1.1537492189,-2.1457947582,-5.7948814294,-5.5960411441,-4.1365242856,-0.8106037931,1.1249475811,0.2453437944,1.4239259686,-5.7496528375,1.4715585831,-1.5072615467,-5.0292166374,-4.6237337536,-4.0420488557,-0.3738822277,-5.1969962932,-1.5471591049,-4.7790680987,-4.5120772522,-2.4722576899,-4.7660851201,-1.3702990949,-4.9471298277,-5.0729423169,1.4808470588,-0.8231602473,-1.7172905404,-5.5337604418,0.8422900894,0.4739909982,-0.2716873491,-0.0212060127,-0.3225015367,0.0039322043,0.8285377516,-1.1417234273,0.2885057706,-0.5589466934,-4.6550313902,-0.6421913037,-0.6972490856,0.469282019,-4.8313490277,-4.8432933285,-4.4040142545,0.5067770703,-1.0257195008,0.5506492639,-0.632711925,-0.5423061629,-1.4968542956,0.957120078,0.2285235429,0.8281803084,1.4687882949,0.594998577,-0.6507744079,-1.0699090428,-0.6208102664,-0.0300987808,0.8954481571,-5.2813267751,0.6132059409,-1.5818343556,-0.3952893485,-0.068717059,-4.053090134,-1.4645645035,0.0456334799,-0.7338698696,-0.4247236945,-4.2785097905,-2.4175694215,-0.2375045324,-0.8135031792,1.2078539242,-0.5719686645,-0.1764153226,-2.5950350811,0.6758238732,0.3816369382,1.4016189889,1.2818306261,0.2866200882,-0.4670780351,-1.4088016327,-2.6551702414,0.579176856,-2.4094736324,-5.0065107424,1.2443523896,0.0588227097,-0.0350825557,0.054447024,1.3768508026,0.0504260133,0.9573088727,-1.3475759922,-0.1896808643,-4.9354346594,-2.0066094095,-0.6975276099,-0.7853958685,-0.8135862838,0.1112675454,-0.3904535419,0.3942855043,1.0827225129,-0.8656366445,-0.0696456743,0.9396676806,0.5964428069,0.958869169,-0.857504172,0.21103043,0.2260055382,-1.295870422,-3.8942780755,0.473111123,-2.4926253659,0.0933312133,-1.5534564773,-0.6566014856,-0.3374102897,0.646887306,-1.1611355299,1.4189118487,-5.8347876727,0.6954767694,-4.9447205033,-0.5086844896,0.0680827907,-5.8290192644,-1.402359975,-4.3941000742,-5.0372665764,-5.0584795185,0.8779286242,-4.9930588717,-0.5963711984,-5.6510752836,-5.547291015,-4.1888102533,-4.0727316362,1.140730608,0.0604147338,-0.0253479124,0.8831008327,-0.2306711718,-0.2656258713,-0.1932595644,0.780099595,0.8133779385,-1.4994092187,0.1567778321,-4.0801975855,-4.241966037,-0.6371783222,-1.9549323012,0.6891185437,0.9742023981,0.8517769563,-1.717506886,-0.2658075647,0.6250658071,0.2667581877,0.8080942579,0.6701956625,-0.7632095331,0.0087054882,1.1925214953,-0.5661134617,-0.1413728748,-4.5956272282,0.1138096057,-0.0212397177,1.0166359822,-0.3071154329,0.3239794893,-0.0258844557,-0.1907439709,-1.9117434256,0.5810043536,-4.2805283191,-0.1755989647,-0.5781718535,-1.4212427204,0.3509641341,-0.9099264812,-1.0705223086,-1.5590295618,0.4613376682,0.6285065253,1.685204539,1.1436130327,-0.5549950296,-2.0306619843,-4.1568003382,-1.6743192962,0.7602200562,-0.2150970349,-2.6057328791,0.1041595653,-4.7568640983,-3.911781096,-2.3772563428,-4.7247674168,-5.6947677819,-4.3589188849,-0.0357488675,-1.1259056773,-4.6047716169,2.0530850625,-5.0403075715,-2.3155151002,1.5832829007,-4.586493031,-3.9416693393,-5.8328197232,-1.5228002974,-0.2094156357,-4.7040985774,-5.6808308277,-5.2758669261,-4.0354880391,-5.3146132396,0.8157564259,-1.6535027686,-4.8987459163,-1.6889579988,0.9906926449,-0.0060873883,1.221016458,-0.6575406725,-0.3030909706,1.0746066093,0.1975624654,0.5228019726,-0.4769225798,-1.930566726,-0.8303482276,-0.7275113736,-1.0504130158,0.2611964515,-0.4367120231,0.395364453,-2.2573102013,1.436814394,-0.7537515296,-2.4089949892,1.1835438611,0.1390278159,-0.5978342127,0.2022015522,-0.8587885868,-0.0078697229,-0.7511036625,-0.8908360429,-0.2802026604,-0.5971527326,0.7268135387,-0.9997018079,-0.4306669772,-0.0103753033,-2.5175848735,-1.9649558893,0.0694400807,-5.0156914549,-1.9485096463,0.1058906276,-0.0258342679,0.2843583036,0.56160203,0.9352502025,-1.9986762674,-0.1920086309,-0.3712273998,-0.1003110612,0.8435016196,-0.7340904237,-0.4757088472,-1.161394645,-0.1107011047,-0.935113247,-1.4601378932,-1.2435071667,0.7777013606,0.9555224401,0.0731774488,-0.6529347359,-0.7072580142,1.0582703519,-0.4156959136,-0.5863235868,-0.4038570522,-5.4595695164,-2.4418016318,-2.7587004201,-0.9918383433,0.8361468649,-0.8363553462,-0.0706273562,-2.2725635056,-0.3696844886,0.7081092749,1.0105077198,1.194014688,1.4647492686,-0.1973220521,1.044197267,-2.040633596,0.4932402756,0.5717095026,-1.1165127271,-0.247950882,0.1626021822,1.586713065,0.1115888721,-2.2640321384,-0.9058680583,-0.7041581123,-2.2463353127,1.1520430759,-5.4540197417,-2.4717108742,0.4742023839,-5.7668572652,-1.4112468602,-1.7456230763,-1.8782219336,-2.4306718928,-0.5001342706,0.1885940698,-0.3741766572,-2.3920764402,0.1252681619,-0.5426165192,1.6383366655,-5.5486120265,1.2207186896,-3.9080589787,-0.994485846,-0.4645029414,0.4714126249,-1.3753463623,-5.4551992649,-4.0299505613,-5.6281027899,-5.2063262618,0.1391583928,-4.1410222126,1.3574134097,-2.228794092,-4.1532830871,-2.60454892,0.1788582039,-3.9506234208,-4.1123186567,-4.1058065149,-5.6500653946,-0.7219299027,-0.0589894362,-4.6481208777,-5.0357199701,-5.1609285527,-4.6518920053,0.7491011059,-4.4726183553,0.3936683644,-5.5601761879,0.5940471664,-0.8767584831,-5.7235624,0.5588033684,-3.9128049908,4.9723202824,-1.852737471,0.1997023555,-5.8207292601,-4.2651634313,1.27948973,-4.4376797009,-1.6581354533,1.4387756939,-5.0048118125,-4.2704884234,-5.2870902339,-4.9161684195,0.9854666899,-4.76683622,-5.6702404333,-5.137998526,0.1684842061,-5.0997685237,-1.0262800196,-1.0335452904,-2.1247790151,0.8123505885,0.3173589206,-4.8231011841,0.6512297227,0.8380079465,-4.4025597573,-4.2060430138,-0.3604615626,-4.7151053353,-2.0762827329,-4.1620957348,-4.5606776034,1.2100146868,-0.3024840283,1.4722269724,-0.1171249036,-0.8500304368,-4.7252502103,-0.9208927788,-1.8263528405,-1.1254786679,0.1464023517,-2.0124930412,0.5711918992,-4.1791499416,1.1593628139,-0.7041025697,-0.0684797667,-4.6481405409,1.2835085126,0.4136231759,-1.1696905227,-0.6128233775,-1.0737276509,-4.5530990026,-1.8043093636,0.3680815065,-3.9518012065,0.99529923,0.5962989425,-4.1749846974,-1.6274002772,0.2323821447,-4.1672113403,-5.3831617789,-2.3374907178,-2.4419452902,0.6932480908,-0.6729520283,-1.4449359639,-0.4747369078,-5.3868042662,-2.55539992,0.2442808321,-5.8087668262,0.1775908822,-4.7823462707,1.1765006178,0.6906433447,-4.5064345035,0.0335689886,-0.6440933056,-0.7643875363,-1.6650574222,1.0660843598,-0.4159057369,-5.5513355159,0.6053255683,-5.7734440347,-5.6554551246,-1.5472107692,-1.3141892567,-2.277306442,-4.3228929308,-4.4708101777,2.9611213742,-4.2141523573,-4.1924854633,-4.3647760879,0.9249733098,-0.7590429537,0.7249946102,-0.5359174027,-1.4655754055,-4.3624289322,-0.035413825,0.5640956006,-0.4180785882,-0.2813410456,0.1969004041,0.7440640855,-1.6413601182,-1.6649883566,0.2366015349,-4.5477994542,-4.7060928128,0.4470695452,-0.9442775486,-0.6128518135,-0.3056880292,1.0051766916,-0.6467938573,1.4178308434,0.3461751183,0.1294945875,0.0959915987,1.1907424642,0.7308119253,-1.859755629,-0.1764751947,-0.4646368638,-0.5235863924,-0.8837096377,0.5811202371,1.1382080256,-0.767686746,-1.0445996308,-1.6109069038,0.29853415,-0.9306292,-2.2278201657,-0.3293894279,-1.8943806888,-5.1918334503,-2.2166785687,0.3434447585,-1.1984093134,-0.3362156605,-5.78509248,-4.3127379026,-5.6200156181,0.082135693,-0.5151732722,-4.0555291158,-4.5446024085,0.9300868652,-0.1230235108,-1.2930305839,1.1534630824,0.3479120575,1.482001719,2.3807939163,1.1349047238,-4.9803004043,-0.7809311815,-2.4369451845,-2.0206023172,-1.7132179577,-0.8202314128,-4.8591582654,-0.9689861611,1.2344366791,-5.7792856709,-5.2050087222,-5.6426585084,-4.4136621818,-5.446848201,1.7462310125,-1.347643496,0.3059786239,-5.6083338249,-4.746034034,-5.3192834476,-5.4847808112,-4.8078916897,-0.5451987491,-0.8367090453,0.0588731489,1.1054055556,0.4844522201,0.2079335693,0.784343756,1.8759498886,-4.4029528579,-1.3140256957,-0.0906647382,1.5194962948,-2.2157691155,-3.9184385362,-4.5112006426,-5.7343886149,1.3784863839,0.0270248397,-1.3133844055,-2.5356117498,-5.7915293765,0.8031833464,-0.1601215522,1.8093424663,-0.7616316219,-0.9550245032,-0.4564299408,-2.9398999221,-0.1095078265,-1.2014646618,-1.694798221,-4.1182534436,-0.9830050246,-2.852232382,1.39785854,0.7337430617,-3.8823764912,-0.8007051729,-2.8259172076,-1.0203352708,-1.10192315,-4.6119076068,-3.8677629367,0.1402068255,-3.8789403606,-1.0987592769,-0.5346908956,0.0978370672,-4.254599284,0.088000207,0.9371855941,0.7009804059,-0.3291520132,-1.0985867779,1.0479716861,0.2088034387,-0.3289613662,-0.4239699447,-5.0199595917,-1.6148848073,1.3056936876,0.5438972001,-4.2682566881,1.0263790972,-5.1594535471,-2.3388124221,-2.3605755862,-0.0402514391,-5.2699434903,-2.2050064998,1.4358293395,-3.8574700841,-5.0197624078,-1.793641956,-5.4129942319,-1.7208023632,-4.2633866592,-4.1070849552,0.5924179079,-5.2478851023,-4.9060025364,-4.3368681234,-4.7475987566,-5.037115762,1.3142219383,0.3574925751,-1.6484246265,-1.2973782339,0.014955934,0.5362132639,1.790298708,0.7107364001,-0.0282341779,0.6712138733,-0.2296721415,0.7878684527,-0.9000881269,-4.2678042122,-1.5563061035,-1.2846763637,-0.4470287204,0.108049161,0.9930707749,0.6403585656,-5.4660556176,-0.6828125891,-4.0059026614,-1.7167320275,-1.3185021058,0.5668392044,-0.3839945915,-0.6176486449,0.1678854931,1.0655326004,-1.1338274598,-4.706033536,-0.2433421929,0.0239647392,0.4715788284,0.3928571256,-4.3461250841,-1.0057503944,-0.0289597298,0.6411243527,-4.9824301024,-4.8845307309,-5.4655592659,-1.9775040844,-1.0954745225,-3.0874695283,-1.4470997578,0.1280879869,-4.0001262245,1.1582588704,0.4115259974,-0.2933222942,-4.2709542592,1.5869814195,-5.7717223579,-1.9651331668,0.6282634191,-2.0052197954,1.6084657228,-4.7747617464,0.5696917668,0.0102864425,-0.2988232065,-0.7250608736,-2.2341371764,-5.3833334704,-1.8928833096,-0.0767816684,-5.680035155,1.3718347056,-0.1819984314,-5.6703297535,-0.6567668111,-0.2799622015,-3.8808240427,-4.4235877332,-1.0839676276,-5.1616193855,0.7240505187,-0.6009990272,-5.843910571,-5.3925647824,-4.9122646476,-0.831177744,1.0363182638,-5.522135271,0.2746644076,-4.641319386,0.3968702932,1.2031631721,-4.9970647165,-1.4538365877,-1.728689945,-3.9144203668,-3.9364165109,1.0616171746,-4.0510025755,0.8015013075,-0.6636224936,-5.2988953807,-4.7090368305,-0.6565074205,-4.1914824331,-5.6054048459,-2.300478884,-5.7279986337,0.9419455126,0.977418599,-4.6769709112,-4.059921455,-4.484025374,-1.9948200045,0.1801038979,-4.0925796768,0.6808549512,-5.2012378154,-0.4668870362,-5.6228252454,0.2631000066,-0.6241038361,-4.020506986,0.4258570254,-4.1950902626,-0.1499654865,0.8933078007,-4.7578377379,2.08974573,-5.0523054211,-2.3015672831,-0.3391433583,-4.4042961554,-0.8203465919,-5.3394598764,-4.8648578585,-5.8037766712,0.6440792188,-4.0565161105,-5.7246831695,-5.086941741,-3.8950313467,-2.0515303437,-5.3014794667,-0.251253481,0.8828549648,0.0342987801,0.2703622347,-4.550386542,-1.5475173839,-4.7558301457,-5.1189117931,-4.3133582874,0.1224549781,-5.6809520495,2.0063357325,0.4484374619,-4.3146481777,-4.3404867514,-0.7631111317,-4.6901181924,-5.8099004823,-5.7072099859,-4.7030212324,0.2884662787,-0.94021327,-4.705331171,-3.9357725908,-5.1275667322,-4.4069133934,0.3563217397,-4.8252679739,0.1672415996,-3.9318645929,-0.3020694636,0.8275957153,-0.7238078063,0.7179076241,-1.2209445395,-0.5047483685,-0.1259499094,-0.240459823,-0.1781852532,-5.6516183185,-2.4678896192,1.3260721278,-1.8752223335,-0.6904312645,-0.0979384586,-0.4975783592,-1.6443798061,0.0018421146,0.4594935265,1.8353199449,0.4435952227,-1.6944615628,-0.6317848331,-4.6583612756,-1.2958835848,-0.8937266017,-0.0242769147,-1.8775338165,-0.0992220055,-1.0922890015,-0.3444496067,-0.8401054749,-1.7477339527,-0.0431783085,-0.7447956789,0.8275969515,0.7731418215,-5.7868768177,0.8510216893,-4.729308915,-2.0422607324,-0.0422523992,-5.0076538054,-4.2867395081,-5.3228904095,-5.2086046901,-3.88974009,1.7818648884,-2.3446782832,-1.775078803,-4.2380073694,-5.6228558438,-3.8570685188,-2.2553251829,0.8925853808,0.5080874761,0.0902085251,1.1493139818,0.5363156365,-0.8842860663,-1.1357151985,0.5234203972,-0.1281433104,1.1246995995,0.8071768632,-4.1648912528,-2.2646540721,-1.6538016109,0.9619980754,-0.7496115809,-0.1513697407,-0.250369674,-2.1298861895,-0.526937033,-4.0098367409,1.1814887636,0.5421554135,-0.5253118747,-0.5078063549,-1.3861918877,-1.4387640999,1.4865848369,-0.9124681954,-2.2625706485,0.240060246,-0.365143882,-0.2297438842,0.2511014689,-4.7147309546,-4.9280997381,0.4813310644,-5.4984076196,-0.3892909399,-5.4172955863,-0.5784065055,0.1987322682,-4.0632623219,1.846852571,-0.3336182149,0.411283414,-4.675750109,0.9664415808,0.4688037695,0.9938749393,0.4891728361,-0.4063056181,-0.3439857603,-4.2856690706,-0.4948594618,-4.2639627561,0.8558681838,-4.3944456995,-0.4399826701,0.6074160953,-0.5251196352,-0.059050877,-0.9407455751,-0.5160552266,0.9883032977,0.7344758731,-1.6774623486,-5.2320670539,-1.9599789912,-5.4162437703,-0.9502399972,0.6349266043,-1.7049792907,-1.8808350411,-1.4225415367,0.5473758934,0.1948825479,1.5998845727,0.7755269577,-0.3397805919,-0.0628520634,0.6449734365,-4.350866088,-0.8161770356,0.1452878601,-4.669475364,1.1108641885,-2.1825071395,-0.3079304047,-0.6330352648,-0.6390818628,-0.470392249,2.8560582698,0.7123049861,-0.8378409554,-4.138505796,-4.9707992656,-0.5794286993,-1.4032007631,-0.4839338885,-0.7539025405,-0.7005054188,-2.2941128988,0.1809925722,-0.5369831771,-0.6822789375,-0.3497520586,-1.9338085537,0.0834633722,-1.953415303,0.8475556307,-0.1985293633,1.0502598268,-1.1527912698,0.5531795334,-0.0242584159,0.7793776185,-0.3309489362,0.3284947072,0.4407534127,-0.135887617,-1.319690586,0.6889091125,-5.4068204566,0.3259665065,-1.29395272,-0.5038971755,1.678741841,0.859400174,-1.9677716877,-0.7972887448,-0.0534654175,-1.1207787523,-0.6778741567,0.715047312,-0.9481432316,0.2235681933,-0.1824694699,0.4559402424,0.6772849187,-0.0065098306,-4.8047870839,-0.6863836285,1.901962851,-0.41459768,0.3628036609,-0.8476268583,-0.5103327119,-0.9340588138,-1.0472546608,-1.7219373697,-3.8835876862,-4.6769334774,-1.5334234341,0.5765615181
